svm_type c_svc
kernel_type rbf
gamma 0.0078125
nr_class 19
total_sv 7761
rho 0.700187 4.19147 -1.56727 0.302985 4.19079 -0.626343 -8.12038 -1.78306 -1.87422 1.73477 0.746895 -0.58508 -2.36411 0.846292 2.11719 -0.618248 -1.55752 -1.38079 -0.182786 -1.29964 -0.167043 0.0030254 -0.983069 -1.23571 -0.517452 -3.19811 -0.884466 -0.774355 -0.1601 -1.24351 -0.484574 -0.247212 -1.14128 -1.19447 -1.63451 -0.0060597 -1.64027 -1.64343 -0.0902091 -9.12635 -6.90194 -2.02676 -2.78776 -3.32354 -0.523827 -3.68546 -0.256241 -0.24584 -2.69266 -2.22691 -1.51396 1.04839 0.475008 0.953649 -1.64467 0.393885 1.61379 0.772891 -1.67907 0.680376 -4.59987 1.27854 -3.50034 -1.76202 -2.72469 -1.89466 -0.578199 0.270446 -7.3799 -3.63627 -2.63937 -0.135396 -0.801354 -0.65829 -2.2666 1.4487 2.23728 -0.183743 -1.81927 -1.63463 -0.178102 -7.85611 -2.42264 -3.3449 -0.714148 0.318037 -0.126589 -1.45487 0.824575 -0.966001 -4.27295 -1.652 -1.83109 -2.96455 -3.72076 -1.96679 0.487376 -2.70253 -0.160789 -4.24649 -1.77933 -1.34983 -1.77456 -2.59702 -1.71624 3.01667 2.51619 7.22959 5.93335 3.66668 0.485565 3.94555 3.09658 2.65365 0.031117 -1.58851 3.08178 3.32517 2.69546 1.85635 1.38301 2.91593 1.88383 2.68973 -1.03724 -1.45649 1.22144 0.782361 1.67152 -1.33423 -0.961095 -1.68262 -2.32669 -4.49245 -1.50895 0.265683 -1.03191 -2.2967 1.13787 -1.88705 -2.98209 -2.32933 -1.73484 0.984822 -2.65355 1.65305 3.11828 -1.33367 -2.13991 -1.51393 -1.42779 1.24787 0.949269 -0.498364 -1.5158 -1.69308 3.24183 -0.146213 0.267034 0.497275 -2.33587 3.64953 -0.223134 -1.06021 -1.6166 -3.67555 -0.66127 -1.62414 1.14226 -1.43585 -2.16857
label 4 17 12 13 2 7 5 15 19 14 9 1 3 16 18 10 6 11 8
nr_sv 471 1409 407 78 657 794 374 490 394 431 568 342 470 144 323 145 166 97 1
SV
32 28.40911118266624 0 32 32 0 32 32 32 32 32 32 0 32 0 32 19.85810510154731 0 1:1.2955535 2:1.0080122 3:-0.84399553 4:-0.80470641 5:0.59396222 6:1.3413299 7:-0.21001975 8:-0.022364874 9:-0.43561388 10:1.0553848 11:-0.71625974 12:-0.78681933 13:-0.10530481 14:-1.0381539 
32 0 0 32 32 32 32 0 0 32 0 32 0 32 8.354855358626887 0 32 0 1:0.37057109 2:-0.29339837 3:1.3123406 4:-1.2601043 5:-1.1909476 6:0.56574729 7:-0.21001975 8:-0.022364874 9:-0.43561388 10:-0.43658878 11:-0.71625974 12:-0.42313516 13:-0.10530481 14:-0.24008921 
32 32 0 32 32 0 32 32 0 32 32 25.11005580454021 32 32 10.45893860403845 32 32 0 1:-0.73940783 2:-0.85114578 3:0.82158823 4:-1.1137264 5:-0.99460755 6:-0.96650121 7:-0.21001975 8:-0.022364874 9:1.4676691 10:1.0553848 11:1.4724637 12:1.3952857 13:-0.10530481 14:-0.92414464 
32 3.92624935218751 0 0 0 32 32 0 32 0 0 32 0 32 32 32 0 0 1:-0.55441134 2:-1.2229774 3:-0.97783708 4:1.2933768 5:-1.6728733 6:-0.98541786 7:-0.21001975 8:-0.022364874 9:-0.43561388 10:-0.43658878 11:-0.71625974 12:-0.42313516 13:-0.10530481 14:1.5840586 
32 0 0 0 32 0 32 32 32 0 0 0 0 1.236836829715317 32 0 0 0 1:0.37057109 2:-0.29339837 3:-0.65066885 4:0.18741047 5:-1.7085715 6:-0.96650121 7:-0.21001975 8:-0.022364874 9:-0.43561388 10:1.0553848 11:-0.71625974 12:0.12239109 13:-0.10530481 14:-1.0381539 
32 32 0 0 32 32 32 32 0 32 32 0 0 0 0 0 0 0 1:-0.73940783 2:-0.85114578 3:0.82158823 4:0.70786523 5:-1.4586841 6:1.0764968 7:-0.21001975 8:-0.022364874 9:-0.43561388 10:-0.43658878 11:1.4724637 12:1.3952857 13:-0.10530481 14:-0.24008921 
32 32 0 32 32 32 0 32 0 32 0 32 0 32 0 4.360488644517868 0 0 1:2.2205359 2:1.9375912 3:1.178499 4:-0.77217798 5:-1.0124566 6:0.24416427 7:-0.21001975 8:-0.022364874 9:-0.43561388 10:-0.43658878 11:-0.71625974 12:-0.96866141 13:-0.10530481 14:-0.24008921 
32 32 0 32 32 0 13.83957957124569 32 32 32 0 32 0 32 0 32 0 0 1:0.92556054 2:0.63618063 3:-1.1562925 4:-0.056552695 5:-0.70902197 6:-1.2691676 7:-0.21001975 8:-0.022364874 9:-0.43561388 10:1.0553848 11:-0.71625974 12:-0.96866141 13:-0.10530481 14:-1.0381539 
32 16.08580085649924 10.28368490684601 32 32 0 32 0 32 23.2215063136914 13.28705610503037 0 6.602270117292212 0 0 21.69531692319768 0 0 1:-0.73940783 2:-0.47931418 3:0.67287539 4:-1.1299906 5:1.7184554 6:-1.5907506 7:-0.21001975 8:-0.022364874 9:-0.43561388 10:2.5473585 11:1.4724637 12:1.3952857 13:-0.10530481 14:-1.0381539 
32 32 32 32 32 0 32 32 32 32 0 32 0 32 32 32 6.515659838666052 0 1:0.37057109 2:-0.10748257 3:0.19699432 4:0.78918628 5:-0.17354902 6:-1.4205008 7:-0.21001975 8:-0.022364874 9:-0.43561388 10:-0.43658878 11:-0.71625974 12:-0.96866141 13:-0.10530481 14:-1.0381539 
32 0 0 32 0 0 0 31.55057388586925 32 0 0 32 0 32 0 0 0.03860759189715669 0 1:0.1855746 2:-0.47931418 3:1.386697 4:-0.49568639 5:-0.17354902 6:-0.96650121 7:-0.21001975 8:-0.022364874 9:-0.43561388 10:1.0553848 11:-0.71625974 12:-0.42313516 13:-0.10530481 14:1.9260863 
32 32 8.26557839887505 32 32 32 18.88857053405827 32 0 32 32 0 32 32 0 0 0 0 1:-0.73940783 2:2.6812545 3:0.24160817 4:-0.12160954 5:1.2365298 6:-0.96650121 7:-0.21001975 8:-0.022364874 9:-0.43561388 10:1.0553848 11:1.4724637 12:1.3952857 13:-0.10530481 14:-1.0381539 
32 0 0 32 32 0 32 32 32 32 0 0 0 0 0 0 0 0 1:0.00057811402 2:-0.29339837 3:0.3010933 4:0.75665786 5:0.25482935 6:-0.24766858 7:-0.21001975 8:-0.022364874 9:-0.43561388 10:1.0553848 11:-0.71625974 12:-0.42313516 13:-0.10530481 14:-0.24008921 
32 32 1.402397301048188 32 32 0 32 32 0 32 32 32 32 32 0 1.850223238501417 0 0 1:-0.92440431 2:-0.29339837 3:-2.7921337 4:-0.54447903 5:1.0401897 6:-0.68275149 7:4.7608618 8:-0.022364874 9:1.4676691 10:1.0553848 11:0.37810197 12:-0.059450996 13:-0.10530481 14:0.55797547 
32 0 0 32 32 0 32 0 32 32 32 0 32 0 0 0 0 0 1:-0.55441134 2:-0.66522998 3:-0.73989655 4:1.1795273 5:-0.066454425 6:-0.68275149 7:-0.21001975 8:-0.022364874 9:-0.43561388 10:1.0553848 11:-0.71625974 12:0.84975942 13:-0.10530481 14:-0.24008921 
32 32 0 32 32 32 32 32 0 32 31.57340236476375 0 32 32 0 0 0 0 1:-0.73940783 2:0.63618063 3:1.0297862 4:1.2933768 5:-0.99460755 6:-0.96650121 7:-0.21001975 8:-0.022364874 9:-0.43561388 10:1.0553848 11:1.4724637 12:1.3952857 13:-0.10530481 14:-1.0381539 
32 0 0 12.86819680657781 32 0 0 0 32 0 0 0 0 0 32 0 0 0 1:-0.18441837 2:-0.85114578 3:-0.35324317 4:-1.2113117 5:-1.0124566 6:-1.2691676 7:-0.21001975 8:-0.022364874 9:-0.43561388 10:1.0553848 11:-0.71625974 12:1.1225225 13:-0.10530481 14:1.9260863 
32 32 9.405742409315348 0 32 32 32 18.17431583571713 0 32 32 0 32 7.732901828829722 0 32 0 0.7743373250801235 1:-0.73940783 2:-0.66522998 3:1.4759247 4:-1.1787833 5:-1.0124566 6:-0.096335395 7:-0.21001975 8:-0.022364874 9:-0.43561388 10:-0.43658878 11:1.4724637 12:1.3952857 13:-0.10530481 14:-0.69612616 
32 32 0 32 32 0 32 32 32 32 26.63511704812165 32 0 32 0 0 0 0 1:-0.36941486 2:-0.47931418 3:1.2231129 4:0.17114626 5:-1.083853 6:-0.96650121 7:-0.21001975 8:-0.022364874 9:-0.43561388 10:1.0553848 11:-0.71625974 12:-0.42313516 13:-0.10530481 14:2.6101418 
32 0 0 32 32 0 32 32 32 0 28.03098435151148 0 0 0 0 0 0 0 1:-0.36941486 2:-0.29339837 3:0.80671694 4:0.2362031 5:-1.440835 6:0.26308092 7:-0.21001975 8:-0.022364874 9:-0.43561388 10:4.0393321 11:-0.71625974 12:-0.96866141 13:-0.10530481 14:-0.46810768 
32 32 0 32 32 32 32 32 0 32 32 0 22.76895687918731 6.938004228456531 0 0 0 0 1:-0.73940783 2:0.26434903 3:0.95542978 4:1.1795273 5:0.68320772 6:-0.96650121 7:-0.21001975 8:-0.022364874 9:-0.43561388 10:1.0553848 11:1.4724637 12:1.3952857 13:-0.10530481 14:-0.24008921 
32 0 0 32 32 0 32 0 32 0 0 0 0 4.496255709922693 32 0 32 0 1:0.00057811402 2:-0.29339837 3:1.5354098 4:1.2120558 5:-0.79826747 6:0.33874751 7:-0.21001975 8:-0.022364874 9:-0.43561388 10:1.0553848 11:-0.71625974 12:0.75883838 13:-0.10530481 14:1.6980679 
32 32 0 0 32 32 32 0 0 32 0 32 0 0 0 32 0 0 1:-0.73940783 2:-0.85114578 3:0.16725175 4:1.309641 5:-0.29849271 6:-1.4205008 7:-0.21001975 8:-0.022364874 9:-0.43561388 10:-0.43658878 11:1.4724637 12:1.3952857 13:-0.10530481 14:0.32995699 
32 32 0 32 32 32 32 32 0 32 32 32 0 11.57730190084158 17.54729291807237 0 0 0 1:-0.18441837 2:-0.10748257 3:0.31596458 4:1.2608484 5:0.59396222 6:1.4548297 7:-0.21001975 8:-0.022364874 9:-0.43561388 10:-0.43658878 11:-0.71625974 12:-0.96866141 13:-0.10530481 14:-0.92414464 
32 32 0 32 32 32 32 32 0 32 32 32 32 32 0 32 3.823104146533153 0 1:0.1855746 2:0.82209644 3:-1.2306489 4:0.75665786 5:0.64750952 6:-1.4015841 7:-0.21001975 8:-0.022364874 9:-0.43561388 10:-0.43658878 11:-0.71625974 12:-0.42313516 13:-0.10530481 14:-0.24008921 
32 32 0 32 32 32 32 32 0 32 32 0 32 0 0 0 0 0 1:-0.73940783 2:-0.29339837 3:-0.97783708 4:-1.1137264 5:0.71890591 6:-0.98541786 7:-0.21001975 8:-0.022364874 9:-0.43561388 10:-0.43658878 11:1.4724637 12:1.3952857 13:-0.10530481 14:-0.69612616 
32 32 0 32 32 32 32 32 0 32 32 32 32 32 0 0 0 0 1:-0.55441134 2:1.9375912 3:0.31596458 4:0.70786523 5:1.1651334 6:-0.20983528 7:-0.21001975 8:-0.022364874 9:-0.43561388 10:-0.43658878 11:-0.71625974 12:-0.42313516 13:-0.10530481 14:-0.69612616 
32 16.26878821120456 0 0 11.89986611173587 6.872393838605761 0 0 0 20.71381692649592 0 10.44997186010121 0 2.028846683783258 13.70058097254882 0 0 0 1:-0.36941486 2:-0.29339837 3:0.3010933 4:-1.1137264 5:1.4150208 6:-1.6285839 7:-0.21001975 8:-0.022364874 9:-2.3388968 10:-0.43658878 11:1.4724637 12:-0.33221412 13:-0.10530481 14:-0.24008921 
32 32 26.10267414728763 0 32 32 32 0 0 32 32 0 0 32 0 0 0 0 1:-0.73940783 2:-1.0370616 3:0.91081593 4:-1.1137264 5:-0.95890935 6:1.0954134 7:-0.21001975 8:-0.022364874 9:-0.43561388 10:-0.43658878 11:1.4724637 12:1.3952857 13:-0.10530481 14:-0.69612616 
32 10.56735018679517 0 32 32 0 32 32 32 32 0 32 0 13.9605949834252 0 32 0 0 1:0.00057811402 2:-0.29339837 3:0.24160817 4:0.75665786 5:0.25482935 6:-0.96650121 7:-0.21001975 8:-0.022364874 9:-0.43561388 10:1.0553848 11:-0.71625974 12:-0.69589829 13:-0.10530481 14:-0.24008921 
32 32 0 0 32 32 32 32 0 32 32 32 0 32 0 0 30.17088590457962 0 1:-0.73940783 2:-0.47931418 3:0.71748924 4:0.90303576 5:-0.79826747 6:-0.98541786 7:-0.21001975 8:-0.022364874 9:-0.43561388 10:-0.43658878 11:1.4724637 12:1.3952857 13:-0.10530481 14:-0.24008921 
32 32 28.30949468479632 0 0 0 0 0 0 0 0 32 0 0 32 32 0 0 1:-0.73940783 2:-1.4088932 3:-0.91835195 4:1.2933768 5:-1.7442697 6:-0.98541786 7:-0.21001975 8:-0.022364874 9:-0.43561388 10:-0.43658878 11:1.4724637 12:1.3952857 13:-0.10530481 14:1.6980679 
32 32 32 32 0 32 0 32 32 5.246317082104684 0 32 0 32 32 32 32 0 1:1.850543 2:1.193928 3:-0.84399553 4:1.000621 5:-1.0124566 6:-1.0421678 7:-0.21001975 8:-0.022364874 9:-0.43561388 10:-0.43658878 11:-0.71625974 12:-0.96866141 13:-0.10530481 14:-0.24008921 
32 32 0 0 32 0 32 0 0 32 0 0 0 0 0 0 0 0 1:-0.73940783 2:-0.85114578 3:0.3010933 4:1.4560189 5:0.25482935 6:1.3413299 7:-0.21001975 8:-0.022364874 9:-0.43561388 10:1.0553848 11:1.4724637 12:1.3952857 13:-0.10530481 14:-0.69612616 
32 32 0 32 32 32 32 32 0 32 32 0 32 0 0 0 0 0 1:-0.73940783 2:-0.66522998 3:0.65800411 4:-1.1137264 5:-1.0660039 6:0.64141388 7:-0.21001975 8:-0.022364874 9:-0.43561388 10:-0.43658878 11:1.4724637 12:1.3952857 13:-0.10530481 14:-0.24008921 
32 0 0 32 32 32 32 32 0 22.12343984398235 32 32 0 32 32 32 0 0 1:-0.36941486 2:-0.85114578 3:-1.0373222 4:-1.1950475 5:-0.066454425 6:-0.38008512 7:-0.21001975 8:-0.022364874 9:-0.43561388 10:-0.43658878 11:-0.71625974 12:-0.96866141 13:-0.10530481 14:-0.24008921 
32 32 0 32 32 32 0 32 0 32 4.938731765665227 32 0 32 0 0 0 0 1:0.1855746 2:0.63618063 3:-0.76963911 4:-1.3088969 5:-0.72687107 6:-1.7799171 7:-0.21001975 8:-0.022364874 9:-0.43561388 10:-0.43658878 11:-0.71625974 12:-0.69589829 13:-0.10530481 14:-0.69612616 
32 32 0 32 32 32 32 32 0 32 32 32 32 32 0 0 0 0.3330980118387674 1:-0.73940783 2:-0.85114578 3:1.0000436 4:0.93556418 5:-0.4234364 6:-1.4205008 7:-0.21001975 8:-0.022364874 9:2.7365244 10:-0.43658878 11:1.4724637 12:1.3952857 13:-0.10530481 14:-0.69612616 
32 32 0 32 32 32 32 32 0 32 32 32 32 32 0 0 0 0 1:-0.55441134 2:0.26434903 3:0.3010933 4:-0.56074324 5:0.25482935 6:-0.98541786 7:-0.21001975 8:-0.022364874 9:-0.43561388 10:-0.43658878 11:-0.71625974 12:-0.69589829 13:-0.10530481 14:1.0140124 
32 0 17.21677652490003 32 32 32 32 3.840542753160784 32 32 32 32 0 32 32 32 0 0 1:-0.18441837 2:-0.85114578 3:0.34570715 4:-1.2113117 5:1.1115861 6:0.58466394 7:-0.21001975 8:-0.022364874 9:-0.43561388 10:-0.43658878 11:-0.71625974 12:-0.96866141 13:-0.10530481 14:-0.24008921 
32 0 0 32 0 0 32 32 32 32 0 32 0 32 0 32 0 0 1:0.92556054 2:1.0080122 3:-0.026074937 4:0.74039365 5:-0.79826747 6:0.66033053 7:-0.21001975 8:-0.022364874 9:-0.43561388 10:1.0553848 11:-0.71625974 12:-0.96866141 13:-0.10530481 14:1.5840586 
32 0 0 32 32 30.03344021364393 32 0 0 32 32 0 18.48634078449199 0 0 7.091764835272084 0 0 1:-0.73940783 2:-0.66522998 3:-0.91835195 4:-1.2926327 5:-0.3877382 6:0.16849768 7:-0.21001975 8:-0.022364874 9:-0.43561388 10:1.0553848 11:1.4724637 12:1.3952857 13:-0.10530481 14:-0.58211692 
32 32 0 32 32 32 32 0 0 32 32 0 32 0 0 0 0 0 1:-0.73940783 2:-0.10748257 3:1.178499 4:-1.4878033 5:-1.0124566 6:-0.43683506 7:-0.21001975 8:-0.022364874 9:-0.43561388 10:-0.43658878 11:1.4724637 12:1.3952857 13:-0.10530481 14:-0.92414464 
32 32 0 32 32 32 32 32 0 32 32 0 0 0 0 0 0 0 1:-0.73940783 2:-0.85114578 3:-0.75476783 4:1.3584337 5:-1.0124566 6:1.3791632 7:-0.21001975 8:-0.022364874 9:-0.43561388 10:-0.43658878 11:1.4724637 12:1.3952857 13:-0.10530481 14:-0.12607997 
32 0 0 32 0 0 32 0 32 0 0 0 0 32 32 0 32 0 1:-0.36941486 2:-1.0370616 3:0.76210309 4:0.073560994 5:0.30837664 6:1.7953294 7:-0.21001975 8:-0.022364874 9:-0.43561388 10:1.0553848 11:-0.71625974 12:0.12239109 13:-0.10530481 14:1.6980679 
32 32 0 32 0 32 0 32 0 32 32 32 3.654104012969281 32 0 2.206103405598565 9.195756796061731 0 1:0.1855746 2:0.63618063 3:-0.97783708 4:-1.0649338 5:-1.0124566 6:-0.98541786 7:-0.21001975 8:-0.022364874 9:-0.43561388 10:-0.43658878 11:1.4724637 12:-0.69589829 13:-0.10530481 14:1.3560401 
32 32 31.24559140990813 32 32 32 32 32 0 32 32 32 32 32 0 0 32 0 1:-0.18441837 2:0.26434903 3:1.1933703 4:0.90303576 5:-0.99460755 6:0.64141388 7:-0.21001975 8:-0.022364874 9:1.4676691 10:-0.43658878 11:-0.71625974 12:-0.42313516 13:-0.10530481 14:-0.12607997 
32 32 0 32 32 32 32 32 0 32 32 0 32 32 0 0 0 0 1:-0.73940783 2:0.26434903 3:1.2379842 4:-0.56074324 5:-0.4234364 6:-0.98541786 7:-0.21001975 8:-0.022364874 9:-0.43561388 10:-0.43658878 11:1.4724637 12:1.3952857 13:-0.10530481 14:-1.0381539 
32 32 0 0 32 32 32 32 0 32 24.63943008330768 32 0 28.53277953551842 0 0 25.15071133745597 0 1:-0.73940783 2:-0.85114578 3:0.65800411 4:0.80545049 5:-1.0660039 6:-1.515084 7:-0.21001975 8:-0.022364874 9:-0.43561388 10:-0.43658878 11:1.4724637 12:1.3952857 13:-0.10530481 14:1.0140124 
32 0 0 32 32 32 32 32 0 32 32 32 31.20500385975274 0 0 32 30.6322709131983 0 1:-0.73940783 2:-0.85114578 3:-1.3198766 4:-0.30051586 5:0.59396222 6:-0.096335395 7:-0.21001975 8:-0.022364874 9:-0.43561388 10:-0.43658878 11:1.4724637 12:1.3952857 13:-0.10530481 14:0.55797547 
32 32 0 32 32 0 9.213003498016985 32 0 32 32 0 24.03476939173771 0 0 0 0 0 1:-0.92440431 2:-0.47931418 3:-2.3608665 4:-1.3088969 5:1.1294352 6:-0.039585451 7:4.7608618 8:-0.022364874 9:0.19881376 10:1.0553848 11:0.37810197 12:-0.059450996 13:-0.10530481 14:0.55797547 
32 32 0 32 0 18.4237773039984 32 0 32 32 32 0 32 0 0 32 0 0 1:-0.73940783 2:-0.47931418 3:1.5354098 4:-1.0324054 5:1.2900771 6:-0.039585451 7:-0.21001975 8:-0.022364874 9:-0.43561388 10:1.0553848 11:1.4724637 12:1.3952857 13:-0.10530481 14:0.32995699 
32 0 2.927613993815863 32 32 32 32 32 32 32 0 32 0 32 32 32 0 0 1:0.92556054 2:0.45026483 3:0.34570715 4:1.000621 5:1.1115861 6:-0.096335395 7:-0.21001975 8:-0.022364874 9:-0.43561388 10:-0.43658878 11:-0.71625974 12:0.21331213 13:-0.10530481 14:0.32995699 
32 32 0 32 32 32 32 15.16304653114372 0 32 32 0 32 28.90767964061925 0 0 0 0 1:-0.73940783 2:-0.10748257 3:1.3123406 4:-0.99987694 5:-0.3877382 6:1.0575801 7:-0.21001975 8:-0.022364874 9:-0.43561388 10:1.0553848 11:1.4724637 12:1.3952857 13:-0.10530481 14:-0.24008921 
32 32 0 0 32 32 32 0 0 32 32 0 32 0 0 0 0 0 1:-0.73940783 2:-0.85114578 3:-0.15991649 4:-1.1137264 5:-1.4586841 6:-0.43683506 7:-0.21001975 8:-0.022364874 9:-0.43561388 10:-0.43658878 11:1.4724637 12:1.3952857 13:-0.10530481 14:-0.69612616 
32 32 0.5855331987450088 32 32 32 32 32 0 32 32 32 0 32 0 0 12.4279047301603 0 1:-0.55441134 2:-0.66522998 3:0.76210309 4:-0.28425165 5:-0.45913459 6:-1.8177504 7:-0.21001975 8:-0.022364874 9:-0.43561388 10:-0.43658878 11:-0.71625974 12:-0.69589829 13:-0.10530481 14:-0.24008921 
32 0 0 32 0 0 32 32 21.18716679383868 32 0 32 0 32 32 0 0 0 1:-0.73940783 2:-0.85114578 3:-0.97783708 4:-0.10534533 5:0.54041493 6:-0.90975126 7:-0.21001975 8:-0.022364874 9:-0.43561388 10:-0.43658878 11:1.4724637 12:1.3952857 13:-0.10530481 14:2.1541048 
32 32 27.85371394059402 0 32 32 32 32 0 32 32 0 32 21.31509535443912 0 0 0 0 1:-0.73940783 2:-0.85114578 3:0.82158823 4:-1.0161412 5:-1.7621188 6:0.58466394 7:-0.21001975 8:-0.022364874 9:-0.43561388 10:-0.43658878 11:1.4724637 12:1.3952857 13:-0.10530481 14:-0.24008921 
32 0 0 0 0 0 6.493321187718374 15.87751086695599 32 0 0 0 0 0 32 0 0 0 1:0.37057109 2:-0.29339837 3:-0.65066885 4:0.18741047 5:-1.7085715 6:-0.96650121 7:-0.21001975 8:-0.022364874 9:-0.43561388 10:1.0553848 11:-0.71625974 12:0.12239109 13:-0.10530481 14:1.3560401 
32 32 0 32 32 0 32 0 0 32 0 32 0 0 32 0 0.3290023999077676 0 1:-0.55441134 2:-0.85114578 3:1.2379842 4:1.1144705 5:-0.3341909 6:1.549413 7:-0.21001975 8:-0.022364874 9:-0.43561388 10:-0.43658878 11:-0.71625974 12:-0.42313516 13:-0.10530481 14:-0.24008921 
32 24.04305270006074 0 32 0 0 0.6072848510920436 0 32 8.591214810126854 0 0 0 0 0 0 0 0 1:-0.36941486 2:0.26434903 3:0.43493485 4:0.74039365 5:-1.1017021 6:-0.60708489 7:-0.21001975 8:-0.022364874 9:-2.3388968 10:1.0553848 11:-0.71625974 12:-0.69589829 13:-0.10530481 14:1.8120771 
32 32 25.58490513972848 32 32 32 32 32 32 32 32 32 32 32 0 32 32 0 1:-0.18441837 2:-0.29339837 3:-1.1116786 4:-1.2113117 5:-0.99460755 6:1.0575801 7:-0.21001975 8:-0.022364874 9:1.4676691 10:1.0553848 11:-0.71625974 12:-0.42313516 13:-0.10530481 14:-0.24008921 
32 32 0 0 32 0 32 0 0 32 0 0 23.42529000929039 0 0 0 0 0 1:-0.73940783 2:-0.85114578 3:-0.36811446 4:0.74039365 5:-0.15569992 6:0.33874751 7:-0.21001975 8:-0.022364874 9:-0.43561388 10:1.0553848 11:1.4724637 12:1.3952857 13:-0.10530481 14:-1.0381539 
32 32 32 26.91747199186188 0.3299107340506723 0 0.9288163605921256 32 32 32 0 32 1.830332880231911 32 32 0 0 0 1:1.2955535 2:0.63618063 3:1.3123406 4:1.618661 5:-1.7621188 6:-1.0800011 7:-0.21001975 8:-0.022364874 9:-0.43561388 10:-0.43658878 11:-0.71625974 12:-0.96866141 13:-0.10530481 14:1.6980679 
32 0 0 0 0 32 0 0 0 0 0 32 0 0 0 0 0 0 1:-0.73940783 2:-0.85114578 3:-0.85886682 4:-1.3088969 5:-1.4229859 6:-1.6664172 7:-0.21001975 8:-0.022364874 9:-0.43561388 10:-0.43658878 11:1.4724637 12:1.3952857 13:-0.10530481 14:1.8120771 
32 0 0 0 32 32 0 0 0 32 0 0 0 0 0 32 0 0 1:-0.73940783 2:-0.85114578 3:-0.85886682 4:-1.0161412 5:-1.4229859 6:-1.5529173 7:-0.21001975 8:-0.022364874 9:-0.43561388 10:-0.43658878 11:1.4724637 12:1.3952857 13:-0.10530481 14:-0.24008921 
32 0 0 32 32 5.168744969801812 32 0 32 32 5.126649410555633 0 0 0 22.34372227581337 0 22.03714408985386 0 1:-0.55441134 2:-0.85114578 3:0.77697438 4:-1.2601043 5:1.4328699 6:-0.96650121 7:-0.21001975 8:-0.022364874 9:-0.43561388 10:1.0553848 11:-0.71625974 12:0.84975942 13:-0.10530481 14:-0.24008921 
32 32 0 32 32 0 32 0 32 32 32 32 32 32 0 0 8.932411550195026 0 1:-0.18441837 2:0.26434903 3:1.1933703 4:-0.57700745 5:0.040640166 6:1.0575801 7:-0.21001975 8:-0.022364874 9:-0.43561388 10:1.0553848 11:-0.71625974 12:-0.42313516 13:-0.10530481 14:-0.69612616 
32 32 0 32 32 0 32 32 32 32 32 17.95894297069796 0 32 0 32 0 0 1:-0.55441134 2:-0.29339837 3:-0.75476783 4:1.0331494 5:1.1294352 6:-0.24766858 7:-0.21001975 8:-0.022364874 9:-0.43561388 10:1.0553848 11:1.4724637 12:-0.69589829 13:-0.10530481 14:-0.24008921 
32 32 0 32 32 32 0 0 2.827258519367109 32 0 32 0 32 0 32 0 0 1:0.55556757 2:1.7516754 3:0.33083587 4:0.39884522 5:-0.3877382 6:1.5304963 7:-0.21001975 8:-0.022364874 9:-2.3388968 10:-0.43658878 11:-0.71625974 12:-0.96866141 13:-0.10530481 14:-0.92414464 
32 32 32 32 32 32 32 21.70692643015009 0 32 32 32 0 32 0 32 0 0 1:0.00057811402 2:0.45026483 3:1.1338852 4:-1.1625191 5:0.27267845 6:1.5304963 7:-0.21001975 8:-0.022364874 9:-0.43561388 10:-0.43658878 11:-0.71625974 12:-0.96866141 13:-0.10530481 14:-0.24008921 
32 32 21.59244105102752 32 32 32 32 32 0 32 32 0 32 0 0 0 0 0 1:-0.73940783 2:-0.10748257 3:-0.73989655 4:1.1144705 5:0.52256583 6:1.549413 7:-0.21001975 8:-0.022364874 9:-0.43561388 10:-0.43658878 11:1.4724637 12:1.3952857 13:-0.10530481 14:-1.0381539 
32 32 32 32 32 32 32 32 0 32 32 0 32 0 0 0 0 0 1:-0.73940783 2:-0.10748257 3:-0.84399553 4:0.95182839 5:1.1115861 6:1.492663 7:-0.21001975 8:-0.022364874 9:-0.43561388 10:-0.43658878 11:1.4724637 12:1.3952857 13:-0.10530481 14:-1.0381539 
32 32 0 32 32 0 32 32 0 32 12.41280676880507 0 32 0 0 0 0 0 1:-0.73940783 2:-0.10748257 3:-0.27888676 4:-0.44689376 5:0.094187462 6:-0.96650121 7:-0.21001975 8:-0.022364874 9:-0.43561388 10:1.0553848 11:1.4724637 12:1.3952857 13:-0.10530481 14:-0.69612616 
32 32 0 32 32 22.1418323453652 32 0 0 32 0 32 0 32 32 0 15.35254967346934 0 1:-0.55441134 2:-0.66522998 3:1.2974693 4:0.91929997 5:0.73675501 6:0.26308092 7:-0.21001975 8:-0.022364874 9:-0.43561388 10:-0.43658878 11:-0.71625974 12:-0.42313516 13:-0.10530481 14:1.3560401 
32 16.11628541631048 0 32 32 0 29.19240951365298 32 32 0 0 32 0 32 0 0 0 0 1:0.37057109 2:0.078433229 3:0.95542978 4:-0.99987694 5:-1.6550242 6:1.0575801 7:-0.21001975 8:-0.022364874 9:-0.43561388 10:1.0553848 11:-0.71625974 12:-0.96866141 13:-0.10530481 14:-0.46810768 
32 32 0 32 32 32 32 32 0 32 32 32 32 32 0 32 14.1823728330414 0 1:-0.55441134 2:0.82209644 3:-1.2306489 4:0.17114626 5:0.98664239 6:-0.58816825 7:-0.21001975 8:-0.022364874 9:-0.43561388 10:-0.43658878 11:-0.71625974 12:-0.69589829 13:-0.10530481 14:-1.0381539 
32 32 0 32 32 32 0 32 0 32 32 32 0 32 15.12560701488477 21.67548985685607 22.81058583821546 0 1:1.48055 2:1.7516754 3:1.2082416 4:-1.2601043 5:0.915246 6:-1.3070009 7:-0.21001975 8:-0.022364874 9:-0.43561388 10:-0.43658878 11:-0.71625974 12:-0.69589829 13:-0.10530481 14:1.8120771 
32 0 0 32 32 32 0 32 0 0 0 32 0 32 0 0 0 0 1:1.2955535 2:0.63618063 3:0.18212303 4:-1.2601043 5:-0.90536206 6:-1.3070009 7:-0.21001975 8:-0.022364874 9:-0.43561388 10:-0.43658878 11:-0.71625974 12:-0.96866141 13:-0.10530481 14:-0.24008921 
32 32 0 32 0 32 32 32 0 32 32 32 32 32 0 0 14.37092881401185 0 1:-0.73940783 2:-0.47931418 3:0.82158823 4:-1.1137264 5:0.094187462 6:0.58466394 7:-0.21001975 8:-0.022364874 9:-0.43561388 10:-0.43658878 11:1.4724637 12:1.3952857 13:-0.10530481 14:2.1541048 
32 0 26.98898248436898 32 32 31.87773844905938 32 32 0 32 32 32 0 0 32 0 0 0 1:-0.18441837 2:-0.29339837 3:-0.11530264 4:1.5048116 5:1.0044915 6:1.6061629 7:-0.21001975 8:-0.022364874 9:-0.43561388 10:-0.43658878 11:-0.71625974 12:0.21331213 13:-0.10530481 14:1.0140124 
32 32 0 32 32 32 32 32 0 32 32 0 32 32 0 10.17149158932372 0 0 1:-0.73940783 2:0.45026483 3:1.178499 4:-0.52821482 5:1.0758879 6:-0.24766858 7:-0.21001975 8:-0.022364874 9:-0.43561388 10:1.0553848 11:1.4724637 12:1.3952857 13:-0.10530481 14:-1.0381539 
32 0 0 27.59203967856349 0 0 0 32 32 0 0 32 0 0 0 13.22762821924621 0 0 1:-0.73940783 2:-0.85114578 3:0.2118656 4:-1.1137264 5:-1.6371751 6:-0.96650121 7:-0.21001975 8:-0.022364874 9:-0.43561388 10:1.0553848 11:1.4724637 12:1.3952857 13:-0.10530481 14:1.6980679 
32 32 0 32 0 0 32 32 32 32 32 32 32 0 0 0 0 0 1:-0.73940783 2:-0.10748257 3:-0.39785703 4:-1.2113117 5:0.98664239 6:-0.68275149 7:-0.21001975 8:-0.022364874 9:-0.43561388 10:1.0553848 11:1.4724637 12:1.3952857 13:-0.10530481 14:1.8120771 
32 0 0 32 32 0 32 32 32 32 0 0 0 6.790291159448238 0 0 0 0 1:-0.55441134 2:-1.0370616 3:-0.36811446 4:0.20367468 5:1.1294352 6:-0.68275149 7:-0.21001975 8:-0.022364874 9:-0.43561388 10:1.0553848 11:-0.71625974 12:-0.96866141 13:-0.10530481 14:-0.69612616 
32 0 0 32 32 32 32 14.5026101685256 32 32 32 0 32 0 0 0 0 0 1:-0.73940783 2:-1.0370616 3:-0.97783708 4:-1.1625191 5:0.54041493 6:1.0575801 7:-0.21001975 8:-0.022364874 9:-0.43561388 10:1.0553848 11:1.4724637 12:1.3952857 13:-0.10530481 14:-1.0381539 
32 32 0 32 32 32 32 32 0 32 32 32 0 32 32 0 32 0 1:-0.36941486 2:-0.66522998 3:1.0000436 4:0.17114626 5:0.64750952 6:1.22783 7:-0.21001975 8:-0.022364874 9:-0.43561388 10:-0.43658878 11:-0.71625974 12:-0.96866141 13:-0.10530481 14:-0.24008921 
32 0 29.31811567329871 32 32 32 0 0 0 32 9.930724861461826 32 0 32 24.50963788360222 0 0 0 1:1.48055 2:0.82209644 3:0.063152765 4:-1.2438401 5:-1.6371751 6:0.24416427 7:-0.21001975 8:-0.022364874 9:-0.43561388 10:-0.43658878 11:-0.71625974 12:0.12239109 13:-0.10530481 14:-1.0381539 
32 32 0 32 32 32 32 32 0 32 26.67155302222313 32 0 32 0 0 0 0 1:-0.55441134 2:-0.29339837 3:0.77697438 4:-0.23545902 5:-1.6014769 6:0.64141388 7:-0.21001975 8:-0.022364874 9:-0.43561388 10:-0.43658878 11:-0.71625974 12:-0.69589829 13:-0.10530481 14:1.0140124 
32 32 0 32 0 32 0 32 32 32 32 32 0 32 32 5.485653619538864 23.04740838453031 0 1:-0.73940783 2:-1.4088932 3:-0.82912425 4:-1.4390106 5:0.25482935 6:1.0008302 7:-0.21001975 8:-0.022364874 9:-0.43561388 10:-0.43658878 11:1.4724637 12:1.3952857 13:-0.10530481 14:2.0400956 
32 32 32 32 0 26.89884878422627 32 32 32 0 0 32 0 0 32 22.79475400063915 32 0 1:-0.73940783 2:-1.4088932 3:-0.39785703 4:1.6511895 5:1.0758879 6:0.62249723 7:-0.21001975 8:-0.022364874 9:-0.43561388 10:-0.43658878 11:1.4724637 12:1.3952857 13:-0.10530481 14:1.5840586 
32 0 0 0 32 0 32 0 32 0 0 0 0 0 0 0 0 0 1:-0.73940783 2:-1.0370616 3:-0.73989655 4:-0.52821482 5:-0.3877382 6:-0.96650121 7:-0.21001975 8:-0.022364874 9:-0.43561388 10:1.0553848 11:1.4724637 12:1.3952857 13:-0.10530481 14:-0.24008921 
32 32 0 32 32 32 32 0 0 32 32 0.8522505350302712 0 0 0 0 0 0 1:-0.73940783 2:-0.85114578 3:1.3123406 4:0.2362031 5:0.34407484 6:1.17108 7:-0.21001975 8:-0.022364874 9:-0.43561388 10:-0.43658878 11:1.4724637 12:1.3952857 13:-0.10530481 14:-0.69612616 
32 32 31.13487705974318 32 3.545478266711887 32 0 27.65172998920497 32 32 0 32 0 32 32 32 0 0 1:0.37057109 2:-0.10748257 3:1.3123406 4:-1.0974622 5:-1.1909476 6:1.6629129 7:-0.21001975 8:-0.022364874 9:-0.43561388 10:-0.43658878 11:-0.71625974 12:-0.96866141 13:-0.10530481 14:1.6980679 
32 32 0 32 32 21.29876780907225 32 32 32 32 32 32 32 0 0 0 20.97640790844273 0 1:-0.73940783 2:-0.29339837 3:0.76210309 4:1.6349253 5:0.66535862 6:-0.96650121 7:-0.21001975 8:-0.022364874 9:1.4676691 10:1.0553848 11:1.4724637 12:1.3952857 13:-0.10530481 14:1.0140124 
32 0 0 32 0 0 0 0 32 0 0 0 0 0 0 17.6858515393107 20.28750578244991 0 1:1.2955535 2:0.63618063 3:-0.65066885 4:-0.98361273 5:-1.7085715 6:1.4548297 7:-0.21001975 8:-0.022364874 9:-0.43561388 10:2.5473585 11:-0.71625974 12:-0.96866141 13:-0.10530481 14:-0.69612616 
32 32 0 32 32 32 32 32 32 32 32 0 5.302133038804676 0 0 0 0 0 1:-0.55441134 2:0.26434903 3:-0.88860938 4:-0.60953587 5:-0.79826747 6:-0.96650121 7:-0.21001975 8:-0.022364874 9:-0.43561388 10:1.0553848 11:-0.71625974 12:-0.42313516 13:-0.10530481 14:-0.24008921 
32 32 0 32 0 32 16.82585814376397 32 0 0 32 32 0 22.40173271947261 18.14114591840711 0 0 0 1:-0.73940783 2:-1.4088932 3:-0.84399553 4:0.28499574 5:-1.0124566 6:1.1332467 7:-0.21001975 8:-0.022364874 9:-0.43561388 10:-0.43658878 11:1.4724637 12:1.3952857 13:-0.10530481 14:2.0400956 
32 0 4.594386007420616 32 32 32 32 0 0 32 32 32 0 32 0 7.194783266185893 0 0 1:-0.36941486 2:-0.66522998 3:1.178499 4:-1.1137264 5:0.64750952 6:-0.43683506 7:-0.21001975 8:-0.022364874 9:-0.43561388 10:-0.43658878 11:-0.71625974 12:-0.96866141 13:-0.10530481 14:-0.24008921 
32 0 0 32 32 32 32 0 32 28.77652917275198 0 0 0 32 0 0 0 0 1:-0.55441134 2:-0.66522998 3:0.3010933 4:-1.2601043 5:0.25482935 6:-0.96650121 7:-0.21001975 8:-0.022364874 9:-0.43561388 10:1.0553848 11:-0.71625974 12:0.75883838 13:-0.10530481 14:1.8120771 
32 0 0 32 0 32 0 32 31.74129392000757 32 32 32 0 32 32 32 13.721839711067 0 1:0.92556054 2:0.26434903 3:-0.82912425 4:-1.4390106 5:0.25482935 6:1.0008302 7:-0.21001975 8:-0.022364874 9:-0.43561388 10:-0.43658878 11:-0.71625974 12:-0.96866141 13:-0.10530481 14:1.3560401 
32 32 0 32 32 32 32 32 0 32 32 32 32 32 0 32 0 0 1:-0.36941486 2:-0.10748257 3:-0.73989655 4:1.0168852 5:0.34407484 6:0.58466394 7:-0.21001975 8:-0.022364874 9:-0.43561388 10:-0.43658878 11:-0.71625974 12:-1.0595825 13:-0.10530481 14:-0.24008921 
32 32 32 0 32 32 32 32 10.48157998599794 32 0 32 0 32 32 0 0 0 1:0.92556054 2:0.26434903 3:0.3010933 4:1.5536042 5:-1.0124566 6:-1.4394174 7:-0.21001975 8:-0.022364874 9:-0.43561388 10:-0.43658878 11:-0.71625974 12:0.12239109 13:-0.10530481 14:0.55797547 
32 32 0 32 32 19.46682244464621 32 32 0 32 32 32 7.204285530860978 32 0 0 0 0 1:-0.36941486 2:0.078433229 3:1.178499 4:1.6349253 5:0.34407484 6:0.9251636 7:-0.21001975 8:-0.022364874 9:-0.43561388 10:-0.43658878 11:-0.71625974 12:-0.69589829 13:-0.10530481 14:-0.92414464 
32 32 0 32 32 32 32 32 0 32 32 32 0 0 32 18.04367288831558 9.398264495804455 0 1:-0.73940783 2:-0.85114578 3:0.33083587 4:1.3584337 5:1.647059 6:-0.15308534 7:-0.21001975 8:-0.022364874 9:-0.43561388 10:-0.43658878 11:1.4724637 12:1.3952857 13:-0.10530481 14:-0.24008921 
32 0 0 32 32 32 32 0 0 32 0 32 0 32 12.54008262392155 30.27665679558181 0 0 1:-0.55441134 2:-0.85114578 3:-0.88860938 4:-1.0161412 5:-1.0124566 6:-0.72058478 7:-0.21001975 8:-0.022364874 9:-0.43561388 10:-0.43658878 11:-0.71625974 12:-0.42313516 13:-0.10530481 14:-0.24008921 
32 32 32 32 32 32 32 32 0 32 32 32 32 0 0 0 12.38420159676637 0 1:-0.73940783 2:-0.85114578 3:-0.33837189 4:-0.46315797 5:1.2186807 6:1.2845799 7:-0.21001975 8:-0.022364874 9:-0.43561388 10:-0.43658878 11:1.4724637 12:1.3952857 13:-0.10530481 14:-0.24008921 
32 32 0 32 32 0 32 32 32 32 0 32 0 32 32 32 0 0 1:0.1855746 2:-0.47931418 3:-0.9629658 4:1.1795273 5:0.57611312 6:-1.4015841 7:-0.21001975 8:-0.022364874 9:-0.43561388 10:-0.43658878 11:-0.71625974 12:-0.96866141 13:-0.10530481 14:-0.24008921 
32 32 5.314976289260835 32 32 32 32 0 0 32 32 32 32 0 0 0 0 0 1:-0.73940783 2:-0.47931418 3:0.85133079 4:-1.1625191 5:1.4328699 6:-0.41791841 7:-0.21001975 8:-0.022364874 9:-0.43561388 10:-0.43658878 11:1.4724637 12:1.3952857 13:-0.10530481 14:-1.0381539 
32 2.511773232665613 0 0 32 0 32 0 32 32 0 0 0 0 0 0 0 0 1:-0.73940783 2:-1.0370616 3:-0.39785703 4:1.3584337 5:0.98664239 6:-0.96650121 7:-0.21001975 8:-0.022364874 9:-0.43561388 10:1.0553848 11:1.4724637 12:1.3952857 13:-0.10530481 14:-0.69612616 
32 32 1.385758505600169 32 32 18.12591869332462 32 32 32 32 32 32 32 32 0 32 32 0 1:0.00057811402 2:-0.29339837 3:-1.0075797 4:1.2445842 5:-1.2801931 6:-0.039585451 7:-0.21001975 8:-0.022364874 9:1.4676691 10:1.0553848 11:-0.71625974 12:-0.69589829 13:-0.10530481 14:-0.69612616 
32 0 0 32 0 32 0 0 0 32 0 32 0 0 0 0 0 0 1:-0.73940783 2:-0.66522998 3:-0.73989655 4:-1.3088969 5:-0.20924721 6:-1.6664172 7:-0.21001975 8:-0.022364874 9:-0.43561388 10:-0.43658878 11:1.4724637 12:1.3952857 13:-0.10530481 14:1.8120771 
32 27.99163298806152 0 32 32 32 0 32 32 0 0 32 0 32 0 0.8370746343621003 0 0 1:0.37057109 2:-0.29339837 3:0.18212303 4:-1.2601043 5:-0.90536206 6:-1.3070009 7:-0.21001975 8:-0.022364874 9:-0.43561388 10:-0.43658878 11:-0.71625974 12:-0.96866141 13:-0.10530481 14:-0.69612616 
32 32 0 0 18.66651216748899 0 32 0 9.205954977783565 0 32 0 0.6193179922512971 0 0 32 32 0 1:-0.73940783 2:-0.66522998 3:1.5651524 4:-0.54447903 5:0.23698025 6:1.0575801 7:-0.21001975 8:-0.022364874 9:-0.43561388 10:1.0553848 11:1.4724637 12:1.3952857 13:-0.10530481 14:-0.24008921 
32 0 32 32 32 32 32 32 32 32 32 32 12.75646319116213 32 32 32 0 0 1:-0.36941486 2:-1.0370616 3:-0.9629658 4:-1.1950475 5:-0.24494541 6:-0.15308534 7:-0.21001975 8:-0.022364874 9:0.19881376 10:-0.43658878 11:-0.71625974 12:-0.96866141 13:-0.10530481 14:-0.24008921 
32 0 0 32 32 32 32 0 0 32 32 32 32 32 0 0 0 0 1:0.1855746 2:0.45026483 3:-0.73989655 4:-1.6016527 5:-1.0124566 6:0.35766416 7:-0.21001975 8:-0.022364874 9:-0.43561388 10:-0.43658878 11:-0.71625974 12:0.12239109 13:-0.10530481 14:-0.24008921 
32 32 19.76206372444231 32 0 32 32 32 25.66348548334866 32 0 32 0 32 32 0 0 0 1:-0.55441134 2:-1.2229774 3:1.0297862 4:-0.34930849 5:-1.0124566 6:1.2845799 7:-0.21001975 8:-0.022364874 9:-0.43561388 10:-0.43658878 11:1.4724637 12:-0.33221412 13:-0.10530481 14:1.8120771 
32 32 0 0 32 32 32 32 0 32 0 0.1818893595464861 0 0 0 0 0 0 1:-0.73940783 2:-0.85114578 3:0.91081593 4:1.5536042 5:-1.0124566 6:1.0954134 7:-0.21001975 8:-0.022364874 9:-0.43561388 10:-0.43658878 11:1.4724637 12:1.3952857 13:-0.10530481 14:-0.24008921 
32 32 16.83934005859417 32 32 32 32 7.98181491982033 32 32 0 32 0 32 32 4.497381864383924 0 0 1:-0.18441837 2:-0.66522998 3:-0.91835195 4:1.0168852 5:-1.7085715 6:1.3413299 7:-0.21001975 8:-0.022364874 9:-0.43561388 10:-0.43658878 11:-0.71625974 12:-0.78681933 13:-0.10530481 14:0.55797547 
32 32 32 32 32 32 32 32 0 32 32 32 3.7195629633229 32 32 0.01384930672262249 32 0 1:-0.55441134 2:-0.47931418 3:0.2118656 4:-1.1137264 5:1.5756626 6:1.7953294 7:-0.21001975 8:-0.022364874 9:-0.43561388 10:-0.43658878 11:-0.71625974 12:-0.42313516 13:-0.10530481 14:0.55797547 
32 32 0 32 32 32 32 0 0 32 32 0 6.898270707312488 0 0 0 0 0 1:-0.73940783 2:-0.47931418 3:-0.76963911 4:0.70786523 5:-1.4586841 6:1.3413299 7:-0.21001975 8:-0.022364874 9:-0.43561388 10:1.0553848 11:1.4724637 12:1.3952857 13:-0.10530481 14:-0.24008921 
32 32 0 32 27.11206836391434 2.614109119149446 0 32 32 32 32 32 32 32 32 32 0 0 1:1.48055 2:0.82209644 3:-1.2306489 4:-1.1137264 5:1.4685681 6:-0.98541786 7:-0.21001975 8:-0.022364874 9:-0.43561388 10:-0.43658878 11:-0.71625974 12:-0.69589829 13:-0.10530481 14:2.1541048 
32 0 0 32 32 0 32 0 32 0 16.31949343768313 0 0 11.91726968224648 0 0 0 0 1:0.74056406 2:0.078433229 3:-1.0224509 4:-1.2113117 5:0.040640166 6:0.33874751 7:-0.21001975 8:-0.022364874 9:-0.43561388 10:1.0553848 11:-0.71625974 12:0.12239109 13:-0.10530481 14:-1.0381539 
32 32 9.845835435343288 32 25.96981712802762 1.528993271102169 32 32 0 32 0 32 0 32 32 32 0 0 1:0.1855746 2:-0.10748257 3:-0.91835195 4:1.6349253 5:-0.13785082 6:-1.4015841 7:-0.21001975 8:-0.022364874 9:-0.43561388 10:-0.43658878 11:-0.71625974 12:-0.96866141 13:-0.10530481 14:0.55797547 
32 0 0 0 0 8.738485100875373 0 0 13.71634112992829 0 0 0 0 0 0 0 0 0 1:-0.73940783 2:-0.10748257 3:-0.35324317 4:-1.3088969 5:-1.6728733 6:0.16849768 7:-0.21001975 8:-0.022364874 9:-2.3388968 10:1.0553848 11:1.4724637 12:1.3952857 13:-0.10530481 14:0.32995699 
32 0 0 32 32 0 32 32 32 32 0 14.3594531065324 0 0 0 32 0 0 1:-0.18441837 2:-0.85114578 3:-0.97783708 4:1.2933768 5:0.54041493 6:-0.96650121 7:-0.21001975 8:-0.022364874 9:-0.43561388 10:1.0553848 11:-0.71625974 12:-0.96866141 13:-0.10530481 14:-0.69612616 
32 32 0 0 32 32 32 0 0 32 32 0 0 0 0 32 0 0 1:-0.73940783 2:-1.0370616 3:-0.81425297 4:1.1795273 5:-1.0124566 6:-0.43683506 7:-0.21001975 8:-0.022364874 9:-0.43561388 10:-0.43658878 11:1.4724637 12:1.3952857 13:-0.10530481 14:-0.24008921 
32 0 0 32 0 0 32 0 32 0 0 0 0 0 0 0 32 0 1:-0.55441134 2:-0.66522998 3:-0.32350061 4:0.70786523 5:-1.0124566 6:1.3413299 7:-0.21001975 8:-0.022364874 9:-0.43561388 10:1.0553848 11:-0.71625974 12:-0.42313516 13:-0.10530481 14:1.3560401 
32 0 0 32 32 32 32 0 0 32 32 32 0 32 0 0 0 0 1:-0.36941486 2:-0.66522998 3:0.34570715 4:-1.1137264 5:0.64750952 6:-0.43683506 7:-0.21001975 8:-0.022364874 9:-0.43561388 10:-0.43658878 11:-0.71625974 12:-0.42313516 13:-0.10530481 14:-0.24008921 
32 0.2464377118524262 0 5.768975787899437 0 0 5.288100110116764 32 32 32 0 32 2.786538871783499 32 10.23862763712101 32 2.70493917638869 0 1:0.37057109 2:0.26434903 3:-1.1562925 4:1.53734 5:-1.2444949 6:-0.96650121 7:-0.21001975 8:-0.022364874 9:-0.43561388 10:1.0553848 11:-0.71625974 12:-0.96866141 13:-0.10530481 14:2.0400956 
32 0 0 32 32 0 32 0 32 5.501823363172699 32 0 0 0 32 0 0.1490727492768005 0 1:-0.36941486 2:-0.85114578 3:-0.36811446 4:0.20367468 5:1.1294352 6:-0.68275149 7:-0.21001975 8:-0.022364874 9:-0.43561388 10:1.0553848 11:-0.71625974 12:0.94068046 13:-0.10530481 14:-0.69612616 
32 0 0 32 32 0 0 32 32 0 0 0 0 0 0 0 0 0 1:1.110557 2:0.45026483 3:-0.14504521 4:-1.1137264 5:0.25482935 6:-1.2691676 7:-0.21001975 8:-0.022364874 9:-0.43561388 10:1.0553848 11:-0.71625974 12:0.12239109 13:-0.10530481 14:-0.24008921 
32 32 0 0 8.271183332402023 0 32 0 32 0 0 0 0 0 0 0 25.15623182783079 0 1:-0.73940783 2:-1.0370616 3:1.2379842 4:0.90303576 5:-0.13785082 6:1.3413299 7:-0.21001975 8:-0.022364874 9:-0.43561388 10:1.0553848 11:1.4724637 12:1.3952857 13:-0.10530481 14:-0.24008921 
32 32 0 32 32 32 0 32 0 32 0 32 0 32 0 0 0 0 1:1.2955535 2:2.123507 3:-0.91835195 4:-1.2438401 5:-1.7442697 6:-1.2502509 7:-0.21001975 8:-0.022364874 9:-1.0700415 10:-0.43658878 11:-0.71625974 12:-0.42313516 13:-0.10530481 14:-0.69612616 
32 32 0 32 32 32 32 32 0 32 12.50000254720334 0 32 12.38162293625679 0 0 0 0 1:-0.73940783 2:-0.10748257 3:0.40519229 4:1.6511895 5:-1.0124566 6:-1.2691676 7:-0.21001975 8:-0.022364874 9:-0.43561388 10:1.0553848 11:1.4724637 12:1.3952857 13:-0.10530481 14:-0.24008921 
32 32 0 32 32 32 32 32 0 32 32 32 15.30204236378228 0 0 0 0 0 1:-0.73940783 2:0.078433229 3:0.33083587 4:1.309641 5:-0.066454425 6:0.54683064 7:-0.21001975 8:-0.022364874 9:-0.43561388 10:-0.43658878 11:1.4724637 12:1.3952857 13:-0.10530481 14:-0.24008921 
32 32 0 30.69987446395228 32 0 32 0 32 32 0 32 2.61390530928861 15.13668995791304 0 0 14.76377547488761 0 1:-0.36941486 2:-0.10748257 3:1.2231129 4:0.70786523 5:-1.083853 6:1.3413299 7:-0.21001975 8:-0.022364874 9:-0.43561388 10:1.0553848 11:-0.71625974 12:-0.42313516 13:-0.10530481 14:-0.69612616 
32 32 29.42416058234007 32 0 32 32 32 0 32 0 32 0 4.791794632810223 0 0 0 0 1:-0.73940783 2:-0.29339837 3:0.3010933 4:0.83797892 5:0.25482935 6:0.14958103 7:-0.21001975 8:-0.022364874 9:-0.43561388 10:-0.43658878 11:1.4724637 12:1.3952857 13:-0.10530481 14:2.1541048 
32 0 0 32 0 0 32 32 32 26.06660602202437 0 32 0 0 0 32 0 0 1:0.1855746 2:-0.10748257 3:-0.9629658 4:1.0331494 5:-1.3158913 6:-0.039585451 7:-0.21001975 8:-0.022364874 9:-0.43561388 10:1.0553848 11:-0.71625974 12:-0.96866141 13:-0.10530481 14:-0.24008921 
32 32 0 32 32 32 32 32 22.81065350767186 32 0 32 0 32 0 10.38788727256093 0 0 1:-0.36941486 2:-0.29339837 3:1.0000436 4:-1.2601043 5:-1.6371751 6:-1.3070009 7:-0.21001975 8:-0.022364874 9:-0.43561388 10:-0.43658878 11:-0.71625974 12:-0.96866141 13:-0.10530481 14:1.0140124 
32 32 0 32 32 32 32 32 0 32 32 32 32 11.31704249382307 0 32 0 0 1:-0.73940783 2:-0.85114578 3:-0.97783708 4:0.0085041494 5:1.3436244 6:-0.5314183 7:-0.21001975 8:-0.022364874 9:1.4676691 10:-0.43658878 11:1.4724637 12:1.3952857 13:-0.10530481 14:0.78599394 
32 0 0 32 32 32 32 0 0 0 32 0 0 0 0 32 0 0 1:-0.73940783 2:-1.4088932 3:-1.1860351 4:-1.2601043 5:-0.13785082 6:0.56574729 7:-0.21001975 8:-0.022364874 9:-0.43561388 10:-0.43658878 11:1.4724637 12:1.3952857 13:-0.10530481 14:0.32995699 
32 32 0.3718283709988117 32 32 32 17.89125262281453 30.6445709160377 0 32 32 8.923733397151871 32 0 32 0 0 0 1:-0.92440431 2:-1.2229774 3:-1.6321736 4:-1.1299906 5:-0.69117288 6:0.90624695 7:4.7608618 8:-0.022364874 9:0.19881376 10:-0.43658878 11:0.37810197 12:-0.059450996 13:-0.10530481 14:0.32995699 
32 32 3.355038637913859 32 32 32 32 0 0 32 32 32 32 32 0 0 0 0 1:-0.73940783 2:1.0080122 3:1.0446575 4:-1.4878033 5:-0.35204 6:0.64141388 7:-0.21001975 8:-0.022364874 9:-0.43561388 10:-0.43658878 11:1.4724637 12:1.3952857 13:-0.10530481 14:-1.0381539 
32 32 8.60386264375278 32 0 32 32 32 0 32 2.362319192049263 32 0 32 32 32 22.49573559721517 0 1:-0.73940783 2:-1.0370616 3:-1.2306489 4:1.1307347 5:0.98664239 6:-0.98541786 7:-0.21001975 8:-0.022364874 9:-0.43561388 10:-1.9285624 11:1.4724637 12:1.3952857 13:-0.10530481 14:1.8120771 
32 32 0 32 32 32 32 32 0 32 30.82521137569572 32 0 32 0 0 0 0 1:-0.55441134 2:-0.47931418 3:1.1636277 4:-1.2926327 5:-0.49483279 6:-1.7610004 7:-0.21001975 8:-0.022364874 9:-0.43561388 10:-0.43658878 11:-0.71625974 12:-0.69589829 13:-0.10530481 14:-0.24008921 
32 0 0 32 0 0 32 0 32 0 0 0 0 0 0 0 0 0 1:-0.73940783 2:-1.0370616 3:-0.11530264 4:0.39884522 5:1.1115861 6:-0.15308534 7:-0.21001975 8:-0.022364874 9:-0.43561388 10:2.5473585 11:1.4724637 12:1.3952857 13:-0.10530481 14:-0.24008921 
32 32 29.55643801217984 32 32 32 32 32 23.46253133655919 32 32 32 32 32 32 0 32 0 1:0.55556757 2:-0.10748257 3:0.71748924 4:0.78918628 5:1.3436244 6:-0.94758456 7:-0.21001975 8:-0.022364874 9:1.4676691 10:-0.43658878 11:-0.71625974 12:0.12239109 13:-0.10530481 14:-0.24008921 
32 0 0 32 32 0 32 0 32 32 26.79165813650081 32 0 0 0 0 0 0 1:-0.55441134 2:-0.85114578 3:0.3010933 4:1.1795273 5:0.25482935 6:-0.96650121 7:-0.21001975 8:-0.022364874 9:-0.43561388 10:1.0553848 11:-0.71625974 12:-0.42313516 13:-0.10530481 14:-0.58211692 
32 32 0 32 32 32 32 32 32 32 32 32 0 32 32 32 32 0 1:0.74056406 2:0.078433229 3:-0.73989655 4:0.10608942 5:0.64750952 6:0.4144141 7:-0.21001975 8:-0.022364874 9:-0.43561388 10:-0.43658878 11:-0.71625974 12:-0.96866141 13:-0.10530481 14:-0.69612616 
32 0 0 0 0 0 32 31.08655180193867 32 0 0 0 0 0 0 0 11.72063518940253 0 1:-0.73940783 2:-0.66522998 3:-1.3198766 4:0.49643048 5:-1.3694386 6:-0.96650121 7:-0.21001975 8:-0.022364874 9:-0.43561388 10:1.0553848 11:1.4724637 12:1.3952857 13:-0.10530481 14:1.3560401 
32 32 0 32 32 32 32 32 32 32 0 0 32 0 0 0 0 0 1:-0.55441134 2:0.26434903 3:-0.76963911 4:1.0819421 5:-1.4586841 6:1.3413299 7:-0.21001975 8:-0.022364874 9:-0.43561388 10:1.0553848 11:-0.71625974 12:-0.42313516 13:-0.10530481 14:-0.24008921 
32 32 32 32 32 32 32 32 0 32 0 32 0 32 0 0 26.42734751656891 0 1:0.37057109 2:0.63618063 3:1.0297862 4:-0.52821482 5:-1.7799679 6:-0.98541786 7:-0.21001975 8:-0.022364874 9:-0.43561388 10:-0.43658878 11:-0.71625974 12:-0.69589829 13:-0.10530481 14:-0.24008921 
32 32 0 32 32 0 32 32 0 32 0 32 0 32 32 0 0 0 1:0.74056406 2:0.078433229 3:0.73236052 4:0.78918628 5:-0.4234364 6:0.35766416 7:-0.21001975 8:-0.022364874 9:-0.43561388 10:-0.43658878 11:-0.71625974 12:-0.69589829 13:-0.10530481 14:-1.0381539 
32 32 32 32 32 32 32 32 32 32 32 32 32 32 0 22.18913237755921 32 0 1:-0.18441837 2:-0.47931418 3:0.078024048 4:1.7325105 5:0.32622574 6:-0.98541786 7:-0.21001975 8:-0.022364874 9:1.4676691 10:-0.43658878 11:-0.71625974 12:-0.78681933 13:-0.10530481 14:-0.46810768 
32 32 0 32 32 32 32 25.16233012693931 0 32 32 0 0 0 17.13276133926604 0 15.31358502936184 0 1:-0.73940783 2:-1.0370616 3:1.0595288 4:0.35005258 5:1.2900771 6:1.6818295 7:-0.21001975 8:-0.022364874 9:-0.43561388 10:-0.43658878 11:1.4724637 12:1.3952857 13:-0.10530481 14:-0.69612616 
32 32 0 32 0 0 32 32 32 32 0 32 0 32 0 32 0 0 1:-0.36941486 2:-0.29339837 3:1.5800237 4:1.2445842 5:0.62966042 6:-0.24766858 7:-0.21001975 8:-0.022364874 9:-0.43561388 10:1.0553848 11:-0.71625974 12:-0.96866141 13:-0.10530481 14:1.8120771 
32 32 0 32 32 20.94658995050023 32 32 32 32 32 32 0 32 0 32 0 0 1:0.55556757 2:0.63618063 3:-0.91835195 4:-1.3088969 5:1.1294352 6:-0.039585451 7:-0.21001975 8:-0.022364874 9:-0.43561388 10:1.0553848 11:-0.71625974 12:-0.96866141 13:-0.10530481 14:-0.24008921 
32 0 0 32 32 32 32 3.246773832299436 0 32 32 13.82200293399901 0 0 32 0 32 0 1:0.37057109 2:0.078433229 3:-0.94809452 4:1.309641 5:0.52256583 6:1.4169965 7:-0.21001975 8:-0.022364874 9:-0.43561388 10:-0.43658878 11:-0.71625974 12:0.75883838 13:-0.10530481 14:-0.24008921 
32 0 0 15.76702152842487 0 0 0 16.72084440785675 32 0 0 32 0 0 27.15738069995333 0 0 0 1:-0.73940783 2:-1.4088932 3:1.3123406 4:1.6349253 5:-0.3877382 6:1.6818295 7:-0.21001975 8:-0.022364874 9:-0.43561388 10:1.0553848 11:1.4724637 12:1.3952857 13:-0.10530481 14:1.9260863 
32 32 32 32 32 32 32 32 0 32 32 32 32 32 0 0 0 14.50668075340445 1:-0.55441134 2:-0.66522998 3:0.77697438 4:-0.024024273 5:-1.0124566 6:-1.4015841 7:-0.21001975 8:-0.022364874 9:-0.43561388 10:-0.43658878 11:-0.71625974 12:-0.42313516 13:-0.10530481 14:-0.69612616 
32 32 0 32 32 32 32 32 0 32 32 0 32 32 0 0 0 0 1:-0.73940783 2:0.63618063 3:0.36057844 4:-0.51195061 5:-0.51268189 6:-0.11525204 7:-0.21001975 8:-0.022364874 9:-0.43561388 10:-0.43658878 11:1.4724637 12:1.3952857 13:-0.10530481 14:-0.69612616 
32 32 0 0 0 32 19.91327494049477 9.315984047452217 0 32 0 32 0 0 0 0 0 0 1:-0.73940783 2:-0.85114578 3:-0.51682729 4:1.3259052 5:-1.3158913 6:-1.4015841 7:-0.21001975 8:-0.022364874 9:-0.43561388 10:-0.43658878 11:1.4724637 12:1.3952857 13:-0.10530481 14:1.8120771 
32 32 0 32 32 32 32 32 0 32 32 32 0 32 0 32 0 0 1:1.110557 2:0.45026483 3:-0.73989655 4:0.10608942 5:0.64750952 6:0.4144141 7:-0.21001975 8:-0.022364874 9:-0.43561388 10:-0.43658878 11:-0.71625974 12:-0.96866141 13:-0.10530481 14:-1.0381539 
32 1.209075306821305 0 32 32 32 26.71915482375051 32 0 32 0 32 13.86036316288577 32 32 32 0 0 1:0.1855746 2:-0.10748257 3:-0.72502526 4:-1.2438401 5:1.2186807 6:-1.4394174 7:-0.21001975 8:-0.022364874 9:-0.43561388 10:-0.43658878 11:-0.71625974 12:-0.96866141 13:-0.10530481 14:1.5840586 
32 0 7.84104607202358 32 0 32 9.80319544416972 32 32 29.87667501440932 14.77057955286399 0 0 32 32 32 0 0 1:2.4055324 2:1.9375912 3:-0.10043135 4:1.2608484 5:1.3793226 6:1.3034966 7:-0.21001975 8:-0.022364874 9:-0.43561388 10:1.0553848 11:-0.71625974 12:0.12239109 13:-0.10530481 14:-0.24008921 
32 32 0 32 32 32 18.48313497262592 0 0 32 20.46407663628866 32 2.142571576513375 32 30.46308962599817 0 0 0 1:0.00057811402 2:-0.47931418 3:-0.38298574 4:-1.5203317 5:-1.7799679 6:-1.4015841 7:-0.21001975 8:-0.022364874 9:-0.43561388 10:-2.6745492 11:-0.71625974 12:-0.42313516 13:-0.10530481 14:0.32995699 
32 32 0 32 32 32 32 32 0 32 32 10.2150144269579 32 32 0 0 32 0 1:-0.73940783 2:0.078433229 3:-0.36811446 4:0.70786523 5:-0.69117288 6:1.3413299 7:-0.21001975 8:-0.022364874 9:1.4676691 10:1.0553848 11:1.4724637 12:1.3952857 13:-0.10530481 14:-1.0381539 
32 0 0 32 32 32 32 0 32 32 15.11254009828381 32 0 32 10.08489676553549 21.76934936264278 32 0 1:0.00057811402 2:-0.66522998 3:1.2528554 4:-0.49568639 5:0.34407484 6:0.073914438 7:-0.21001975 8:-0.022364874 9:-0.43561388 10:-0.43658878 11:-0.71625974 12:-0.96866141 13:-0.10530481 14:-0.46810768 
32 32 14.21738063101951 32 32 32 0 32 16.76230282458732 32 32 32 0 32 32 32 27.10262767161433 0 1:2.9605219 2:2.3094229 3:-0.9629658 4:1.1795273 5:0.57611312 6:-1.4015841 7:-0.21001975 8:-0.022364874 9:-0.43561388 10:-0.43658878 11:-0.71625974 12:-0.96866141 13:-0.10530481 14:-1.0381539 
32 32 3.619900297939931 0 0 0 30.12979361009649 0 0 0 0 32 0 32 32 0 0 0 1:-0.73940783 2:-1.4088932 3:0.3010933 4:0.78918628 5:-1.7799679 6:-1.4205008 7:-0.21001975 8:-0.022364874 9:-0.43561388 10:-0.43658878 11:1.4724637 12:1.3952857 13:-0.10530481 14:2.0400956 
32 32 21.69005656033437 32 32 32 32 32 0 32 32 32 32 32 0 0 0 3.718554098110097 1:-0.36941486 2:0.45026483 3:1.2231129 4:0.28499574 5:-1.083853 6:-0.15308534 7:-0.21001975 8:-0.022364874 9:-0.43561388 10:-0.43658878 11:-0.71625974 12:-0.96866141 13:-0.10530481 14:-0.69612616 
32 32 0 32 32 32 32 32 0 32 32 32 0 32 0 6.076028974950551 0 0 1:-0.73940783 2:-0.66522998 3:0.73236052 4:-1.4390106 5:-1.0124566 6:1.0008302 7:-0.21001975 8:-0.022364874 9:-0.43561388 10:-0.43658878 11:1.4724637 12:1.3952857 13:-0.10530481 14:1.3560401 
32 32 0 32 32 32 32 32 0 32 32 32 32 32 0 9.803002631756369 0 0 1:-0.73940783 2:1.193928 3:-1.1860351 4:-1.3088969 5:0.34407484 6:0.37658081 7:-0.21001975 8:-0.022364874 9:-0.43561388 10:-0.43658878 11:1.4724637 12:1.3952857 13:-0.10530481 14:-0.69612616 
32 22.25378077938459 0 32 32 32 32 32 0 32 32 32 32 32 32 0 17.777901571469 0 1:-0.55441134 2:0.078433229 3:0.31596458 4:-0.36557271 5:1.1651334 6:-0.98541786 7:-0.21001975 8:-0.022364874 9:-0.43561388 10:-0.43658878 11:-0.71625974 12:0.84975942 13:-0.10530481 14:2.1541048 
32 0 0 32 0 0 0 32 32 20.322744616239 0 32 0 32 0 3.139910219160296 0 0 1:2.7755254 2:2.4953387 3:0.40519229 4:0.2362031 5:-1.4586841 6:1.0575801 7:-0.21001975 8:-0.022364874 9:-0.43561388 10:1.0553848 11:-0.71625974 12:-1.0595825 13:-0.10530481 14:-1.0381539 
32 0 0 32 32 32 32 32 0 0 0 32 0 32 32 32 0 0 1:0.37057109 2:-0.29339837 3:-0.14504521 4:-1.1950475 5:0.25482935 6:-0.15308534 7:-0.21001975 8:-0.022364874 9:-0.43561388 10:-0.43658878 11:-0.71625974 12:-0.78681933 13:-0.10530481 14:0.55797547 
32 0 0 0 32 0 32 0 32 0 0 0 0 0 0 0 0 0 1:-0.36941486 2:-0.85114578 3:-0.90348067 4:0.93556418 5:-0.79826747 6:1.0575801 7:-0.21001975 8:-0.022364874 9:-0.43561388 10:1.0553848 11:-0.71625974 12:-0.96866141 13:-0.10530481 14:-0.69612616 
32 0 0 32 32 0 32 32 32 0 32 0 32 0 0 8.807798657562728 0 0 1:-0.73940783 2:-0.66522998 3:0.34570715 4:-1.2113117 5:1.1115861 6:0.33874751 7:-0.21001975 8:-0.022364874 9:-0.43561388 10:1.0553848 11:1.4724637 12:1.3952857 13:-0.10530481 14:-0.24008921 
32 32 29.03545046987919 32 32 32 32 0 0 32 32 32 32 32 0 0 0 0 1:-0.73940783 2:0.26434903 3:1.3420832 4:0.28499574 5:-0.13785082 6:1.3034966 7:-0.21001975 8:-0.022364874 9:-0.43561388 10:-0.43658878 11:1.4724637 12:1.3952857 13:-0.10530481 14:-0.92414464 
32 32 0 32 32 0 32 0 0 32 0 0 32 0 0 0 0 0 1:-0.73940783 2:-0.47931418 3:0.71748924 4:0.13861784 5:0.27267845 6:1.0575801 7:-0.21001975 8:-0.022364874 9:-0.43561388 10:1.0553848 11:1.4724637 12:1.3952857 13:-0.10530481 14:-0.24008921 
32 0 0 32 32 0 0 32 32 0 20.28660431329808 0 0 32 0 0 32 0 1:0.74056406 2:0.078433229 3:-0.9629658 4:-1.1950475 5:-0.24494541 6:-0.96650121 7:-0.21001975 8:-0.022364874 9:0.19881376 10:1.0553848 11:-0.71625974 12:0.12239109 13:-0.10530481 14:1.0140124 
32 0 0 32 0 32 32 32 0 32 32 32 0 32 32 32 32 0 1:0.00057811402 2:-0.29339837 3:-0.91835195 4:-0.10534533 5:-0.13785082 6:0.58466394 7:-0.21001975 8:-0.022364874 9:-0.43561388 10:-0.43658878 11:-0.71625974 12:-0.42313516 13:-0.10530481 14:2.0400956 
32 24.39971031356464 0 32 32 32 0 32 32 8.057802422727804 0 32 0 32 0 32 23.12125459704198 0 1:2.0355395 2:1.3798438 3:-0.84399553 4:-0.28425165 5:-1.0124566 6:-1.8177504 7:-0.21001975 8:-0.022364874 9:-0.43561388 10:-0.43658878 11:-0.71625974 12:-0.96866141 13:-0.10530481 14:-1.0381539 
32 32 0 32 32 32 32 0 0 32 32 32 32 32 0 0 0 0 1:-0.55441134 2:-0.29339837 3:1.2379842 4:-1.0649338 5:0.29052755 6:-0.98541786 7:-0.21001975 8:-0.022364874 9:-0.43561388 10:-0.43658878 11:-0.71625974 12:-0.42313516 13:-0.10530481 14:-0.24008921 
32 0 0 32 32 0 32 32 0 32 32 0 0 0 32 0 32 0 1:-0.92440431 2:-1.594809 3:-2.6285496 4:0.75665786 5:0.25482935 6:0.33874751 7:4.7608618 8:-0.022364874 9:0.19881376 10:1.0553848 11:0.37810197 12:-0.059450996 13:-0.10530481 14:0.55797547 
32 32 0 32 32 32 32 32 32 32 0 32 0 32 32 32 0 0 1:0.00057811402 2:-0.29339837 3:-0.99270837 4:0.70786523 5:-1.4229859 6:0.9251636 7:-0.21001975 8:-0.022364874 9:-0.43561388 10:-0.43658878 11:-0.71625974 12:-0.96866141 13:-0.10530481 14:0.32995699 
32 32 0 0 32 32 32 32 0 32 32 0 16.61022614892119 15.45935496990331 0 0 0.6366811732853584 0 1:-0.73940783 2:-0.85114578 3:1.1933703 4:-0.51195061 5:-1.3694386 6:0.67924718 7:-0.21001975 8:-0.022364874 9:-0.43561388 10:-0.43658878 11:1.4724637 12:1.3952857 13:-0.10530481 14:-0.24008921 
32 32 0 32 32 32 32 32 0 32 32 32 32 32 0 32 0 0 1:-0.55441134 2:-0.66522998 3:-0.97783708 4:0.2362031 5:-1.6728733 6:-0.43683506 7:-0.21001975 8:-0.022364874 9:-0.43561388 10:-0.43658878 11:-0.71625974 12:-0.42313516 13:-0.10530481 14:-0.46810768 
32 32 0 0 32 32 32 0 0 32 32 32 0 32 0 0 0 0 1:-0.73940783 2:-0.66522998 3:0.95542978 4:1.0331494 5:0.57611312 6:-0.98541786 7:-0.21001975 8:-0.022364874 9:-0.43561388 10:-0.43658878 11:1.4724637 12:1.3952857 13:-0.10530481 14:-0.69612616 
32 32 0 32 32 0 32 32 32 32 32 32 0 20.34236107963945 0 0 32 0 1:-0.73940783 2:-0.66522998 3:1.3123406 4:0.70786523 5:-0.20924721 6:1.3413299 7:-0.21001975 8:-0.022364874 9:1.4676691 10:1.0553848 11:1.4724637 12:1.3952857 13:-0.10530481 14:1.6980679 
32 15.58479840629866 0 32 0 0 0 32 32 0 0 32 0 32 0 32 0 0 1:2.5905289 2:2.3094229 3:1.178499 4:0.72412944 5:0.27267845 6:-0.039585451 7:-0.21001975 8:-0.022364874 9:-0.43561388 10:1.0553848 11:-0.71625974 12:-0.96866141 13:-0.10530481 14:0.32995699 
32 32 0 32 32 32 32 32 0 32 32 0 32 0 0 0 0 0 1:-0.73940783 2:-0.10748257 3:0.76210309 4:1.1144705 5:-0.45913459 6:1.549413 7:-0.21001975 8:-0.022364874 9:-0.43561388 10:-0.43658878 11:1.4724637 12:1.3952857 13:-0.10530481 14:-1.0381539 
32 32 6.313539822327623 32 32 0 32 32 32 32 0 32 7.084743316231156 32 0 0 29.67121347785936 0 1:0.55556757 2:0.82209644 3:1.5651524 4:0.382581 5:-1.0660039 6:-0.96650121 7:-0.21001975 8:-0.022364874 9:-0.43561388 10:1.0553848 11:-0.71625974 12:-0.42313516 13:-0.10530481 14:-0.24008921 
32 0 0 32 32 0 32 32 32 0 0 0 0 0 0 30.5698635306793 0 0 1:0.00057811402 2:-0.47931418 3:-0.84399553 4:-0.77217798 5:0.59396222 6:-0.96650121 7:-0.21001975 8:-0.022364874 9:-0.43561388 10:1.0553848 11:-0.71625974 12:-0.42313516 13:-0.10530481 14:-0.24008921 
32 0 0 32 0 0 32 0 32 32 0 32 0 32 32 0 0 0 1:-0.18441837 2:-0.85114578 3:0.76210309 4:-0.30051586 5:0.30837664 6:-0.98541786 7:-0.21001975 8:-0.022364874 9:-0.43561388 10:-0.43658878 11:-0.71625974 12:-0.96866141 13:-0.10530481 14:2.0400956 
32 32 27.52119212621283 32 32 32 14.87775906285624 32 6.972135361822766 32 32 32 12.14303970062221 32 32 21.35123603412451 6.170534172825779 0 1:2.9605219 2:3.4249177 3:1.5205386 4:0.80545049 5:1.8969464 6:-1.7420838 7:-0.21001975 8:-0.022364874 9:1.4676691 10:-0.43658878 11:-0.71625974 12:-0.42313516 13:-0.10530481 14:-1.0381539 
32 0 0 32 0 0 32 7.875245747821096 0 32 0 32 0 32 32 0 0 0 1:-0.55441134 2:-0.85114578 3:0.3010933 4:1.1307347 5:0.25482935 6:0.9251636 7:-0.21001975 8:-0.022364874 9:-0.43561388 10:-0.43658878 11:-0.71625974 12:-0.42313516 13:-0.10530481 14:1.8120771 
32 32 0 32 32 0 32 32 32 32 32 0 32 32 0 32 30.33082929400535 0 1:0.1855746 2:0.26434903 3:1.0446575 4:-0.54447903 5:0.95094419 6:0.33874751 7:-0.21001975 8:-0.022364874 9:-0.43561388 10:1.0553848 11:-0.71625974 12:-0.42313516 13:-0.10530481 14:-0.46810768 
32 2.167613211979788 8.149395222765728 23.72841038325961 0.6869889856068331 3.08933233678763 0 18.90500090439284 32 31.64361059981618 8.536775459356072 10.21349552385351 0 25.95649286916468 0 7.078827234431826 2.845719823895359 0 1:1.6655465 2:1.9375912 3:0.82158823 4:-0.54447903 5:1.2365298 6:1.0575801 7:-0.21001975 8:-0.022364874 9:-0.43561388 10:1.0553848 11:-0.71625974 12:-0.96866141 13:9.5225635 14:-0.46810768 
32 0 0 32 32 0 32 32 32 0 32 0 32 0 0 0 0 0 1:-0.73940783 2:-1.0370616 3:-0.33837189 4:-1.3088969 5:1.2186807 6:0.33874751 7:-0.21001975 8:-0.022364874 9:-0.43561388 10:1.0553848 11:1.4724637 12:1.3952857 13:-0.10530481 14:-0.69612616 
32 32 0.3630006435751578 32 32 9.533232370037751 0 32 13.51821754720117 32 0 32 0 32 0 0 0 0 1:1.850543 2:1.193928 3:1.0446575 4:-1.2601043 5:-1.0124566 6:-1.3070009 7:-0.21001975 8:-0.022364874 9:-0.43561388 10:-0.43658878 11:-0.71625974 12:-0.96866141 13:-0.10530481 14:-1.0381539 
32 32 0 32 32 32 32 15.70472701196196 0 32 32 32 32 32 0 0 0 0 1:-0.73940783 2:-0.29339837 3:1.4015683 4:-0.10534533 5:-0.29849271 6:0.64141388 7:-0.21001975 8:-0.022364874 9:-0.43561388 10:-0.43658878 11:1.4724637 12:1.3952857 13:-0.10530481 14:-0.69612616 
32 0 32 32 32 0 32 32 32 0 12.75920626219126 32 0 32 0 32 0 0 1:-0.18441837 2:-0.47931418 3:1.178499 4:-1.2926327 5:0.27267845 6:-1.2691676 7:-0.21001975 8:-0.022364874 9:-0.43561388 10:1.0553848 11:-0.71625974 12:-0.96866141 13:-0.10530481 14:0.90000318 
32 32 32 32 32 32 32 32 0 32 32 32 13.03535847675952 32 0 0 0 0 1:0.1855746 2:0.45026483 3:0.82158823 4:-0.77217798 5:-1.3694386 6:0.24416427 7:-0.21001975 8:-0.022364874 9:-0.43561388 10:-0.43658878 11:-0.71625974 12:-0.69589829 13:-0.10530481 14:-1.0381539 
32 0 0 0 0 0 32 26.49574044960468 32 0 0 32 0 0 0 5.8967574005076 0 0 1:-0.73940783 2:-1.4088932 3:1.0297862 4:0.75665786 5:-1.0124566 6:-0.96650121 7:-0.21001975 8:-0.022364874 9:-0.43561388 10:1.0553848 11:1.4724637 12:1.3952857 13:-0.10530481 14:1.9260863 
32 0 0 32 32 32 32 32 0 32 32 0 32 0 0 32 0 0 1:-0.73940783 2:-1.0370616 3:-1.1562925 4:-1.1137264 5:0.9330951 6:-0.43683506 7:-0.21001975 8:-0.022364874 9:-0.43561388 10:-0.43658878 11:1.4724637 12:1.3952857 13:-0.10530481 14:-0.24008921 
32 32 0 32 32 32 32 32 0 32 32 32 32 32 0 0 0 0 1:-0.73940783 2:-0.85114578 3:0.13750918 4:1.1795273 5:0.66535862 6:-1.4205008 7:-0.21001975 8:-0.022364874 9:1.4676691 10:-0.43658878 11:1.4724637 12:1.3952857 13:-0.10530481 14:-0.12607997 
32 32 0 32 0 0 32 32 32 32 0 32 0 32 0 0 0 0 1:0.00057811402 2:0.26434903 3:-0.14504521 4:0.93556418 5:-1.0124566 6:1.0575801 7:-0.21001975 8:-0.022364874 9:-0.43561388 10:1.0553848 11:-0.71625974 12:-0.96866141 13:-0.10530481 14:1.6980679 
32 3.629540165135798 0 0 0 0 0 32 32 32 0 0 0 32 0 0 0 0 1:1.2955535 2:1.0080122 3:-0.84399553 4:-0.30051586 5:-1.5479296 6:1.0575801 7:-0.21001975 8:-0.022364874 9:-0.43561388 10:1.0553848 11:1.4724637 12:-0.15037204 13:-0.10530481 14:-0.24008921 
32 32 0 32 0 0 32 32 32 32 0 32 0 0 0 0 0 0 1:-0.73940783 2:-0.85114578 3:1.5502811 4:0.75665786 5:-1.1017021 6:0.33874751 7:-0.21001975 8:-0.022364874 9:-0.43561388 10:1.0553848 11:1.4724637 12:1.3952857 13:-0.10530481 14:2.0400956 
32 32 0 32 32 0 32 32 0 32 32 32 32 0 0 32 32 0 1:-0.73940783 2:-0.85114578 3:1.3123406 4:-1.3088969 5:-0.20924721 6:-0.96650121 7:-0.21001975 8:-0.022364874 9:1.4676691 10:1.0553848 11:1.4724637 12:1.3952857 13:-0.10530481 14:-0.12607997 
32 32 0 32 32 32 32 32 0 32 32 32 13.91167367756051 32 32 0 0 0 1:-0.55441134 2:-0.47931418 3:-0.50195601 4:-0.77217798 5:0.34407484 6:0.24416427 7:-0.21001975 8:-0.022364874 9:-0.43561388 10:-0.43658878 11:-0.71625974 12:-0.42313516 13:-0.10530481 14:2.1541048 
32 31.77927194332799 0 32 32 0 0 2.987190558784286 0 32 32 0 0 0 0 0 8.110283517798942 0 1:-0.92440431 2:-1.0370616 3:-2.1675398 4:0.70786523 5:-0.56622919 6:-0.96650121 7:4.7608618 8:-0.022364874 9:-0.43561388 10:1.0553848 11:0.37810197 12:-0.059450996 13:-0.10530481 14:0.55797547 
32 32 0 32 32 18.9889919646229 0 0 32 0 0 20.23768919064345 0 32 9.135485604658918 32 0 0 1:1.110557 2:0.82209644 3:-1.0670648 4:-0.30051586 5:1.7720027 6:-0.81516802 7:-0.21001975 8:-0.022364874 9:-2.9733245 10:-0.43658878 11:-0.71625974 12:-0.96866141 13:-0.10530481 14:-1.0381539 
32 0 0 32 0 7.109046346483674 32 32 32 10.53760465018791 0 32 0 32 32 0 32 0 1:-0.73940783 2:-1.4088932 3:-0.36811446 4:-0.41436534 5:1.1294352 6:-0.096335395 7:-0.21001975 8:-0.022364874 9:-0.43561388 10:-0.43658878 11:1.4724637 12:1.3952857 13:-0.10530481 14:2.0400956 
32 32 0 32 25.58914431304149 32 32 32 0 32 32 32 0 32 0 32 11.24546926232302 0 1:0.92556054 2:1.5657596 3:-0.7845104 4:-0.51195061 5:-1.0124566 6:0.67924718 7:-0.21001975 8:-0.022364874 9:-0.43561388 10:-0.43658878 11:-0.71625974 12:-0.96866141 13:-0.10530481 14:0.78599394 
32 0 24.88547656336352 32 32 32 32 0 32 32 32 32 0 32 0 14.79793427854667 0 0 1:0.00057811402 2:-0.66522998 3:0.76210309 4:-1.0974622 5:-0.47698369 6:1.22783 7:-0.21001975 8:-0.022364874 9:-0.43561388 10:-0.43658878 11:-0.71625974 12:-0.96866141 13:-0.10530481 14:-0.24008921 
32 32 0 32 32 32 32 32 0 32 32 32 32 32 0 16.15468149806827 0 0 1:-0.36941486 2:-0.10748257 3:-1.1414212 4:0.75665786 5:0.040640166 6:0.75491377 7:-0.21001975 8:-0.022364874 9:-0.43561388 10:-0.43658878 11:-0.71625974 12:-0.42313516 13:-0.10530481 14:-0.24008921 
32 0 0 0 0 13.1271627539468 0 0 32 0 0 0 0 0 0 0 0 0 1:-0.73940783 2:-1.0370616 3:-0.91835195 4:1.618661 5:-1.6728733 6:1.0575801 7:-0.21001975 8:-0.022364874 9:-0.43561388 10:1.0553848 11:1.4724637 12:1.3952857 13:-0.10530481 14:1.3560401 
32 32 0 32 32 32 32 32 0 32 32 32 32 0 0 32 0 0 1:-0.73940783 2:-0.29339837 3:1.2082416 4:-0.26798744 5:0.915246 6:-0.020668803 7:-0.21001975 8:-0.022364874 9:-0.43561388 10:-0.43658878 11:1.4724637 12:1.3952857 13:-0.10530481 14:-0.24008921 
32 32 15.17851123059163 32 32 0 0 32 27.72827390819529 32 0 32 0 32 32 32 0 0 1:2.9605219 2:2.3094229 3:1.0446575 4:0.073560994 5:-0.35204 6:-1.0800011 7:-0.21001975 8:-0.022364874 9:-0.43561388 10:-0.43658878 11:-0.71625974 12:-0.96866141 13:-0.10530481 14:-0.69612616 
32 32 7.858155510509913 32 0 0 0 32 32 32 0 32 0 32 0 32 0 0 1:2.5905289 2:2.123507 3:0.76210309 4:1.1795273 5:0.30837664 6:-0.68275149 7:-0.21001975 8:-0.022364874 9:-0.43561388 10:1.0553848 11:-0.71625974 12:-0.96866141 13:-0.10530481 14:-1.0381539 
32 32 3.10604275669465 23.29129359483182 32 32 32 32 0 32 32 32 0 32 0 0 0 0 1:-0.73940783 2:-0.29339837 3:0.71748924 4:1.0168852 5:-0.79826747 6:-0.96650121 7:-0.21001975 8:-0.022364874 9:-0.43561388 10:-0.43658878 11:1.4724637 12:1.3952857 13:-0.10530481 14:-0.24008921 
32 32 14.41709825231967 32 32 32 32 32 0 32 32 32 4.401352332521273 32 0 32 4.293682038055905 0 1:0.37057109 2:1.3798438 3:-0.88860938 4:1.22832 5:-1.0124566 6:-1.0610844 7:-0.21001975 8:-0.022364874 9:-0.43561388 10:-0.43658878 11:-0.71625974 12:-0.42313516 13:-0.10530481 14:-1.0381539 
32 0 0 0 0 0 32 0 32 0 0 20.97744809590197 0 0 32 0 2.242398953238859 0 1:-0.36941486 2:-1.0370616 3:-0.14504521 4:1.2771126 5:-1.0124566 6:1.3413299 7:-0.21001975 8:-0.022364874 9:-0.43561388 10:1.0553848 11:-0.71625974 12:-0.69589829 13:-0.10530481 14:1.4700494 
32 32 32 32 32 32 32 32 0 32 32 32 32 32 0 32 0 0 1:-0.36941486 2:0.63618063 3:1.178499 4:-1.3088969 5:0.9330951 6:1.1332467 7:-0.21001975 8:-0.022364874 9:-0.43561388 10:-0.43658878 11:-0.71625974 12:-0.42313516 13:-0.10530481 14:-0.46810768 
32 0 0 32 16.04500371463394 0 0 0 17.98098357959681 0 32 0 0 0 32 0 7.202499510670136 0 1:-0.92440431 2:-1.594809 3:-1.498332 4:0.93556418 5:-1.1909476 6:1.3413299 7:4.7608618 8:-0.022364874 9:-0.43561388 10:1.0553848 11:0.37810197 12:-0.059450996 13:-0.10530481 14:0.55797547 
32 32 32 32 0 32 0 32 0 32 0 32 0 0 0 0 0 0 1:-0.73940783 2:-1.2229774 3:-0.24914419 4:1.309641 5:-0.90536206 6:1.4169965 7:-0.21001975 8:-0.022364874 9:-0.43561388 10:-0.43658878 11:1.4724637 12:1.3952857 13:-0.10530481 14:2.0400956 
32 32 0 32 32 32 32 32 0 32 32 32 0 32 32 32 31.89251362215906 0 1:0.00057811402 2:-0.29339837 3:-0.39785703 4:-0.46315797 5:0.98664239 6:1.1332467 7:-0.21001975 8:-0.022364874 9:-0.43561388 10:-0.43658878 11:-0.71625974 12:-0.96866141 13:-0.10530481 14:-0.46810768 
32 0 0 32 0 0 32 32 32 32 0 32 0 0 0 0 32 0 1:-0.73940783 2:-0.66522998 3:-0.91835195 4:1.309641 5:-0.13785082 6:1.0575801 7:-0.21001975 8:-0.022364874 9:-0.43561388 10:1.0553848 11:1.4724637 12:1.3952857 13:-0.10530481 14:1.6980679 
32 32 0 32 32 32 32 32 0 32 32 32 0 0 0 0 0 0 1:-0.73940783 2:-0.29339837 3:0.31596458 4:0.90303576 5:0.46901853 6:0.58466394 7:-0.21001975 8:-0.022364874 9:-0.43561388 10:-0.43658878 11:1.4724637 12:1.3952857 13:-0.10530481 14:-0.24008921 
32 0 0 32 32 32 0 0 10.77756496566302 32 32 32 0 32 0 0 0 0 1:1.2955535 2:0.63618063 3:-0.88860938 4:-1.2438401 5:-1.1195512 6:0.24416427 7:-0.21001975 8:-0.022364874 9:-0.43561388 10:-0.43658878 11:-0.71625974 12:0.12239109 13:-0.10530481 14:-0.69612616 
32 0 0 32 0 0 32 32 32 0 32 0 15.70463994155933 0 0 32 0 0 1:-0.73940783 2:-0.85114578 3:0.82158823 4:-1.2926327 5:1.3614735 6:0.16849768 7:-0.21001975 8:-0.022364874 9:-0.43561388 10:1.0553848 11:1.4724637 12:1.3952857 13:-0.10530481 14:0.32995699 
32 0 0 32 0 32 32 32 0 0 32 8.848096689261309 0 0 0 32 0 0 1:-0.73940783 2:-1.4088932 3:-1.0224509 4:-1.2113117 5:0.040640166 6:0.58466394 7:-0.21001975 8:-0.022364874 9:-0.43561388 10:-0.43658878 11:1.4724637 12:1.3952857 13:-0.10530481 14:0.55797547 
32 0.4157615938376298 14.39810888074946 5.859426483183749 16.19641784688917 0 0 32 11.14885760229376 32 17.1557676674923 32 0 32 1.273625042169589 0 9.692937179051567 0 1:-0.55441134 2:-0.66522998 3:1.2677267 4:1.53734 5:0.8616987 6:-0.41791841 7:-0.21001975 8:-0.022364874 9:-0.43561388 10:-0.43658878 11:-0.71625974 12:-0.42313516 13:9.5225635 14:0.32995699 
32 32 10.02459622286913 32 32 17.04438076525337 32 32 0.915178414634479 32 32 19.60262961725068 32 32 0 0 0 0 1:-0.92440431 2:-0.47931418 3:-2.8813614 4:-1.1299906 5:1.3436244 6:1.6818295 7:4.7608618 8:-0.022364874 9:1.4676691 10:1.0553848 11:0.37810197 12:-0.059450996 13:-0.10530481 14:0.55797547 
32 32 0 0 32 32 32 0 0 32 0 0 0 0 0 0 0 0 1:-0.73940783 2:-1.0370616 3:-0.15991649 4:0.17114626 5:-0.066454425 6:-0.81516802 7:-0.21001975 8:-0.022364874 9:-0.43561388 10:-0.43658878 11:1.4724637 12:1.3952857 13:-0.10530481 14:-0.69612616 
32 0 0 32 0 0 32 32 32 0 0 32 0 32 32 0 0 0 1:0.00057811402 2:-0.66522998 3:1.0446575 4:0.13861784 5:0.48686763 6:-0.96650121 7:-0.21001975 8:-0.022364874 9:-0.43561388 10:1.0553848 11:-0.71625974 12:-0.69589829 13:-0.10530481 14:1.8120771 
32 32 0 32 32 32 1.41531130546138 32 0 32 32 32 0 32 0 32 0 0 1:-0.18441837 2:-0.47931418 3:-0.85886682 4:-1.2113117 5:-1.4229859 6:0.58466394 7:-0.21001975 8:-0.022364874 9:-0.43561388 10:-0.43658878 11:-0.71625974 12:-0.96866141 13:-0.10530481 14:-0.24008921 
32 32 0 32 32 32 32 0 0 32 32 32 0 0 28.04518025126266 30.81431251755394 1.744862605926825 0 1:-0.73940783 2:-0.85114578 3:0.82158823 4:1.6023968 5:0.094187462 6:-1.4205008 7:-0.21001975 8:-0.022364874 9:-0.43561388 10:-2.6745492 11:1.4724637 12:1.3952857 13:-0.10530481 14:0.32995699 
32 32 0 32 32 0 32 32 32 32 0 0 0 0 0 0 0 0 1:-0.73940783 2:-0.66522998 3:-0.33837189 4:1.5861326 5:1.2186807 6:-0.039585451 7:-0.21001975 8:-0.022364874 9:-0.43561388 10:1.0553848 11:1.4724637 12:1.3952857 13:-0.10530481 14:-0.8101354 
32 32 9.919190514961263 32 32 30.05897336200993 0 21.48796351052056 0 32 32 0 32 20.58120011905067 32 0 0 0 1:-0.92440431 2:-1.594809 3:-2.9259752 4:-1.1950475 5:-0.24494541 6:-0.15308534 7:4.7608618 8:-0.022364874 9:0.19881376 10:-0.43658878 11:0.37810197 12:-0.059450996 13:-0.10530481 14:0.32995699 
32 0 0 0 32 0 32 0 32 0 0 0 0 0 32 0 0 0 1:-0.73940783 2:-1.2229774 3:1.5651524 4:-0.46315797 5:1.0758879 6:0.33874751 7:-0.21001975 8:-0.022364874 9:-0.43561388 10:1.0553848 11:1.4724637 12:1.3952857 13:-0.10530481 14:-1.0381539 
32 14.85498728908007 22.63533925180261 0 0 32 0 0 0 0 0 0 0 0 32 32 0 0 1:-0.73940783 2:-0.66522998 3:0.64313282 4:-0.90229167 5:-1.7085715 6:-1.7420838 7:-0.21001975 8:-0.022364874 9:-2.3388968 10:-0.43658878 11:1.4724637 12:1.3952857 13:-0.10530481 14:0.32995699 
32 0 0 32 30.61333615758366 0 32 0 32 0 32 0 0 0 0 26.7135074757198 2.137093724191986 0 1:0.74056406 2:0.26434903 3:1.4759247 4:-1.0161412 5:0.59396222 6:0.26308092 7:-0.21001975 8:-0.022364874 9:-0.43561388 10:4.0393321 11:-0.71625974 12:-0.42313516 13:-0.10530481 14:-0.24008921 
32 30.05787802170836 0 32 32 32 32 32 0 32 32 32 0 0 0 0 0 0 1:-0.73940783 2:-1.0370616 3:0.31596458 4:-0.51195061 5:0.46901853 6:0.58466394 7:-0.21001975 8:-0.022364874 9:-0.43561388 10:-0.43658878 11:1.4724637 12:1.3952857 13:-0.10530481 14:-0.24008921 
32 32 0 32 32 32 32 32 32 32 32 32 32 32 0 32 0 0 1:0.1855746 2:0.26434903 3:-1.2306489 4:-1.1462548 5:0.98664239 6:1.3413299 7:-0.21001975 8:-0.022364874 9:-0.43561388 10:1.0553848 11:-0.71625974 12:-0.96866141 13:-0.10530481 14:-0.69612616 
32 0 0 32 32 0 32 8.17279985669307 32 32 32 0 18.53309777691536 18.85644519744178 0 0 32 0 1:-0.55441134 2:0.078433229 3:-0.84399553 4:0.70786523 5:0.64750952 6:1.3413299 7:-0.21001975 8:-0.022364874 9:-0.43561388 10:1.0553848 11:-0.71625974 12:0.75883838 13:-0.10530481 14:1.0140124 
32 32 0 0 0 0 32 32 32 0 0 32 0 0 0 0 0 0 1:-0.73940783 2:-1.0370616 3:0.82158823 4:0.74039365 5:-1.3694386 6:-0.96650121 7:-0.21001975 8:-0.022364874 9:-0.43561388 10:1.0553848 11:1.4724637 12:1.3952857 13:-0.10530481 14:1.6980679 
32 32 0 0 32 0 32 0 32 0 0 0 0 0 0 1.906823552371737 0 0.747733231390514 1:-0.55441134 2:-0.29339837 3:1.282598 4:1.309641 5:-1.0124566 6:-0.039585451 7:-0.21001975 8:-0.022364874 9:-2.9733245 10:1.0553848 11:-0.71625974 12:-0.42313516 13:-0.10530481 14:-0.46810768 
32 32 0 32 32 32 32 32 0 32 32 0 0 0 0 0 0 0 1:-0.73940783 2:-1.0370616 3:0.24160817 4:1.309641 5:0.915246 6:1.4169965 7:-0.21001975 8:-0.022364874 9:-0.43561388 10:-0.43658878 11:1.4724637 12:1.3952857 13:-0.10530481 14:-0.24008921 
32 32 0 32 32 0 32 32 32 32 0 0 0 0 0 0 32 0 1:0.00057811402 2:0.078433229 3:0.10776662 4:0.70786523 5:-1.7799679 6:1.0575801 7:-0.21001975 8:-0.022364874 9:-0.43561388 10:1.0553848 11:-0.71625974 12:-0.42313516 13:-0.10530481 14:-0.24008921 
32 0 0 0 0 0 5.099461319956742 0 32 0 0 0 0 0 32 32 0 0 1:-0.73940783 2:-1.4088932 3:-0.35324317 4:-1.2113117 5:-1.0124566 6:-1.2691676 7:-0.21001975 8:-0.022364874 9:-0.43561388 10:1.0553848 11:1.4724637 12:1.3952857 13:-0.10530481 14:-0.24008921 
32 32 0 0 32 0 32 0 32 18.43975426793016 23.93539352706293 0 0 0 0 0 0 0 1:-0.73940783 2:-0.85114578 3:1.5354098 4:0.2362031 5:1.2900771 6:0.81166371 7:-0.21001975 8:-0.022364874 9:-0.43561388 10:1.0553848 11:1.4724637 12:1.3952857 13:-0.10530481 14:-0.69612616 
32 32 0 0 32 0 32 0 0 0 0 0 0 0 0 0 0 0 1:-0.73940783 2:-1.0370616 3:0.3010933 4:0.91929997 5:-0.79826747 6:-0.039585451 7:-0.21001975 8:-0.022364874 9:-0.43561388 10:1.0553848 11:1.4724637 12:1.3952857 13:-0.10530481 14:-0.24008921 
32 32 0 32 32 32 32 32 0 32 32 32 0 32 0 0 0 0 1:-0.55441134 2:0.078433229 3:1.4015683 4:0.25246732 5:-0.29849271 6:1.0954134 7:-0.21001975 8:-0.022364874 9:-0.43561388 10:-0.43658878 11:-0.71625974 12:-0.42313516 13:-0.10530481 14:0.32995699 
32 32 0 32 32 30.83877812808813 32 0 0 32 32 0 22.0574741910999 0 0 0 0 0 1:-0.92440431 2:-0.10748257 3:-2.9705891 4:-0.56074324 5:-1.2801931 6:1.0575801 7:4.7608618 8:-0.022364874 9:0.19881376 10:1.0553848 11:0.37810197 12:-0.059450996 13:-0.10530481 14:0.55797547 
32 0 0 32 32 32 32 32 0 0 0 32 0 32 32 32 0 0 1:0.00057811402 2:-0.47931418 3:-0.53169858 4:-1.1137264 5:0.34407484 6:-1.2502509 7:-0.21001975 8:-0.022364874 9:-0.43561388 10:-0.43658878 11:-0.71625974 12:-0.78681933 13:-0.10530481 14:0.32995699 
32 32 0 32 32 0 32 32 32 32 0 32 0 32 32 32 32 0 1:0.00057811402 2:-0.66522998 3:1.3123406 4:0.17114626 5:0.29052755 6:-0.49358501 7:-0.21001975 8:-0.022364874 9:-0.43561388 10:-0.43658878 11:-0.71625974 12:-0.96866141 13:-0.10530481 14:-0.24008921 
32 32 32 32 32 32 32 0 0 32 32 32 0 32 4.762785275113126 17.18923827701007 0 0 1:0.74056406 2:0.078433229 3:0.2118656 4:-0.54447903 5:0.14773476 6:0.26308092 7:-0.21001975 8:-0.022364874 9:-0.43561388 10:-2.6745492 11:-0.71625974 12:-0.96866141 13:-0.10530481 14:-1.0381539 
32 0 0 32 0 32 0 15.72232938207637 0 0 0 32 0 32 32 0 0 0 1:0.74056406 2:0.078433229 3:0.3010933 4:-1.1137264 5:-0.13785082 6:-0.98541786 7:-0.21001975 8:-0.022364874 9:-0.43561388 10:-0.43658878 11:-0.71625974 12:-0.69589829 13:-0.10530481 14:1.5840586 
32 32 0 32 32 32 32 32 0 32 32 32 1.343275329521181 32 32 32 0 0 1:0.1855746 2:0.45026483 3:0.34570715 4:1.000621 5:1.1115861 6:-1.0800011 7:-0.21001975 8:-0.022364874 9:-0.43561388 10:-0.43658878 11:-0.71625974 12:-0.42313516 13:-0.10530481 14:0.32995699 
32 32 0 32 0 0 0 31.4411477750433 32 32 0 32 0 32 0 32 0 0 1:2.9605219 2:2.4953387 3:0.95542978 4:0.72412944 5:0.77245321 6:-0.039585451 7:-0.21001975 8:-0.022364874 9:-0.43561388 10:1.0553848 11:-0.71625974 12:-0.96866141 13:-0.10530481 14:-1.0381539 
32 32 32 32 32 32 32 32 0 32 32 32 32 32 0 0 0 0 1:-0.36941486 2:-0.47931418 3:0.25647945 4:-0.30051586 5:-1.0124566 6:0.22524762 7:-0.21001975 8:-0.022364874 9:-0.43561388 10:-0.43658878 11:-0.71625974 12:-0.96866141 13:-0.10530481 14:-1.0381539 
32 32 0 32 32 32 0 32 32 32 32 32 0 32 32 32 0 0 1:0.92556054 2:0.26434903 3:-1.0224509 4:0.78918628 5:-1.2087967 6:1.22783 7:-0.21001975 8:-0.022364874 9:-0.43561388 10:-0.43658878 11:-0.71625974 12:-0.96866141 13:-0.10530481 14:-1.0381539 
32 32 28.49669287972129 32 32 0 32 32 16.41854243120877 32 32 32 0 25.72863352677384 18.52215962760831 0 6.469419666319687 0 1:-0.92440431 2:-1.594809 3:-2.2567675 4:1.6349253 5:1.3436244 6:-0.68275149 7:4.7608618 8:-0.022364874 9:1.4676691 10:1.0553848 11:0.37810197 12:-0.059450996 13:-0.10530481 14:0.55797547 
32 32 10.90955246709097 32 32 32 0 0.5130406766781488 0 32 32 32 0 32 12.88386851581861 32 0 0 1:2.5905289 2:2.123507 3:0.76210309 4:-0.49568639 5:0.30837664 6:0.9629969 7:-0.21001975 8:-0.022364874 9:-0.43561388 10:-0.43658878 11:-0.71625974 12:-0.96866141 13:-0.10530481 14:-0.69612616 
32 32 0 32 32 32 32 32 0 32 32 32 20.5145609528318 32 0 0 0 0 1:-0.36941486 2:0.078433229 3:0.3010933 4:0.28499574 5:0.25482935 6:0.64141388 7:-0.21001975 8:-0.022364874 9:-0.43561388 10:-0.43658878 11:-0.71625974 12:-0.69589829 13:-0.10530481 14:1.0140124 
32 32 0 32 32 32 32 24.73672509481655 0 32 32 0 32 32 0 0 0 0 1:-0.73940783 2:0.26434903 3:-0.91835195 4:-1.1950475 5:-1.7085715 6:0.86841366 7:-0.21001975 8:-0.022364874 9:-0.43561388 10:-0.43658878 11:1.4724637 12:1.3952857 13:-0.10530481 14:-0.69612616 
32 32 0 32 32 32 32 32 0 32 32 32 0 32 0 32 0 0 1:0.74056406 2:0.45026483 3:-0.99270837 4:-0.26798744 5:-1.3158913 6:-0.020668803 7:-0.21001975 8:-0.022364874 9:-0.43561388 10:-0.43658878 11:-0.71625974 12:-0.96866141 13:-0.10530481 14:-0.24008921 
32 13.33687001997457 7.957463386226788 32 32 0 32 32 32 32 32 32 9.257284566306652 32 0.9430348846808567 0 32 0 1:2.7755254 2:2.8671703 3:1.5800237 4:0.70786523 5:-0.20924721 6:1.3413299 7:-0.21001975 8:-0.022364874 9:1.4676691 10:1.0553848 11:-0.71625974 12:-0.78681933 13:-0.10530481 14:-0.24008921 
32 0 0 32 0 0 32 32 32 0 32 32 0 32 0 32 0 0 1:1.850543 2:1.193928 3:-0.73989655 4:0.18741047 5:0.64750952 6:-0.24766858 7:-0.21001975 8:-0.022364874 9:-0.43561388 10:1.0553848 11:-0.71625974 12:-0.69589829 13:-0.10530481 14:-0.69612616 
32 32 32 32 32 32 32 32 0 32 32 32 32 32 23.62699311160265 0 32 0 1:-0.18441837 2:0.078433229 3:0.65800411 4:0.25246732 5:0.32622574 6:1.1899967 7:-0.21001975 8:-0.022364874 9:1.4676691 10:-0.43658878 11:-0.71625974 12:-0.42313516 13:-0.10530481 14:2.1541048 
32 0 0 0 0 0 0 0 0 0 0 32 0 0 32 0 0 0 1:-0.73940783 2:-1.4088932 3:-1.0224509 4:0.78918628 5:-1.2087967 6:-0.15308534 7:-0.21001975 8:-0.022364874 9:-0.43561388 10:-0.43658878 11:1.4724637 12:1.3952857 13:-0.10530481 14:2.0400956 
32 0 0 32 0 32 0 32 32 0 0 32 0 32 32 0 19.97354901429123 0 1:-0.36941486 2:-0.66522998 3:-0.14504521 4:-1.1137264 5:-1.8692134 6:-0.039585451 7:-0.21001975 8:-0.022364874 9:-0.43561388 10:1.0553848 11:-0.71625974 12:-0.42313516 13:-0.10530481 14:2.1541048 
32 0 0 32 0 0 32 25.08719267388836 32 0 0 0 0 32 32 0 16.30880067420166 0 1:0.1855746 2:-0.29339837 3:-0.42759959 4:0.74039365 5:0.59396222 6:-0.60708489 7:-0.21001975 8:-0.022364874 9:-0.43561388 10:1.0553848 11:-0.71625974 12:0.21331213 13:-0.10530481 14:1.3560401 
32 32 0 32 32 32 32 32 0 32 32 0 0 0 0 0 0 0 1:-0.73940783 2:-1.0370616 3:-0.72502526 4:1.0168852 5:-1.0124566 6:0.64141388 7:-0.21001975 8:-0.022364874 9:-0.43561388 10:-0.43658878 11:1.4724637 12:1.3952857 13:-0.10530481 14:-0.24008921 
32 32 0 32 32 32 32 32 0 32 32 32 20.3731725870321 32 0 0 8.812313418990566 0 1:-0.73940783 2:0.078433229 3:-0.65066885 4:0.62654417 5:-1.7085715 6:-1.6664172 7:-0.21001975 8:-0.022364874 9:-0.43561388 10:-2.6745492 11:1.4724637 12:1.3952857 13:-0.10530481 14:0.32995699 
32 32 0 0 32 0 32 32 0 0 0 0 0 0 15.01184717891762 13.96937071401669 32 0 1:-0.73940783 2:-1.0370616 3:0.89594464 4:-0.54447903 5:-1.6014769 6:0.33874751 7:-0.21001975 8:-0.022364874 9:-0.43561388 10:1.0553848 11:1.4724637 12:1.3952857 13:-0.10530481 14:-0.24008921 
32 32 24.87936297554229 32 32 32 32 32 0 32 32 32 32 32 0 0 0 0 1:0.37057109 2:0.82209644 3:0.33083587 4:0.77292207 5:0.25482935 6:1.4359131 7:-0.21001975 8:-0.022364874 9:-0.43561388 10:-0.43658878 11:-0.71625974 12:-0.42313516 13:-0.10530481 14:-1.0381539 
32 0 15.90167215670021 32 0.4136923705197809 32 0 0 9.646868828467968 16.48867281618076 4.556115908282694 32 0 32 32 3.62144501069388 0 0 1:4.9954832 2:4.3544967 3:1.0297862 4:0.75665786 5:-1.0124566 6:0.75491377 7:-0.21001975 8:-0.022364874 9:-0.43561388 10:-0.43658878 11:-0.71625974 12:-0.96866141 13:-0.10530481 14:-1.0381539 
32 32 0 32 0 32 32 32 0 32 32 32 0 0 0 0 32 0 1:-0.73940783 2:-1.0370616 3:1.0149149 4:-0.10534533 5:-1.0660039 6:0.30091422 7:-0.21001975 8:-0.022364874 9:-0.43561388 10:-0.43658878 11:1.4724637 12:1.3952857 13:-0.10530481 14:1.0140124 
32 32 0 32 32 32 32 32 32 32 32 11.9365647865484 32 0 0 0 0 0 1:-0.55441134 2:-0.10748257 3:-0.84399553 4:0.35005258 5:-0.94106026 6:0.33874751 7:-0.21001975 8:-0.022364874 9:-0.43561388 10:1.0553848 11:-0.71625974 12:-0.69589829 13:-0.10530481 14:-0.24008921 
32 13.85023860867299 0 0 32 32 32 16.65271542516597 0 0 16.35545896206652 0 0 0 0 11.36536310221906 0 0 1:-0.73940783 2:-0.85114578 3:-0.38298574 4:-1.1137264 5:-1.7799679 6:0.33874751 7:-0.21001975 8:-0.022364874 9:-0.43561388 10:1.0553848 11:1.4724637 12:1.3952857 13:-0.10530481 14:-0.69612616 
32 32 0 32 32 32 32 26.46278154787804 0 32 32 32 0 32 0 0 0 0 1:-0.55441134 2:-0.66522998 3:1.0149149 4:0.77292207 5:-0.15569992 6:1.0008302 7:-0.21001975 8:-0.022364874 9:-0.43561388 10:-0.43658878 11:-0.71625974 12:-0.69589829 13:-0.10530481 14:-0.58211692 
32 0 25.72494333844652 32 32 32 32 0.8544424679655773 32 32 32 32 0 32 32 32 0 0 1:-0.18441837 2:-0.85114578 3:0.34570715 4:-1.2113117 5:1.1115861 6:0.58466394 7:-0.21001975 8:-0.022364874 9:-0.43561388 10:-0.43658878 11:-0.71625974 12:-0.96866141 13:-0.10530481 14:-0.24008921 
32 32 0 32 32 32 32 32 0 32 32 0 32 0 0 0 0 0 1:-0.73940783 2:-0.47931418 3:-0.82912425 4:-1.2438401 5:0.25482935 6:0.56574729 7:-0.21001975 8:-0.022364874 9:-0.43561388 10:-0.43658878 11:1.4724637 12:1.3952857 13:-0.10530481 14:-0.24008921 
32 32 0 32 32 0 32 32 32 32 31.90689911505887 32 0 32 0 0 32 0 1:0.00057811402 2:-0.29339837 3:0.078024048 4:1.7325105 5:0.32622574 6:1.0575801 7:-0.21001975 8:-0.022364874 9:1.4676691 10:1.0553848 11:-0.71625974 12:-0.78681933 13:-0.10530481 14:2.1541048 
32 0 0 32 0 0 0 32 32 0 0 0 0 0 0 0 0 0 1:-0.73940783 2:-1.4088932 3:-0.73989655 4:-0.30051586 5:0.64750952 6:-0.15308534 7:-0.21001975 8:-0.022364874 9:-0.43561388 10:2.5473585 11:1.4724637 12:1.3952857 13:-0.10530481 14:2.0400956 
32 32 0 32 32 0 32 32 32 32 32 32 32 32 0 0 32 0 1:0.74056406 2:0.078433229 3:-1.0373222 4:0.28499574 5:-0.99460755 6:-0.60708489 7:-0.21001975 8:-0.022364874 9:1.4676691 10:1.0553848 11:-0.71625974 12:0.12239109 13:-0.10530481 14:-1.0381539 
32 0 0 0 0 0 32 0 32 0 0 0 0 0 0 0 0 0 1:-0.73940783 2:-1.0370616 3:0.31596458 4:1.1795273 5:0.46901853 6:0.81166371 7:-0.21001975 8:-0.022364874 9:-0.43561388 10:1.0553848 11:1.4724637 12:1.3952857 13:-0.10530481 14:-0.24008921 
32 32 0 32 32 32 32 32 17.75816398100388 32 32 32 32 5.651757506168608 32 32 0 0 1:-0.18441837 2:-0.10748257 3:-0.9629658 4:1.2933768 5:1.2365298 6:1.4169965 7:-0.21001975 8:-0.022364874 9:-0.43561388 10:-0.43658878 11:-0.71625974 12:-0.96866141 13:-0.10530481 14:-0.92414464 
32 32 32 32 32 19.20320951392729 32 32 32 32 0 32 0 32 0 32 0 0 1:0.74056406 2:0.63618063 3:-0.84399553 4:0.98435682 5:-1.5479296 6:-0.96650121 7:-0.21001975 8:-0.022364874 9:-0.43561388 10:1.0553848 11:-0.71625974 12:-0.69589829 13:-0.10530481 14:-0.69612616 
32 10.70593911548155 0 32 32 0 0 13.05409165484378 0 32 32 0 0 0 32 0 0 0 1:-0.92440431 2:-1.2229774 3:-2.494708 4:0.30125995 5:1.1294352 6:-0.96650121 7:4.7608618 8:-0.022364874 9:-0.43561388 10:1.0553848 11:0.37810197 12:-0.059450996 13:-0.10530481 14:0.55797547 
32 0 0 32 32 32 32 0 0 32 0 32 0 32 0 32 0 0 1:0.37057109 2:-0.29339837 3:1.2677267 4:-1.1950475 5:-0.13785082 6:-0.15308534 7:-0.21001975 8:-0.022364874 9:-0.43561388 10:-0.43658878 11:-0.71625974 12:-0.96866141 13:-0.10530481 14:-0.24008921 
32 32 8.385423971215467 32 0 32 32 32 0 32 0 32 0 27.65764805699673 0 27.10228720273344 10.71822882746587 0 1:-0.73940783 2:-1.0370616 3:1.3123406 4:0.18741047 5:-0.3877382 6:1.6061629 7:-0.21001975 8:-0.022364874 9:-0.43561388 10:-0.43658878 11:1.4724637 12:1.3952857 13:-0.10530481 14:1.8120771 
32 32 32 32 32 32 32 32 0 32 32 0 32 32 0 14.52103501497371 0 0 1:-0.73940783 2:-0.10748257 3:-0.84399553 4:1.22832 5:-1.0124566 6:-1.0610844 7:-0.21001975 8:-0.022364874 9:-0.43561388 10:-0.43658878 11:1.4724637 12:1.3952857 13:-0.10530481 14:-1.0381539 
32 32 0 32 32 32 32 32 0 32 32 32 32 32 1.999829994306906 29.65800928168621 0 0 1:-0.36941486 2:0.078433229 3:-0.91835195 4:-1.1299906 5:-0.13785082 6:-0.38008512 7:-0.21001975 8:-0.022364874 9:-0.43561388 10:-0.43658878 11:-0.71625974 12:-0.69589829 13:-0.10530481 14:2.1541048 
32 0 0 32 32 0 32 0 22.53780086336453 0 32 0 0 0 0 0 0 0 1:-0.73940783 2:-0.85114578 3:-1.1860351 4:-1.0161412 5:0.34407484 6:0.56574729 7:-0.21001975 8:-0.022364874 9:-0.43561388 10:4.0393321 11:1.4724637 12:1.3952857 13:-0.10530481 14:0.32995699 
32 32 0 32 32 32 32 32 0 32 32 32 0 32 32 32 0 0 1:0.55556757 2:0.45026483 3:-0.63579756 4:0.80545049 5:0.18343295 6:0.58466394 7:-0.21001975 8:-0.022364874 9:-0.43561388 10:-0.43658878 11:-0.71625974 12:-0.96866141 13:-0.10530481 14:0.32995699 
32 32 0 32 0 0 32 32 32 32 0 32 0 32 32 30.91287862425814 0 0 1:1.48055 2:0.82209644 3:0.73236052 4:0.78918628 5:-1.0660039 6:0.35766416 7:-0.21001975 8:-0.022364874 9:-0.43561388 10:-0.43658878 11:-0.71625974 12:-0.78681933 13:-0.10530481 14:0.32995699 
32 0 0 0 0 0 32 0 32 0 0 0 0 0 0 0 0 0 1:-0.73940783 2:-1.0370616 3:-0.88860938 4:0.78918628 5:-1.440835 6:-0.039585451 7:-0.21001975 8:-0.022364874 9:-0.43561388 10:1.0553848 11:1.4724637 12:1.3952857 13:-0.10530481 14:1.6980679 
32 32 9.849261274127635 32 32 32 32 32 0 32 32 0 0 0 32 0 32 0 1:-0.73940783 2:-0.85114578 3:-0.41272831 4:0.90303576 5:1.8433991 6:0.20633097 7:-0.21001975 8:-0.022364874 9:-0.43561388 10:-0.43658878 11:1.4724637 12:1.3952857 13:-0.10530481 14:-0.24008921 
32 32 0 4.476040401475748 6.657859112796786 32 32 32 0 32 0 32 0 0 0 0 0 0 1:-0.73940783 2:-1.2229774 3:1.1190139 4:1.309641 5:-0.24494541 6:1.4169965 7:-0.21001975 8:-0.022364874 9:-0.43561388 10:-0.43658878 11:1.4724637 12:1.3952857 13:-0.10530481 14:0.55797547 
32 0 0 0 32 0 32 0 32 0 0 32 0 0 0 0 23.80951749635729 0 1:-0.55441134 2:-1.0370616 3:1.0000436 4:0.93556418 5:1.2900771 6:1.0575801 7:-0.21001975 8:-0.022364874 9:-0.43561388 10:1.0553848 11:-0.71625974 12:-0.96866141 13:-0.10530481 14:-0.58211692 
32 32 0 32 32 32 32 0 0 32 32 32 32 19.09601011292227 0 32 0 0 1:-0.73940783 2:-0.47931418 3:1.178499 4:-1.2113117 5:-0.35204 6:1.0954134 7:-0.21001975 8:-0.022364874 9:-0.43561388 10:-0.43658878 11:1.4724637 12:1.3952857 13:-0.10530481 14:-0.24008921 
32 32 0 32 0 32 32 32 0 32 0 32 0 32 32 28.13017691336919 0 0 1:-0.55441134 2:-0.66522998 3:0.3010933 4:0.90303576 5:0.25482935 6:-0.98541786 7:-0.21001975 8:-0.022364874 9:-0.43561388 10:-0.43658878 11:-0.71625974 12:-0.69589829 13:-0.10530481 14:1.8120771 
32 32 0 0 32 32 32 0 0 32 29.90314299308036 32 0 0 0 32 0 0 1:-0.73940783 2:-1.0370616 3:1.5056673 4:1.0168852 5:0.094187462 6:0.58466394 7:-0.21001975 8:-0.022364874 9:-0.43561388 10:-0.43658878 11:1.4724637 12:1.3952857 13:-0.10530481 14:-0.24008921 
32 0 0 32 0 0 32 22.73933589066374 32 0 0 0 0 0 0 0 32 0 1:0.00057811402 2:-0.47931418 3:-1.0373222 4:0.72412944 5:-0.066454425 6:1.3413299 7:-0.21001975 8:-0.022364874 9:-0.43561388 10:1.0553848 11:-0.71625974 12:-0.96866141 13:-0.10530481 14:-0.24008921 
32 0 0 3.898633526622529 32 32 32 0 0 32 32 0 0 0 0 2.951617995484919 0 0 1:-0.73940783 2:-1.0370616 3:-0.56144114 4:-1.1137264 5:-0.97675845 6:-0.43683506 7:-0.21001975 8:-0.022364874 9:-0.43561388 10:-0.43658878 11:1.4724637 12:1.3952857 13:-0.10530481 14:-0.24008921 
32 32 0 32 32 32 32 32 17.41977321134575 32 32 32 32 32 0 32 17.1485087706787 0 1:-0.73940783 2:-0.47931418 3:-0.91835195 4:-1.1137264 5:-0.99460755 6:1.0575801 7:-0.21001975 8:-0.022364874 9:1.4676691 10:1.0553848 11:1.4724637 12:1.3952857 13:-0.10530481 14:1.6980679 
32 0 0 32 32 0 32 0 32 32 0 32 0 32 32 0 0 0 1:1.110557 2:0.45026483 3:1.2528554 4:1.000621 5:0.59396222 6:-1.0421678 7:-0.21001975 8:-0.022364874 9:-0.43561388 10:-0.43658878 11:-0.71625974 12:0.12239109 13:-0.10530481 14:2.0400956 
32 32 32 32 32 20.88038149944474 32 32 0 32 32 12.15657951724739 32 0 32 0 20.73194388631044 0 1:-0.92440431 2:-1.0370616 3:-1.498332 4:1.2771126 5:0.34407484 6:0.84949701 7:4.7608618 8:-0.022364874 9:-0.43561388 10:-0.43658878 11:0.37810197 12:-0.059450996 13:-0.10530481 14:0.32995699 
32 0 0 32 0 0 0 32 32 11.83747765739263 0 32 0 32 4.337951654698651 9.746470731289204 32 0 1:2.7755254 2:2.4953387 3:0.31596458 4:-0.33304428 5:-0.79826747 6:1.0575801 7:-0.21001975 8:-0.022364874 9:-0.43561388 10:1.0553848 11:-0.71625974 12:-0.69589829 13:-0.10530481 14:1.6980679 
32 0 0 32 0 0 32 0 32 0 0 0 0 0 0 0 32 0 1:0.00057811402 2:-0.66522998 3:-0.73989655 4:-0.30051586 5:0.64750952 6:-0.15308534 7:-0.21001975 8:-0.022364874 9:-0.43561388 10:2.5473585 11:-0.71625974 12:0.12239109 13:-0.10530481 14:1.0140124 
32 32 3.385103254379845 32 32 32 32 32 0 32 32 32 0 32 0 0 0 0 1:0.37057109 2:1.193928 3:1.2231129 4:-0.57700745 5:-1.083853 6:1.3602465 7:-0.21001975 8:-0.022364874 9:-0.43561388 10:-0.43658878 11:-0.71625974 12:-0.42313516 13:-0.10530481 14:-0.12607997 
32 32 0 32 32 32 32 32 0 32 32 0 32 0 0 0 0 0 1:-0.73940783 2:-0.85114578 3:-0.011203653 4:-0.30051586 5:0.9330951 6:0.9251636 7:-0.21001975 8:-0.022364874 9:-0.43561388 10:-0.43658878 11:1.4724637 12:1.3952857 13:-0.10530481 14:-0.69612616 
32 32 3.799626215952675 32 32 32 32 32 0 32 32 32 0 0 0 0 0 0 1:-0.73940783 2:0.078433229 3:0.33083587 4:1.1957916 5:0.25482935 6:1.492663 7:-0.21001975 8:-0.022364874 9:-0.43561388 10:-0.43658878 11:1.4724637 12:1.3952857 13:-0.10530481 14:0.32995699 
32 32 0 0 32 32 32 28.18700593489106 0 32 0 32 0 0 0 0 0 0 1:-0.73940783 2:-0.85114578 3:0.31596458 4:1.1795273 5:0.46901853 6:-1.0043345 7:-0.21001975 8:-0.022364874 9:-0.43561388 10:-0.43658878 11:1.4724637 12:1.3952857 13:-0.10530481 14:-0.24008921 
32 0 0 32 32 32 0 32 0 32 0 32 0 32 0 32 0 0 1:0.74056406 2:0.078433229 3:-0.14504521 4:-1.2438401 5:-1.1017021 6:0.24416427 7:-0.21001975 8:-0.022364874 9:-0.43561388 10:-0.43658878 11:-0.71625974 12:-0.96866141 13:-0.10530481 14:-0.46810768 
32 8.702417148310015 0 32 32 32 32 32 0 32 0 32 26.60605614411469 32 0 4.651539043282944 0 0 1:-0.36941486 2:-0.66522998 3:-0.97783708 4:-1.1137264 5:0.54041493 6:-0.98541786 7:-0.21001975 8:-0.022364874 9:-0.43561388 10:-0.43658878 11:-0.71625974 12:-0.96866141 13:-0.10530481 14:-1.0381539 
32 1.833549828239701 7.503010619947476 20.90819429591063 7.02281844863297 26.14711963954932 0 27.28267696774621 13.76660450534219 32 25.47130022079663 32 0 32 1.140823456440244 15.05336966722524 0.5574195710593335 0 1:-0.55441134 2:-0.29339837 3:0.40519229 4:-0.28425165 5:-1.0124566 6:0.24416427 7:-0.21001975 8:-0.022364874 9:-0.43561388 10:-0.43658878 11:-0.71625974 12:-0.42313516 13:9.5225635 14:2.6101418 
32 32 0 0 32 32 32 0 0 32 0 32 0 0 0 0 32 0 1:-0.73940783 2:-0.85114578 3:0.3010933 4:1.0168852 5:0.25482935 6:-1.4205008 7:-0.21001975 8:-0.022364874 9:-0.43561388 10:-0.43658878 11:1.4724637 12:1.3952857 13:-0.10530481 14:0.32995699 
32 32 32 32 32 32 32 32 32 32 32 32 32 32 0 0 13.72823322507557 0 1:-0.18441837 2:-0.47931418 3:-0.73989655 4:0.70786523 5:-0.13785082 6:0.26308092 7:-0.21001975 8:-0.022364874 9:2.1020967 10:-0.43658878 11:-0.71625974 12:-0.96866141 13:-0.10530481 14:-0.24008921 
32 32 32 32 32 32 32 13.72054621772983 32 32 32 32 0 32 32 0 32 2.827261148382035 1:-0.36941486 2:-1.0370616 3:1.386697 4:-0.49568639 5:-0.17354902 6:0.073914438 7:-0.21001975 8:-0.022364874 9:-0.43561388 10:-0.43658878 11:-0.71625974 12:-0.96866141 13:-0.10530481 14:-0.69612616 
32 32 0 32 32 32 31.65293328622006 32 0 32 32 32 32 32 0 0 0 0 1:-0.73940783 2:-0.29339837 3:1.2231129 4:-1.4390106 5:-1.083853 6:1.0008302 7:-0.21001975 8:-0.022364874 9:-0.43561388 10:-0.43658878 11:1.4724637 12:1.3952857 13:-0.10530481 14:2.1541048 
32 0 0 32 32 32 0 0 32 32 0 32 0 32 32 0 9.947709026445745 0 1:1.2955535 2:0.63618063 3:0.063152765 4:-1.2438401 5:-1.6371751 6:0.24416427 7:-0.21001975 8:-0.022364874 9:-0.43561388 10:-0.43658878 11:-0.71625974 12:0.12239109 13:-0.10530481 14:-0.24008921 
32 32 0 32 32 0 32 32 0 32 32 16.32823728789246 32 32 0 0 2.659024949373987 0 1:-0.73940783 2:-0.85114578 3:0.27135073 4:0.18741047 5:-0.69117288 6:-0.96650121 7:-0.21001975 8:-0.022364874 9:1.4676691 10:1.0553848 11:1.4724637 12:1.3952857 13:-0.10530481 14:-1.0381539 
32 0 0 32 32 32 24.68368042705743 0 32 0 0 32 0 32 32 14.4626834452148 0 0 1:-0.36941486 2:-1.0370616 3:0.82158823 4:-1.2601043 5:0.64750952 6:-1.3070009 7:-0.21001975 8:-0.022364874 9:-0.43561388 10:-0.43658878 11:-0.71625974 12:-0.96866141 13:-0.10530481 14:1.6980679 
32 32 0 32 32 0 32 32 32 32 32 32 32 32 0 32 0 0 1:0.1855746 2:0.45026483 3:1.2974693 4:0.91929997 5:0.73675501 6:-0.68275149 7:-0.21001975 8:-0.022364874 9:-0.43561388 10:1.0553848 11:-0.71625974 12:-0.69589829 13:-0.10530481 14:-0.24008921 
32 32 32 32 32 32 32 0 15.40895574482886 32 0 32 0 32 32 15.28433283246313 0 0 1:0.74056406 2:0.26434903 3:1.5800237 4:-0.59327166 5:-1.0124566 6:1.7574961 7:-0.21001975 8:-0.022364874 9:-0.43561388 10:-0.43658878 11:-0.71625974 12:-0.96866141 13:-0.10530481 14:-0.69612616 
32 32 0 32 32 32 32 32 0 32 32 32 0 0 0 0 0 0 1:0.00057811402 2:-0.10748257 3:-0.84399553 4:1.5048116 5:-1.0124566 6:1.6061629 7:-0.21001975 8:-0.022364874 9:-0.43561388 10:-0.43658878 11:-0.71625974 12:-0.96866141 13:-0.10530481 14:-1.0381539 
32 0 0 32 32 0 32 32 32 0 32 0 0 0 0 0 0 0 1:0.00057811402 2:-0.47931418 3:-0.84399553 4:-0.80470641 5:0.59396222 6:0.33874751 7:-0.21001975 8:-0.022364874 9:-0.43561388 10:1.0553848 11:-0.71625974 12:-0.69589829 13:-0.10530481 14:-0.8101354 
32 32 0 32 32 32 32 32 32 32 32 0 0 32 0 0 0 0 1:-0.18441837 2:0.26434903 3:-0.84399553 4:-0.80470641 5:-1.5479296 6:1.3413299 7:-0.21001975 8:-0.022364874 9:-0.43561388 10:1.0553848 11:-0.71625974 12:-0.96866141 13:-0.10530481 14:-0.24008921 
32 32 32 32 32 0 32 32 32 32 32 32 32 32 0 19.37505682514511 32 0 1:0.37057109 2:0.078433229 3:0.71748924 4:1.5861326 5:1.3436244 6:1.3413299 7:-0.21001975 8:-0.022364874 9:1.4676691 10:1.0553848 11:-0.71625974 12:-1.1505035 13:-0.10530481 14:-1.0381539 
32 32 32 32 32 32 14.06337831473463 32 0 32 32 32 32 32 0 24.45064090993858 8.608419676150215 0 1:2.2205359 2:2.3094229 3:-0.91835195 4:-1.1137264 5:-0.99460755 6:0.26308092 7:-0.21001975 8:-0.022364874 9:1.4676691 10:-0.43658878 11:-0.71625974 12:-0.69589829 13:-0.10530481 14:-1.0381539 
32 32 0 32 32 32 32 32 0 32 32 15.1702495431627 0 0 0 0 0 0 1:-0.73940783 2:-0.85114578 3:0.3010933 4:0.30125995 5:0.59396222 6:1.4548297 7:-0.21001975 8:-0.022364874 9:-0.43561388 10:-0.43658878 11:1.4724637 12:1.3952857 13:-0.10530481 14:-0.24008921 
32 0 0 32 32 32 32 32 0 13.66361359383286 32 0 0 0 0 32 0 0 1:-0.73940783 2:-1.2229774 3:-1.3198766 4:-0.30051586 5:0.59396222 6:-0.096335395 7:-0.21001975 8:-0.022364874 9:-0.43561388 10:-0.43658878 11:1.4724637 12:1.3952857 13:-0.10530481 14:0.32995699 
32 0 0 32 32 0 32 32 32 0 0 0 0 0 0 32 0 0 1:-0.18441837 2:-0.47931418 3:-0.91835195 4:-0.46315797 5:-0.13785082 6:-0.96650121 7:-0.21001975 8:-0.022364874 9:-0.43561388 10:1.0553848 11:-0.71625974 12:-0.96866141 13:-0.10530481 14:-0.46810768 
32 32 27.8263370579513 32 32 32 32 32 0 32 32 32 32 32 0 24.65982997528626 32 0 1:-0.73940783 2:-0.66522998 3:-0.11530264 4:-0.99987694 5:1.1115861 6:0.64141388 7:-0.21001975 8:-0.022364874 9:-0.43561388 10:-0.43658878 11:1.4724637 12:1.3952857 13:-0.10530481 14:1.6980679 
32 0 0 0 0 0 32 14.08654047309657 32 0 0 0.4623259623818221 0 0 0 0 0 0 1:0.1855746 2:-0.47931418 3:0.063152765 4:0.02476836 5:-1.6371751 6:1.3413299 7:-0.21001975 8:-0.022364874 9:-0.43561388 10:1.0553848 11:-0.71625974 12:-1.0595825 13:-0.10530481 14:-0.58211692 
32 32 0 32 32 0 32 0 32 32 0 0 32 32 0 0 14.97649611314194 0 1:-0.36941486 2:0.63618063 3:1.5800237 4:1.2608484 5:-0.12000172 6:1.3034966 7:-0.21001975 8:-0.022364874 9:-0.43561388 10:1.0553848 11:-0.71625974 12:0.75883838 13:-0.10530481 14:-0.69612616 
32 0 0 32 32 32 0 32 0 0 0 32 0 32 0 32 0 0 1:1.48055 2:0.82209644 3:0.3010933 4:-1.1137264 5:-0.13785082 6:-0.98541786 7:-0.21001975 8:-0.022364874 9:-0.43561388 10:-0.43658878 11:-0.71625974 12:-0.96866141 13:-0.10530481 14:-0.24008921 
32 32 14.82650208651188 32 32 0 0 32 0 32 32 0 32 20.11201330689432 0 0 20.51014766612873 0 1:-0.92440431 2:-0.29339837 3:-2.9705891 4:-0.28425165 5:-1.2801931 6:-1.2691676 7:4.7608618 8:-0.022364874 9:0.19881376 10:1.0553848 11:0.37810197 12:-0.059450996 13:-0.10530481 14:0.55797547 
32 0 0 32 32 32 32 32 0 32 32 0 32 0 0 14.79213198385973 0 0 1:-0.73940783 2:-0.85114578 3:-0.82912425 4:-1.2438401 5:0.25482935 6:0.56574729 7:-0.21001975 8:-0.022364874 9:-0.43561388 10:-0.43658878 11:1.4724637 12:1.3952857 13:-0.10530481 14:-0.24008921 
32 32 29.9595352256022 32 32 0 32 32 32 32 0 32 0 0 0 32 0 0 1:-0.36941486 2:-0.85114578 3:0.40519229 4:1.3746979 5:1.2365298 6:-0.68275149 7:-0.21001975 8:-0.022364874 9:-0.43561388 10:1.0553848 11:-0.71625974 12:-0.96866141 13:-0.10530481 14:0.32995699 
32 32 0 32 0 0 0 32 32 30.45535355343988 0 32 0 0 0 0 17.32334282068357 0 1:-0.73940783 2:-1.0370616 3:0.91081593 4:1.1957916 5:0.64750952 6:1.3413299 7:-0.21001975 8:-0.022364874 9:-0.43561388 10:1.0553848 11:1.4724637 12:1.3952857 13:-0.10530481 14:2.1541048 
32 32 0 32 32 32 32 32 0 32 32 32 32 32 32 0.5355483304761729 0 0 1:-0.55441134 2:-0.29339837 3:-1.1414212 4:0.10608942 5:0.040640166 6:0.4144141 7:-0.21001975 8:-0.022364874 9:-0.43561388 10:-0.43658878 11:-0.71625974 12:-0.42313516 13:-0.10530481 14:1.8120771 
32 32 0 32 32 0 32 32 32 32 32 0 32 0 0 0 0 0 1:-0.18441837 2:0.45026483 3:-0.27888676 4:0.39884522 5:0.27267845 6:-0.15308534 7:-0.21001975 8:-0.022364874 9:-0.43561388 10:2.5473585 11:-0.71625974 12:-0.42313516 13:-0.10530481 14:-0.69612616 
32 32 0 32 32 32 32 32 0 32 32 32 32 32 0 0 0 0 1:-0.36941486 2:0.26434903 3:0.77697438 4:1.22832 5:0.34407484 6:-1.0610844 7:-0.21001975 8:-0.022364874 9:-0.43561388 10:-0.43658878 11:-0.71625974 12:-0.42313516 13:-0.10530481 14:1.3560401 
32 0 0 32 32 0 32 0 7.802130254709174 32 0 32 0 32 32 32 0 0 1:0.74056406 2:0.078433229 3:1.0744 4:1.5861326 5:1.0580388 6:0.22524762 7:-0.21001975 8:-0.022364874 9:-0.43561388 10:-0.43658878 11:-0.71625974 12:0.12239109 13:-0.10530481 14:-0.24008921 
32 32 0 32 0 0 32 32 32 32 0 32 0 0 0 0 0 0 1:-0.73940783 2:-0.29339837 3:0.13750918 4:0.15488205 5:0.61181132 6:-0.68275149 7:-0.21001975 8:-0.022364874 9:-0.43561388 10:1.0553848 11:1.4724637 12:1.3952857 13:-0.10530481 14:1.6980679 
32 0 0 0 0 0 0 0 0 0 0 32 0 32 32 0 0 0 1:-0.73940783 2:-1.4088932 3:-0.84399553 4:0.089825205 5:-0.79826747 6:-1.0421678 7:-0.21001975 8:-0.022364874 9:-0.43561388 10:-0.43658878 11:1.4724637 12:1.3952857 13:-0.10530481 14:2.0400956 
32 0 0 32 32 32 32 32 0 32 32 32 0 32 0 32 32 0 1:0.55556757 2:0.26434903 3:0.3010933 4:-1.2113117 5:0.25482935 6:0.58466394 7:-0.21001975 8:-0.022364874 9:-0.43561388 10:-0.43658878 11:-0.71625974 12:-0.42313516 13:-0.10530481 14:0.32995699 
32 32 0 32 32 0 32 32 32 32 32 32 0 32 0 0 32 0 1:0.00057811402 2:-0.29339837 3:-0.73989655 4:1.2608484 5:-0.69117288 6:1.3034966 7:-0.21001975 8:-0.022364874 9:1.4676691 10:1.0553848 11:-0.71625974 12:-0.78681933 13:-0.10530481 14:2.0400956 
32 0 0 0 32 32 6.243557507388453 0 0 32 0 0 0 0 11.77720928868885 0 0 0 1:-0.73940783 2:-0.85114578 3:-0.94809452 4:-1.3088969 5:0.70105681 6:-1.6664172 7:-0.21001975 8:-0.022364874 9:-0.43561388 10:-0.43658878 11:1.4724637 12:1.3952857 13:-0.10530481 14:-0.69612616 
32 32 0 32 32 32 32 32 0 32 7.480014527402576 32 0 32 0 32 0 0 1:0.00057811402 2:-0.29339837 3:1.0744 4:-1.0324054 5:0.915246 6:-1.4015841 7:-0.21001975 8:-0.022364874 9:-0.43561388 10:-0.43658878 11:-0.71625974 12:-0.96866141 13:-0.10530481 14:-0.46810768 
32 0 0 32 0 0 32 32 32 0 0 0 0 0 0 0 0 0 1:-0.73940783 2:-0.85114578 3:-0.97783708 4:-0.60953587 5:0.54041493 6:-0.96650121 7:-0.21001975 8:-0.022364874 9:-0.43561388 10:1.0553848 11:1.4724637 12:1.3952857 13:-0.10530481 14:1.2420309 
32 32 32 32 32 1.138040177391811 32 32 0 32 32 0 32 32 0 5.544941905432156 32 0 1:-0.73940783 2:-0.66522998 3:0.91081593 4:-1.1625191 5:1.3436244 6:1.3413299 7:-0.21001975 8:-0.022364874 9:1.4676691 10:1.0553848 11:1.4724637 12:1.3952857 13:-0.10530481 14:-0.69612616 
32 32 12.1955796455232 32 32 32 32 32 0 32 32 32 0 32 0 0 0 0 1:0.37057109 2:2.6812545 3:0.77697438 4:1.6023968 5:-1.7442697 6:-0.32333517 7:-0.21001975 8:-0.022364874 9:-0.43561388 10:-2.6745492 11:-0.71625974 12:-0.96866141 13:-0.10530481 14:0.32995699 
32 32 0 0 32 32 32 0 0 32 32 0 0 0 32 0 14.13524175430897 0 1:-0.73940783 2:-0.85114578 3:0.91081593 4:-0.25172323 5:1.0580388 6:-1.0800011 7:-0.21001975 8:-0.022364874 9:-0.43561388 10:-0.43658878 11:1.4724637 12:1.3952857 13:-0.10530481 14:-0.69612616 
32 6.894896195655916 0 32 32 32 0 32 0 32 32 32 0 32 0 32 6.247756014537862 0 1:2.9605219 2:2.3094229 3:0.15238047 4:-1.1950475 5:0.915246 6:-0.15308534 7:-0.21001975 8:-0.022364874 9:-0.43561388 10:-0.43658878 11:-0.71625974 12:-0.96866141 13:-0.10530481 14:-0.92414464 
32 32 0 32 0 29.76859682444006 32 32 0 32 6.378101106140458 32 0 32 32 32 0 0 1:1.850543 2:1.5657596 3:1.178499 4:0.78918628 5:0.9330951 6:-0.98541786 7:-0.21001975 8:-0.022364874 9:-0.43561388 10:-0.43658878 11:-0.71625974 12:-0.96866141 13:-0.10530481 14:1.3560401 
32 0 0 32 32 32 0 0 0 32 0 32 0 32 0 0 0 0 1:1.110557 2:0.45026483 3:0.34570715 4:-1.2926327 5:-1.0124566 6:0.017164494 7:-0.21001975 8:-0.022364874 9:-0.43561388 10:-0.43658878 11:-0.71625974 12:0.12239109 13:-0.10530481 14:-0.69612616 
32 32 23.57393712086425 32 32 32 32 0 0 32 32 32 32 0 0 0 0 0 1:-0.73940783 2:-0.66522998 3:0.34570715 4:-1.1462548 5:0.64750952 6:1.0954134 7:-0.21001975 8:-0.022364874 9:-0.43561388 10:-0.43658878 11:1.4724637 12:1.3952857 13:-0.10530481 14:-0.69612616 
32 32 0 32 32 32 32 32 0 32 20.60762652783685 0 32 22.69515315155757 0 0 0 0 1:-0.73940783 2:-0.29339837 3:-0.73989655 4:-0.51195061 5:0.52256583 6:-1.5907506 7:-0.21001975 8:-0.022364874 9:-0.43561388 10:-0.43658878 11:1.4724637 12:1.3952857 13:-0.10530481 14:-1.0381539 
32 0 0 32 0 0 0 0 0 4.834975131614073 32 0 0 0 32 0 0 0 1:-0.92440431 2:-1.594809 3:-2.494708 4:-0.41436534 5:1.1294352 6:-0.039585451 7:4.7608618 8:-0.022364874 9:-0.43561388 10:1.0553848 11:0.37810197 12:-0.059450996 13:-0.10530481 14:0.55797547 
32 32 5.457833429273653 32 32 0 32 32 32 32 32 32 0 32 0 32 0 0 1:0.74056406 2:0.45026483 3:-0.99270837 4:1.0819421 5:1.1115861 6:-0.96650121 7:-0.21001975 8:-0.022364874 9:-0.43561388 10:1.0553848 11:-0.71625974 12:-0.69589829 13:-0.10530481 14:-1.0381539 
32 12.89729567185298 0 0 32 32 0 0 0 32 23.74768053554894 0 0 0 0 31.70678818711031 0 0 1:-0.73940783 2:-0.66522998 3:-0.91835195 4:-1.1950475 5:-1.7085715 6:-0.98541786 7:-0.21001975 8:-0.022364874 9:-0.43561388 10:-0.43658878 11:1.4724637 12:1.3952857 13:-0.10530481 14:0.32995699 
32 0 0 32 32 32 32 0 32 32 32 0 0 0.8099693022612146 0 0 0 0 1:-0.55441134 2:-0.47931418 3:1.2231129 4:-1.2113117 5:-1.083853 6:-1.4772507 7:-0.21001975 8:-0.022364874 9:-0.43561388 10:1.0553848 11:-0.71625974 12:0.84975942 13:-0.10530481 14:1.8120771 
32 32 32 32 32 32 32 32 32 32 32 32 32 32 32 0 32 0 1:0.55556757 2:-0.10748257 3:-0.36811446 4:0.28499574 5:-0.99460755 6:1.3034966 7:-0.21001975 8:-0.022364874 9:1.4676691 10:-0.43658878 11:-0.71625974 12:-0.96866141 13:-0.10530481 14:-0.24008921 
32 32 18.78491567083168 32 32 32 32 32 32 32 0 21.36771422489986 0 23.80277273883675 0 0 0 0 1:-0.36941486 2:-0.29339837 3:1.0446575 4:-1.2438401 5:-1.0124566 6:-0.96650121 7:-0.21001975 8:-0.022364874 9:-0.43561388 10:1.0553848 11:-0.71625974 12:-0.42313516 13:-0.10530481 14:-1.0381539 
32 0 0 32 32 0 32 0 32 0 32 0 0 32 0.8373372384290596 0 0 0 1:-0.55441134 2:-1.0370616 3:-1.0373222 4:-1.1462548 5:0.29052755 6:1.3413299 7:-0.21001975 8:-0.022364874 9:-0.43561388 10:1.0553848 11:-0.71625974 12:-0.96866141 13:-0.10530481 14:-0.58211692 
32 32 0 32 32 32 32 32 0 32 32 32 0 0 0 32 0 0 1:-0.73940783 2:-0.29339837 3:-1.0373222 4:1.5861326 5:0.57611312 6:-0.41791841 7:-0.21001975 8:-0.022364874 9:-0.43561388 10:-0.43658878 11:1.4724637 12:1.3952857 13:-0.10530481 14:0.32995699 
