svm_type c_svc
kernel_type rbf
gamma 0.0714286
nr_class 19
total_sv 7829
rho 0.865492 0.193546 -0.719311 0.58769 0.466302 -0.177397 -0.713941 -0.127732 0.0708175 0.476234 0.0653122 0.0611958 -0.804485 0.181477 -0.519638 -0.871287 -1.00212 -1.04302 -0.744739 -0.895444 -0.390251 -0.727676 -0.905103 -1.01828 -0.884477 -0.513004 -0.768829 -0.788231 -0.725289 -1.02321 -0.749946 -0.930539 -0.993775 -1.03679 -1.08398 -0.606259 0.47745 0.17461 -0.251162 -0.761892 -0.379569 0.0251839 0.160548 -0.178142 -0.00205014 -0.980852 -0.113229 -0.558815 -0.708745 -0.922279 -1.06259 0.816178 0.729205 0.686079 0.385194 0.707165 0.414985 0.852076 0.581945 0.752168 -0.237498 0.737653 -0.253656 -0.0956977 -0.381745 -1.09478 -0.440252 -0.672949 -0.960914 -0.688934 -0.390312 -0.310938 -0.685716 -0.565407 -1.028 -0.419086 -0.691251 -0.923217 -1.08255 -1.07827 -0.368372 -1.00969 -0.383783 -0.105105 -0.0933049 -0.28037 -0.0160653 -0.941456 -0.0874232 -0.624326 -0.914308 -0.973892 -1.11174 -0.2402 0.071416 0.132729 0.597484 -0.00167983 0.418608 -0.683647 0.210427 -0.436451 -0.708052 -0.830757 -1.08553 0.282774 0.389905 0.843586 0.494334 0.378327 -0.604438 0.367668 -0.192688 -0.495587 -0.755519 -1.07311 0.273014 0.650734 0.18618 0.06497 -0.603863 0.242542 -0.45983 -0.563869 -0.948471 -1.03645 0.107838 -0.0272359 -0.0656903 -0.55505 -0.0883983 -0.530657 -0.754249 -0.845494 -1.04258 -0.358989 -0.297124 -0.980676 -0.345129 -0.639449 -1.00423 -1.03205 -1.07941 0.145875 -0.887653 0.0716698 -0.32925 -0.64249 -0.860712 -1.07069 -0.654982 0.0037482 -0.549382 -0.757502 -0.93945 -1.07541 0.779089 0.154673 -0.0498847 -0.113902 -1.07517 -0.480078 -0.853158 -0.963953 -1.06498 -0.242997 -0.288659 -1.06872 -0.0706966 -1.04528 -1.09217
label 4 17 12 13 2 7 5 15 19 14 9 1 3 16 18 10 6 11 8
nr_sv 471 1409 407 78 659 804 374 490 394 483 568 344 470 144 323 147 166 97 1
SV
1 1 0 1 1 1 1 1 1 1 1 1 0.1494029544662812 1 0 1 0.6631031868220638 0 1:1.2955535 2:1.0080122 3:-0.84399553 4:-0.80470641 5:0.59396222 6:1.3413299 7:-0.21001975 8:-0.022364874 9:-0.43561388 10:1.0553848 11:-0.71625974 12:-0.78681933 13:-0.10530481 14:-1.0381539 
1 0.08670616554106658 0.1951414032456061 1 1 1 0.9794067825830827 0.3397378938718306 0.028370708823342 1 0 1 0 1 0 0 0 0 1:0.37057109 2:-0.29339837 3:1.3123406 4:-1.2601043 5:-1.1909476 6:0.56574729 7:-0.21001975 8:-0.022364874 9:-0.43561388 10:-0.43658878 11:-0.71625974 12:-0.42313516 13:-0.10530481 14:-0.24008921 
1 1 0 1 1 0 1 1 0 1 1 1 1 1 0.2515061172647093 1 0.6380794639881975 0 1:-0.73940783 2:-0.85114578 3:0.82158823 4:-1.1137264 5:-0.99460755 6:-0.96650121 7:-0.21001975 8:-0.022364874 9:1.4676691 10:1.0553848 11:1.4724637 12:1.3952857 13:-0.10530481 14:-0.92414464 
1 1 0.7447043778630796 0 1 1 1 0 1 1 1 1 0.1958077550946072 1 1 1 0.5445907671548467 0 1:-0.55441134 2:-1.2229774 3:-0.97783708 4:1.2933768 5:-1.6728733 6:-0.98541786 7:-0.21001975 8:-0.022364874 9:-0.43561388 10:-0.43658878 11:-0.71625974 12:-0.42313516 13:-0.10530481 14:1.5840586 
1 0 0 1 1 0 1 1 1 1 0 0 0 0 0.2879726165609467 0 0 0 1:0.37057109 2:-0.29339837 3:-0.65066885 4:0.18741047 5:-1.7085715 6:-0.96650121 7:-0.21001975 8:-0.022364874 9:-0.43561388 10:1.0553848 11:-0.71625974 12:0.12239109 13:-0.10530481 14:-1.0381539 
1 1 0 0 1 1 1 1 0 1 1 0 0 0.0764253526903127 0 0 0 0 1:-0.73940783 2:-0.85114578 3:0.82158823 4:0.70786523 5:-1.4586841 6:1.0764968 7:-0.21001975 8:-0.022364874 9:-0.43561388 10:-0.43658878 11:1.4724637 12:1.3952857 13:-0.10530481 14:-0.24008921 
1 1 0.8670801614612437 1 1 0.9967762593363232 0 1 0 1 1 1 0 1 0.01567942449132812 1 0 0 1:2.2205359 2:1.9375912 3:1.178499 4:-0.77217798 5:-1.0124566 6:0.24416427 7:-0.21001975 8:-0.022364874 9:-0.43561388 10:-0.43658878 11:-0.71625974 12:-0.96866141 13:-0.10530481 14:-0.24008921 
1 1 0 1 1 0 1 1 1 1 0 1 0 1 0 1 0 0 1:0.92556054 2:0.63618063 3:-1.1562925 4:-0.056552695 5:-0.70902197 6:-1.2691676 7:-0.21001975 8:-0.022364874 9:-0.43561388 10:1.0553848 11:-0.71625974 12:-0.96866141 13:-0.10530481 14:-1.0381539 
1 0.9793863374009438 0.08887537666252027 1 1 0 1 0.3693444041424347 1 0.5370824069237091 0.714532407907298 0 0.3611178380533087 0 0 0.5710751863698177 0 0 1:-0.73940783 2:-0.47931418 3:0.67287539 4:-1.1299906 5:1.7184554 6:-1.5907506 7:-0.21001975 8:-0.022364874 9:-0.43561388 10:2.5473585 11:1.4724637 12:1.3952857 13:-0.10530481 14:-1.0381539 
1 1 0.8684014247671262 1 1 0 1 1 0 1 0.8683355081388301 1 0 1 0 1 0.2787304080809942 0 1:0.37057109 2:-0.10748257 3:0.19699432 4:0.78918628 5:-0.17354902 6:-1.4205008 7:-0.21001975 8:-0.022364874 9:-0.43561388 10:-0.43658878 11:-0.71625974 12:-0.96866141 13:-0.10530481 14:-1.0381539 
1 0 0 1 0 0 0 0.3515758213822764 1 0 0 1 0 1 0 0 0.2231585194299978 0 1:0.1855746 2:-0.47931418 3:1.386697 4:-0.49568639 5:-0.17354902 6:-0.96650121 7:-0.21001975 8:-0.022364874 9:-0.43561388 10:1.0553848 11:-0.71625974 12:-0.42313516 13:-0.10530481 14:1.9260863 
1 1 0.2843509857316537 1 1 1 0.599796338481025 1 0 1 1 0.2620644270560135 0.8486369717166606 1 0.3703749288260672 0.1027146164082252 0 0 1:-0.73940783 2:2.6812545 3:0.24160817 4:-0.12160954 5:1.2365298 6:-0.96650121 7:-0.21001975 8:-0.022364874 9:-0.43561388 10:1.0553848 11:1.4724637 12:1.3952857 13:-0.10530481 14:-1.0381539 
1 0 0 1 1 0 1 0.9373968930098774 1 0 0 0 0 0 0 0 0 0 1:0.00057811402 2:-0.29339837 3:0.3010933 4:0.75665786 5:0.25482935 6:-0.24766858 7:-0.21001975 8:-0.022364874 9:-0.43561388 10:1.0553848 11:-0.71625974 12:-0.42313516 13:-0.10530481 14:-0.24008921 
1 1 0.2949045526604228 1 1 0.108929246328431 1 1 0 1 1 1 1 1 0 0.00554788942540524 0 0 1:-0.92440431 2:-0.29339837 3:-2.7921337 4:-0.54447903 5:1.0401897 6:-0.68275149 7:4.7608618 8:-0.022364874 9:1.4676691 10:1.0553848 11:0.37810197 12:-0.059450996 13:-0.10530481 14:0.55797547 
1 0 0 0 1 0 1 0 1 1 1 0 0.7428474139842316 0 0 0 0 0 1:-0.55441134 2:-0.66522998 3:-0.73989655 4:1.1795273 5:-0.066454425 6:-0.68275149 7:-0.21001975 8:-0.022364874 9:-0.43561388 10:1.0553848 11:-0.71625974 12:0.84975942 13:-0.10530481 14:-0.24008921 
1 1 0.1027669460615015 1 1 1 1 1 0 1 0.316047360256481 0.53770542025288 1 1 0.3932413807108823 0 0 0 1:-0.73940783 2:0.63618063 3:1.0297862 4:1.2933768 5:-0.99460755 6:-0.96650121 7:-0.21001975 8:-0.022364874 9:-0.43561388 10:1.0553848 11:1.4724637 12:1.3952857 13:-0.10530481 14:-1.0381539 
1 0 0 0.8506483142639465 1 0.335976534539546 0 0 1 0 0 0 0 0 1 0 0 0 1:-0.18441837 2:-0.85114578 3:-0.35324317 4:-1.2113117 5:-1.0124566 6:-1.2691676 7:-0.21001975 8:-0.022364874 9:-0.43561388 10:1.0553848 11:-0.71625974 12:1.1225225 13:-0.10530481 14:1.9260863 
1 1 0.4199371485528682 0 1 1 1 0.1222671273848641 0 1 1 0 1 0 0 0.8451583943953815 0 0 1:-0.73940783 2:-0.66522998 3:1.4759247 4:-1.1787833 5:-1.0124566 6:-0.096335395 7:-0.21001975 8:-0.022364874 9:-0.43561388 10:-0.43658878 11:1.4724637 12:1.3952857 13:-0.10530481 14:-0.69612616 
1 0.9090286075659408 0 1 0.2629028347335131 0.181430519439805 1 1 1 1 0.5512811001118995 1 0 1 0 0 0 0 1:-0.36941486 2:-0.47931418 3:1.2231129 4:0.17114626 5:-1.083853 6:-0.96650121 7:-0.21001975 8:-0.022364874 9:-0.43561388 10:1.0553848 11:-0.71625974 12:-0.42313516 13:-0.10530481 14:2.6101418 
1 0.6874911042624705 0.3035495833981388 1 1 0.5597028048166743 1 1 1 0.2438475392608611 1 1 0.2426912433267457 0 0 0 0.1248669235585892 0 1:-0.36941486 2:-0.29339837 3:0.80671694 4:0.2362031 5:-1.440835 6:0.26308092 7:-0.21001975 8:-0.022364874 9:-0.43561388 10:4.0393321 11:-0.71625974 12:-0.96866141 13:-0.10530481 14:-0.46810768 
1 1 0 1 1 1 1 1 0 1 0.1401262413407514 0 0 0 0 0 0 0 1:-0.73940783 2:0.26434903 3:0.95542978 4:1.1795273 5:0.68320772 6:-0.96650121 7:-0.21001975 8:-0.022364874 9:-0.43561388 10:1.0553848 11:1.4724637 12:1.3952857 13:-0.10530481 14:-0.24008921 
1 0 0 0 1 0 1 0 1 0.3293579011735973 0 0 0 0 0 0 0.7959963533258668 0 1:0.00057811402 2:-0.29339837 3:1.5354098 4:1.2120558 5:-0.79826747 6:0.33874751 7:-0.21001975 8:-0.022364874 9:-0.43561388 10:1.0553848 11:-0.71625974 12:0.75883838 13:-0.10530481 14:1.6980679 
1 1 0 0 1 1 1 0 0 1 0 1 0 0 0 0 0 0 1:-0.73940783 2:-0.85114578 3:0.16725175 4:1.309641 5:-0.29849271 6:-1.4205008 7:-0.21001975 8:-0.022364874 9:-0.43561388 10:-0.43658878 11:1.4724637 12:1.3952857 13:-0.10530481 14:0.32995699 
1 1 0 1 1 0 1 1 0.6851294429766741 1 1 1 0 0 0 0 0 0 1:-0.18441837 2:-0.10748257 3:0.31596458 4:1.2608484 5:0.59396222 6:1.4548297 7:-0.21001975 8:-0.022364874 9:-0.43561388 10:-0.43658878 11:-0.71625974 12:-0.96866141 13:-0.10530481 14:-0.92414464 
1 1 0 1 1 1 1 1 0 1 1 1 1 1 0 1 0 0 1:0.1855746 2:0.82209644 3:-1.2306489 4:0.75665786 5:0.64750952 6:-1.4015841 7:-0.21001975 8:-0.022364874 9:-0.43561388 10:-0.43658878 11:-0.71625974 12:-0.42313516 13:-0.10530481 14:-0.24008921 
1 1 0 1 1 1 1 1 0 1 1 0 1 0 0 0 0 0 1:-0.73940783 2:-0.29339837 3:-0.97783708 4:-1.1137264 5:0.71890591 6:-0.98541786 7:-0.21001975 8:-0.022364874 9:-0.43561388 10:-0.43658878 11:1.4724637 12:1.3952857 13:-0.10530481 14:-0.69612616 
1 1 0.3455676533174299 1 1 1 1 1 0 1 1 1 1 1 0 0.5069667722230812 0 0 1:-0.55441134 2:1.9375912 3:0.31596458 4:0.70786523 5:1.1651334 6:-0.20983528 7:-0.21001975 8:-0.022364874 9:-0.43561388 10:-0.43658878 11:-0.71625974 12:-0.42313516 13:-0.10530481 14:-0.69612616 
1 0.4644058382153697 0 0.7477794867333564 1 1 0.009102309582551149 0 0.2142602395128739 0.857178226638647 0 0.2502256707097288 0 0.3375481554004647 0.4630568760256032 0 0 0 1:-0.36941486 2:-0.29339837 3:0.3010933 4:-1.1137264 5:1.4150208 6:-1.6285839 7:-0.21001975 8:-0.022364874 9:-2.3388968 10:-0.43658878 11:1.4724637 12:-0.33221412 13:-0.10530481 14:-0.24008921 
1 1 1 0.6208576263596753 1 1 1 0.6819788477760123 0 1 1 0 0 1 0 0 0 0 1:-0.73940783 2:-1.0370616 3:0.91081593 4:-1.1137264 5:-0.95890935 6:1.0954134 7:-0.21001975 8:-0.022364874 9:-0.43561388 10:-0.43658878 11:1.4724637 12:1.3952857 13:-0.10530481 14:-0.69612616 
1 0 0 1 1 0 1 1 1 1 0 0 0 0 0 1 0 0 1:0.00057811402 2:-0.29339837 3:0.24160817 4:0.75665786 5:0.25482935 6:-0.96650121 7:-0.21001975 8:-0.022364874 9:-0.43561388 10:1.0553848 11:-0.71625974 12:-0.69589829 13:-0.10530481 14:-0.24008921 
1 1 0 0 1 1 1 1 0 1 1 0 0 0 0 0.2552484052987128 0.4239244718570205 0 1:-0.73940783 2:-0.47931418 3:0.71748924 4:0.90303576 5:-0.79826747 6:-0.98541786 7:-0.21001975 8:-0.022364874 9:-0.43561388 10:-0.43658878 11:1.4724637 12:1.3952857 13:-0.10530481 14:-0.24008921 
1 1 0 0 0 0 0 0 0 0 0 1 0 0 0.4597858421480301 0 0 0 1:-0.73940783 2:-1.4088932 3:-0.91835195 4:1.2933768 5:-1.7442697 6:-0.98541786 7:-0.21001975 8:-0.022364874 9:-0.43561388 10:-0.43658878 11:1.4724637 12:1.3952857 13:-0.10530481 14:1.6980679 
1 1 0.7475771782467852 1 1 1 0.7710943764654764 1 1 1 0.4224468106960136 1 0 1 1 1 0.9211324812428499 0 1:1.850543 2:1.193928 3:-0.84399553 4:1.000621 5:-1.0124566 6:-1.0421678 7:-0.21001975 8:-0.022364874 9:-0.43561388 10:-0.43658878 11:-0.71625974 12:-0.96866141 13:-0.10530481 14:-0.24008921 
1 1 0 0 1 0.3895470630596379 1 0 0 1 0 0 0 0 0 0 0 0 1:-0.73940783 2:-0.85114578 3:0.3010933 4:1.4560189 5:0.25482935 6:1.3413299 7:-0.21001975 8:-0.022364874 9:-0.43561388 10:1.0553848 11:1.4724637 12:1.3952857 13:-0.10530481 14:-0.69612616 
1 1 0 1 1 1 1 1 0 1 1 0 1 0 0 0 0 0 1:-0.73940783 2:-0.66522998 3:0.65800411 4:-1.1137264 5:-1.0660039 6:0.64141388 7:-0.21001975 8:-0.022364874 9:-0.43561388 10:-0.43658878 11:1.4724637 12:1.3952857 13:-0.10530481 14:-0.24008921 
1 0 0 1 1 1 1 0 0 0 1 1 0 1 0.845457175038989 1 0 0 1:-0.36941486 2:-0.85114578 3:-1.0373222 4:-1.1950475 5:-0.066454425 6:-0.38008512 7:-0.21001975 8:-0.022364874 9:-0.43561388 10:-0.43658878 11:-0.71625974 12:-0.96866141 13:-0.10530481 14:-0.24008921 
1 1 0 1 1 1 0 1 0 1 0 1 0 1 0 0 0.4012391604511843 0 1:0.1855746 2:0.63618063 3:-0.76963911 4:-1.3088969 5:-0.72687107 6:-1.7799171 7:-0.21001975 8:-0.022364874 9:-0.43561388 10:-0.43658878 11:-0.71625974 12:-0.69589829 13:-0.10530481 14:-0.69612616 
1 1 0 1 1 1 1 1 0.128659546383785 1 1 1 1 1 0 0 0.1118723933709379 0 1:-0.73940783 2:-0.85114578 3:1.0000436 4:0.93556418 5:-0.4234364 6:-1.4205008 7:-0.21001975 8:-0.022364874 9:2.7365244 10:-0.43658878 11:1.4724637 12:1.3952857 13:-0.10530481 14:-0.69612616 
1 1 0 1 1 1 1 1 0 1 1 1 1 1 0 0 0 0 1:-0.55441134 2:0.26434903 3:0.3010933 4:-0.56074324 5:0.25482935 6:-0.98541786 7:-0.21001975 8:-0.022364874 9:-0.43561388 10:-0.43658878 11:-0.71625974 12:-0.69589829 13:-0.10530481 14:1.0140124 
1 0 0.3974477320147342 1 1 1 1 0.2870570860510518 0.1972397052262908 1 1 1 0 1 1 1 0 0 1:-0.18441837 2:-0.85114578 3:0.34570715 4:-1.2113117 5:1.1115861 6:0.58466394 7:-0.21001975 8:-0.022364874 9:-0.43561388 10:-0.43658878 11:-0.71625974 12:-0.96866141 13:-0.10530481 14:-0.24008921 
1 0 0 1 0 0 0.9166408688050028 1 1 0.4421896931150388 0 1 0 1 0 0 1 0 1:0.92556054 2:1.0080122 3:-0.026074937 4:0.74039365 5:-0.79826747 6:0.66033053 7:-0.21001975 8:-0.022364874 9:-0.43561388 10:1.0553848 11:-0.71625974 12:-0.96866141 13:-0.10530481 14:1.5840586 
1 0 0 1 1 0 1 0 0 0.1379071580744168 0.8397160350519896 0 1 0 0 0.369484661565345 0 0 1:-0.73940783 2:-0.66522998 3:-0.91835195 4:-1.2926327 5:-0.3877382 6:0.16849768 7:-0.21001975 8:-0.022364874 9:-0.43561388 10:1.0553848 11:1.4724637 12:1.3952857 13:-0.10530481 14:-0.58211692 
1 1 0 1 1 1 0.8923015835555307 0 0 1 1 0 1 0 0 0 0 0 1:-0.73940783 2:-0.10748257 3:1.178499 4:-1.4878033 5:-1.0124566 6:-0.43683506 7:-0.21001975 8:-0.022364874 9:-0.43561388 10:-0.43658878 11:1.4724637 12:1.3952857 13:-0.10530481 14:-0.92414464 
1 1 0.4821640718526095 1 1 1 1 1 0 1 1 0 0 0 0 0.4012426415766932 0 0 1:-0.73940783 2:-0.85114578 3:-0.75476783 4:1.3584337 5:-1.0124566 6:1.3791632 7:-0.21001975 8:-0.022364874 9:-0.43561388 10:-0.43658878 11:1.4724637 12:1.3952857 13:-0.10530481 14:-0.12607997 
1 0 0 1 0 0 1 0 1 0 0 0 0 1 1 0 1 0 1:-0.36941486 2:-1.0370616 3:0.76210309 4:0.073560994 5:0.30837664 6:1.7953294 7:-0.21001975 8:-0.022364874 9:-0.43561388 10:1.0553848 11:-0.71625974 12:0.12239109 13:-0.10530481 14:1.6980679 
1 1 0 1 0.7145701295391561 1 0 1 0 1 0.9307125473445339 1 0.424214211178578 1 0 0 0.1007205733282553 0 1:0.1855746 2:0.63618063 3:-0.97783708 4:-1.0649338 5:-1.0124566 6:-0.98541786 7:-0.21001975 8:-0.022364874 9:-0.43561388 10:-0.43658878 11:1.4724637 12:-0.69589829 13:-0.10530481 14:1.3560401 
1 1 0.5929659334312704 1 1 1 1 1 0 1 1 1 1 1 0 0 1 0 1:-0.18441837 2:0.26434903 3:1.1933703 4:0.90303576 5:-0.99460755 6:0.64141388 7:-0.21001975 8:-0.022364874 9:1.4676691 10:-0.43658878 11:-0.71625974 12:-0.42313516 13:-0.10530481 14:-0.12607997 
1 1 0 1 1 1 1 1 0 1 1 0.5482808370278143 1 1 0 0 0 0 1:-0.73940783 2:0.26434903 3:1.2379842 4:-0.56074324 5:-0.4234364 6:-0.98541786 7:-0.21001975 8:-0.022364874 9:-0.43561388 10:-0.43658878 11:1.4724637 12:1.3952857 13:-0.10530481 14:-1.0381539 
1 1 0.6627185196564372 0 1 1 1 1 0 1 1 1 0 0.3476284706096595 0 0.4373614229524401 0.8108108258427601 0 1:-0.73940783 2:-0.85114578 3:0.65800411 4:0.80545049 5:-1.0660039 6:-1.515084 7:-0.21001975 8:-0.022364874 9:-0.43561388 10:-0.43658878 11:1.4724637 12:1.3952857 13:-0.10530481 14:1.0140124 
1 0 0 1 1 1 1 1 0 1 1 1 1 0 0 1 0 0 1:-0.73940783 2:-0.85114578 3:-1.3198766 4:-0.30051586 5:0.59396222 6:-0.096335395 7:-0.21001975 8:-0.022364874 9:-0.43561388 10:-0.43658878 11:1.4724637 12:1.3952857 13:-0.10530481 14:0.55797547 
1 1 0 1 1 0.03950977528439729 0.3496608192303036 1 0 1 1 0 0.9429272621985726 0.1460770129251224 0.07043078386268595 0 0 0 1:-0.92440431 2:-0.47931418 3:-2.3608665 4:-1.3088969 5:1.1294352 6:-0.039585451 7:4.7608618 8:-0.022364874 9:0.19881376 10:1.0553848 11:0.37810197 12:-0.059450996 13:-0.10530481 14:0.55797547 
1 0.9168800018953069 0 1 0.3677371328903804 1 1 0.8148600604996853 1 1 1 0 1 0.3646819302178145 0 1 0 0 1:-0.73940783 2:-0.47931418 3:1.5354098 4:-1.0324054 5:1.2900771 6:-0.039585451 7:-0.21001975 8:-0.022364874 9:-0.43561388 10:1.0553848 11:1.4724637 12:1.3952857 13:-0.10530481 14:0.32995699 
1 0 0 1 1 1 1 1 0 1 1 1 0 1 1 1 0 0 1:0.92556054 2:0.45026483 3:0.34570715 4:1.000621 5:1.1115861 6:-0.096335395 7:-0.21001975 8:-0.022364874 9:-0.43561388 10:-0.43658878 11:-0.71625974 12:0.21331213 13:-0.10530481 14:0.32995699 
1 1 0 0 1 0 1 0.1773011636475521 0 0.8960103788840045 1 0 1 0.08082735476991758 0 0 0 0 1:-0.73940783 2:-0.10748257 3:1.3123406 4:-0.99987694 5:-0.3877382 6:1.0575801 7:-0.21001975 8:-0.022364874 9:-0.43561388 10:1.0553848 11:1.4724637 12:1.3952857 13:-0.10530481 14:-0.24008921 
1 1 0 0.5438889753306907 1 1 1 0 0 1 1 0 1 0 0 0 0 0 1:-0.73940783 2:-0.85114578 3:-0.15991649 4:-1.1137264 5:-1.4586841 6:-0.43683506 7:-0.21001975 8:-0.022364874 9:-0.43561388 10:-0.43658878 11:1.4724637 12:1.3952857 13:-0.10530481 14:-0.69612616 
1 1 0 1 1 1 1 1 0.2449270089851143 1 1 1 0 1 0 0 0 0 1:-0.55441134 2:-0.66522998 3:0.76210309 4:-0.28425165 5:-0.45913459 6:-1.8177504 7:-0.21001975 8:-0.022364874 9:-0.43561388 10:-0.43658878 11:-0.71625974 12:-0.69589829 13:-0.10530481 14:-0.24008921 
1 1 0 1 0 0.2903434777592088 1 1 1 1 0 1 0 1 1 0 0.8029714453595472 0 1:-0.73940783 2:-0.85114578 3:-0.97783708 4:-0.10534533 5:0.54041493 6:-0.90975126 7:-0.21001975 8:-0.022364874 9:-0.43561388 10:-0.43658878 11:1.4724637 12:1.3952857 13:-0.10530481 14:2.1541048 
1 1 0.2316860164824545 0 1 1 1 1 0 1 1 0 0.9692232150564843 1 0 0.4185080603504034 0.2073756499836475 0 1:-0.73940783 2:-0.85114578 3:0.82158823 4:-1.0161412 5:-1.7621188 6:0.58466394 7:-0.21001975 8:-0.022364874 9:-0.43561388 10:-0.43658878 11:1.4724637 12:1.3952857 13:-0.10530481 14:-0.24008921 
1 0 0 0 0 0 0.02954259658400728 1 1 0 0 0 0 0.02760180311515137 1 0 0 0 1:0.37057109 2:-0.29339837 3:-0.65066885 4:0.18741047 5:-1.7085715 6:-0.96650121 7:-0.21001975 8:-0.022364874 9:-0.43561388 10:1.0553848 11:-0.71625974 12:0.12239109 13:-0.10530481 14:1.3560401 
1 1 0 1 1 1 1 0 0 1 0.4618395452326333 1 0 0 0.9158737826411502 0 0.11161768923115 0 1:-0.55441134 2:-0.85114578 3:1.2379842 4:1.1144705 5:-0.3341909 6:1.549413 7:-0.21001975 8:-0.022364874 9:-0.43561388 10:-0.43658878 11:-0.71625974 12:-0.42313516 13:-0.10530481 14:-0.24008921 
1 0.6397634953534825 0.08676731830046672 1 0 0 0.8086738789068779 1 1 0.3191285434630226 0 0 0 0.8342501126818909 0.4040976115036167 0 0 0 1:-0.36941486 2:0.26434903 3:0.43493485 4:0.74039365 5:-1.1017021 6:-0.60708489 7:-0.21001975 8:-0.022364874 9:-2.3388968 10:1.0553848 11:-0.71625974 12:-0.69589829 13:-0.10530481 14:1.8120771 
1 1 0.5943779386751293 1 1 1 1 1 1 1 1 1 1 1 0 1 1 0 1:-0.18441837 2:-0.29339837 3:-1.1116786 4:-1.2113117 5:-0.99460755 6:1.0575801 7:-0.21001975 8:-0.022364874 9:1.4676691 10:1.0553848 11:-0.71625974 12:-0.42313516 13:-0.10530481 14:-0.24008921 
1 1 0 0 1 0 1 0 0 1 0 0 1 0 0 0 0 0 1:-0.73940783 2:-0.85114578 3:-0.36811446 4:0.74039365 5:-0.15569992 6:0.33874751 7:-0.21001975 8:-0.022364874 9:-0.43561388 10:1.0553848 11:1.4724637 12:1.3952857 13:-0.10530481 14:-1.0381539 
1 1 0.8627419221844173 1 1 1 1 1 1 1 0.1400902713628409 1 0.6163402161197893 1 1 0 0.2181483775206393 0 1:1.2955535 2:0.63618063 3:1.3123406 4:1.618661 5:-1.7621188 6:-1.0800011 7:-0.21001975 8:-0.022364874 9:-0.43561388 10:-0.43658878 11:-0.71625974 12:-0.96866141 13:-0.10530481 14:1.6980679 
1 0 0 0 0 1 0 0.1510007389257604 0 0.5539062445533178 0 1 0 0.365049416964714 0.07137060930564114 0 0 0 1:-0.73940783 2:-0.85114578 3:-0.85886682 4:-1.3088969 5:-1.4229859 6:-1.6664172 7:-0.21001975 8:-0.022364874 9:-0.43561388 10:-0.43658878 11:1.4724637 12:1.3952857 13:-0.10530481 14:1.8120771 
1 0.4163692319028862 0 0 1 1 0 0 0 1 0 0 0 0 0 0 0.8122937091637084 0 1:-0.73940783 2:-0.85114578 3:-0.85886682 4:-1.0161412 5:-1.4229859 6:-1.5529173 7:-0.21001975 8:-0.022364874 9:-0.43561388 10:-0.43658878 11:1.4724637 12:1.3952857 13:-0.10530481 14:-0.24008921 
1 0 0 1 1 0.5063397110884938 1 0 1 1 0.3019613512576885 0 0 0 0.4858540113100279 0 0 0 1:-0.55441134 2:-0.85114578 3:0.77697438 4:-1.2601043 5:1.4328699 6:-0.96650121 7:-0.21001975 8:-0.022364874 9:-0.43561388 10:1.0553848 11:-0.71625974 12:0.84975942 13:-0.10530481 14:-0.24008921 
1 1 0 1 1 0 1 0 1 1 0.345923350370155 1 0 1 0 0.4174891485513 0.5497283975627769 0 1:-0.18441837 2:0.26434903 3:1.1933703 4:-0.57700745 5:0.040640166 6:1.0575801 7:-0.21001975 8:-0.022364874 9:-0.43561388 10:1.0553848 11:-0.71625974 12:-0.42313516 13:-0.10530481 14:-0.69612616 
1 1 0 1 1 0 1 1 1 1 1 0 0.5396009349816748 1 0 0.8420613589671117 0 0 1:-0.55441134 2:-0.29339837 3:-0.75476783 4:1.0331494 5:1.1294352 6:-0.24766858 7:-0.21001975 8:-0.022364874 9:-0.43561388 10:1.0553848 11:1.4724637 12:-0.69589829 13:-0.10530481 14:-0.24008921 
1 1 0 1 1 1 1 0.04865458491607057 1 1 0.02480397230083279 1 0 1 0 1 0 0 1:0.55556757 2:1.7516754 3:0.33083587 4:0.39884522 5:-0.3877382 6:1.5304963 7:-0.21001975 8:-0.022364874 9:-2.3388968 10:-0.43658878 11:-0.71625974 12:-0.96866141 13:-0.10530481 14:-0.92414464 
1 1 1 1 1 1 1 0 0 1 1 1 0 1 0 1 0 0 1:0.00057811402 2:0.45026483 3:1.1338852 4:-1.1625191 5:0.27267845 6:1.5304963 7:-0.21001975 8:-0.022364874 9:-0.43561388 10:-0.43658878 11:-0.71625974 12:-0.96866141 13:-0.10530481 14:-0.24008921 
1 1 0.03360911427027381 1 1 1 1 1 0 1 1 0 1 0 0 0 0 0 1:-0.73940783 2:-0.10748257 3:-0.73989655 4:1.1144705 5:0.52256583 6:1.549413 7:-0.21001975 8:-0.022364874 9:-0.43561388 10:-0.43658878 11:1.4724637 12:1.3952857 13:-0.10530481 14:-1.0381539 
1 1 1 1 1 1 1 1 0 1 1 0.2795322976472266 1 0.36879797761896 0 0.7230063786117943 0 0 1:-0.73940783 2:-0.10748257 3:-0.84399553 4:0.95182839 5:1.1115861 6:1.492663 7:-0.21001975 8:-0.022364874 9:-0.43561388 10:-0.43658878 11:1.4724637 12:1.3952857 13:-0.10530481 14:-1.0381539 
1 0.5733732116272884 0 0 1 0 1 1 0 1 0 0 1 0 0 0 0 0 1:-0.73940783 2:-0.10748257 3:-0.27888676 4:-0.44689376 5:0.094187462 6:-0.96650121 7:-0.21001975 8:-0.022364874 9:-0.43561388 10:1.0553848 11:1.4724637 12:1.3952857 13:-0.10530481 14:-0.69612616 
1 1 0 1 1 1 1 0 0 1 0 1 0 1 1 0 0.8586896685157945 0 1:-0.55441134 2:-0.66522998 3:1.2974693 4:0.91929997 5:0.73675501 6:0.26308092 7:-0.21001975 8:-0.022364874 9:-0.43561388 10:-0.43658878 11:-0.71625974 12:-0.42313516 13:-0.10530481 14:1.3560401 
1 0.7065199824631695 0 1 1 0 1 1 1 0 0 1 0 1 0 0.9622574353362412 0.5048618838690674 0 1:0.37057109 2:0.078433229 3:0.95542978 4:-0.99987694 5:-1.6550242 6:1.0575801 7:-0.21001975 8:-0.022364874 9:-0.43561388 10:1.0553848 11:-0.71625974 12:-0.96866141 13:-0.10530481 14:-0.46810768 
1 1 0 1 1 1 1 1 0 1 1 1 1 1 0 1 0.2450988118612039 0 1:-0.55441134 2:0.82209644 3:-1.2306489 4:0.17114626 5:0.98664239 6:-0.58816825 7:-0.21001975 8:-0.022364874 9:-0.43561388 10:-0.43658878 11:-0.71625974 12:-0.69589829 13:-0.10530481 14:-1.0381539 
1 1 0 1 1 1 0 1 1 1 1 1 0.3698773768665556 1 0.3529564756441642 0.800630354536695 0.9548107432216522 0 1:1.48055 2:1.7516754 3:1.2082416 4:-1.2601043 5:0.915246 6:-1.3070009 7:-0.21001975 8:-0.022364874 9:-0.43561388 10:-0.43658878 11:-0.71625974 12:-0.69589829 13:-0.10530481 14:1.8120771 
1 1 0 1 1 1 0 1 0 0 0 1 0 1 0 0 0 0 1:1.2955535 2:0.63618063 3:0.18212303 4:-1.2601043 5:-0.90536206 6:-1.3070009 7:-0.21001975 8:-0.022364874 9:-0.43561388 10:-0.43658878 11:-0.71625974 12:-0.96866141 13:-0.10530481 14:-0.24008921 
1 1 0.08933964228975115 1 1 1 1 1 0 1 1 1 1 1 0 0.04489163823371942 0.8776100521011955 0 1:-0.73940783 2:-0.47931418 3:0.82158823 4:-1.1137264 5:0.094187462 6:0.58466394 7:-0.21001975 8:-0.022364874 9:-0.43561388 10:-0.43658878 11:1.4724637 12:1.3952857 13:-0.10530481 14:2.1541048 
1 0 0.5431385100359808 1 1 0.1376917951534917 1 1 0 1 0.8044277915397612 1 0 0 1 0 0.09427396062113717 0 1:-0.18441837 2:-0.29339837 3:-0.11530264 4:1.5048116 5:1.0044915 6:1.6061629 7:-0.21001975 8:-0.022364874 9:-0.43561388 10:-0.43658878 11:-0.71625974 12:0.21331213 13:-0.10530481 14:1.0140124 
1 1 0 1 1 0.2928512877717835 1 1 0 1 1 0 1 0.005772143633615924 0 0 0 0 1:-0.73940783 2:0.45026483 3:1.178499 4:-0.52821482 5:1.0758879 6:-0.24766858 7:-0.21001975 8:-0.022364874 9:-0.43561388 10:1.0553848 11:1.4724637 12:1.3952857 13:-0.10530481 14:-1.0381539 
1 0 0 1 0 0 0 1 0.904196871525242 0 0 0.5069248080484839 0 0 0 0.654018469798669 0 0 1:-0.73940783 2:-0.85114578 3:0.2118656 4:-1.1137264 5:-1.6371751 6:-0.96650121 7:-0.21001975 8:-0.022364874 9:-0.43561388 10:1.0553848 11:1.4724637 12:1.3952857 13:-0.10530481 14:1.6980679 
1 0.6473630953316307 0 1 0 0 0.8714720437853889 1 1 1 0.5339280696466923 1 1 0 0 0 0 0 1:-0.73940783 2:-0.10748257 3:-0.39785703 4:-1.2113117 5:0.98664239 6:-0.68275149 7:-0.21001975 8:-0.022364874 9:-0.43561388 10:1.0553848 11:1.4724637 12:1.3952857 13:-0.10530481 14:1.8120771 
1 0 0 1 1 0 1 1 1 1 0 0 0 0.8288907876313995 0 0 0 0 1:-0.55441134 2:-1.0370616 3:-0.36811446 4:0.20367468 5:1.1294352 6:-0.68275149 7:-0.21001975 8:-0.022364874 9:-0.43561388 10:1.0553848 11:-0.71625974 12:-0.96866141 13:-0.10530481 14:-0.69612616 
1 0.230146717279643 0 1 1 0.5866185104154428 1 1 1 1 1 0 1 0.1833048343275893 0.4404074501224682 0 0 0 1:-0.73940783 2:-1.0370616 3:-0.97783708 4:-1.1625191 5:0.54041493 6:1.0575801 7:-0.21001975 8:-0.022364874 9:-0.43561388 10:1.0553848 11:1.4724637 12:1.3952857 13:-0.10530481 14:-1.0381539 
1 0.5581974480477816 0.3560863658185322 1 1 1 1 0 0 1 1 1 0 1 0.9235315791527114 0 0.8269396945229109 0 1:-0.36941486 2:-0.66522998 3:1.0000436 4:0.17114626 5:0.64750952 6:1.22783 7:-0.21001975 8:-0.022364874 9:-0.43561388 10:-0.43658878 11:-0.71625974 12:-0.96866141 13:-0.10530481 14:-0.24008921 
1 0.4023271009559029 0.7677989944251994 1 1 1 0 0.5070227469885866 1 1 0.8403129695021724 1 0 1 1 0 0 0 1:1.48055 2:0.82209644 3:0.063152765 4:-1.2438401 5:-1.6371751 6:0.24416427 7:-0.21001975 8:-0.022364874 9:-0.43561388 10:-0.43658878 11:-0.71625974 12:0.12239109 13:-0.10530481 14:-1.0381539 
1 1 0 1 1 1 1 1 0 1 0.1742077666635921 1 0 1 0 0 0 0 1:-0.55441134 2:-0.29339837 3:0.77697438 4:-0.23545902 5:-1.6014769 6:0.64141388 7:-0.21001975 8:-0.022364874 9:-0.43561388 10:-0.43658878 11:-0.71625974 12:-0.69589829 13:-0.10530481 14:1.0140124 
1 1 0 1 0 1 0.5756881323873889 1 1 1 1 1 0 1 0.7898566484887769 0 0.8604251361838761 0 1:-0.73940783 2:-1.4088932 3:-0.82912425 4:-1.4390106 5:0.25482935 6:1.0008302 7:-0.21001975 8:-0.022364874 9:-0.43561388 10:-0.43658878 11:1.4724637 12:1.3952857 13:-0.10530481 14:2.0400956 
1 0.9478447244025671 1 1 0 1 1 1 1 1 0 1 0 0 1 0.583775064410794 1 0 1:-0.73940783 2:-1.4088932 3:-0.39785703 4:1.6511895 5:1.0758879 6:0.62249723 7:-0.21001975 8:-0.022364874 9:-0.43561388 10:-0.43658878 11:1.4724637 12:1.3952857 13:-0.10530481 14:1.5840586 
1 0 0 0 0 0 1 0 1 0 0 0 0 0 0 0 0 0 1:-0.73940783 2:-1.0370616 3:-0.73989655 4:-0.52821482 5:-0.3877382 6:-0.96650121 7:-0.21001975 8:-0.022364874 9:-0.43561388 10:1.0553848 11:1.4724637 12:1.3952857 13:-0.10530481 14:-0.24008921 
1 1 0 1 1 1 1 0 0 1 1 0 0 0 0 0 0 0 1:-0.73940783 2:-0.85114578 3:1.3123406 4:0.2362031 5:0.34407484 6:1.17108 7:-0.21001975 8:-0.022364874 9:-0.43561388 10:-0.43658878 11:1.4724637 12:1.3952857 13:-0.10530481 14:-0.69612616 
1 1 0.8314353563995731 1 1 1 1 1 1 1 1 1 0 1 1 0.7444744131168197 0.4968655249768064 0 1:0.37057109 2:-0.10748257 3:1.3123406 4:-1.0974622 5:-1.1909476 6:1.6629129 7:-0.21001975 8:-0.022364874 9:-0.43561388 10:-0.43658878 11:-0.71625974 12:-0.96866141 13:-0.10530481 14:1.6980679 
1 1 0 1 1 0 1 1 1 1 1 1 1 0.6365533680268528 0 0 0.6551672455459168 0 1:-0.73940783 2:-0.29339837 3:0.76210309 4:1.6349253 5:0.66535862 6:-0.96650121 7:-0.21001975 8:-0.022364874 9:1.4676691 10:1.0553848 11:1.4724637 12:1.3952857 13:-0.10530481 14:1.0140124 
1 0 0 1 0 0 0 0 1 0 0 0 0 0.2578998923284594 0 0.5069750702362769 0.2047254813757716 0 1:1.2955535 2:0.63618063 3:-0.65066885 4:-0.98361273 5:-1.7085715 6:1.4548297 7:-0.21001975 8:-0.022364874 9:-0.43561388 10:2.5473585 11:-0.71625974 12:-0.96866141 13:-0.10530481 14:-0.69612616 
1 1 0 1 1 1 1 1 1 1 1 0 0 0 0 0 0 0 1:-0.55441134 2:0.26434903 3:-0.88860938 4:-0.60953587 5:-0.79826747 6:-0.96650121 7:-0.21001975 8:-0.022364874 9:-0.43561388 10:1.0553848 11:-0.71625974 12:-0.42313516 13:-0.10530481 14:-0.24008921 
1 1 0.1375435149715901 1 0 1 1 1 0 1 1 1 0 0 0 0 0.7159447385104649 0 1:-0.73940783 2:-1.4088932 3:-0.84399553 4:0.28499574 5:-1.0124566 6:1.1332467 7:-0.21001975 8:-0.022364874 9:-0.43561388 10:-0.43658878 11:1.4724637 12:1.3952857 13:-0.10530481 14:2.0400956 
1 0 0.8403129271132697 1 1 1 1 0 0 1 0.7920198608976797 1 0 1 0 0 0 0 1:-0.36941486 2:-0.66522998 3:1.178499 4:-1.1137264 5:0.64750952 6:-0.43683506 7:-0.21001975 8:-0.022364874 9:-0.43561388 10:-0.43658878 11:-0.71625974 12:-0.96866141 13:-0.10530481 14:-0.24008921 
1 0 0 1 1 0 0.992191279556364 0 1 0.1036992199521663 0 0 0 0.7083886146276547 0 0 0 0 1:-0.55441134 2:-0.66522998 3:0.3010933 4:-1.2601043 5:0.25482935 6:-0.96650121 7:-0.21001975 8:-0.022364874 9:-0.43561388 10:1.0553848 11:-0.71625974 12:0.75883838 13:-0.10530481 14:1.8120771 
1 0.06622322828914889 0 1 1 1 0.9036505132460589 1 1 1 1 1 0 1 1 1 0.1291913541305877 0 1:0.92556054 2:0.26434903 3:-0.82912425 4:-1.4390106 5:0.25482935 6:1.0008302 7:-0.21001975 8:-0.022364874 9:-0.43561388 10:-0.43658878 11:-0.71625974 12:-0.96866141 13:-0.10530481 14:1.3560401 
1 1 0 1 1 1 1 1 0 1 1 1 1 1 0 1 0.492570303617513 0 1:-0.36941486 2:-0.10748257 3:-0.73989655 4:1.0168852 5:0.34407484 6:0.58466394 7:-0.21001975 8:-0.022364874 9:-0.43561388 10:-0.43658878 11:-0.71625974 12:-1.0595825 13:-0.10530481 14:-0.24008921 
1 1 0.2529299091715778 0.708610554627422 1 1 1 1 0 1 0 1 0 1 1 0.9026789589518168 0 0 1:0.92556054 2:0.26434903 3:0.3010933 4:1.5536042 5:-1.0124566 6:-1.4394174 7:-0.21001975 8:-0.022364874 9:-0.43561388 10:-0.43658878 11:-0.71625974 12:0.12239109 13:-0.10530481 14:0.55797547 
1 1 0 1 1 0.135186782900152 1 1 0 1 1 1 0 0 0 0 0 0 1:-0.36941486 2:0.078433229 3:1.178499 4:1.6349253 5:0.34407484 6:0.9251636 7:-0.21001975 8:-0.022364874 9:-0.43561388 10:-0.43658878 11:-0.71625974 12:-0.69589829 13:-0.10530481 14:-0.92414464 
1 1 0 1 1 1 1 1 0 1 1 1 0 0 1 0 1 0 1:-0.73940783 2:-0.85114578 3:0.33083587 4:1.3584337 5:1.647059 6:-0.15308534 7:-0.21001975 8:-0.022364874 9:-0.43561388 10:-0.43658878 11:1.4724637 12:1.3952857 13:-0.10530481 14:-0.24008921 
1 0 0 1 1 1 1 0 0 1 0.5007210441491171 1 0 1 1 1 0 0 1:-0.55441134 2:-0.85114578 3:-0.88860938 4:-1.0161412 5:-1.0124566 6:-0.72058478 7:-0.21001975 8:-0.022364874 9:-0.43561388 10:-0.43658878 11:-0.71625974 12:-0.42313516 13:-0.10530481 14:-0.24008921 
1 1 1 1 1 1 1 1 0 1 1 0.9347371805351817 1 0 0 0 0.9314021609517241 0 1:-0.73940783 2:-0.85114578 3:-0.33837189 4:-0.46315797 5:1.2186807 6:1.2845799 7:-0.21001975 8:-0.022364874 9:-0.43561388 10:-0.43658878 11:1.4724637 12:1.3952857 13:-0.10530481 14:-0.24008921 
1 1 0 1 1 0 1 1 1 1 0 1 0 1 1 1 0 0 1:0.1855746 2:-0.47931418 3:-0.9629658 4:1.1795273 5:0.57611312 6:-1.4015841 7:-0.21001975 8:-0.022364874 9:-0.43561388 10:-0.43658878 11:-0.71625974 12:-0.96866141 13:-0.10530481 14:-0.24008921 
1 1 1 1 1 1 1 0.5877563918441785 0 1 1 1 1 0 0 0.8829198937442133 0 0 1:-0.73940783 2:-0.47931418 3:0.85133079 4:-1.1625191 5:1.4328699 6:-0.41791841 7:-0.21001975 8:-0.022364874 9:-0.43561388 10:-0.43658878 11:1.4724637 12:1.3952857 13:-0.10530481 14:-1.0381539 
1 1 0 0 1 0 1 1 1 1 0 0 0 0 0.2353936072224483 0 0 0 1:-0.73940783 2:-1.0370616 3:-0.39785703 4:1.3584337 5:0.98664239 6:-0.96650121 7:-0.21001975 8:-0.022364874 9:-0.43561388 10:1.0553848 11:1.4724637 12:1.3952857 13:-0.10530481 14:-0.69612616 
1 1 0 1 1 0 1 1 1 1 1 1 1 1 0 0.4044735176830312 0.4148814844012073 0 1:0.00057811402 2:-0.29339837 3:-1.0075797 4:1.2445842 5:-1.2801931 6:-0.039585451 7:-0.21001975 8:-0.022364874 9:1.4676691 10:1.0553848 11:-0.71625974 12:-0.69589829 13:-0.10530481 14:-0.69612616 
1 0 0 1 0.3072339187380256 1 0 0.9864422573049983 0 1 1 1 0.5832853604622917 0 0 0.9587145468602704 0 0 1:-0.73940783 2:-0.66522998 3:-0.73989655 4:-1.3088969 5:-0.20924721 6:-1.6664172 7:-0.21001975 8:-0.022364874 9:-0.43561388 10:-0.43658878 11:1.4724637 12:1.3952857 13:-0.10530481 14:1.8120771 
1 1 0 1 1 1 0 1 1 0 0 1 0 1 0 0 0 0 1:0.37057109 2:-0.29339837 3:0.18212303 4:-1.2601043 5:-0.90536206 6:-1.3070009 7:-0.21001975 8:-0.022364874 9:-0.43561388 10:-0.43658878 11:-0.71625974 12:-0.96866141 13:-0.10530481 14:-0.69612616 
1 0.3073026704842641 0 0 0 0 1 0 1 0 0.04917191808797629 0 0 0 0 0 0.8247493024107375 0 1:-0.73940783 2:-0.66522998 3:1.5651524 4:-0.54447903 5:0.23698025 6:1.0575801 7:-0.21001975 8:-0.022364874 9:-0.43561388 10:1.0553848 11:1.4724637 12:1.3952857 13:-0.10530481 14:-0.24008921 
1 0.5544364656834657 1 1 1 1 1 1 0.1608613028075646 1 1 1 1 1 1 1 0.3257135855886364 0 1:-0.36941486 2:-1.0370616 3:-0.9629658 4:-1.1950475 5:-0.24494541 6:-0.15308534 7:-0.21001975 8:-0.022364874 9:0.19881376 10:-0.43658878 11:-0.71625974 12:-0.96866141 13:-0.10530481 14:-0.24008921 
1 1 0 1 1 1 1 0.1902575247406487 0 1 1 1 1 1 0 0 0 0 1:0.1855746 2:0.45026483 3:-0.73989655 4:-1.6016527 5:-1.0124566 6:0.35766416 7:-0.21001975 8:-0.022364874 9:-0.43561388 10:-0.43658878 11:-0.71625974 12:0.12239109 13:-0.10530481 14:-0.24008921 
1 1 0.131599419570699 1 0 1 1 1 1 1 0 1 0 1 1 0 0 0 1:-0.55441134 2:-1.2229774 3:1.0297862 4:-0.34930849 5:-1.0124566 6:1.2845799 7:-0.21001975 8:-0.022364874 9:-0.43561388 10:-0.43658878 11:1.4724637 12:-0.33221412 13:-0.10530481 14:1.8120771 
1 1 0 0 1 1 1 1 0 1 1 0.7301178020120321 0 0 0 0.4273323438601503 0 0 1:-0.73940783 2:-0.85114578 3:0.91081593 4:1.5536042 5:-1.0124566 6:1.0954134 7:-0.21001975 8:-0.022364874 9:-0.43561388 10:-0.43658878 11:1.4724637 12:1.3952857 13:-0.10530481 14:-0.24008921 
1 1 0.4316746929555655 1 1 1 1 0 1 1 0.2249840911920143 1 0 1 1 0.02155877252648315 0 0 1:-0.18441837 2:-0.66522998 3:-0.91835195 4:1.0168852 5:-1.7085715 6:1.3413299 7:-0.21001975 8:-0.022364874 9:-0.43561388 10:-0.43658878 11:-0.71625974 12:-0.78681933 13:-0.10530481 14:0.55797547 
1 1 1 1 1 1 1 1 1 1 1 1 1 1 1 0.08919047896289602 1 0 1:-0.55441134 2:-0.47931418 3:0.2118656 4:-1.1137264 5:1.5756626 6:1.7953294 7:-0.21001975 8:-0.022364874 9:-0.43561388 10:-0.43658878 11:-0.71625974 12:-0.42313516 13:-0.10530481 14:0.55797547 
1 1 0 0.9792822267570342 1 1 1 0.5073154879417686 0 1 1 0 0.7858725431388419 0 0 0 0 0 1:-0.73940783 2:-0.47931418 3:-0.76963911 4:0.70786523 5:-1.4586841 6:1.3413299 7:-0.21001975 8:-0.022364874 9:-0.43561388 10:1.0553848 11:1.4724637 12:1.3952857 13:-0.10530481 14:-0.24008921 
1 0.8380343251627154 0.004304291464427754 1 0.6501813588747453 0.697058879392281 0 1 1 1 0.8240111685038954 1 0.7236497061450189 1 1 1 0.08173912666705253 0 1:1.48055 2:0.82209644 3:-1.2306489 4:-1.1137264 5:1.4685681 6:-0.98541786 7:-0.21001975 8:-0.022364874 9:-0.43561388 10:-0.43658878 11:-0.71625974 12:-0.69589829 13:-0.10530481 14:2.1541048 
1 0 0 1 1 0 1 0 1 0.2745841561268831 0.9384002491941171 0 0 0.8044866239816302 0 0.07980411120761982 0.5868559923451313 0 1:0.74056406 2:0.078433229 3:-1.0224509 4:-1.2113117 5:0.040640166 6:0.33874751 7:-0.21001975 8:-0.022364874 9:-0.43561388 10:1.0553848 11:-0.71625974 12:0.12239109 13:-0.10530481 14:-1.0381539 
1 1 0 1 0.9626619550910269 1 1 1 0.5328669759428022 1 0 1 0.1794209576504876 1 1 1 0 0 1:0.1855746 2:-0.10748257 3:-0.91835195 4:1.6349253 5:-0.13785082 6:-1.4015841 7:-0.21001975 8:-0.022364874 9:-0.43561388 10:-0.43658878 11:-0.71625974 12:-0.96866141 13:-0.10530481 14:0.55797547 
1 0 0 0 0 0.1489690310769571 0 0 1 0 0 0 0 0 0 0 0 0 1:-0.73940783 2:-0.10748257 3:-0.35324317 4:-1.3088969 5:-1.6728733 6:0.16849768 7:-0.21001975 8:-0.022364874 9:-2.3388968 10:1.0553848 11:1.4724637 12:1.3952857 13:-0.10530481 14:0.32995699 
1 0 0.6907744358384121 1 1 0 1 1 1 1 0.3242516015082834 1 0 0.4078917072913948 0 1 0 0 1:-0.18441837 2:-0.85114578 3:-0.97783708 4:1.2933768 5:0.54041493 6:-0.96650121 7:-0.21001975 8:-0.022364874 9:-0.43561388 10:1.0553848 11:-0.71625974 12:-0.96866141 13:-0.10530481 14:-0.69612616 
1 1 0 0 1 1 1 0 0 1 1 0 0 0 0 1 0 0 1:-0.73940783 2:-1.0370616 3:-0.81425297 4:1.1795273 5:-1.0124566 6:-0.43683506 7:-0.21001975 8:-0.022364874 9:-0.43561388 10:-0.43658878 11:1.4724637 12:1.3952857 13:-0.10530481 14:-0.24008921 
1 0 0 0.07707818683569623 0 0 1 0 1 0 0 0 0 0 0 0 0.6016081750855609 0 1:-0.55441134 2:-0.66522998 3:-0.32350061 4:0.70786523 5:-1.0124566 6:1.3413299 7:-0.21001975 8:-0.022364874 9:-0.43561388 10:1.0553848 11:-0.71625974 12:-0.42313516 13:-0.10530481 14:1.3560401 
1 0 0 1 1 1 1 0 0 1 1 1 0 1 0 0 0 0 1:-0.36941486 2:-0.66522998 3:0.34570715 4:-1.1137264 5:0.64750952 6:-0.43683506 7:-0.21001975 8:-0.022364874 9:-0.43561388 10:-0.43658878 11:-0.71625974 12:-0.42313516 13:-0.10530481 14:-0.24008921 
1 1 0.1124854651947358 1 0 0.2948956106680597 0.9225979869758903 1 1 1 0 1 0.4336568707373224 1 0.833750980339523 1 0.1401683644838359 0 1:0.37057109 2:0.26434903 3:-1.1562925 4:1.53734 5:-1.2444949 6:-0.96650121 7:-0.21001975 8:-0.022364874 9:-0.43561388 10:1.0553848 11:-0.71625974 12:-0.96866141 13:-0.10530481 14:2.0400956 
1 0 0 1 1 0 1 0 1 1 1 0 0.3751051054379084 0 1 0 0.03499662285423493 0 1:-0.36941486 2:-0.85114578 3:-0.36811446 4:0.20367468 5:1.1294352 6:-0.68275149 7:-0.21001975 8:-0.022364874 9:-0.43561388 10:1.0553848 11:-0.71625974 12:0.94068046 13:-0.10530481 14:-0.69612616 
1 0 0 1 1 0 0 1 1 0 0 0 0 0 0 0.06551417698349106 0 0 1:1.110557 2:0.45026483 3:-0.14504521 4:-1.1137264 5:0.25482935 6:-1.2691676 7:-0.21001975 8:-0.022364874 9:-0.43561388 10:1.0553848 11:-0.71625974 12:0.12239109 13:-0.10530481 14:-0.24008921 
1 1 0 0 0 0 1 0 1 0 0 0 0 0.1511583268020051 0 0 0 0 1:-0.73940783 2:-1.0370616 3:1.2379842 4:0.90303576 5:-0.13785082 6:1.3413299 7:-0.21001975 8:-0.022364874 9:-0.43561388 10:1.0553848 11:1.4724637 12:1.3952857 13:-0.10530481 14:-0.24008921 
1 1 0.04540695899719423 1 1 1 0 1 1 1 0.2254116998902169 1 0 1 0 0 0.06365942351396513 0 1:1.2955535 2:2.123507 3:-0.91835195 4:-1.2438401 5:-1.7442697 6:-1.2502509 7:-0.21001975 8:-0.022364874 9:-1.0700415 10:-0.43658878 11:-0.71625974 12:-0.42313516 13:-0.10530481 14:-0.69612616 
1 1 0.8101032493213199 0 1 1 1 1 0 1 0.5984315180501635 0 0.1711066535020609 0.8923063449533863 0 0.03812261636772567 0 0 1:-0.73940783 2:-0.10748257 3:0.40519229 4:1.6511895 5:-1.0124566 6:-1.2691676 7:-0.21001975 8:-0.022364874 9:-0.43561388 10:1.0553848 11:1.4724637 12:1.3952857 13:-0.10530481 14:-0.24008921 
1 1 0 1 1 1 1 1 0 1 1 0.64132890660317 0 0 0 0 0 0 1:-0.73940783 2:0.078433229 3:0.33083587 4:1.309641 5:-0.066454425 6:0.54683064 7:-0.21001975 8:-0.022364874 9:-0.43561388 10:-0.43658878 11:1.4724637 12:1.3952857 13:-0.10530481 14:-0.24008921 
1 1 0 0.1522680189129095 1 0 1 1 1 1 0 0 1 0.9725141058734291 0.5267594652017895 0 0 0 1:-0.36941486 2:-0.10748257 3:1.2231129 4:0.70786523 5:-1.083853 6:1.3413299 7:-0.21001975 8:-0.022364874 9:-0.43561388 10:1.0553848 11:-0.71625974 12:-0.42313516 13:-0.10530481 14:-0.69612616 
1 1 0.1852891950118524 1 0 1 1 1 0 1 0.439483840013788 1 0 0 0 0 0 0 1:-0.73940783 2:-0.29339837 3:0.3010933 4:0.83797892 5:0.25482935 6:0.14958103 7:-0.21001975 8:-0.022364874 9:-0.43561388 10:-0.43658878 11:1.4724637 12:1.3952857 13:-0.10530481 14:2.1541048 
1 0 0 0.5708117027721425 0 0 1 1 1 0 0 1 0 0 0 1 0 0 1:0.1855746 2:-0.10748257 3:-0.9629658 4:1.0331494 5:-1.3158913 6:-0.039585451 7:-0.21001975 8:-0.022364874 9:-0.43561388 10:1.0553848 11:-0.71625974 12:-0.96866141 13:-0.10530481 14:-0.24008921 
1 1 0.05981800724897122 1 1 1 1 1 1 1 0.03274790775921551 1 0 1 0.7654232839516197 0.1931385832738714 0.2069274485188847 0 1:-0.36941486 2:-0.29339837 3:1.0000436 4:-1.2601043 5:-1.6371751 6:-1.3070009 7:-0.21001975 8:-0.022364874 9:-0.43561388 10:-0.43658878 11:-0.71625974 12:-0.96866141 13:-0.10530481 14:1.0140124 
1 1 0 1 1 1 1 1 0.009086831979492338 1 1 1 1 0 0 0.4584663924101262 0.5501836160497615 0 1:-0.73940783 2:-0.85114578 3:-0.97783708 4:0.0085041494 5:1.3436244 6:-0.5314183 7:-0.21001975 8:-0.022364874 9:1.4676691 10:-0.43658878 11:1.4724637 12:1.3952857 13:-0.10530481 14:0.78599394 
1 0 0 1 1 1 1 1 0 1 1 1 0 1 0 0.9576103456407064 0 0 1:-0.73940783 2:-1.4088932 3:-1.1860351 4:-1.2601043 5:-0.13785082 6:0.56574729 7:-0.21001975 8:-0.022364874 9:-0.43561388 10:-0.43658878 11:1.4724637 12:1.3952857 13:-0.10530481 14:0.32995699 
1 1 0.2858958694121537 1 1 1 1 0.9323232062154715 0 1 1 0.6758381875950189 1 0.2831012945558717 1 0 0 0 1:-0.92440431 2:-1.2229774 3:-1.6321736 4:-1.1299906 5:-0.69117288 6:0.90624695 7:4.7608618 8:-0.022364874 9:0.19881376 10:-0.43658878 11:0.37810197 12:-0.059450996 13:-0.10530481 14:0.32995699 
1 1 0.3729914660012429 1 1 1 0 0 0 1 1 1 1 1 0.03571824547469635 0 0 0 1:-0.73940783 2:1.0080122 3:1.0446575 4:-1.4878033 5:-0.35204 6:0.64141388 7:-0.21001975 8:-0.022364874 9:-0.43561388 10:-0.43658878 11:1.4724637 12:1.3952857 13:-0.10530481 14:-1.0381539 
1 1 0.07269307609738654 1 1 1 1 1 0 1 0.2472137573734037 1 0 1 1 0.7279681948838855 0.8010813568854033 0 1:-0.73940783 2:-1.0370616 3:-1.2306489 4:1.1307347 5:0.98664239 6:-0.98541786 7:-0.21001975 8:-0.022364874 9:-0.43561388 10:-1.9285624 11:1.4724637 12:1.3952857 13:-0.10530481 14:1.8120771 
1 1 0 1 1 1 0.6558275785027949 0.3966043494126798 0 1 0 1 0 1 0 0 0 0 1:-0.55441134 2:-0.47931418 3:1.1636277 4:-1.2926327 5:-0.49483279 6:-1.7610004 7:-0.21001975 8:-0.022364874 9:-0.43561388 10:-0.43658878 11:-0.71625974 12:-0.69589829 13:-0.10530481 14:-0.24008921 
1 0 0 1 0 0 1 0 1 0 0 0 0 0 0 0 0 0 1:-0.73940783 2:-1.0370616 3:-0.11530264 4:0.39884522 5:1.1115861 6:-0.15308534 7:-0.21001975 8:-0.022364874 9:-0.43561388 10:2.5473585 11:1.4724637 12:1.3952857 13:-0.10530481 14:-0.24008921 
1 1 1 1 1 1 1 1 0.4797260199198474 1 1 1 1 1 1 0 1 0 1:0.55556757 2:-0.10748257 3:0.71748924 4:0.78918628 5:1.3436244 6:-0.94758456 7:-0.21001975 8:-0.022364874 9:1.4676691 10:-0.43658878 11:-0.71625974 12:0.12239109 13:-0.10530481 14:-0.24008921 
1 0 0 0 1 0 1 0 1 1 1 0.6691865245493906 0 0.06009125870288592 0 0 0 0 1:-0.55441134 2:-0.85114578 3:0.3010933 4:1.1795273 5:0.25482935 6:-0.96650121 7:-0.21001975 8:-0.022364874 9:-0.43561388 10:1.0553848 11:-0.71625974 12:-0.42313516 13:-0.10530481 14:-0.58211692 
1 1 0 1 1 1 1 1 0 1 1 1 0.005057330564703214 1 0 1 1 0 1:0.74056406 2:0.078433229 3:-0.73989655 4:0.10608942 5:0.64750952 6:0.4144141 7:-0.21001975 8:-0.022364874 9:-0.43561388 10:-0.43658878 11:-0.71625974 12:-0.96866141 13:-0.10530481 14:-0.69612616 
1 0 0 0 0 0 1 0 0.6316930738974809 0 0 0 0 0 0 0 0 0 1:-0.73940783 2:-0.66522998 3:-1.3198766 4:0.49643048 5:-1.3694386 6:-0.96650121 7:-0.21001975 8:-0.022364874 9:-0.43561388 10:1.0553848 11:1.4724637 12:1.3952857 13:-0.10530481 14:1.3560401 
1 1 0 1 1 0.3257598391436399 1 0 1 1 0 0 0.5517222236775899 0 0 0 0 0 1:-0.55441134 2:0.26434903 3:-0.76963911 4:1.0819421 5:-1.4586841 6:1.3413299 7:-0.21001975 8:-0.022364874 9:-0.43561388 10:1.0553848 11:-0.71625974 12:-0.42313516 13:-0.10530481 14:-0.24008921 
1 1 0.6332349807422758 1 1 1 1 1 0 1 0 1 0 1 0 0 0.1692506331175662 0 1:0.37057109 2:0.63618063 3:1.0297862 4:-0.52821482 5:-1.7799679 6:-0.98541786 7:-0.21001975 8:-0.022364874 9:-0.43561388 10:-0.43658878 11:-0.71625974 12:-0.69589829 13:-0.10530481 14:-0.24008921 
1 1 0 1 1 0 1 1 0 1 0 1 0 1 1 0 0.1218121014016973 0 1:0.74056406 2:0.078433229 3:0.73236052 4:0.78918628 5:-0.4234364 6:0.35766416 7:-0.21001975 8:-0.022364874 9:-0.43561388 10:-0.43658878 11:-0.71625974 12:-0.69589829 13:-0.10530481 14:-1.0381539 
1 1 0.7846238725791566 1 1 1 1 1 0.6208039247812837 1 1 1 1 1 0 1 0.8311230145048807 0 1:-0.18441837 2:-0.47931418 3:0.078024048 4:1.7325105 5:0.32622574 6:-0.98541786 7:-0.21001975 8:-0.022364874 9:1.4676691 10:-0.43658878 11:-0.71625974 12:-0.78681933 13:-0.10530481 14:-0.46810768 
1 1 0.09125895650725477 1 1 1 1 1 0 1 1 0.7668601485706159 0 0 0.264680235611584 0 0.1719362643388771 0 1:-0.73940783 2:-1.0370616 3:1.0595288 4:0.35005258 5:1.2900771 6:1.6818295 7:-0.21001975 8:-0.022364874 9:-0.43561388 10:-0.43658878 11:1.4724637 12:1.3952857 13:-0.10530481 14:-0.69612616 
1 1 0.1163082014030635 1 0 0 1 1 1 1 0 1 0 1 0 1 0 0 1:-0.36941486 2:-0.29339837 3:1.5800237 4:1.2445842 5:0.62966042 6:-0.24766858 7:-0.21001975 8:-0.022364874 9:-0.43561388 10:1.0553848 11:-0.71625974 12:-0.96866141 13:-0.10530481 14:1.8120771 
1 1 0 1 1 1 1 1 1 1 1 1 0.2386402740412223 1 0 1 0 0 1:0.55556757 2:0.63618063 3:-0.91835195 4:-1.3088969 5:1.1294352 6:-0.039585451 7:-0.21001975 8:-0.022364874 9:-0.43561388 10:1.0553848 11:-0.71625974 12:-0.96866141 13:-0.10530481 14:-0.24008921 
1 0.5072225864197194 0 1 1 1 1 0.6679941596971268 0.4757526541630165 1 1 1 0.7975833596500678 0 1 0 0.9121883819515951 0 1:0.37057109 2:0.078433229 3:-0.94809452 4:1.309641 5:0.52256583 6:1.4169965 7:-0.21001975 8:-0.022364874 9:-0.43561388 10:-0.43658878 11:-0.71625974 12:0.75883838 13:-0.10530481 14:-0.24008921 
1 0.927357158127625 0 1 0 0 0 0.5210759038522117 1 0.0247393785264347 0 1 0 0 0.7034878296678915 0 0 0 1:-0.73940783 2:-1.4088932 3:1.3123406 4:1.6349253 5:-0.3877382 6:1.6818295 7:-0.21001975 8:-0.022364874 9:-0.43561388 10:1.0553848 11:1.4724637 12:1.3952857 13:-0.10530481 14:1.9260863 
1 1 0.9529356340533233 1 1 1 1 1 0 1 1 1 0.815661922028121 1 1 0 0.2147623612839102 0.5435118760469383 1:-0.55441134 2:-0.66522998 3:0.77697438 4:-0.024024273 5:-1.0124566 6:-1.4015841 7:-0.21001975 8:-0.022364874 9:-0.43561388 10:-0.43658878 11:-0.71625974 12:-0.42313516 13:-0.10530481 14:-0.69612616 
1 1 0 1 1 1 1 1 0 1 1 0 1 0.464539539600196 0 0 0 0 1:-0.73940783 2:0.63618063 3:0.36057844 4:-0.51195061 5:-0.51268189 6:-0.11525204 7:-0.21001975 8:-0.022364874 9:-0.43561388 10:-0.43658878 11:1.4724637 12:1.3952857 13:-0.10530481 14:-0.69612616 
1 1 0 0 0 0.7468382354242172 0 0 0 1 0 1 0 0.2614992512617251 0 0 0 0 1:-0.73940783 2:-0.85114578 3:-0.51682729 4:1.3259052 5:-1.3158913 6:-1.4015841 7:-0.21001975 8:-0.022364874 9:-0.43561388 10:-0.43658878 11:1.4724637 12:1.3952857 13:-0.10530481 14:1.8120771 
1 1 0 1 1 1 1 1 0 1 1 1 0.07166201026851546 1 0 1 0.2751404753102118 0 1:1.110557 2:0.45026483 3:-0.73989655 4:0.10608942 5:0.64750952 6:0.4144141 7:-0.21001975 8:-0.022364874 9:-0.43561388 10:-0.43658878 11:-0.71625974 12:-0.96866141 13:-0.10530481 14:-1.0381539 
1 0 0 1 1 1 1 1 0.2543327043326855 1 0 1 0.5427410793718616 1 1 0.5242282632990385 0 0 1:0.1855746 2:-0.10748257 3:-0.72502526 4:-1.2438401 5:1.2186807 6:-1.4394174 7:-0.21001975 8:-0.022364874 9:-0.43561388 10:-0.43658878 11:-0.71625974 12:-0.96866141 13:-0.10530481 14:1.5840586 
1 0.6658619524041014 0.5151339693663035 1 1 1 1 1 1 1 0.9871335756705275 1 0.02248737724281607 1 1 1 0 0 1:2.4055324 2:1.9375912 3:-0.10043135 4:1.2608484 5:1.3793226 6:1.3034966 7:-0.21001975 8:-0.022364874 9:-0.43561388 10:1.0553848 11:-0.71625974 12:0.12239109 13:-0.10530481 14:-0.24008921 
1 1 0.01815449428710082 1 1 1 1 0 0 1 0.2217962805821924 1 0.1003189924195644 1 0.603554237444893 0.3830295827610252 0 0 1:0.00057811402 2:-0.47931418 3:-0.38298574 4:-1.5203317 5:-1.7799679 6:-1.4015841 7:-0.21001975 8:-0.022364874 9:-0.43561388 10:-2.6745492 11:-0.71625974 12:-0.42313516 13:-0.10530481 14:0.32995699 
1 1 0 1 1 0.6493294327488814 1 1 0 1 1 1 1 1 0 0.1753087724393394 1 0 1:-0.73940783 2:0.078433229 3:-0.36811446 4:0.70786523 5:-0.69117288 6:1.3413299 7:-0.21001975 8:-0.022364874 9:1.4676691 10:1.0553848 11:1.4724637 12:1.3952857 13:-0.10530481 14:-1.0381539 
1 0 0 1 1 1 1 0 0 1 0 1 0 1 0 0 0.01370104717034666 0 1:0.00057811402 2:-0.66522998 3:1.2528554 4:-0.49568639 5:0.34407484 6:0.073914438 7:-0.21001975 8:-0.022364874 9:-0.43561388 10:-0.43658878 11:-0.71625974 12:-0.96866141 13:-0.10530481 14:-0.46810768 
1 1 0.4279246667275322 1 1 1 0 1 1 1 1 1 0 1 1 1 0.7252224065740168 0 1:2.9605219 2:2.3094229 3:-0.9629658 4:1.1795273 5:0.57611312 6:-1.4015841 7:-0.21001975 8:-0.022364874 9:-0.43561388 10:-0.43658878 11:-0.71625974 12:-0.96866141 13:-0.10530481 14:-1.0381539 
1 1 0.4297966230109688 0 0 0 0.9184700863460216 1 1 0 1 1 0 1 1 0 0 0 1:-0.73940783 2:-1.4088932 3:0.3010933 4:0.78918628 5:-1.7799679 6:-1.4205008 7:-0.21001975 8:-0.022364874 9:-0.43561388 10:-0.43658878 11:1.4724637 12:1.3952857 13:-0.10530481 14:2.0400956 
1 1 0 1 1 1 1 1 0 1 1 1 1 1 0 0 0 0.1530505797838679 1:-0.36941486 2:0.45026483 3:1.2231129 4:0.28499574 5:-1.083853 6:-0.15308534 7:-0.21001975 8:-0.022364874 9:-0.43561388 10:-0.43658878 11:-0.71625974 12:-0.96866141 13:-0.10530481 14:-0.69612616 
1 1 0 1 1 1 1 1 0 1 1 1 0.1451462596015034 0.7879538230331959 0 0 0 0 1:-0.73940783 2:-0.66522998 3:0.73236052 4:-1.4390106 5:-1.0124566 6:1.0008302 7:-0.21001975 8:-0.022364874 9:-0.43561388 10:-0.43658878 11:1.4724637 12:1.3952857 13:-0.10530481 14:1.3560401 
1 1 0 1 1 1 1 1 0 1 1 1 1 1 0 0.1775021947894191 0 0 1:-0.73940783 2:1.193928 3:-1.1860351 4:-1.3088969 5:0.34407484 6:0.37658081 7:-0.21001975 8:-0.022364874 9:-0.43561388 10:-0.43658878 11:1.4724637 12:1.3952857 13:-0.10530481 14:-0.69612616 
1 1 0 1 1 1 1 0.5333143786975151 0 1 1 1 1 1 1 0 0.1852071520849311 0 1:-0.55441134 2:0.078433229 3:0.31596458 4:-0.36557271 5:1.1651334 6:-0.98541786 7:-0.21001975 8:-0.022364874 9:-0.43561388 10:-0.43658878 11:-0.71625974 12:0.84975942 13:-0.10530481 14:2.1541048 
1 0 0 1 0 0.6859864650228328 0 1 1 1 0 1 0 1 0 0 0 0 1:2.7755254 2:2.4953387 3:0.40519229 4:0.2362031 5:-1.4586841 6:1.0575801 7:-0.21001975 8:-0.022364874 9:-0.43561388 10:1.0553848 11:-0.71625974 12:-1.0595825 13:-0.10530481 14:-1.0381539 
1 0 0 1 1 1 0 1 0 0 0 1 0 1 0 1 0 0 1:0.37057109 2:-0.29339837 3:-0.14504521 4:-1.1950475 5:0.25482935 6:-0.15308534 7:-0.21001975 8:-0.022364874 9:-0.43561388 10:-0.43658878 11:-0.71625974 12:-0.78681933 13:-0.10530481 14:0.55797547 
1 0 0 0.05577797593884735 1 0 1 0 1 0 0 0 0 0 0 0 0 0 1:-0.36941486 2:-0.85114578 3:-0.90348067 4:0.93556418 5:-0.79826747 6:1.0575801 7:-0.21001975 8:-0.022364874 9:-0.43561388 10:1.0553848 11:-0.71625974 12:-0.96866141 13:-0.10530481 14:-0.69612616 
1 0 0 1 0.3991273487386321 0 1 0 1 0 1 0 1 0 0 0 0 0 1:-0.73940783 2:-0.66522998 3:0.34570715 4:-1.2113117 5:1.1115861 6:0.33874751 7:-0.21001975 8:-0.022364874 9:-0.43561388 10:1.0553848 11:1.4724637 12:1.3952857 13:-0.10530481 14:-0.24008921 
1 1 0.8560218205472511 1 1 1 1 0 0 1 1 0 1 1 0.02558719217097325 0 0 0 1:-0.73940783 2:0.26434903 3:1.3420832 4:0.28499574 5:-0.13785082 6:1.3034966 7:-0.21001975 8:-0.022364874 9:-0.43561388 10:-0.43658878 11:1.4724637 12:1.3952857 13:-0.10530481 14:-0.92414464 
1 1 0 0 0 0 1 0 0 0 0 0 0.172070186170387 0 0 0 0 0 1:-0.73940783 2:-0.47931418 3:0.71748924 4:0.13861784 5:0.27267845 6:1.0575801 7:-0.21001975 8:-0.022364874 9:-0.43561388 10:1.0553848 11:1.4724637 12:1.3952857 13:-0.10530481 14:-0.24008921 
1 0 0 1 1 0 1 1 1 0 0.3789846052260323 0.2540325326190779 0.2394514861266993 1 0 0 1 0 1:0.74056406 2:0.078433229 3:-0.9629658 4:-1.1950475 5:-0.24494541 6:-0.96650121 7:-0.21001975 8:-0.022364874 9:0.19881376 10:1.0553848 11:-0.71625974 12:0.12239109 13:-0.10530481 14:1.0140124 
1 0 0 1 0 1 1 1 0 1 1 1 0 1 1 0.8473442874924032 0.5536024556214276 0 1:0.00057811402 2:-0.29339837 3:-0.91835195 4:-0.10534533 5:-0.13785082 6:0.58466394 7:-0.21001975 8:-0.022364874 9:-0.43561388 10:-0.43658878 11:-0.71625974 12:-0.42313516 13:-0.10530481 14:2.0400956 
1 1 0.4337714058077126 1 1 1 0 1 1 1 0.9491991187739788 1 0 1 0 1 0.3663429411732276 0 1:2.0355395 2:1.3798438 3:-0.84399553 4:-0.28425165 5:-1.0124566 6:-1.8177504 7:-0.21001975 8:-0.022364874 9:-0.43561388 10:-0.43658878 11:-0.71625974 12:-0.96866141 13:-0.10530481 14:-1.0381539 
1 0.6402818214215534 0 1 1 1 1 0 0 1 1 1 0 1 0 0 0 0 1:-0.55441134 2:-0.29339837 3:1.2379842 4:-1.0649338 5:0.29052755 6:-0.98541786 7:-0.21001975 8:-0.022364874 9:-0.43561388 10:-0.43658878 11:-0.71625974 12:-0.42313516 13:-0.10530481 14:-0.24008921 
1 1 0 1 1 0 1 1 0 1 1 0 0 0 1 0 1 0 1:-0.92440431 2:-1.594809 3:-2.6285496 4:0.75665786 5:0.25482935 6:0.33874751 7:4.7608618 8:-0.022364874 9:0.19881376 10:1.0553848 11:0.37810197 12:-0.059450996 13:-0.10530481 14:0.55797547 
1 1 0 1 1 1 1 1 0 1 1 1 0 1 1 1 0 0 1:0.00057811402 2:-0.29339837 3:-0.99270837 4:0.70786523 5:-1.4229859 6:0.9251636 7:-0.21001975 8:-0.022364874 9:-0.43561388 10:-0.43658878 11:-0.71625974 12:-0.96866141 13:-0.10530481 14:0.32995699 
1 1 0 0 1 1 1 1 0 1 1 0 0 1 0 0 0.5236718494812004 0 1:-0.73940783 2:-0.85114578 3:1.1933703 4:-0.51195061 5:-1.3694386 6:0.67924718 7:-0.21001975 8:-0.022364874 9:-0.43561388 10:-0.43658878 11:1.4724637 12:1.3952857 13:-0.10530481 14:-0.24008921 
1 1 0 1 1 1 1 1 0 1 1 1 1 1 0.5682424651895434 1 0 0 1:-0.55441134 2:-0.66522998 3:-0.97783708 4:0.2362031 5:-1.6728733 6:-0.43683506 7:-0.21001975 8:-0.022364874 9:-0.43561388 10:-0.43658878 11:-0.71625974 12:-0.42313516 13:-0.10530481 14:-0.46810768 
1 1 0 1 1 1 1 0.7408729195880083 0 1 1 1 0 1 1 0 0 0 1:-0.73940783 2:-0.66522998 3:0.95542978 4:1.0331494 5:0.57611312 6:-0.98541786 7:-0.21001975 8:-0.022364874 9:-0.43561388 10:-0.43658878 11:1.4724637 12:1.3952857 13:-0.10530481 14:-0.69612616 
1 1 0 1 1 0 1 1 0.7613667672659167 1 1 1 0.3719952254755746 1 0 0 1 0 1:-0.73940783 2:-0.66522998 3:1.3123406 4:0.70786523 5:-0.20924721 6:1.3413299 7:-0.21001975 8:-0.022364874 9:1.4676691 10:1.0553848 11:1.4724637 12:1.3952857 13:-0.10530481 14:1.6980679 
1 0 0 1 0 0 0 1 1 0.9693941530680837 0 1 0 1 0.1087801330481926 1 0 0 1:2.5905289 2:2.3094229 3:1.178499 4:0.72412944 5:0.27267845 6:-0.039585451 7:-0.21001975 8:-0.022364874 9:-0.43561388 10:1.0553848 11:-0.71625974 12:-0.96866141 13:-0.10530481 14:0.32995699 
1 1 0 1 1 1 1 0 0 1 1 0 0.8520050894711341 0 0 0 0 0 1:-0.73940783 2:-0.10748257 3:0.76210309 4:1.1144705 5:-0.45913459 6:1.549413 7:-0.21001975 8:-0.022364874 9:-0.43561388 10:-0.43658878 11:1.4724637 12:1.3952857 13:-0.10530481 14:-1.0381539 
1 1 0 1 1 0 1 1 1 1 0.1264816303196541 1 0.72977934476429 1 0 0 0.685435502390177 0 1:0.55556757 2:0.82209644 3:1.5651524 4:0.382581 5:-1.0660039 6:-0.96650121 7:-0.21001975 8:-0.022364874 9:-0.43561388 10:1.0553848 11:-0.71625974 12:-0.42313516 13:-0.10530481 14:-0.24008921 
1 0 0 1 1 0 1 1 1 0 0 0 0 0 0 0 0 0 1:0.00057811402 2:-0.47931418 3:-0.84399553 4:-0.77217798 5:0.59396222 6:-0.96650121 7:-0.21001975 8:-0.022364874 9:-0.43561388 10:1.0553848 11:-0.71625974 12:-0.42313516 13:-0.10530481 14:-0.24008921 
1 0.09717999575176406 0 1 0.002455048071995934 0.8998602680112049 1 0.1122427024050875 1 1 0 1 0 1 1 0.2965296698113827 0.3376795232494248 0 1:-0.18441837 2:-0.85114578 3:0.76210309 4:-0.30051586 5:0.30837664 6:-0.98541786 7:-0.21001975 8:-0.022364874 9:-0.43561388 10:-0.43658878 11:-0.71625974 12:-0.96866141 13:-0.10530481 14:2.0400956 
1 1 0.5852922914019907 1 1 1 0.5460625154236195 1 1 1 1 1 0.4201314013777475 1 1 0.4743832284146747 0.01008643243256681 0 1:2.9605219 2:3.4249177 3:1.5205386 4:0.80545049 5:1.8969464 6:-1.7420838 7:-0.21001975 8:-0.022364874 9:1.4676691 10:-0.43658878 11:-0.71625974 12:-0.42313516 13:-0.10530481 14:-1.0381539 
1 0.5395909923713685 0.6840117287894358 1 0 0 1 0.9127977923807482 0 1 0 1 0 1 1 0 0 0 1:-0.55441134 2:-0.85114578 3:0.3010933 4:1.1307347 5:0.25482935 6:0.9251636 7:-0.21001975 8:-0.022364874 9:-0.43561388 10:-0.43658878 11:-0.71625974 12:-0.42313516 13:-0.10530481 14:1.8120771 
1 1 0 1 1 0 1 1 1 1 1 0.4421260751741488 1 1 0 1 0.6832841263273919 0 1:0.1855746 2:0.26434903 3:1.0446575 4:-0.54447903 5:0.95094419 6:0.33874751 7:-0.21001975 8:-0.022364874 9:-0.43561388 10:1.0553848 11:-0.71625974 12:-0.42313516 13:-0.10530481 14:-0.46810768 
1 0.9376776391105819 0.3399391524275511 1 1 0.8089374163923911 0.2251201097305938 1 1 1 1 1 0.1533986563519493 1 0.3769327130256948 0.3382727268179704 0.08539544488082036 0 1:1.6655465 2:1.9375912 3:0.82158823 4:-0.54447903 5:1.2365298 6:1.0575801 7:-0.21001975 8:-0.022364874 9:-0.43561388 10:1.0553848 11:-0.71625974 12:-0.96866141 13:9.5225635 14:-0.46810768 
1 0 0 1 1 0 1 0 1 0 0 0 0 0 0 0 0 0 1:-0.73940783 2:-1.0370616 3:-0.33837189 4:-1.3088969 5:1.2186807 6:0.33874751 7:-0.21001975 8:-0.022364874 9:-0.43561388 10:1.0553848 11:1.4724637 12:1.3952857 13:-0.10530481 14:-0.69612616 
1 1 0.3168837962661162 1 1 1 0 1 0.3819067691732785 1 0 1 0 1 0.4405868314692017 0 0 0 1:1.850543 2:1.193928 3:1.0446575 4:-1.2601043 5:-1.0124566 6:-1.3070009 7:-0.21001975 8:-0.022364874 9:-0.43561388 10:-0.43658878 11:-0.71625974 12:-0.96866141 13:-0.10530481 14:-1.0381539 
1 1 0 0.8292483317238806 1 1 1 0 0 1 1 0 1 0 0 0 0 0 1:-0.73940783 2:-0.29339837 3:1.4015683 4:-0.10534533 5:-0.29849271 6:0.64141388 7:-0.21001975 8:-0.022364874 9:-0.43561388 10:-0.43658878 11:1.4724637 12:1.3952857 13:-0.10530481 14:-0.69612616 
1 0 0.5501956197321438 1 1 0 1 1 1 0 0.8034939234414219 0.231029430680368 0 0 0 1 0 0 1:-0.18441837 2:-0.47931418 3:1.178499 4:-1.2926327 5:0.27267845 6:-1.2691676 7:-0.21001975 8:-0.022364874 9:-0.43561388 10:1.0553848 11:-0.71625974 12:-0.96866141 13:-0.10530481 14:0.90000318 
1 1 1 1 1 1 1 1 0 1 1 1 0.2885728456714806 1 0.01266162051308197 0 0 0 1:0.1855746 2:0.45026483 3:0.82158823 4:-0.77217798 5:-1.3694386 6:0.24416427 7:-0.21001975 8:-0.022364874 9:-0.43561388 10:-0.43658878 11:-0.71625974 12:-0.69589829 13:-0.10530481 14:-1.0381539 
1 0.6914228478262521 0 0 0 0 1 1 1 0 0 1 0 0 0.8272092290911812 0 0 0 1:-0.73940783 2:-1.4088932 3:1.0297862 4:0.75665786 5:-1.0124566 6:-0.96650121 7:-0.21001975 8:-0.022364874 9:-0.43561388 10:1.0553848 11:1.4724637 12:1.3952857 13:-0.10530481 14:1.9260863 
1 0 0 1 1 1 1 1 0 1 1 0 1 0 0 1 0 0 1:-0.73940783 2:-1.0370616 3:-1.1562925 4:-1.1137264 5:0.9330951 6:-0.43683506 7:-0.21001975 8:-0.022364874 9:-0.43561388 10:-0.43658878 11:1.4724637 12:1.3952857 13:-0.10530481 14:-0.24008921 
1 1 0 1 1 1 1 1 0 1 1 1 1 0.7987740078081974 0 0 0.08201398962966565 0 1:-0.73940783 2:-0.85114578 3:0.13750918 4:1.1795273 5:0.66535862 6:-1.4205008 7:-0.21001975 8:-0.022364874 9:1.4676691 10:-0.43658878 11:1.4724637 12:1.3952857 13:-0.10530481 14:-0.12607997 
1 0.1966835592158625 0 1 0 0 1 1 1 0.4947486178998728 0 1 0 0.01518093392159317 0 0 0 0 1:0.00057811402 2:0.26434903 3:-0.14504521 4:0.93556418 5:-1.0124566 6:1.0575801 7:-0.21001975 8:-0.022364874 9:-0.43561388 10:1.0553848 11:-0.71625974 12:-0.96866141 13:-0.10530481 14:1.6980679 
1 0.7001324238283576 0 1 0 0.140891363933952 0 1 1 1 0 0 0 1 0.3384603065824967 0.1903653274510587 0.1524404942589571 0 1:1.2955535 2:1.0080122 3:-0.84399553 4:-0.30051586 5:-1.5479296 6:1.0575801 7:-0.21001975 8:-0.022364874 9:-0.43561388 10:1.0553848 11:1.4724637 12:-0.15037204 13:-0.10530481 14:-0.24008921 
1 1 0 1 0 0 0.9683182526836465 1 1 1 0 1 0 0.05626332229342065 0 0 0 0 1:-0.73940783 2:-0.85114578 3:1.5502811 4:0.75665786 5:-1.1017021 6:0.33874751 7:-0.21001975 8:-0.022364874 9:-0.43561388 10:1.0553848 11:1.4724637 12:1.3952857 13:-0.10530481 14:2.0400956 
1 1 0 1 1 1 1 1 0 1 1 1 1 0.6260204664797721 0 0.5687946254797889 1 0 1:-0.73940783 2:-0.85114578 3:1.3123406 4:-1.3088969 5:-0.20924721 6:-0.96650121 7:-0.21001975 8:-0.022364874 9:1.4676691 10:1.0553848 11:1.4724637 12:1.3952857 13:-0.10530481 14:-0.12607997 
1 0.9735682658113159 0 1 1 1 1 1 0 1 1 1 0.2060699193940658 1 1 0 0 0 1:-0.55441134 2:-0.47931418 3:-0.50195601 4:-0.77217798 5:0.34407484 6:0.24416427 7:-0.21001975 8:-0.022364874 9:-0.43561388 10:-0.43658878 11:-0.71625974 12:-0.42313516 13:-0.10530481 14:2.1541048 
1 0.7876105524389638 0 1 1 0 0 0.07865655540411597 0 1 1 0 0 0 1 0 0.5889011862636402 0 1:-0.92440431 2:-1.0370616 3:-2.1675398 4:0.70786523 5:-0.56622919 6:-0.96650121 7:4.7608618 8:-0.022364874 9:-0.43561388 10:1.0553848 11:0.37810197 12:-0.059450996 13:-0.10530481 14:0.55797547 
1 1 0 1 1 1 0 1 1 1 0.4495780689891838 1 0.1843437831059109 1 0.5337477903178911 1 0 0 1:1.110557 2:0.82209644 3:-1.0670648 4:-0.30051586 5:1.7720027 6:-0.81516802 7:-0.21001975 8:-0.022364874 9:-2.9733245 10:-0.43658878 11:-0.71625974 12:-0.96866141 13:-0.10530481 14:-1.0381539 
1 0.6491810306029814 0.7931297630253655 1 0 1 1 1 1 1 1 1 0 1 1 1 1 0 1:-0.73940783 2:-1.4088932 3:-0.36811446 4:-0.41436534 5:1.1294352 6:-0.096335395 7:-0.21001975 8:-0.022364874 9:-0.43561388 10:-0.43658878 11:1.4724637 12:1.3952857 13:-0.10530481 14:2.0400956 
1 1 0 1 0 1 0 1 0 1 1 1 0 1 0 1 0.4190334185585205 0 1:0.92556054 2:1.5657596 3:-0.7845104 4:-0.51195061 5:-1.0124566 6:0.67924718 7:-0.21001975 8:-0.022364874 9:-0.43561388 10:-0.43658878 11:-0.71625974 12:-0.96866141 13:-0.10530481 14:0.78599394 
1 0 0.2257195123524336 1 1 1 1 0 0 1 1 1 0 1 0 0 0 0 1:0.00057811402 2:-0.66522998 3:0.76210309 4:-1.0974622 5:-0.47698369 6:1.22783 7:-0.21001975 8:-0.022364874 9:-0.43561388 10:-0.43658878 11:-0.71625974 12:-0.96866141 13:-0.10530481 14:-0.24008921 
1 1 0 1 1 1 1 1 0 1 1 1 1 0.9959464588443432 0 0.805129716375742 0 0 1:-0.36941486 2:-0.10748257 3:-1.1414212 4:0.75665786 5:0.040640166 6:0.75491377 7:-0.21001975 8:-0.022364874 9:-0.43561388 10:-0.43658878 11:-0.71625974 12:-0.42313516 13:-0.10530481 14:-0.24008921 
0.6284465799001292 0 0 0 1 0.3262668487308302 0 0 1 0.002240992648086281 0 0 0 0 0 0 0 0 1:-0.73940783 2:-1.0370616 3:-0.91835195 4:1.618661 5:-1.6728733 6:1.0575801 7:-0.21001975 8:-0.022364874 9:-0.43561388 10:1.0553848 11:1.4724637 12:1.3952857 13:-0.10530481 14:1.3560401 
1 1 0 1 1 1 1 1 0 1 1 1 1 0 0 1 0.6543391749673469 0 1:-0.73940783 2:-0.29339837 3:1.2082416 4:-0.26798744 5:0.915246 6:-0.020668803 7:-0.21001975 8:-0.022364874 9:-0.43561388 10:-0.43658878 11:1.4724637 12:1.3952857 13:-0.10530481 14:-0.24008921 
1 1 0.5482930515629898 1 1 0.3040704209779391 0 1 0.9630621137773976 1 0 1 0 1 1 1 0.7023522596660866 0 1:2.9605219 2:2.3094229 3:1.0446575 4:0.073560994 5:-0.35204 6:-1.0800011 7:-0.21001975 8:-0.022364874 9:-0.43561388 10:-0.43658878 11:-0.71625974 12:-0.96866141 13:-0.10530481 14:-0.69612616 
1 1 0.06195298661690851 1 0.2377155246356985 0 0.7271426926744088 1 1 1 0 1 0 1 0.5012286492714053 1 0 0 1:2.5905289 2:2.123507 3:0.76210309 4:1.1795273 5:0.30837664 6:-0.68275149 7:-0.21001975 8:-0.022364874 9:-0.43561388 10:1.0553848 11:-0.71625974 12:-0.96866141 13:-0.10530481 14:-1.0381539 
1 1 0 0 1 1 1 1 0 1 1 0 0.2237028915454833 0 0 0 0 0 1:-0.73940783 2:-0.29339837 3:0.71748924 4:1.0168852 5:-0.79826747 6:-0.96650121 7:-0.21001975 8:-0.022364874 9:-0.43561388 10:-0.43658878 11:1.4724637 12:1.3952857 13:-0.10530481 14:-0.24008921 
1 1 0.3935045818870918 1 1 1 1 1 0 1 1 1 0.7368047155140538 1 0 1 0 0 1:0.37057109 2:1.3798438 3:-0.88860938 4:1.22832 5:-1.0124566 6:-1.0610844 7:-0.21001975 8:-0.022364874 9:-0.43561388 10:-0.43658878 11:-0.71625974 12:-0.42313516 13:-0.10530481 14:-1.0381539 
1 0 0 0 0 0 0.1841921299354226 0 1 0 0 0.7615017777265705 0 0 1 0 0 0 1:-0.36941486 2:-1.0370616 3:-0.14504521 4:1.2771126 5:-1.0124566 6:1.3413299 7:-0.21001975 8:-0.022364874 9:-0.43561388 10:1.0553848 11:-0.71625974 12:-0.69589829 13:-0.10530481 14:1.4700494 
1 1 1 1 1 1 1 1 0 1 1 1 1 1 0 1 0 0 1:-0.36941486 2:0.63618063 3:1.178499 4:-1.3088969 5:0.9330951 6:1.1332467 7:-0.21001975 8:-0.022364874 9:-0.43561388 10:-0.43658878 11:-0.71625974 12:-0.42313516 13:-0.10530481 14:-0.46810768 
1 0.1971961393673742 0 1 1 0 0.3153731104548861 0.5092099486194837 0.9949694440768886 1 1 0 0 0.2304130203907148 1 0.01881719798446254 0.1884239926478836 0 1:-0.92440431 2:-1.594809 3:-1.498332 4:0.93556418 5:-1.1909476 6:1.3413299 7:4.7608618 8:-0.022364874 9:-0.43561388 10:1.0553848 11:0.37810197 12:-0.059450996 13:-0.10530481 14:0.55797547 
1 1 1 1 0.3213385770016076 1 0 1 0 1 0 1 0 0 0.1458923886633766 0 0 0 1:-0.73940783 2:-1.2229774 3:-0.24914419 4:1.309641 5:-0.90536206 6:1.4169965 7:-0.21001975 8:-0.022364874 9:-0.43561388 10:-0.43658878 11:1.4724637 12:1.3952857 13:-0.10530481 14:2.0400956 
1 1 0 1 1 1 1 1 0 1 1 1 1 1 1 0.7926606938077347 0.7333716603740899 0 1:0.00057811402 2:-0.29339837 3:-0.39785703 4:-0.46315797 5:0.98664239 6:1.1332467 7:-0.21001975 8:-0.022364874 9:-0.43561388 10:-0.43658878 11:-0.71625974 12:-0.96866141 13:-0.10530481 14:-0.46810768 
1 0 0 1 0 0 1 1 1 0.3472316529255821 0 0.7748890034806636 0 0 0 0 1 0 1:-0.73940783 2:-0.66522998 3:-0.91835195 4:1.309641 5:-0.13785082 6:1.0575801 7:-0.21001975 8:-0.022364874 9:-0.43561388 10:1.0553848 11:1.4724637 12:1.3952857 13:-0.10530481 14:1.6980679 
1 1 0 1 1 1 1 1 0 1 1 0 0.5183045424727035 0 0 0 0 0 1:-0.73940783 2:-0.29339837 3:0.31596458 4:0.90303576 5:0.46901853 6:0.58466394 7:-0.21001975 8:-0.022364874 9:-0.43561388 10:-0.43658878 11:1.4724637 12:1.3952857 13:-0.10530481 14:-0.24008921 
1 0 0 1 1 1 0 0.6974223182646009 0.01600124898270623 1 1 1 0 1 0 0 0 0 1:1.2955535 2:0.63618063 3:-0.88860938 4:-1.2438401 5:-1.1195512 6:0.24416427 7:-0.21001975 8:-0.022364874 9:-0.43561388 10:-0.43658878 11:-0.71625974 12:0.12239109 13:-0.10530481 14:-0.69612616 
1 0 0 1 0 1 1 1 1 0 0.6626012411530506 0 0.8123547834953223 0 0 0.7465241275291886 0 0 1:-0.73940783 2:-0.85114578 3:0.82158823 4:-1.2926327 5:1.3614735 6:0.16849768 7:-0.21001975 8:-0.022364874 9:-0.43561388 10:1.0553848 11:1.4724637 12:1.3952857 13:-0.10530481 14:0.32995699 
1 0 0 1 0.4931262869106928 1 1 1 0 1 1 1 0 0 0 0 0 0 1:-0.73940783 2:-1.4088932 3:-1.0224509 4:-1.2113117 5:0.040640166 6:0.58466394 7:-0.21001975 8:-0.022364874 9:-0.43561388 10:-0.43658878 11:1.4724637 12:1.3952857 13:-0.10530481 14:0.55797547 
1 0.6855469926399533 0.9940582581917307 1 1 1 0.1658972705107261 1 1 1 1 1 0.1120611224092813 1 0.2752209481668619 0.06330063425039122 0.3159552956643832 0 1:-0.55441134 2:-0.66522998 3:1.2677267 4:1.53734 5:0.8616987 6:-0.41791841 7:-0.21001975 8:-0.022364874 9:-0.43561388 10:-0.43658878 11:-0.71625974 12:-0.42313516 13:9.5225635 14:0.32995699 
1 1 0.2466723235950241 1 1 0.9625903971772455 1 1 0.6303592558911444 1 1 0.9425396864949038 1 1 1 0.08854656620367059 0 0 1:-0.92440431 2:-0.47931418 3:-2.8813614 4:-1.1299906 5:1.3436244 6:1.6818295 7:4.7608618 8:-0.022364874 9:1.4676691 10:1.0553848 11:0.37810197 12:-0.059450996 13:-0.10530481 14:0.55797547 
1 1 0 0 1 1 1 0 0 1 0.06491451907153843 0 0 0 0 0 0 0 1:-0.73940783 2:-1.0370616 3:-0.15991649 4:0.17114626 5:-0.066454425 6:-0.81516802 7:-0.21001975 8:-0.022364874 9:-0.43561388 10:-0.43658878 11:1.4724637 12:1.3952857 13:-0.10530481 14:-0.69612616 
1 0 0 1 0 0 1 1 1 1 0 1 0 1 0 0.3561211361969155 0 0 1:0.00057811402 2:-0.66522998 3:1.0446575 4:0.13861784 5:0.48686763 6:-0.96650121 7:-0.21001975 8:-0.022364874 9:-0.43561388 10:1.0553848 11:-0.71625974 12:-0.69589829 13:-0.10530481 14:1.8120771 
1 1 0.718519018497611 1 1 1 0.06702722162746498 0.7239772391319643 1 1 1 1 0 1 0 1 0 0 1:-0.18441837 2:-0.47931418 3:-0.85886682 4:-1.2113117 5:-1.4229859 6:0.58466394 7:-0.21001975 8:-0.022364874 9:-0.43561388 10:-0.43658878 11:-0.71625974 12:-0.96866141 13:-0.10530481 14:-0.24008921 
1 1 0.2743324612819132 1 1 1 1 0 0 1 1 1 0.2595478889085875 0.5069466204420341 0.1986179205408918 0.8492277283623764 0.0973552460936969 0 1:-0.73940783 2:-0.85114578 3:0.82158823 4:1.6023968 5:0.094187462 6:-1.4205008 7:-0.21001975 8:-0.022364874 9:-0.43561388 10:-2.6745492 11:1.4724637 12:1.3952857 13:-0.10530481 14:0.32995699 
1 1 0 1 1 1 1 1 1 1 0.3544891849907407 0 0.1143400871723835 0 0 0 0 0 1:-0.73940783 2:-0.66522998 3:-0.33837189 4:1.5861326 5:1.2186807 6:-0.039585451 7:-0.21001975 8:-0.022364874 9:-0.43561388 10:1.0553848 11:1.4724637 12:1.3952857 13:-0.10530481 14:-0.8101354 
1 1 0.2238932251634521 1 1 1 0.1092780938915292 1 0 1 1 0 1 0.6730518658719551 1 0 0.08543784992650323 0 1:-0.92440431 2:-1.594809 3:-2.9259752 4:-1.1950475 5:-0.24494541 6:-0.15308534 7:4.7608618 8:-0.022364874 9:0.19881376 10:-0.43658878 11:0.37810197 12:-0.059450996 13:-0.10530481 14:0.32995699 
1 0 0 0 1 0 1 0 1 0 1 0 0 0.07010752519179167 0.485106365173668 0 0 0 1:-0.73940783 2:-1.2229774 3:1.5651524 4:-0.46315797 5:1.0758879 6:0.33874751 7:-0.21001975 8:-0.022364874 9:-0.43561388 10:1.0553848 11:1.4724637 12:1.3952857 13:-0.10530481 14:-1.0381539 
1 1 0.2027833190690258 0 1 1 0.575226035875092 0 0 0 0 1 0 0.1455396292958457 0.8623095608044711 1 0.2530951818965065 0 1:-0.73940783 2:-0.66522998 3:0.64313282 4:-0.90229167 5:-1.7085715 6:-1.7420838 7:-0.21001975 8:-0.022364874 9:-2.3388968 10:-0.43658878 11:1.4724637 12:1.3952857 13:-0.10530481 14:0.32995699 
1 0.3214908726500766 0 1 1 0 1 0.1708137322720831 1 0.05788888962279835 1 0 0 0.1747171054398922 0 0.8447313932259005 0.01819386436884599 0 1:0.74056406 2:0.26434903 3:1.4759247 4:-1.0161412 5:0.59396222 6:0.26308092 7:-0.21001975 8:-0.022364874 9:-0.43561388 10:4.0393321 11:-0.71625974 12:-0.42313516 13:-0.10530481 14:-0.24008921 
1 0.431890148879431 0 1 1 1 1 0 0 1 1 0 0 0 0 0 0 0 1:-0.73940783 2:-1.0370616 3:0.31596458 4:-0.51195061 5:0.46901853 6:0.58466394 7:-0.21001975 8:-0.022364874 9:-0.43561388 10:-0.43658878 11:1.4724637 12:1.3952857 13:-0.10530481 14:-0.24008921 
1 1 0 1 1 1 1 1 1 1 1 1 1 1 0 1 0 0 1:0.1855746 2:0.26434903 3:-1.2306489 4:-1.1462548 5:0.98664239 6:1.3413299 7:-0.21001975 8:-0.022364874 9:-0.43561388 10:1.0553848 11:-0.71625974 12:-0.96866141 13:-0.10530481 14:-0.69612616 
1 0 0 1 1 0 1 1 1 1 1 0 0.6680662934268706 1 0 0 1 0 1:-0.55441134 2:0.078433229 3:-0.84399553 4:0.70786523 5:0.64750952 6:1.3413299 7:-0.21001975 8:-0.022364874 9:-0.43561388 10:1.0553848 11:-0.71625974 12:0.75883838 13:-0.10530481 14:1.0140124 
1 1 0 0 0 0 1 1 1 0 0 1 0 0 0 0 0 0 1:-0.73940783 2:-1.0370616 3:0.82158823 4:0.74039365 5:-1.3694386 6:-0.96650121 7:-0.21001975 8:-0.022364874 9:-0.43561388 10:1.0553848 11:1.4724637 12:1.3952857 13:-0.10530481 14:1.6980679 
1 1 0 0.6074918099728046 1 0.1645124379217654 1 0 1 1 0 0.5656541185957444 0.5113551586522422 0.3940256443582494 0.3186369088471434 0.472877259249736 0 0 1:-0.55441134 2:-0.29339837 3:1.282598 4:1.309641 5:-1.0124566 6:-0.039585451 7:-0.21001975 8:-0.022364874 9:-2.9733245 10:1.0553848 11:-0.71625974 12:-0.42313516 13:-0.10530481 14:-0.46810768 
1 1 0 1 1 1 1 1 0 1 1 0 0 0 0 0 0 0 1:-0.73940783 2:-1.0370616 3:0.24160817 4:1.309641 5:0.915246 6:1.4169965 7:-0.21001975 8:-0.022364874 9:-0.43561388 10:-0.43658878 11:1.4724637 12:1.3952857 13:-0.10530481 14:-0.24008921 
1 1 0 0 1 0 1 1 1 0 0 0 0 0 0 0 0.6003218843758926 0 1:0.00057811402 2:0.078433229 3:0.10776662 4:0.70786523 5:-1.7799679 6:1.0575801 7:-0.21001975 8:-0.022364874 9:-0.43561388 10:1.0553848 11:-0.71625974 12:-0.42313516 13:-0.10530481 14:-0.24008921 
1 0 0 0 0.60499604648497 0 1 0 1 0 0 0 0 0 0.0363855071639677 1 0 0 1:-0.73940783 2:-1.4088932 3:-0.35324317 4:-1.2113117 5:-1.0124566 6:-1.2691676 7:-0.21001975 8:-0.022364874 9:-0.43561388 10:1.0553848 11:1.4724637 12:1.3952857 13:-0.10530481 14:-0.24008921 
1 1 0 0 1 0 1 0 1 1 1 0 0 1 0 0.1158476760559914 0 0 1:-0.73940783 2:-0.85114578 3:1.5354098 4:0.2362031 5:1.2900771 6:0.81166371 7:-0.21001975 8:-0.022364874 9:-0.43561388 10:1.0553848 11:1.4724637 12:1.3952857 13:-0.10530481 14:-0.69612616 
1 1 0 0 1 0 1 0 0 0 0 0 0 0 0 0 0 0 1:-0.73940783 2:-1.0370616 3:0.3010933 4:0.91929997 5:-0.79826747 6:-0.039585451 7:-0.21001975 8:-0.022364874 9:-0.43561388 10:1.0553848 11:1.4724637 12:1.3952857 13:-0.10530481 14:-0.24008921 
1 1 0 1 1 1 1 1 0 1 1 1 0 1 0 0 0 0 1:-0.55441134 2:0.078433229 3:1.4015683 4:0.25246732 5:-0.29849271 6:1.0954134 7:-0.21001975 8:-0.022364874 9:-0.43561388 10:-0.43658878 11:-0.71625974 12:-0.42313516 13:-0.10530481 14:0.32995699 
1 1 0.250717924119111 1 1 0.8199599856996018 1 0.4108642909494773 0.03915534117351394 1 1 0 0.9136863652322952 0.1451539486354114 0 0.01676370836081596 0.06656385385952882 0 1:-0.92440431 2:-0.10748257 3:-2.9705891 4:-0.56074324 5:-1.2801931 6:1.0575801 7:4.7608618 8:-0.022364874 9:0.19881376 10:1.0553848 11:0.37810197 12:-0.059450996 13:-0.10530481 14:0.55797547 
1 0 0 1 1 1 0 0.6533490217328848 0 0 0 1 0 1 0 0.7727746672975573 0 0 1:0.00057811402 2:-0.47931418 3:-0.53169858 4:-1.1137264 5:0.34407484 6:-1.2502509 7:-0.21001975 8:-0.022364874 9:-0.43561388 10:-0.43658878 11:-0.71625974 12:-0.78681933 13:-0.10530481 14:0.32995699 
1 1 0 1 1 0 1 0.1871500106984489 0 1 0 1 0 1 0 0.9455925987188644 1 0 1:0.00057811402 2:-0.66522998 3:1.3123406 4:0.17114626 5:0.29052755 6:-0.49358501 7:-0.21001975 8:-0.022364874 9:-0.43561388 10:-0.43658878 11:-0.71625974 12:-0.96866141 13:-0.10530481 14:-0.24008921 
1 1 0.6743094633018397 1 1 1 1 1 0 1 1 1 0.6713400702852784 1 0.2904706460159235 0.5157931886609127 0.03171838364747728 0 1:0.74056406 2:0.078433229 3:0.2118656 4:-0.54447903 5:0.14773476 6:0.26308092 7:-0.21001975 8:-0.022364874 9:-0.43561388 10:-2.6745492 11:-0.71625974 12:-0.96866141 13:-0.10530481 14:-1.0381539 
1 0 0 1 0.3235099067591632 1 0 1 0 0 0 1 0 1 1 0 0 0 1:0.74056406 2:0.078433229 3:0.3010933 4:-1.1137264 5:-0.13785082 6:-0.98541786 7:-0.21001975 8:-0.022364874 9:-0.43561388 10:-0.43658878 11:-0.71625974 12:-0.69589829 13:-0.10530481 14:1.5840586 
1 1 0 1 1 1 1 1 0 1 1 1 0.2502859924256439 1 1 1 0 0 1:0.1855746 2:0.45026483 3:0.34570715 4:1.000621 5:1.1115861 6:-1.0800011 7:-0.21001975 8:-0.022364874 9:-0.43561388 10:-0.43658878 11:-0.71625974 12:-0.42313516 13:-0.10530481 14:0.32995699 
1 0.3571843548509064 0 1 0 0.3362698355616862 0 1 1 1 0.2854235793075497 1 0 1 0.2265929030047585 1 0 0 1:2.9605219 2:2.4953387 3:0.95542978 4:0.72412944 5:0.77245321 6:-0.039585451 7:-0.21001975 8:-0.022364874 9:-0.43561388 10:1.0553848 11:-0.71625974 12:-0.96866141 13:-0.10530481 14:-1.0381539 
1 1 0 1 1 1 1 1 0 1 1 1 0.7616493895484833 1 0 0 0 0 1:-0.36941486 2:-0.47931418 3:0.25647945 4:-0.30051586 5:-1.0124566 6:0.22524762 7:-0.21001975 8:-0.022364874 9:-0.43561388 10:-0.43658878 11:-0.71625974 12:-0.96866141 13:-0.10530481 14:-1.0381539 
1 1 0 1 1 1 0 1 1 1 1 1 0 1 0 1 0 0 1:0.92556054 2:0.26434903 3:-1.0224509 4:0.78918628 5:-1.2087967 6:1.22783 7:-0.21001975 8:-0.022364874 9:-0.43561388 10:-0.43658878 11:-0.71625974 12:-0.96866141 13:-0.10530481 14:-1.0381539 
1 1 0.5242214027320694 1 1 0.4512358386431902 1 1 0.7892340233724568 1 1 1 0.3278053245835507 1 1 0.05432890797492318 0.1501378207837586 0 1:-0.92440431 2:-1.594809 3:-2.2567675 4:1.6349253 5:1.3436244 6:-0.68275149 7:4.7608618 8:-0.022364874 9:1.4676691 10:1.0553848 11:0.37810197 12:-0.059450996 13:-0.10530481 14:0.55797547 
1 1 0.2219341243700565 1 1 1 0 1 1 1 1 1 0 1 1 1 0 0 1:2.5905289 2:2.123507 3:0.76210309 4:-0.49568639 5:0.30837664 6:0.9629969 7:-0.21001975 8:-0.022364874 9:-0.43561388 10:-0.43658878 11:-0.71625974 12:-0.96866141 13:-0.10530481 14:-0.69612616 
1 1 0 1 1 1 1 1 0 1 1 1 0 1 0 0 0 0 1:-0.36941486 2:0.078433229 3:0.3010933 4:0.28499574 5:0.25482935 6:0.64141388 7:-0.21001975 8:-0.022364874 9:-0.43561388 10:-0.43658878 11:-0.71625974 12:-0.69589829 13:-0.10530481 14:1.0140124 
1 1 0.6904807526256211 1 1 1 1 1 0 1 1 0.4141716189609964 1 1 0 0 0 0 1:-0.73940783 2:0.26434903 3:-0.91835195 4:-1.1950475 5:-1.7085715 6:0.86841366 7:-0.21001975 8:-0.022364874 9:-0.43561388 10:-0.43658878 11:1.4724637 12:1.3952857 13:-0.10530481 14:-0.69612616 
1 1 0 1 1 1 0 1 0 1 0.06153683618007241 1 0 1 0 1 0 0 1:0.74056406 2:0.45026483 3:-0.99270837 4:-0.26798744 5:-1.3158913 6:-0.020668803 7:-0.21001975 8:-0.022364874 9:-0.43561388 10:-0.43658878 11:-0.71625974 12:-0.96866141 13:-0.10530481 14:-0.24008921 
1 0.8448678172430937 0.592138098929476 1 1 1 1 1 1 1 1 1 0.46613070422282 1 0.2514528980761899 0.3128467496679818 1 0 1:2.7755254 2:2.8671703 3:1.5800237 4:0.70786523 5:-0.20924721 6:1.3413299 7:-0.21001975 8:-0.022364874 9:1.4676691 10:1.0553848 11:-0.71625974 12:-0.78681933 13:-0.10530481 14:-0.24008921 
1 0 0 1 0 0 1 1 1 1 0.02520555374132843 1 0 1 0 1 0 0 1:1.850543 2:1.193928 3:-0.73989655 4:0.18741047 5:0.64750952 6:-0.24766858 7:-0.21001975 8:-0.022364874 9:-0.43561388 10:1.0553848 11:-0.71625974 12:-0.69589829 13:-0.10530481 14:-0.69612616 
1 1 1 1 1 1 1 1 0.3970441848757761 1 1 1 1 1 0.8515428980610541 0 1 0 1:-0.18441837 2:0.078433229 3:0.65800411 4:0.25246732 5:0.32622574 6:1.1899967 7:-0.21001975 8:-0.022364874 9:1.4676691 10:-0.43658878 11:-0.71625974 12:-0.42313516 13:-0.10530481 14:2.1541048 
1 0 0 0 0 0 0 0 0 0 0 1 0 0 0 0 0 0 1:-0.73940783 2:-1.4088932 3:-1.0224509 4:0.78918628 5:-1.2087967 6:-0.15308534 7:-0.21001975 8:-0.022364874 9:-0.43561388 10:-0.43658878 11:1.4724637 12:1.3952857 13:-0.10530481 14:2.0400956 
1 0 0 1 0.03354631703913774 1 0.1666638487954369 1 1 0 0 1 0 1 0.4961781378333049 0.4538163523283648 0.9827185239302761 0 1:-0.36941486 2:-0.66522998 3:-0.14504521 4:-1.1137264 5:-1.8692134 6:-0.039585451 7:-0.21001975 8:-0.022364874 9:-0.43561388 10:1.0553848 11:-0.71625974 12:-0.42313516 13:-0.10530481 14:2.1541048 
1 0 0 0.7868315435608958 0 0 1 0 1 0 0 0 0 0 1 0 0.2097437331290444 0 1:0.1855746 2:-0.29339837 3:-0.42759959 4:0.74039365 5:0.59396222 6:-0.60708489 7:-0.21001975 8:-0.022364874 9:-0.43561388 10:1.0553848 11:-0.71625974 12:0.21331213 13:-0.10530481 14:1.3560401 
1 1 0 1 1 1 1 1 0 1 1 0 0.03851567554949761 0 0 0.02263521915218572 0 0 1:-0.73940783 2:-1.0370616 3:-0.72502526 4:1.0168852 5:-1.0124566 6:0.64141388 7:-0.21001975 8:-0.022364874 9:-0.43561388 10:-0.43658878 11:1.4724637 12:1.3952857 13:-0.10530481 14:-0.24008921 
1 1 0 1 1 1 1 1 0 1 1 1 0.157087601670676 1 0 0.2041045859557624 0.3507434021764669 0 1:-0.73940783 2:0.078433229 3:-0.65066885 4:0.62654417 5:-1.7085715 6:-1.6664172 7:-0.21001975 8:-0.022364874 9:-0.43561388 10:-2.6745492 11:1.4724637 12:1.3952857 13:-0.10530481 14:0.32995699 
1 1 0 0 1 0 1 1 0.03501726417723029 0 0 0 0.2431859548422812 0 0.4141673039513205 0.2835034334682334 0.8933089110271941 0 1:-0.73940783 2:-1.0370616 3:0.89594464 4:-0.54447903 5:-1.6014769 6:0.33874751 7:-0.21001975 8:-0.022364874 9:-0.43561388 10:1.0553848 11:1.4724637 12:1.3952857 13:-0.10530481 14:-0.24008921 
1 1 1 1 1 1 1 1 0 1 1 1 0.9435062500633445 1 0 0 0 0 1:0.37057109 2:0.82209644 3:0.33083587 4:0.77292207 5:0.25482935 6:1.4359131 7:-0.21001975 8:-0.022364874 9:-0.43561388 10:-0.43658878 11:-0.71625974 12:-0.42313516 13:-0.10530481 14:-1.0381539 
1 0.4956588469265529 0.241328274151169 1 0.8362740218681259 1 0 0.3697627548917997 1 1 1 1 0 1 0.6500164979054308 0 0 0 1:4.9954832 2:4.3544967 3:1.0297862 4:0.75665786 5:-1.0124566 6:0.75491377 7:-0.21001975 8:-0.022364874 9:-0.43561388 10:-0.43658878 11:-0.71625974 12:-0.96866141 13:-0.10530481 14:-1.0381539 
1 1 0 1 0.2944992272898932 1 1 1 0 1 0 1 0 0 0 1 1 0 1:-0.73940783 2:-1.0370616 3:1.0149149 4:-0.10534533 5:-1.0660039 6:0.30091422 7:-0.21001975 8:-0.022364874 9:-0.43561388 10:-0.43658878 11:1.4724637 12:1.3952857 13:-0.10530481 14:1.0140124 
1 0 0 1 1 0 1 1 1 1 0 0 0 0 0 0 0 0 1:-0.55441134 2:-0.10748257 3:-0.84399553 4:0.35005258 5:-0.94106026 6:0.33874751 7:-0.21001975 8:-0.022364874 9:-0.43561388 10:1.0553848 11:-0.71625974 12:-0.69589829 13:-0.10530481 14:-0.24008921 
1 0.1328820541456307 0 0 1 1 1 1 0 1 1 0 0.07446450557846016 0 0.9511961693944115 1 0 0 1:-0.73940783 2:-0.85114578 3:-0.38298574 4:-1.1137264 5:-1.7799679 6:0.33874751 7:-0.21001975 8:-0.022364874 9:-0.43561388 10:1.0553848 11:1.4724637 12:1.3952857 13:-0.10530481 14:-0.69612616 
1 1 0 1 1 1 1 0.387051430295013 0 1 1 1 0 0.9363908888923091 0 0 0.9787308886207958 0 1:-0.55441134 2:-0.66522998 3:1.0149149 4:0.77292207 5:-0.15569992 6:1.0008302 7:-0.21001975 8:-0.022364874 9:-0.43561388 10:-0.43658878 11:-0.71625974 12:-0.69589829 13:-0.10530481 14:-0.58211692 
1 0 0.9826202805916193 1 1 1 1 1 1 1 1 1 0 1 1 0.9477376773299826 0 0 1:-0.18441837 2:-0.85114578 3:0.34570715 4:-1.2113117 5:1.1115861 6:0.58466394 7:-0.21001975 8:-0.022364874 9:-0.43561388 10:-0.43658878 11:-0.71625974 12:-0.96866141 13:-0.10530481 14:-0.24008921 
1 1 0 1 1 1 1 1 0 1 1 0 1 0 0 0 0 0 1:-0.73940783 2:-0.47931418 3:-0.82912425 4:-1.2438401 5:0.25482935 6:0.56574729 7:-0.21001975 8:-0.022364874 9:-0.43561388 10:-0.43658878 11:1.4724637 12:1.3952857 13:-0.10530481 14:-0.24008921 
1 1 0.1699707161700766 1 1 0 1 1 1 1 0.2528858551206355 1 0.4883338530301106 1 0.3651918339453821 0 1 0 1:0.00057811402 2:-0.29339837 3:0.078024048 4:1.7325105 5:0.32622574 6:1.0575801 7:-0.21001975 8:-0.022364874 9:1.4676691 10:1.0553848 11:-0.71625974 12:-0.78681933 13:-0.10530481 14:2.1541048 
1 0 0 1 0 0 0 0.8465895287497974 1 0 0.7674739284593475 0 0 0 0 0 0.02581001062709336 0 1:-0.73940783 2:-1.4088932 3:-0.73989655 4:-0.30051586 5:0.64750952 6:-0.15308534 7:-0.21001975 8:-0.022364874 9:-0.43561388 10:2.5473585 11:1.4724637 12:1.3952857 13:-0.10530481 14:2.0400956 
1 1 0 1 1 0.519964296785638 1 1 1 1 1 1 1 1 0 0 1 0 1:0.74056406 2:0.078433229 3:-1.0373222 4:0.28499574 5:-0.99460755 6:-0.60708489 7:-0.21001975 8:-0.022364874 9:1.4676691 10:1.0553848 11:-0.71625974 12:0.12239109 13:-0.10530481 14:-1.0381539 
1 0 0 0 0 0 1 0.8715744567639081 1 0 0 0 0 0 0 0 0 0 1:-0.73940783 2:-1.0370616 3:0.31596458 4:1.1795273 5:0.46901853 6:0.81166371 7:-0.21001975 8:-0.022364874 9:-0.43561388 10:1.0553848 11:1.4724637 12:1.3952857 13:-0.10530481 14:-0.24008921 
1 1 0.2906767878937487 1 1 1 1 1 1 1 1 1 1 0 1 0.6015757180024974 0.3012629062672481 0 1:-0.18441837 2:-0.10748257 3:-0.9629658 4:1.2933768 5:1.2365298 6:1.4169965 7:-0.21001975 8:-0.022364874 9:-0.43561388 10:-0.43658878 11:-0.71625974 12:-0.96866141 13:-0.10530481 14:-0.92414464 
1 1 1 1 1 1 1 1 1 1 0 1 0 1 0 1 0 0 1:0.74056406 2:0.63618063 3:-0.84399553 4:0.98435682 5:-1.5479296 6:-0.96650121 7:-0.21001975 8:-0.022364874 9:-0.43561388 10:1.0553848 11:-0.71625974 12:-0.69589829 13:-0.10530481 14:-0.69612616 
1 0.6941835820665999 0.1471459982042146 1 1 0 0.3682043153248963 1 0 1 1 0 0 0 1 0 0 0 1:-0.92440431 2:-1.2229774 3:-2.494708 4:0.30125995 5:1.1294352 6:-0.96650121 7:4.7608618 8:-0.022364874 9:-0.43561388 10:1.0553848 11:0.37810197 12:-0.059450996 13:-0.10530481 14:0.55797547 
1 0 0 1 1 1 0 0 0 1 0 1 0 1 0 1 0 0 1:0.37057109 2:-0.29339837 3:1.2677267 4:-1.1950475 5:-0.13785082 6:-0.15308534 7:-0.21001975 8:-0.022364874 9:-0.43561388 10:-0.43658878 11:-0.71625974 12:-0.96866141 13:-0.10530481 14:-0.24008921 
1 1 0.7735693801292615 1 0 1 1 1 0 1 0 1 0 1 1 1 0.380720223400924 0 1:-0.73940783 2:-1.0370616 3:1.3123406 4:0.18741047 5:-0.3877382 6:1.6061629 7:-0.21001975 8:-0.022364874 9:-0.43561388 10:-0.43658878 11:1.4724637 12:1.3952857 13:-0.10530481 14:1.8120771 
1 1 0.4246479044605912 1 1 1 1 1 0 1 1 0 1 1 0 0.2943209946582494 0 0 1:-0.73940783 2:-0.10748257 3:-0.84399553 4:1.22832 5:-1.0124566 6:-1.0610844 7:-0.21001975 8:-0.022364874 9:-0.43561388 10:-0.43658878 11:1.4724637 12:1.3952857 13:-0.10530481 14:-1.0381539 
1 1 0 1 1 1 1 1 0 1 1 1 1 1 0.3099576927544994 0.5487086521413865 0 0 1:-0.36941486 2:0.078433229 3:-0.91835195 4:-1.1299906 5:-0.13785082 6:-0.38008512 7:-0.21001975 8:-0.022364874 9:-0.43561388 10:-0.43658878 11:-0.71625974 12:-0.69589829 13:-0.10530481 14:2.1541048 
1 0.6022622293586123 0 1 1 0 1 0.5908750168460306 0.6943160741731895 0.4430603553693033 1 0 0 0.6785102071670787 0.04121312518080324 0 0.1346155011542899 0 1:-0.73940783 2:-0.85114578 3:-1.1860351 4:-1.0161412 5:0.34407484 6:0.56574729 7:-0.21001975 8:-0.022364874 9:-0.43561388 10:4.0393321 11:1.4724637 12:1.3952857 13:-0.10530481 14:0.32995699 
1 1 0 1 0 1 1 1 0 1 1 1 0 1 1 1 0 0 1:0.55556757 2:0.45026483 3:-0.63579756 4:0.80545049 5:0.18343295 6:0.58466394 7:-0.21001975 8:-0.022364874 9:-0.43561388 10:-0.43658878 11:-0.71625974 12:-0.96866141 13:-0.10530481 14:0.32995699 
1 1 0.1608746065656022 1 0 0 0.9734928199309592 1 0.007194115129305368 1 0 1 0 1 1 0 0.2067917614203451 0 1:1.48055 2:0.82209644 3:0.73236052 4:0.78918628 5:-1.0660039 6:0.35766416 7:-0.21001975 8:-0.022364874 9:-0.43561388 10:-0.43658878 11:-0.71625974 12:-0.78681933 13:-0.10530481 14:0.32995699 
1 0 0 0 0 0 1 0 1 0 0 0 0 0 0 0 0 0 1:-0.73940783 2:-1.0370616 3:-0.88860938 4:0.78918628 5:-1.440835 6:-0.039585451 7:-0.21001975 8:-0.022364874 9:-0.43561388 10:1.0553848 11:1.4724637 12:1.3952857 13:-0.10530481 14:1.6980679 
1 1 0.4119745628640828 1 1 1 1 1 0.1535469562440319 1 1 0 0 0 0 0.07133407700960569 0.04359285048829904 0 1:-0.73940783 2:-0.85114578 3:-0.41272831 4:0.90303576 5:1.8433991 6:0.20633097 7:-0.21001975 8:-0.022364874 9:-0.43561388 10:-0.43658878 11:1.4724637 12:1.3952857 13:-0.10530481 14:-0.24008921 
1 1 0 1 0.6413612594534732 1 1 1 0 1 0 1 0 0 0 0.01166705372774096 0 0 1:-0.73940783 2:-1.2229774 3:1.1190139 4:1.309641 5:-0.24494541 6:1.4169965 7:-0.21001975 8:-0.022364874 9:-0.43561388 10:-0.43658878 11:1.4724637 12:1.3952857 13:-0.10530481 14:0.55797547 
1 0 0 0.4282696836960193 1 0 1 0 1 0.7275324468642763 0 1 0 0 0.1581292930848366 0 1 0 1:-0.55441134 2:-1.0370616 3:1.0000436 4:0.93556418 5:1.2900771 6:1.0575801 7:-0.21001975 8:-0.022364874 9:-0.43561388 10:1.0553848 11:-0.71625974 12:-0.96866141 13:-0.10530481 14:-0.58211692 
1 1 0 1 1 1 1 0 0 1 1 1 1 0 0 0 0 0 1:-0.73940783 2:-0.47931418 3:1.178499 4:-1.2113117 5:-0.35204 6:1.0954134 7:-0.21001975 8:-0.022364874 9:-0.43561388 10:-0.43658878 11:1.4724637 12:1.3952857 13:-0.10530481 14:-0.24008921 
1 1 0 1 0 0.669142792420052 1 1 0 1 0 1 0 1 1 1 0.207039376034921 0 1:-0.55441134 2:-0.66522998 3:0.3010933 4:0.90303576 5:0.25482935 6:-0.98541786 7:-0.21001975 8:-0.022364874 9:-0.43561388 10:-0.43658878 11:-0.71625974 12:-0.69589829 13:-0.10530481 14:1.8120771 
1 1 0 0 1 1 1 0.9099103979533811 0 1 1 1 0 0 0 1 0.03306114300226692 0 1:-0.73940783 2:-1.0370616 3:1.5056673 4:1.0168852 5:0.094187462 6:0.58466394 7:-0.21001975 8:-0.022364874 9:-0.43561388 10:-0.43658878 11:1.4724637 12:1.3952857 13:-0.10530481 14:-0.24008921 
1 0 0 1 0 0 1 0 1 0 0 0 0 0 0 0 0.9475250769791168 0 1:0.00057811402 2:-0.47931418 3:-1.0373222 4:0.72412944 5:-0.066454425 6:1.3413299 7:-0.21001975 8:-0.022364874 9:-0.43561388 10:1.0553848 11:-0.71625974 12:-0.96866141 13:-0.10530481 14:-0.24008921 
1 0 0 0 1 1 1 0 0 1 1 0 0 0 0 0 0 0 1:-0.73940783 2:-1.0370616 3:-0.56144114 4:-1.1137264 5:-0.97675845 6:-0.43683506 7:-0.21001975 8:-0.022364874 9:-0.43561388 10:-0.43658878 11:1.4724637 12:1.3952857 13:-0.10530481 14:-0.24008921 
1 1 0 1 1 1 1 1 0.7214870124042422 1 1 1 1 1 0 0.8426018335921834 0.3654596254735343 0 1:-0.73940783 2:-0.47931418 3:-0.91835195 4:-1.1137264 5:-0.99460755 6:1.0575801 7:-0.21001975 8:-0.022364874 9:1.4676691 10:1.0553848 11:1.4724637 12:1.3952857 13:-0.10530481 14:1.6980679 
1 1 0 1 0.9278701149199314 0 0.6245545431916792 1 1 1 0 1 0 1 1 0 0 0 1:1.110557 2:0.45026483 3:1.2528554 4:1.000621 5:0.59396222 6:-1.0421678 7:-0.21001975 8:-0.022364874 9:-0.43561388 10:-0.43658878 11:-0.71625974 12:0.12239109 13:-0.10530481 14:2.0400956 
1 1 0.6909042338074783 1 1 0.9460813595943834 1 1 0 1 1 0.5480579057838432 1 0 1 0 0.5339118173447361 0 1:-0.92440431 2:-1.0370616 3:-1.498332 4:1.2771126 5:0.34407484 6:0.84949701 7:4.7608618 8:-0.022364874 9:-0.43561388 10:-0.43658878 11:0.37810197 12:-0.059450996 13:-0.10530481 14:0.32995699 
1 0 0 1 0 0.3285878728349005 0 1 1 1 0.7262359945840945 1 0 1 1 0.5323291703103032 0.8123860364461583 0 1:2.7755254 2:2.4953387 3:0.31596458 4:-0.33304428 5:-0.79826747 6:1.0575801 7:-0.21001975 8:-0.022364874 9:-0.43561388 10:1.0553848 11:-0.71625974 12:-0.69589829 13:-0.10530481 14:1.6980679 
1 0 0 1 0 0 1 0.2451221068531489 1 0 0 0 0 0 0 0 0.968221860928099 0 1:0.00057811402 2:-0.66522998 3:-0.73989655 4:-0.30051586 5:0.64750952 6:-0.15308534 7:-0.21001975 8:-0.022364874 9:-0.43561388 10:2.5473585 11:-0.71625974 12:0.12239109 13:-0.10530481 14:1.0140124 
1 1 0.1544060908006842 1 1 1 1 1 0 1 1 1 0 1 0 0 0 0 1:0.37057109 2:1.193928 3:1.2231129 4:-0.57700745 5:-1.083853 6:1.3602465 7:-0.21001975 8:-0.022364874 9:-0.43561388 10:-0.43658878 11:-0.71625974 12:-0.42313516 13:-0.10530481 14:-0.12607997 
1 1 0 1 1 1 1 1 0 1 1 0 1 0 0 0 0 0 1:-0.73940783 2:-0.85114578 3:-0.011203653 4:-0.30051586 5:0.9330951 6:0.9251636 7:-0.21001975 8:-0.022364874 9:-0.43561388 10:-0.43658878 11:1.4724637 12:1.3952857 13:-0.10530481 14:-0.69612616 
1 1 0 1 1 1 1 1 0 1 1 1 0 0 0 0 0 0 1:-0.73940783 2:0.078433229 3:0.33083587 4:1.1957916 5:0.25482935 6:1.492663 7:-0.21001975 8:-0.022364874 9:-0.43561388 10:-0.43658878 11:1.4724637 12:1.3952857 13:-0.10530481 14:0.32995699 
1 1 0 0 1 1 1 0 0 1 0 0 0 0 0 0 0 0 1:-0.73940783 2:-0.85114578 3:0.31596458 4:1.1795273 5:0.46901853 6:-1.0043345 7:-0.21001975 8:-0.022364874 9:-0.43561388 10:-0.43658878 11:1.4724637 12:1.3952857 13:-0.10530481 14:-0.24008921 
1 0 0 1 1 1 0 0.7452364872044381 0 1 0 1 0 1 0 1 0 0 1:0.74056406 2:0.078433229 3:-0.14504521 4:-1.2438401 5:-1.1017021 6:0.24416427 7:-0.21001975 8:-0.022364874 9:-0.43561388 10:-0.43658878 11:-0.71625974 12:-0.96866141 13:-0.10530481 14:-0.46810768 
1 0.9726441064155156 0 1 1 1 0.9850301186928591 1 1 1 0 1 0.4264756675626605 1 0.5533399648456739 0 0 0 1:-0.36941486 2:-0.66522998 3:-0.97783708 4:-1.1137264 5:0.54041493 6:-0.98541786 7:-0.21001975 8:-0.022364874 9:-0.43561388 10:-0.43658878 11:-0.71625974 12:-0.96866141 13:-0.10530481 14:-1.0381539 
1 0.8004686830247718 0.597373716647669 1 1 1 0.1919298666487268 1 1 1 1 1 0.1307587479297519 1 0.3230469924573229 0.9474930177067351 0.03315609733391196 0 1:-0.55441134 2:-0.29339837 3:0.40519229 4:-0.28425165 5:-1.0124566 6:0.24416427 7:-0.21001975 8:-0.022364874 9:-0.43561388 10:-0.43658878 11:-0.71625974 12:-0.42313516 13:9.5225635 14:2.6101418 
1 1 0 0 1 1 1 0.7202405668924704 0 1 0 1 0 0 0.2728898861391911 0 0.6103927070792574 0 1:-0.73940783 2:-0.85114578 3:0.3010933 4:1.0168852 5:0.25482935 6:-1.4205008 7:-0.21001975 8:-0.022364874 9:-0.43561388 10:-0.43658878 11:1.4724637 12:1.3952857 13:-0.10530481 14:0.32995699 
1 1 1 1 1 1 1 1 1 1 1 1 1 1 0 0.4057599434388114 1 0 1:-0.18441837 2:-0.47931418 3:-0.73989655 4:0.70786523 5:-0.13785082 6:0.26308092 7:-0.21001975 8:-0.022364874 9:2.1020967 10:-0.43658878 11:-0.71625974 12:-0.96866141 13:-0.10530481 14:-0.24008921 
1 0.6593844489502829 1 1 1 1 1 1 1 1 0 1 0 1 0 0 0 0.05088303466228471 1:-0.36941486 2:-1.0370616 3:1.386697 4:-0.49568639 5:-0.17354902 6:0.073914438 7:-0.21001975 8:-0.022364874 9:-0.43561388 10:-0.43658878 11:-0.71625974 12:-0.96866141 13:-0.10530481 14:-0.69612616 
1 1 0 1 1 1 0.4934166245435153 1 0 1 1 1 1 1 0 0.07397682549769137 0 0 1:-0.73940783 2:-0.29339837 3:1.2231129 4:-1.4390106 5:-1.083853 6:1.0008302 7:-0.21001975 8:-0.022364874 9:-0.43561388 10:-0.43658878 11:1.4724637 12:1.3952857 13:-0.10530481 14:2.1541048 
1 0 0 1 1 1 0 0 0.4477432985091147 1 0 1 0 1 0.1729291381198644 0 0.05359471391600581 0 1:1.2955535 2:0.63618063 3:0.063152765 4:-1.2438401 5:-1.6371751 6:0.24416427 7:-0.21001975 8:-0.022364874 9:-0.43561388 10:-0.43658878 11:-0.71625974 12:0.12239109 13:-0.10530481 14:-0.24008921 
1 1 0 1 1 0 1 1 0 1 1 1 1 1 0 0.2411961297685422 0.1608697046337594 0 1:-0.73940783 2:-0.85114578 3:0.27135073 4:0.18741047 5:-0.69117288 6:-0.96650121 7:-0.21001975 8:-0.022364874 9:1.4676691 10:1.0553848 11:1.4724637 12:1.3952857 13:-0.10530481 14:-1.0381539 
1 0 0.170630767975455 1 1 1 0 0 1 0.6379226167866566 0.6325423164883127 1 0 1 1 0.06750922787421741 0 0 1:-0.36941486 2:-1.0370616 3:0.82158823 4:-1.2601043 5:0.64750952 6:-1.3070009 7:-0.21001975 8:-0.022364874 9:-0.43561388 10:-0.43658878 11:-0.71625974 12:-0.96866141 13:-0.10530481 14:1.6980679 
1 1 0 1 1 0 1 1 1 1 0.564746012686797 1 0.8433430691377286 1 0 1 0 0 1:0.1855746 2:0.45026483 3:1.2974693 4:0.91929997 5:0.73675501 6:-0.68275149 7:-0.21001975 8:-0.022364874 9:-0.43561388 10:1.0553848 11:-0.71625974 12:-0.69589829 13:-0.10530481 14:-0.24008921 
1 1 0.8538771993042327 1 1 1 1 0.4320082051556309 1 1 0.3287930011379809 1 0 1 1 0 0 0 1:0.74056406 2:0.26434903 3:1.5800237 4:-0.59327166 5:-1.0124566 6:1.7574961 7:-0.21001975 8:-0.022364874 9:-0.43561388 10:-0.43658878 11:-0.71625974 12:-0.96866141 13:-0.10530481 14:-0.69612616 
1 1 0 1 1 1 1 1 1 1 1 1 0 0 0 0 0 0 1:0.00057811402 2:-0.10748257 3:-0.84399553 4:1.5048116 5:-1.0124566 6:1.6061629 7:-0.21001975 8:-0.022364874 9:-0.43561388 10:-0.43658878 11:-0.71625974 12:-0.96866141 13:-0.10530481 14:-1.0381539 
1 0 0 1 1 0 1 0.9479287421658344 1 0 1 0 0 0 0 0 0 0 1:0.00057811402 2:-0.47931418 3:-0.84399553 4:-0.80470641 5:0.59396222 6:0.33874751 7:-0.21001975 8:-0.022364874 9:-0.43561388 10:1.0553848 11:-0.71625974 12:-0.69589829 13:-0.10530481 14:-0.8101354 
1 0.01858609793931007 0 1 0.4348192778918397 1 1 0.1417191449200024 1 1 1 0 0 1 0 0.5408934553249402 0 0 1:-0.18441837 2:0.26434903 3:-0.84399553 4:-0.80470641 5:-1.5479296 6:1.3413299 7:-0.21001975 8:-0.022364874 9:-0.43561388 10:1.0553848 11:-0.71625974 12:-0.96866141 13:-0.10530481 14:-0.24008921 
1 1 1 1 1 0 1 1 1 1 1 1 1 1 0.7052626887607277 0.6320995269254022 1 0 1:0.37057109 2:0.078433229 3:0.71748924 4:1.5861326 5:1.3436244 6:1.3413299 7:-0.21001975 8:-0.022364874 9:1.4676691 10:1.0553848 11:-0.71625974 12:-1.1505035 13:-0.10530481 14:-1.0381539 
1 1 0.8512810033275792 1 1 1 0.8610369243090945 1 1 1 1 1 1 1 0.170423984663338 0.9211703336699076 0.6462635971690484 0 1:2.2205359 2:2.3094229 3:-0.91835195 4:-1.1137264 5:-0.99460755 6:0.26308092 7:-0.21001975 8:-0.022364874 9:1.4676691 10:-0.43658878 11:-0.71625974 12:-0.69589829 13:-0.10530481 14:-1.0381539 
1 1 0 1 1 1 1 1 0 1 1 0 0 0 0 0 0.1875774558356898 0 1:-0.73940783 2:-0.85114578 3:0.3010933 4:0.30125995 5:0.59396222 6:1.4548297 7:-0.21001975 8:-0.022364874 9:-0.43561388 10:-0.43658878 11:1.4724637 12:1.3952857 13:-0.10530481 14:-0.24008921 
1 0 0 1 1 1 1 1 0 1 1 0 0 0 0 1 0 0 1:-0.73940783 2:-1.2229774 3:-1.3198766 4:-0.30051586 5:0.59396222 6:-0.096335395 7:-0.21001975 8:-0.022364874 9:-0.43561388 10:-0.43658878 11:1.4724637 12:1.3952857 13:-0.10530481 14:0.32995699 
1 0 0 1 1 0 1 1 1 0 0 0 0 0 0 1 0 0 1:-0.18441837 2:-0.47931418 3:-0.91835195 4:-0.46315797 5:-0.13785082 6:-0.96650121 7:-0.21001975 8:-0.022364874 9:-0.43561388 10:1.0553848 11:-0.71625974 12:-0.96866141 13:-0.10530481 14:-0.46810768 
1 1 0.571216207498877 1 1 1 1 1 0.5022778771291441 1 1 1 1 1 0 0.1057586217968877 1 0 1:-0.73940783 2:-0.66522998 3:-0.11530264 4:-0.99987694 5:1.1115861 6:0.64141388 7:-0.21001975 8:-0.022364874 9:-0.43561388 10:-0.43658878 11:1.4724637 12:1.3952857 13:-0.10530481 14:1.6980679 
1 0 0 0 0 0 1 1 1 0 0 0 0 0 0.2131900057227645 0 0 0 1:0.1855746 2:-0.47931418 3:0.063152765 4:0.02476836 5:-1.6371751 6:1.3413299 7:-0.21001975 8:-0.022364874 9:-0.43561388 10:1.0553848 11:-0.71625974 12:-1.0595825 13:-0.10530481 14:-0.58211692 
1 1 0 1 1 0 1 0 1 1 0 0 0.9196752980110567 1 0 0 0.3556122448414626 0 1:-0.36941486 2:0.63618063 3:1.5800237 4:1.2608484 5:-0.12000172 6:1.3034966 7:-0.21001975 8:-0.022364874 9:-0.43561388 10:1.0553848 11:-0.71625974 12:0.75883838 13:-0.10530481 14:-0.69612616 
1 0.7257263581288907 0 1 1 1 0 1 0 0.3359799911164557 0 1 0 1 0 1 0.40641398361568 0 1:1.48055 2:0.82209644 3:0.3010933 4:-1.1137264 5:-0.13785082 6:-0.98541786 7:-0.21001975 8:-0.022364874 9:-0.43561388 10:-0.43658878 11:-0.71625974 12:-0.96866141 13:-0.10530481 14:-0.24008921 
1 1 0.3165325486494047 1 1 0.1994356164728798 0 1 0.5023255948182409 1 1 1 1 1 0.6632836517285404 0.04552898016652102 0.2191214922818513 0 1:-0.92440431 2:-0.29339837 3:-2.9705891 4:-0.28425165 5:-1.2801931 6:-1.2691676 7:4.7608618 8:-0.022364874 9:0.19881376 10:1.0553848 11:0.37810197 12:-0.059450996 13:-0.10530481 14:0.55797547 
1 1 0 1 1 1 1 1 0 1 1 0 1 0 0 0.7736434993675976 0 0 1:-0.73940783 2:-0.85114578 3:-0.82912425 4:-1.2438401 5:0.25482935 6:0.56574729 7:-0.21001975 8:-0.022364874 9:-0.43561388 10:-0.43658878 11:1.4724637 12:1.3952857 13:-0.10530481 14:-0.24008921 
1 1 0.2219026039111543 1 1 0 1 1 1 1 0.3337078263339335 1 0 0.220305963946766 0 1 0.0777380522944425 0 1:-0.36941486 2:-0.85114578 3:0.40519229 4:1.3746979 5:1.2365298 6:-0.68275149 7:-0.21001975 8:-0.022364874 9:-0.43561388 10:1.0553848 11:-0.71625974 12:-0.96866141 13:-0.10530481 14:0.32995699 
1 1 0.3332754442604116 1 0 0 0.7474496579839246 1 1 1 0 1 0 0.9518946724480902 0 0 0.8075679827703437 0 1:-0.73940783 2:-1.0370616 3:0.91081593 4:1.1957916 5:0.64750952 6:1.3413299 7:-0.21001975 8:-0.022364874 9:-0.43561388 10:1.0553848 11:1.4724637 12:1.3952857 13:-0.10530481 14:2.1541048 
1 1 0 1 1 1 1 1 0 1 1 1 1 1 1 1 0 0 1:-0.55441134 2:-0.29339837 3:-1.1414212 4:0.10608942 5:0.040640166 6:0.4144141 7:-0.21001975 8:-0.022364874 9:-0.43561388 10:-0.43658878 11:-0.71625974 12:-0.42313516 13:-0.10530481 14:1.8120771 
1 0.1652003918004709 0 1 1 0 1 1 1 0.7933912949636561 0.2025603677765616 0 0 0 0 0 0 0 1:-0.18441837 2:0.45026483 3:-0.27888676 4:0.39884522 5:0.27267845 6:-0.15308534 7:-0.21001975 8:-0.022364874 9:-0.43561388 10:2.5473585 11:-0.71625974 12:-0.42313516 13:-0.10530481 14:-0.69612616 
1 1 0 1 1 1 1 1 0 1 1 1 0.7447263177584577 1 0 0 0 0 1:-0.36941486 2:0.26434903 3:0.77697438 4:1.22832 5:0.34407484 6:-1.0610844 7:-0.21001975 8:-0.022364874 9:-0.43561388 10:-0.43658878 11:-0.71625974 12:-0.42313516 13:-0.10530481 14:1.3560401 
1 1 0 1 1 1 1 0 0.3990008502690976 1 0 1 0 1 1 0.8593643125534609 0 0 1:0.74056406 2:0.078433229 3:1.0744 4:1.5861326 5:1.0580388 6:0.22524762 7:-0.21001975 8:-0.022364874 9:-0.43561388 10:-0.43658878 11:-0.71625974 12:0.12239109 13:-0.10530481 14:-0.24008921 
1 0.644717724268282 0 1 0 0 1 1 1 1 0 1 0 0 0 0 0 0 1:-0.73940783 2:-0.29339837 3:0.13750918 4:0.15488205 5:0.61181132 6:-0.68275149 7:-0.21001975 8:-0.022364874 9:-0.43561388 10:1.0553848 11:1.4724637 12:1.3952857 13:-0.10530481 14:1.6980679 
1 0 0 0 0 0 0 0 0 0 0 1 0 1 1 0 0 0 1:-0.73940783 2:-1.4088932 3:-0.84399553 4:0.089825205 5:-0.79826747 6:-1.0421678 7:-0.21001975 8:-0.022364874 9:-0.43561388 10:-0.43658878 11:1.4724637 12:1.3952857 13:-0.10530481 14:2.0400956 
1 0 0 1 1 1 1 0 0 1 1 1 0.6881608328970997 1 0 1 1 0 1:0.55556757 2:0.26434903 3:0.3010933 4:-1.2113117 5:0.25482935 6:0.58466394 7:-0.21001975 8:-0.022364874 9:-0.43561388 10:-0.43658878 11:-0.71625974 12:-0.42313516 13:-0.10530481 14:0.32995699 
1 1 0 1 1 0.4729975507153001 1 1 1 1 1 1 0 1 0 0 0.9816786216312766 0 1:0.00057811402 2:-0.29339837 3:-0.73989655 4:1.2608484 5:-0.69117288 6:1.3034966 7:-0.21001975 8:-0.022364874 9:1.4676691 10:1.0553848 11:-0.71625974 12:-0.78681933 13:-0.10530481 14:2.0400956 
1 0 0 1 1 1 1 0 0 1 0.2203919640063904 0 0 0 0.363480158645888 1 0 0 1:-0.73940783 2:-0.85114578 3:-0.94809452 4:-1.3088969 5:0.70105681 6:-1.6664172 7:-0.21001975 8:-0.022364874 9:-0.43561388 10:-0.43658878 11:1.4724637 12:1.3952857 13:-0.10530481 14:-0.69612616 
1 1 0 1 1 1 0.9769618360617602 0.6814638254385555 0 1 0 1 0 1 0 1 0.4919244044163693 0 1:0.00057811402 2:-0.29339837 3:1.0744 4:-1.0324054 5:0.915246 6:-1.4015841 7:-0.21001975 8:-0.022364874 9:-0.43561388 10:-0.43658878 11:-0.71625974 12:-0.96866141 13:-0.10530481 14:-0.46810768 
1 0 0 1 0 0 1 0.7292286477230804 1 0 0 0 0 0 0 0.1297033542933145 0 0 1:-0.73940783 2:-0.85114578 3:-0.97783708 4:-0.60953587 5:0.54041493 6:-0.96650121 7:-0.21001975 8:-0.022364874 9:-0.43561388 10:1.0553848 11:1.4724637 12:1.3952857 13:-0.10530481 14:1.2420309 
1 1 1 1 1 0.7754310727450107 1 1 0.4481215296170211 1 1 1 1 1 0.006297776578321343 0.4007175477399841 1 0 1:-0.73940783 2:-0.66522998 3:0.91081593 4:-1.1625191 5:1.3436244 6:1.3413299 7:-0.21001975 8:-0.022364874 9:1.4676691 10:1.0553848 11:1.4724637 12:1.3952857 13:-0.10530481 14:-0.69612616 
1 1 0.8449257304400511 1 1 1 1 1 0 1 1 1 0.0009116483368752309 1 1 0 0 0 1:0.37057109 2:2.6812545 3:0.77697438 4:1.6023968 5:-1.7442697 6:-0.32333517 7:-0.21001975 8:-0.022364874 9:-0.43561388 10:-2.6745492 11:-0.71625974 12:-0.96866141 13:-0.10530481 14:0.32995699 
1 1 0 1 1 1 1 0 0 1 1 1 0.812375846684029 0 0.3806964126849022 0.1440337659217191 0.4708242212023563 0 1:-0.73940783 2:-0.85114578 3:0.91081593 4:-0.25172323 5:1.0580388 6:-1.0800011 7:-0.21001975 8:-0.022364874 9:-0.43561388 10:-0.43658878 11:1.4724637 12:1.3952857 13:-0.10530481 14:-0.69612616 
1 1 0 1 1 1 0 1 1 1 1 1 0 1 0.3214450000068327 1 0.01894286865802845 0 1:2.9605219 2:2.3094229 3:0.15238047 4:-1.1950475 5:0.915246 6:-0.15308534 7:-0.21001975 8:-0.022364874 9:-0.43561388 10:-0.43658878 11:-0.71625974 12:-0.96866141 13:-0.10530481 14:-0.92414464 
1 1 0 1 0 0 0.3557237336391224 1 1 1 0.8802183093830506 1 0 1 1 1 0 0 1:1.850543 2:1.5657596 3:1.178499 4:0.78918628 5:0.9330951 6:-0.98541786 7:-0.21001975 8:-0.022364874 9:-0.43561388 10:-0.43658878 11:-0.71625974 12:-0.96866141 13:-0.10530481 14:1.3560401 
1 0 0 1 1 1 0 0 0 1 0 1 0 1 0.442520535436199 0 0 0 1:1.110557 2:0.45026483 3:0.34570715 4:-1.2926327 5:-1.0124566 6:0.017164494 7:-0.21001975 8:-0.022364874 9:-0.43561388 10:-0.43658878 11:-0.71625974 12:0.12239109 13:-0.10530481 14:-0.69612616 
