svm_type c_svc
kernel_type rbf
gamma 0.00195313
nr_class 19
total_sv 7724
rho -2.04566 -5.42156 3.16549 -40.32 -12.7965 15.2604 -52.7515 -15.4007 -23.8468 6.97182 -15.7245 -10.5315 -47.6628 16.0121 40.1255 17.8937 -21.5277 -9.64826 8.52061 -6.15763 -23.2131 -28.0715 -13.3669 -14.2934 4.53517 -19.5272 1.90524 -8.26516 -3.24161 -18.381 -0.487497 15.4341 3.86605 -16.8905 -31.3751 -16.283 -23.3244 -11.2908 25.0963 -42.9203 5.57895 -11.3052 2.61875 -29.1074 4.95547 -34.5902 13.7214 16.5965 18.4517 -16.5147 -13.2758 21.7958 2.79546 25.6982 -16.8967 9.05378 -13.2298 0.961836 -22.4206 4.53174 -62.455 9.50813 -25.1145 32.9981 -1.56035 -6.62926 -8.03258 19.3161 -20.8137 17.5683 -4.793 21.6795 10.2804 18.9557 -26.0598 20.7499 44.3364 27.205 -33.7213 -13.6009 24.9537 -23.0796 6.97446 -27.2697 3.51443 3.07321 16.5207 -33.372 13.5851 12.7994 -14.7609 -33.562 -60.1312 -42.3764 -27.5327 -40.5248 -12.2524 -51.1771 -1.35446 -91.0806 -20.2814 -0.689671 -5.70119 -25.5305 -17.3142 38.4579 14.1718 31.517 23.806 30.4058 -13.3701 27.1555 36.9833 52.2384 -0.256239 -14.4312 8.91089 -10.2317 -39.3133 -2.29974 -29.4864 5.88713 43.774 33.2952 -24.1726 -12.2991 28.4517 5.66804 6.16474 -45.6289 -4.73968 14.4525 10.2893 -42.4062 -6.4885 -15.6457 6.04134 -40.2343 8.5153 14.71 11.5768 -19.1014 -24.3577 24.9873 -41.7473 17.5849 43.2049 39.5955 8.86954 -7.77628 -34.0682 22.537 30.9616 35.6818 -10.493 -11.2153 83.5481 46.2477 46.3105 23.1836 -7.24718 31.1169 29.8021 -28.4044 -12.0322 0.880769 -53.8872 -6.57677 -51.9169 -8.45452 -10.2033
label 4 17 12 13 2 7 5 15 19 14 9 1 3 16 18 10 6 11 8
nr_sv 471 1401 406 78 652 795 371 488 394 426 568 342 461 144 322 141 166 97 1
SV
8192 8192 0 8192 8127.321318928431 1078.442209446025 8192 8192 8192 8192 8192 8192 0 8192 0 8192 2406.37583994492 0 1:1.2955535 2:1.0080122 3:-0.84399553 4:-0.80470641 5:0.0044105211 6:0.66485284 7:0.59396222 8:1.3413299 9:-0.21001975 10:-0.022364874 11:-0.43561388 12:1.0553848 13:-0.71625974 14:-0.78681933 15:-0.10530481 16:-1.0381539 
8192 0 4238.733994005136 8192 8192 8192 0 0 0 3026.563862947877 8122.173831823771 8192 0 8192 0 0 0 0 1:0.37057109 2:-0.29339837 3:1.3123406 4:-1.2601043 5:-1.4140485 6:-0.2486889 7:-1.1909476 8:0.56574729 9:-0.21001975 10:-0.022364874 11:-0.43561388 12:-0.43658878 13:-0.71625974 14:-0.42313516 15:-0.10530481 16:-0.24008921 
8192 8192 0 8192 8192 0 8192 8192 0 8192 8192 8192 8192 6439.386887868685 0 5720.210502368413 2262.922569870484 0 1:-0.73940783 2:-0.85114578 3:0.82158823 4:-1.1137264 5:0.71364005 6:0.66485284 7:-0.99460755 8:-0.96650121 9:-0.21001975 10:-0.022364874 11:1.4676691 12:1.0553848 13:1.4724637 14:1.3952857 15:-0.10530481 16:-0.92414464 
8192 8192 1188.985978239917 0 0 6950.897654130677 1685.000569873634 0 6806.861788282556 1018.998277598307 0 8192 0 8192 8192 7336.798925453499 0 0 1:-0.55441134 2:-1.2229774 3:-0.97783708 4:1.2933768 5:0.89094744 6:0.48214449 7:-1.6728733 8:-0.98541786 9:-0.21001975 10:-0.022364874 11:-0.43561388 12:-0.43658878 13:-0.71625974 14:-0.42313516 15:-0.10530481 16:1.5840586 
8192 0 0 1382.051881988187 8192 0 8192 8192 8192 4732.543807341518 0 0 0 0 0 0 0 0 1:0.37057109 2:-0.29339837 3:-0.65066885 4:0.18741047 5:0.53633267 6:0.66485284 7:-1.7085715 8:-0.96650121 9:-0.21001975 10:-0.022364874 11:-0.43561388 12:1.0553848 13:-0.71625974 14:0.12239109 15:-0.10530481 16:-1.0381539 
8192 8192 0 0 8192 8192 8192 8192 0 8192 8192 0 0 8192 1949.09700101588 0 0 0 1:-0.73940783 2:-0.85114578 3:0.82158823 4:0.70786523 5:-1.4140485 6:0.84756119 7:-1.4586841 8:1.0764968 9:-0.21001975 10:-0.022364874 11:-0.43561388 12:-0.43658878 13:1.4724637 14:1.3952857 15:-0.10530481 16:-0.24008921 
8192 8192 0 8192 8192 0 0 8192 0 8192 8192 8192 0 0 0 3222.823564903939 0 0 1:2.2205359 2:1.9375912 3:1.178499 4:-0.77217798 5:0.53633267 6:-1.5276473 7:-1.0124566 8:0.24416427 9:-0.21001975 10:-0.022364874 11:-0.43561388 12:-0.43658878 13:-0.71625974 14:-0.96866141 15:-0.10530481 16:-0.24008921 
8192 8192 0 8192 4796.015589155312 0 0 8192 8192 8192 0 8192 0 8192 0 8192 0 0 1:0.92556054 2:0.63618063 3:-1.1562925 4:-0.056552695 5:0.1817179 6:0.66485284 7:-0.70902197 8:-1.2691676 9:-0.21001975 10:-0.022364874 11:-0.43561388 12:1.0553848 13:-0.71625974 14:-0.96866141 15:-0.10530481 16:-1.0381539 
8192 0 0 0 8192 0 7428.176532761272 0 0 0 0 0 0 0 0 5619.756144194149 0 0 1:-0.73940783 2:-0.47931418 3:0.67287539 4:-1.1299906 5:-0.35020424 6:1.2129779 7:1.7184554 8:-1.5907506 9:-0.21001975 10:-0.022364874 11:-0.43561388 12:2.5473585 13:1.4724637 14:1.3952857 15:-0.10530481 16:-1.0381539 
8192 8192 8192 8192 8192 6870.981571637471 0 8192 8192 8192 0 8192 3968.363497310484 8192 8192 8192 5725.930746699637 0 1:0.37057109 2:-0.10748257 3:0.19699432 4:0.78918628 5:-2.1232781 6:-0.97952229 7:-0.17354902 8:-1.4205008 9:-0.21001975 10:-0.022364874 11:-0.43561388 12:-0.43658878 13:-0.71625974 14:-0.96866141 15:-0.10530481 16:-1.0381539 
8192 0 0 0 0 0 0 0 8192 0 0 0 0 1755.607663603094 0 8192 3849.412984847663 0 1:0.1855746 2:-0.47931418 3:1.386697 4:-0.49568639 5:-2.1232781 6:0.66485284 7:-0.17354902 8:-0.96650121 9:-0.21001975 10:-0.022364874 11:-0.43561388 12:1.0553848 13:-0.71625974 14:-0.42313516 15:-0.10530481 16:1.9260863 
7230.398800801933 8192 31.9803992984668 0 0 0 0 8192 0 0 0 0 0 8192 1368.292390366257 0 0 0 1:-0.73940783 2:2.6812545 3:0.24160817 4:-0.12160954 5:0.89094744 6:0.66485284 7:1.2365298 8:-0.96650121 9:-0.21001975 10:-0.022364874 11:-0.43561388 12:1.0553848 13:1.4724637 14:1.3952857 15:-0.10530481 16:-1.0381539 
8192 0 0 0 6965.974678231892 0 8192 0 8192 0 0 0 0 0 0 0 0 0 1:0.00057811402 2:-0.29339837 3:0.3010933 4:0.75665786 5:-1.4140485 6:0.66485284 7:0.25482935 8:-0.24766858 9:-0.21001975 10:-0.022364874 11:-0.43561388 12:1.0553848 13:-0.71625974 14:-0.42313516 15:-0.10530481 16:-0.24008921 
8192 8192 252.7404955823137 8192 8192 1072.15589968427 8192 8192 0 8192 5412.910843339503 1917.396521722923 8192 8192 0 0 0 0 1:-0.92440431 2:-0.29339837 3:-2.7921337 4:-0.54447903 5:0.71364005 6:0.66485284 7:1.0401897 8:-0.68275149 9:4.7608618 10:-0.022364874 11:1.4676691 12:1.0553848 13:0.37810197 14:-0.059450996 15:-0.10530481 16:0.55797547 
8192 0 0 0 8192 0 8192 0 8192 8192 8192 0 8192 0 0 0 0 0 1:-0.55441134 2:-0.66522998 3:-0.73989655 4:1.1795273 5:-0.35020424 6:0.66485284 7:-0.066454425 8:-0.68275149 9:-0.21001975 10:-0.022364874 11:-0.43561388 12:1.0553848 13:-0.71625974 14:0.84975942 15:-0.10530481 16:-0.24008921 
8192 8192 0 0 8192 0 8192 1238.046216045692 0 8192 0 0 8192 8192 0 0 3158.944230983694 0 1:-0.73940783 2:0.63618063 3:1.0297862 4:1.2933768 5:0.71364005 6:0.66485284 7:-0.99460755 8:-0.96650121 9:-0.21001975 10:-0.022364874 11:-0.43561388 12:1.0553848 13:1.4724637 14:1.3952857 15:-0.10530481 16:-1.0381539 
8192 0 0 8192 8192 0 0 0 8192 0 0 0 0 0 8192 0 0 0 1:-0.18441837 2:-0.85114578 3:-0.35324317 4:-1.2113117 5:0.53633267 6:0.66485284 7:-1.0124566 8:-1.2691676 9:-0.21001975 10:-0.022364874 11:-0.43561388 12:1.0553848 13:-0.71625974 14:1.1225225 15:-0.10530481 16:1.9260863 
8192 8192 0 8192 8192 8192 8192 3345.856440700398 0 8192 8192 8192 8192 0 0 8192 0 0 1:-0.73940783 2:-0.66522998 3:1.4759247 4:-1.1787833 5:0.53633267 6:-0.43139725 7:-1.0124566 8:-0.096335395 9:-0.21001975 10:-0.022364874 11:-0.43561388 12:-0.43658878 13:1.4724637 14:1.3952857 15:-0.10530481 16:-0.69612616 
8192 1245.120499560382 0 8192 8192 0 8192 8192 8192 8192 0 8192 0 8192 0 0 0 0 1:-0.36941486 2:-0.47931418 3:1.2231129 4:0.17114626 5:-0.17289686 6:0.66485284 7:-1.083853 8:-0.96650121 9:-0.21001975 10:-0.022364874 11:-0.43561388 12:1.0553848 13:-0.71625974 14:-0.42313516 15:-0.10530481 16:2.6101418 
8192 3018.952233841871 0 8192 1948.441611487643 2615.628038733384 8192 8192 0 0 8192 8192 0 0 0 89.95090493094156 2898.14424804678 0 1:-0.36941486 2:-0.29339837 3:0.80671694 4:0.2362031 5:-0.88212639 6:-1.1622306 7:-1.440835 8:0.26308092 9:-0.21001975 10:-0.022364874 11:-0.43561388 12:4.0393321 13:-0.71625974 14:-0.96866141 15:-0.10530481 16:-0.46810768 
8192 8192 0 8192 8192 6281.619148428443 8192 8192 0 8192 5614.087662603547 0 8192 0 0 0 0 0 1:-0.73940783 2:0.26434903 3:0.95542978 4:1.1795273 5:0.89094744 6:0.66485284 7:0.68320772 8:-0.96650121 9:-0.21001975 10:-0.022364874 11:-0.43561388 12:1.0553848 13:1.4724637 14:1.3952857 15:-0.10530481 16:-0.24008921 
8192 0 0 0 6002.655858174409 0 0 1243.338865413558 2638.552714172979 8192 0 0 0 0 4244.670441267195 0 6110.089848285759 0 1:0.00057811402 2:-0.29339837 3:1.5354098 4:1.2120558 5:-1.4140485 6:0.66485284 7:-0.79826747 8:0.33874751 9:-0.21001975 10:-0.022364874 11:-0.43561388 12:1.0553848 13:-0.71625974 14:0.75883838 15:-0.10530481 16:1.6980679 
8192 8192 0 8192 8192 8192 8192 8192 0 8192 8192 8192 0 0 0 0 1190.620117870062 0 1:-0.73940783 2:-0.85114578 3:0.16725175 4:1.309641 5:0.89094744 6:-0.97952229 7:-0.29849271 8:-1.4205008 9:-0.21001975 10:-0.022364874 11:-0.43561388 12:-0.43658878 13:1.4724637 14:1.3952857 15:-0.10530481 16:0.32995699 
8192 8192 0 8192 8192 0 8192 2337.914754337652 0 8192 8192 8192 0 0 0 0 0 0 1:-0.18441837 2:-0.10748257 3:0.31596458 4:1.2608484 5:0.0044105211 6:-0.2486889 7:0.59396222 8:1.4548297 9:-0.21001975 10:-0.022364874 11:-0.43561388 12:-0.43658878 13:-0.71625974 14:-0.96866141 15:-0.10530481 16:-0.92414464 
8192 8192 0 8192 8192 8192 8192 8192 0 8192 8192 7691.871383666125 0 8192 0 0 2145.444343075134 0 1:0.1855746 2:0.82209644 3:-1.2306489 4:0.75665786 5:0.53633267 6:-0.6141056 7:0.64750952 8:-1.4015841 9:-0.21001975 10:-0.022364874 11:-0.43561388 12:-0.43658878 13:-0.71625974 14:-0.42313516 15:-0.10530481 16:-0.24008921 
8192 8192 0 8192 8192 8192 8192 8192 0 8192 0 8192 8192 0 0 1824.475040849865 0 0 1:-0.73940783 2:-0.29339837 3:-0.97783708 4:-1.1137264 5:1.4228696 6:0.48214449 7:0.71890591 8:-0.98541786 9:-0.21001975 10:-0.022364874 11:-0.43561388 12:-0.43658878 13:1.4724637 14:1.3952857 15:-0.10530481 16:-0.69612616 
8192 8192 195.9507496303605 8192 6635.186319382695 8192 8192 8192 0 8192 8192 8192 5555.508419485256 8192 4686.080919011092 3113.543028445213 0 0 1:-0.55441134 2:1.9375912 3:0.31596458 4:0.70786523 5:-0.17289686 6:-2.2584807 7:1.1651334 8:-0.20983528 9:-0.21001975 10:-0.022364874 11:-0.43561388 12:-0.43658878 13:-0.71625974 14:-0.42313516 15:-0.10530481 16:-0.69612616 
8192 0 0 0 0 1851.020911528498 1023.629784831658 0 0 0 0 1150.719171277191 0 0 580.6500323635366 694.982809366145 0 0 1:-0.36941486 2:-0.29339837 3:0.3010933 4:-1.1137264 5:-1.4140485 6:0.84756119 7:1.4150208 8:-1.6285839 9:-0.21001975 10:-0.022364874 11:-2.3388968 12:-0.43658878 13:1.4724637 14:-0.33221412 15:-0.10530481 16:-0.24008921 
8192 8192 8192 0 8192 8192 8192 1393.745705038271 0 8192 8192 0 3672.290453746243 8192 0 3731.33370089859 0 0 1:-0.73940783 2:-1.0370616 3:0.91081593 4:-1.1137264 5:1.2455622 6:1.5783946 7:-0.95890935 8:1.0954134 9:-0.21001975 10:-0.022364874 11:-0.43561388 12:-0.43658878 13:1.4724637 14:1.3952857 15:-0.10530481 16:-0.69612616 
8192 0 0 0 0 0 8192 8192 8192 0 0 8192 0 0 0 8192 0 0 1:0.00057811402 2:-0.29339837 3:0.24160817 4:0.75665786 5:-1.4140485 6:0.66485284 7:0.25482935 8:-0.96650121 9:-0.21001975 10:-0.022364874 11:-0.43561388 12:1.0553848 13:-0.71625974 14:-0.69589829 15:-0.10530481 16:-0.24008921 
8192 8192 4251.958392339675 0 8192 8192 8192 8192 0 8192 8192 8192 0 8192 755.080611365452 0 0 0 1:-0.73940783 2:-0.47931418 3:0.71748924 4:0.90303576 5:-1.4140485 6:0.48214449 7:-0.79826747 8:-0.98541786 9:-0.21001975 10:-0.022364874 11:-0.43561388 12:-0.43658878 13:1.4724637 14:1.3952857 15:-0.10530481 16:-0.24008921 
0 2822.226248396785 2336.052323156041 0 0 0 0 0 1109.233958087902 0 0 1890.540379266271 0 0 3591.44419914723 0 0 0 1:-0.73940783 2:-1.4088932 3:-0.91835195 4:1.2933768 5:0.0044105211 6:0.48214449 7:-1.7442697 8:-0.98541786 9:-0.21001975 10:-0.022364874 11:-0.43561388 12:-0.43658878 13:1.4724637 14:1.3952857 15:-0.10530481 16:1.6980679 
8192 8192 1503.996557199853 0 0 6531.945226749612 40.07650472508675 8192 8192 0 0 8192 0 8192 0 4369.641196460341 8192 0 1:1.850543 2:1.193928 3:-0.84399553 4:1.000621 5:0.53633267 6:-0.065980552 7:-1.0124566 8:-1.0421678 9:-0.21001975 10:-0.022364874 11:-0.43561388 12:-0.43658878 13:-0.71625974 14:-0.96866141 15:-0.10530481 16:-0.24008921 
8192 0 0 0 0 0 0 0 1544.063937593385 0 0 0 0 0 0 0 0 0 1:-0.73940783 2:-0.85114578 3:0.3010933 4:1.4560189 5:-1.4140485 6:0.66485284 7:0.25482935 8:1.3413299 9:-0.21001975 10:-0.022364874 11:-0.43561388 12:1.0553848 13:1.4724637 14:1.3952857 15:-0.10530481 16:-0.69612616 
8192 8192 0 8192 8192 8192 8192 8192 0 8192 8192 0 8192 0 0 0 0 0 1:-0.73940783 2:-0.66522998 3:0.65800411 4:-1.1137264 5:0.0044105211 6:0.48214449 7:-1.0660039 8:0.64141388 9:-0.21001975 10:-0.022364874 11:-0.43561388 12:-0.43658878 13:1.4724637 14:1.3952857 15:-0.10530481 16:-0.24008921 
8192 0 0 8192 8192 8192 0 239.9371846247907 0 8192 8192 8192 0 8192 0 8192 0 0 1:-0.36941486 2:-0.85114578 3:-1.0373222 4:-1.1950475 5:-0.35020424 6:0.29943614 7:-0.066454425 8:-0.38008512 9:-0.21001975 10:-0.022364874 11:-0.43561388 12:-0.43658878 13:-0.71625974 14:-0.96866141 15:-0.10530481 16:-0.24008921 
8192 8192 0 8192 8192 8192 0 8192 0 8192 5853.960907214488 8192 0 0 0 0 0 0 1:0.1855746 2:0.63618063 3:-0.76963911 4:-1.3088969 5:0.0044105211 6:-1.1622306 7:-0.72687107 8:-1.7799171 9:-0.21001975 10:-0.022364874 11:-0.43561388 12:-0.43658878 13:-0.71625974 14:-0.69589829 15:-0.10530481 16:-0.69612616 
8192 8192 0 8192 8192 0 0 2574.537307735708 57.61479263057598 8192 8192 8192 8192 8192 0 0 0 0 1:-0.73940783 2:-0.85114578 3:1.0000436 4:0.93556418 5:-0.35020424 6:-0.97952229 7:-0.4234364 8:-1.4205008 9:-0.21001975 10:-0.022364874 11:2.7365244 12:-0.43658878 13:1.4724637 14:1.3952857 15:-0.10530481 16:-0.69612616 
8192 8192 0 8192 8192 8192 8192 0 0 8192 8192 8192 8192 8192 0 0 0 0 1:-0.55441134 2:0.26434903 3:0.3010933 4:-0.56074324 5:-1.4140485 6:0.48214449 7:0.25482935 8:-0.98541786 9:-0.21001975 10:-0.022364874 11:-0.43561388 12:-0.43658878 13:-0.71625974 14:-0.69589829 15:-0.10530481 16:1.0140124 
8192 0 0 8192 8192 8192 0 0 0 0 0 8192 0 4002.715595566268 4597.22411497766 8192 6652.189599334838 0 1:-0.18441837 2:-0.85114578 3:0.34570715 4:-1.2113117 5:-1.4140485 6:-0.065980552 7:1.1115861 8:0.58466394 9:-0.21001975 10:-0.022364874 11:-0.43561388 12:-0.43658878 13:-0.71625974 14:-0.96866141 15:-0.10530481 16:-0.24008921 
8192 0 0 8192 0 0 8192 3858.591181726509 8192 0 0 8192 0 0 0 8192 0 0 1:0.92556054 2:1.0080122 3:-0.026074937 4:0.74039365 5:-1.4140485 6:0.66485284 7:-0.79826747 8:0.66033053 9:-0.21001975 10:-0.022364874 11:-0.43561388 12:1.0553848 13:-0.71625974 14:-0.96866141 15:-0.10530481 16:1.5840586 
8192 0 0 8192 8192 0 8192 0 0 0 0 0 1753.600967803961 0 0 0 0 0 1:-0.73940783 2:-0.66522998 3:-0.91835195 4:-1.2926327 5:0.0044105211 6:0.66485284 7:-0.3877382 8:0.16849768 9:-0.21001975 10:-0.022364874 11:-0.43561388 12:1.0553848 13:1.4724637 14:1.3952857 15:-0.10530481 16:-0.58211692 
8192 8192 0 8192 8192 8192 8169.617415721505 0 0 8192 8192 8192 8192 0 0 0 0 0 1:-0.73940783 2:-0.10748257 3:1.178499 4:-1.4878033 5:0.53633267 6:-0.43139725 7:-1.0124566 8:-0.43683506 9:-0.21001975 10:-0.022364874 11:-0.43561388 12:-0.43658878 13:1.4724637 14:1.3952857 15:-0.10530481 16:-0.92414464 
8192 8192 0 7797.081066535864 8192 8192 8192 8192 0 8192 8192 8192 0 0 0 0 0 0 1:-0.73940783 2:-0.85114578 3:-0.75476783 4:1.3584337 5:0.53633267 6:-2.0757724 7:-1.0124566 8:1.3791632 9:-0.21001975 10:-0.022364874 11:-0.43561388 12:-0.43658878 13:1.4724637 14:1.3952857 15:-0.10530481 16:-0.12607997 
8192 0 0 8192 0 0 8192 0 8192 0 0 0 0 8192 5316.308398800851 0 8192 0 1:-0.36941486 2:-1.0370616 3:0.76210309 4:0.073560994 5:0.1817179 6:0.66485284 7:0.30837664 8:1.7953294 9:-0.21001975 10:-0.022364874 11:-0.43561388 12:1.0553848 13:-0.71625974 14:0.12239109 15:-0.10530481 16:1.6980679 
8192 8192 0 8192 6222.736397399798 8192 0 8192 0 8192 6951.947229690331 8192 2108.344590606991 8192 0 0 672.0421163095431 0 1:0.1855746 2:0.63618063 3:-0.97783708 4:-1.0649338 5:0.53633267 6:0.48214449 7:-1.0124566 8:-0.98541786 9:-0.21001975 10:-0.022364874 11:-0.43561388 12:-0.43658878 13:1.4724637 14:-0.69589829 15:-0.10530481 16:1.3560401 
8192 8192 0 8192 8192 8192 8192 8192 0 8192 8192 8192 8192 8192 0 0 8192 0 1:-0.18441837 2:0.26434903 3:1.1933703 4:0.90303576 5:0.71364005 6:0.48214449 7:-0.99460755 8:0.64141388 9:-0.21001975 10:-0.022364874 11:1.4676691 12:-0.43658878 13:-0.71625974 14:-0.42313516 15:-0.10530481 16:-0.12607997 
8192 8192 0 6402.58175658883 8192 8192 0 0 0 8192 0 0 8192 8192 0 0 0 25.87326967729692 1:-0.73940783 2:0.26434903 3:1.2379842 4:-0.56074324 5:-0.35020424 6:0.48214449 7:-0.4234364 8:-0.98541786 9:-0.21001975 10:-0.022364874 11:-0.43561388 12:-0.43658878 13:1.4724637 14:1.3952857 15:-0.10530481 16:-1.0381539 
8192 8192 0 8192 8192 8192 8192 8192 0 8192 8192 8192 5009.519010253072 0 0 8192 6285.401281819704 0 1:-0.73940783 2:-0.85114578 3:0.65800411 4:0.80545049 5:0.0044105211 6:-1.5276473 7:-1.0660039 8:-1.515084 9:-0.21001975 10:-0.022364874 11:-0.43561388 12:-0.43658878 13:1.4724637 14:1.3952857 15:-0.10530481 16:1.0140124 
8192 8192 0 8192 0 8192 8192 8192 0 8192 8192 0 8192 0 0 8192 8192 0 1:-0.73940783 2:-0.85114578 3:-1.3198766 4:-0.30051586 5:0.0044105211 6:-0.43139725 7:0.59396222 8:-0.096335395 9:-0.21001975 10:-0.022364874 11:-0.43561388 12:-0.43658878 13:1.4724637 14:1.3952857 15:-0.10530481 16:0.55797547 
8192 0 0 8192 8192 0 0 0 0 8192 8192 0 6726.102188154242 0 0 0 0 0 1:-0.92440431 2:-0.47931418 3:-2.3608665 4:-1.3088969 5:-0.88212639 6:0.66485284 7:1.1294352 8:-0.039585451 9:4.7608618 10:-0.022364874 11:0.19881376 12:1.0553848 13:0.37810197 14:-0.059450996 15:-0.10530481 16:0.55797547 
8192 0 0 0 0 1977.435121615168 0 0 8192 8192 598.0897365820535 0 5261.979745092732 0 0 8192 4713.8112265108 0 1:-0.73940783 2:-0.47931418 3:1.5354098 4:-1.0324054 5:-1.4140485 6:0.66485284 7:1.2900771 8:-0.039585451 9:-0.21001975 10:-0.022364874 11:-0.43561388 12:1.0553848 13:1.4724637 14:1.3952857 15:-0.10530481 16:0.32995699 
8192 0 0 6539.726910096724 8192 0 0 0 1716.353255038468 0 0 0 0 8192 8192 0 0 0 1:0.92556054 2:0.45026483 3:0.34570715 4:1.000621 5:-1.4140485 6:-0.43139725 7:1.1115861 8:-0.096335395 9:-0.21001975 10:-0.022364874 11:-0.43561388 12:-0.43658878 13:-0.71625974 14:0.21331213 15:-0.10530481 16:0.32995699 
8192 8192 0 0 0 0 8192 0 0 0 0 0 8192 3140.36478632324 0 0 0 0 1:-0.73940783 2:-0.10748257 3:1.3123406 4:-0.99987694 5:0.0044105211 6:0.66485284 7:-0.3877382 8:1.0575801 9:-0.21001975 10:-0.022364874 11:-0.43561388 12:1.0553848 13:1.4724637 14:1.3952857 15:-0.10530481 16:-0.24008921 
8192 0 0 0 8192 8192 8192 248.6736745448438 0 8192 8192 0 0 1373.478660378089 0 8192 0 0 1:-0.73940783 2:-0.85114578 3:-0.15991649 4:-1.1137264 5:-1.4140485 6:-0.43139725 7:-1.4586841 8:-0.43683506 9:-0.21001975 10:-0.022364874 11:-0.43561388 12:-0.43658878 13:1.4724637 14:1.3952857 15:-0.10530481 16:-0.69612616 
8192 8192 0 8192 8192 8192 8192 8192 0 8192 8192 4358.826727098686 0 2458.984954203375 8192 0 0 0 1:-0.55441134 2:-0.66522998 3:0.76210309 4:-0.28425165 5:-1.0594338 6:-1.7103557 7:-0.45913459 8:-1.8177504 9:-0.21001975 10:-0.022364874 11:-0.43561388 12:-0.43658878 13:-0.71625974 14:-0.69589829 15:-0.10530481 16:-0.24008921 
8192 0 0 0 0 0 8192 1805.434864269832 6158.022351206485 8192 0 8192 1184.625403340407 8192 605.7109004919257 0 6367.209484540626 0 1:-0.73940783 2:-0.85114578 3:-0.97783708 4:-0.10534533 5:-0.52751163 6:1.3956862 7:0.54041493 8:-0.90975126 9:-0.21001975 10:-0.022364874 11:-0.43561388 12:-0.43658878 13:1.4724637 14:1.3952857 15:-0.10530481 16:2.1541048 
8192 8192 0 8192 8192 8192 8192 8192 0 8192 8192 0 1258.981341467141 0 0 0 0 0 1:-0.73940783 2:-0.85114578 3:0.82158823 4:-1.0161412 5:-0.17289686 6:-0.065980552 7:-1.7621188 8:0.58466394 9:-0.21001975 10:-0.022364874 11:-0.43561388 12:-0.43658878 13:1.4724637 14:1.3952857 15:-0.10530481 16:-0.24008921 
8192 0 0 0 0 0 0 5546.286149685273 8192 0 0 0 0 0 5441.705779520886 0 2094.495486624259 0 1:0.37057109 2:-0.29339837 3:-0.65066885 4:0.18741047 5:0.53633267 6:0.66485284 7:-1.7085715 8:-0.96650121 9:-0.21001975 10:-0.022364874 11:-0.43561388 12:1.0553848 13:-0.71625974 14:0.12239109 15:-0.10530481 16:1.3560401 
8192 0 0 8192 8192 0 8192 0 0 8192 8192 0 0 8192 0 0 0 0 1:-0.55441134 2:-0.85114578 3:1.2379842 4:1.1144705 5:0.53633267 6:0.84756119 7:-0.3341909 8:1.549413 9:-0.21001975 10:-0.022364874 11:-0.43561388 12:-0.43658878 13:-0.71625974 14:-0.42313516 15:-0.10530481 16:-0.24008921 
8192 6910.20067324951 0 854.3070096938825 0 0 8192 0 8192 0 0 0 0 0 0 0 0 0 1:-0.36941486 2:0.26434903 3:0.43493485 4:0.74039365 5:-0.35020424 6:0.66485284 7:-1.1017021 8:-0.60708489 9:-0.21001975 10:-0.022364874 11:-2.3388968 12:1.0553848 13:-0.71625974 14:-0.69589829 15:-0.10530481 16:1.8120771 
8192 8192 5068.111106789621 8192 8192 8192 8192 8192 8192 8192 8192 8192 8192 8192 944.1329620727037 8192 8192 0 1:-0.18441837 2:-0.29339837 3:-1.1116786 4:-1.2113117 5:0.71364005 6:0.66485284 7:-0.99460755 8:1.0575801 9:-0.21001975 10:-0.022364874 11:1.4676691 12:1.0553848 13:-0.71625974 14:-0.42313516 15:-0.10530481 16:-0.24008921 
8192 620.8506501930336 0 0 8192 0 8192 0 0 2165.92113987831 2696.586096347381 0 0 0 0 0 0 0 1:-0.73940783 2:-0.85114578 3:-0.36811446 4:0.74039365 5:-1.5913559 6:0.66485284 7:-0.15569992 8:0.33874751 9:-0.21001975 10:-0.022364874 11:-0.43561388 12:1.0553848 13:1.4724637 14:1.3952857 15:-0.10530481 16:-1.0381539 
8192 8192 8192 8192 5370.240221228379 1007.947210519391 0 8192 8192 8192 0 8192 0 8192 8192 0 0 0 1:1.2955535 2:0.63618063 3:1.3123406 4:1.618661 5:-0.17289686 6:-0.43139725 7:-1.7621188 8:-1.0800011 9:-0.21001975 10:-0.022364874 11:-0.43561388 12:-0.43658878 13:-0.71625974 14:-0.96866141 15:-0.10530481 16:1.6980679 
8192 0 0 0 0 0 0 0 0 0 0 8192 0 0 0 0 0 0 1:-0.73940783 2:-0.85114578 3:-0.85886682 4:-1.3088969 5:-0.52751163 6:0.48214449 7:-1.4229859 8:-1.6664172 9:-0.21001975 10:-0.022364874 11:-0.43561388 12:-0.43658878 13:1.4724637 14:1.3952857 15:-0.10530481 16:1.8120771 
8192 0 0 0 0 8192 2716.356514378301 0 0 4348.62309498378 0 0 0 8192 0 8192 0 0 1:-0.73940783 2:-0.85114578 3:-0.85886682 4:-1.0161412 5:-0.52751163 6:1.5783946 7:-1.4229859 8:-1.5529173 9:-0.21001975 10:-0.022364874 11:-0.43561388 12:-0.43658878 13:1.4724637 14:1.3952857 15:-0.10530481 16:-0.24008921 
8192 0 0 8192 8192 0 8192 0 8192 8192 0 0 0 0 0 0 0 0 1:-0.55441134 2:-0.85114578 3:0.77697438 4:-1.2601043 5:-1.0594338 6:0.66485284 7:1.4328699 8:-0.96650121 9:-0.21001975 10:-0.022364874 11:-0.43561388 12:1.0553848 13:-0.71625974 14:0.84975942 15:-0.10530481 16:-0.24008921 
8192 8192 0 6119.695514311031 8192 0 8192 8192 8192 1021.76289541165 362.2088832790666 6255.309516810282 8192 8192 0 0 0 0 1:-0.18441837 2:0.26434903 3:1.1933703 4:-0.57700745 5:1.600177 6:0.66485284 7:0.040640166 8:1.0575801 9:-0.21001975 10:-0.022364874 11:-0.43561388 12:1.0553848 13:-0.71625974 14:-0.42313516 15:-0.10530481 16:-0.69612616 
8192 8192 0 8192 0 0 8192 7147.658281908642 5412.264671054217 8192 7442.426235644168 0 4853.152229886885 8192 0 8192 0 0 1:-0.55441134 2:-0.29339837 3:-0.75476783 4:1.0331494 5:-0.88212639 6:0.66485284 7:1.1294352 8:-0.24766858 9:-0.21001975 10:-0.022364874 11:-0.43561388 12:1.0553848 13:1.4724637 14:-0.69589829 15:-0.10530481 16:-0.24008921 
8192 8192 0 8192 5208.386524252664 1289.6750146833 5207.596882608237 0 4.868593128406339 8192 0 8192 0 8192 0 0 0 0 1:0.55556757 2:1.7516754 3:0.33083587 4:0.39884522 5:0.0044105211 6:0.66485284 7:-0.3877382 8:1.5304963 9:-0.21001975 10:-0.022364874 11:-2.3388968 12:-0.43658878 13:-0.71625974 14:-0.96866141 15:-0.10530481 16:-0.92414464 
8192 0 4617.992646349625 8192 8192 8192 8192 0 0 8192 8192 8192 0 8192 0 4710.483251043833 0 0 1:0.00057811402 2:0.45026483 3:1.1338852 4:-1.1625191 5:-1.0594338 6:0.66485284 7:0.27267845 8:1.5304963 9:-0.21001975 10:-0.022364874 11:-0.43561388 12:-0.43658878 13:-0.71625974 14:-0.96866141 15:-0.10530481 16:-0.24008921 
8192 8192 0 8192 8192 8192 8192 8192 0 8192 8192 0 8058.368172785072 0 0 0 0 0 1:-0.73940783 2:-0.10748257 3:-0.73989655 4:1.1144705 5:-1.0594338 6:0.84756119 7:0.52256583 8:1.549413 9:-0.21001975 10:-0.022364874 11:-0.43561388 12:-0.43658878 13:1.4724637 14:1.3952857 15:-0.10530481 16:-1.0381539 
8192 3144.723903657308 0 8192 8192 8192 8192 8192 0 8192 8192 0 0 0 0 0 0 0 1:-0.73940783 2:-0.10748257 3:-0.84399553 4:0.95182839 5:-1.4140485 6:0.29943614 7:1.1115861 8:1.492663 9:-0.21001975 10:-0.022364874 11:-0.43561388 12:-0.43658878 13:1.4724637 14:1.3952857 15:-0.10530481 16:-1.0381539 
8192 0 0 0 8192 0 8192 846.6101548478476 0 8192 7363.859859134669 0 8192 0 0 0 0 0 1:-0.73940783 2:-0.10748257 3:-0.27888676 4:-0.44689376 5:-1.4140485 6:0.66485284 7:0.094187462 8:-0.96650121 9:-0.21001975 10:-0.022364874 11:-0.43561388 12:1.0553848 13:1.4724637 14:1.3952857 15:-0.10530481 16:-0.69612616 
8192 8192 0 8192 8192 8192 8192 8192 0 8192 8192 8192 0 2794.224310376574 8192 0 3070.819247942847 0 1:-0.55441134 2:-0.66522998 3:1.2974693 4:0.91929997 5:1.600177 6:-1.1622306 7:0.73675501 8:0.26308092 9:-0.21001975 10:-0.022364874 11:-0.43561388 12:-0.43658878 13:-0.71625974 14:-0.42313516 15:-0.10530481 16:1.3560401 
8192 8192 937.7787610341118 0 8192 1082.24678000268 7795.403789037285 8192 8192 0 0 871.3784816065998 0 8192 3029.413044804097 0 1980.58645716658 0 1:0.37057109 2:0.078433229 3:0.95542978 4:-0.99987694 5:1.0682548 6:0.66485284 7:-1.6550242 8:1.0575801 9:-0.21001975 10:-0.022364874 11:-0.43561388 12:1.0553848 13:-0.71625974 14:-0.96866141 15:-0.10530481 16:-0.46810768 
8192 8192 0 8192 8192 734.8609507731403 8192 8192 0 8192 8192 8192 8192 8192 0 8192 1773.57614738131 0 1:-0.55441134 2:0.82209644 3:-1.2306489 4:0.17114626 5:-0.17289686 6:0.84756119 7:0.98664239 8:-0.58816825 9:-0.21001975 10:-0.022364874 11:-0.43561388 12:-0.43658878 13:-0.71625974 14:-0.69589829 15:-0.10530481 16:-1.0381539 
8192 0 0 8192 8192 8192 0 0 0 8192 8192 8192 8192 8192 0 0 0 0 1:1.48055 2:1.7516754 3:1.2082416 4:-1.2601043 5:-1.5913559 6:-1.5276473 7:0.915246 8:-1.3070009 9:-0.21001975 10:-0.022364874 11:-0.43561388 12:-0.43658878 13:-0.71625974 14:-0.69589829 15:-0.10530481 16:1.8120771 
8192 0 0 3423.760429670565 8192 0 0 5018.02745703837 0 0 0 8192 0 0 0 8192 0 0 1:1.2955535 2:0.63618063 3:0.18212303 4:-1.2601043 5:-1.4140485 6:-1.5276473 7:-0.90536206 8:-1.3070009 9:-0.21001975 10:-0.022364874 11:-0.43561388 12:-0.43658878 13:-0.71625974 14:-0.96866141 15:-0.10530481 16:-0.24008921 
8192 0 0 8192 8192 8192 8192 7858.33643885347 0 8192 8192 8192 8192 8192 0 0 1315.966817696215 0 1:-0.73940783 2:-0.47931418 3:0.82158823 4:-1.1137264 5:-1.4140485 6:-0.065980552 7:0.094187462 8:0.58466394 9:-0.21001975 10:-0.022364874 11:-0.43561388 12:-0.43658878 13:1.4724637 14:1.3952857 15:-0.10530481 16:2.1541048 
8192 6173.02268700381 0 8192 3742.754587425909 0 8192 0 0 0 0 8192 0 0 0 0 378.066669544229 0 1:-0.18441837 2:-0.29339837 3:-0.11530264 4:1.5048116 5:0.0044105211 6:-1.5276473 7:1.0044915 8:1.6061629 9:-0.21001975 10:-0.022364874 11:-0.43561388 12:-0.43658878 13:-0.71625974 14:0.21331213 15:-0.10530481 16:1.0140124 
8192 8192 830.5976956008443 8192 8192 8192 8192 8192 0 8192 8192 0 8192 0 0 0 0 0 1:-0.73940783 2:0.45026483 3:1.178499 4:-0.52821482 5:1.600177 6:0.66485284 7:1.0758879 8:-0.24766858 9:-0.21001975 10:-0.022364874 11:-0.43561388 12:1.0553848 13:1.4724637 14:1.3952857 15:-0.10530481 16:-1.0381539 
8192 0 0 84.4521311019258 878.1464078515672 3780.049659216763 0 8192 8192 0 0 0 0 0 0 0 7656.797886424859 0 1:-0.73940783 2:-0.85114578 3:0.2118656 4:-1.1137264 5:1.2455622 6:0.66485284 7:-1.6371751 8:-0.96650121 9:-0.21001975 10:-0.022364874 11:-0.43561388 12:1.0553848 13:1.4724637 14:1.3952857 15:-0.10530481 16:1.6980679 
8192 4389.576950837898 0 8192 2358.648168571417 0 8192 8192 2283.112441715765 8192 8192 0 8192 0 0 0 0 0 1:-0.73940783 2:-0.10748257 3:-0.39785703 4:-1.2113117 5:-0.17289686 6:0.66485284 7:0.98664239 8:-0.68275149 9:-0.21001975 10:-0.022364874 11:-0.43561388 12:1.0553848 13:1.4724637 14:1.3952857 15:-0.10530481 16:1.8120771 
8192 0 0 8192 8192 0 8192 0 8192 0 5475.316785163016 0 0 2567.326876926707 0 1658.437494116167 0 0 1:-0.55441134 2:-1.0370616 3:-0.36811446 4:0.20367468 5:-0.88212639 6:0.66485284 7:1.1294352 8:-0.68275149 9:-0.21001975 10:-0.022364874 11:-0.43561388 12:1.0553848 13:-0.71625974 14:-0.96866141 15:-0.10530481 16:-0.69612616 
8192 0 0 8192 8192 0 8192 0 8192 8192 8192 0 6150.679785965891 0 0 0 0 0 1:-0.73940783 2:-1.0370616 3:-0.97783708 4:-1.1625191 5:-0.52751163 6:0.66485284 7:0.54041493 8:1.0575801 9:-0.21001975 10:-0.022364874 11:-0.43561388 12:1.0553848 13:1.4724637 14:1.3952857 15:-0.10530481 16:-1.0381539 
8192 8192 6449.692813683174 8192 8192 323.9472130962237 8192 8192 0 8192 8192 8192 0 8192 8192 0 8192 0 1:-0.36941486 2:-0.66522998 3:1.0000436 4:0.17114626 5:0.53633267 6:0.84756119 7:0.64750952 8:1.22783 9:-0.21001975 10:-0.022364874 11:-0.43561388 12:-0.43658878 13:-0.71625974 14:-0.96866141 15:-0.10530481 16:-0.24008921 
8192 0 0 7475.568124193545 8192 8192 0 0 8192 8192 0 3493.880250338459 0 3561.171561804755 8192 0 0 0 1:1.48055 2:0.82209644 3:0.063152765 4:-1.2438401 5:1.2455622 6:-1.5276473 7:-1.6371751 8:0.24416427 9:-0.21001975 10:-0.022364874 11:-0.43561388 12:-0.43658878 13:-0.71625974 14:0.12239109 15:-0.10530481 16:-1.0381539 
8192 8192 1880.446323677234 8192 8192 8192 8192 8192 0 8192 3917.035679364043 8192 891.3600356819837 8192 6703.889215594197 0 8192 0 1:-0.55441134 2:-0.29339837 3:0.77697438 4:-0.23545902 5:1.600177 6:0.48214449 7:-1.6014769 8:0.64141388 9:-0.21001975 10:-0.022364874 11:-0.43561388 12:-0.43658878 13:-0.71625974 14:-0.69589829 15:-0.10530481 16:1.0140124 
8192 0 0 8192 0 4436.394943800755 0 8192 5798.328293585298 8192 8192 8192 0 8192 1595.464144958079 2744.564003975907 3153.065231511682 0 1:-0.73940783 2:-1.4088932 3:-0.82912425 4:-1.4390106 5:-1.4140485 6:-0.2486889 7:0.25482935 8:1.0008302 9:-0.21001975 10:-0.022364874 11:-0.43561388 12:-0.43658878 13:1.4724637 14:1.3952857 15:-0.10530481 16:2.0400956 
8192 8192 8192 8192 0 8192 8192 8192 8192 8192 8192 8192 0 0 8192 2851.96585183739 8192 0 1:-0.73940783 2:-1.4088932 3:-0.39785703 4:1.6511895 5:1.600177 6:0.29943614 7:1.0758879 8:0.62249723 9:-0.21001975 10:-0.022364874 11:-0.43561388 12:-0.43658878 13:1.4724637 14:1.3952857 15:-0.10530481 16:1.5840586 
8192 0 0 0 0 0 8192 0 8192 0 0 0 0 0 0 0 0 0 1:-0.73940783 2:-1.0370616 3:-0.73989655 4:-0.52821482 5:0.0044105211 6:0.66485284 7:-0.3877382 8:-0.96650121 9:-0.21001975 10:-0.022364874 11:-0.43561388 12:1.0553848 13:1.4724637 14:1.3952857 15:-0.10530481 16:-0.24008921 
8192 8192 0 8192 8192 8192 8192 8192 0 8192 8192 8192 8192 0 0 0 0 0 1:-0.73940783 2:-0.85114578 3:1.3123406 4:0.2362031 5:0.89094744 6:-0.6141056 7:0.34407484 8:1.17108 9:-0.21001975 10:-0.022364874 11:-0.43561388 12:-0.43658878 13:1.4724637 14:1.3952857 15:-0.10530481 16:-0.69612616 
8192 0 0 8192 8192 0 0 4883.788538384238 8192 8192 0 8192 0 8192 2385.132312907697 4058.393573097727 0 0 1:0.37057109 2:-0.10748257 3:1.3123406 4:-1.0974622 5:-1.4140485 6:-0.065980552 7:-1.1909476 8:1.6629129 9:-0.21001975 10:-0.022364874 11:-0.43561388 12:-0.43658878 13:-0.71625974 14:-0.96866141 15:-0.10530481 16:1.6980679 
8192 8192 0 8192 8192 6387.586270765539 8192 8192 0 8192 8192 3019.967041917732 4956.913274105783 0 0 0 0 0 1:-0.73940783 2:-0.29339837 3:0.76210309 4:1.6349253 5:0.71364005 6:0.66485284 7:0.66535862 8:-0.96650121 9:-0.21001975 10:-0.022364874 11:1.4676691 12:1.0553848 13:1.4724637 14:1.3952857 15:-0.10530481 16:1.0140124 
8192 0 0 0 0 0 0 0 8192 0 0 0 0 0 0 0 388.7251139677512 0 1:1.2955535 2:0.63618063 3:-0.65066885 4:-0.98361273 5:0.53633267 6:-0.2486889 7:-1.7085715 8:1.4548297 9:-0.21001975 10:-0.022364874 11:-0.43561388 12:2.5473585 13:-0.71625974 14:-0.96866141 15:-0.10530481 16:-0.69612616 
8192 0 0 8192 8192 8192 8192 8192 8192 8192 8192 0 4060.169153239445 4493.637748219834 0 8192 0 0 1:-0.55441134 2:0.26434903 3:-0.88860938 4:-0.60953587 5:-1.4140485 6:0.66485284 7:-0.79826747 8:-0.96650121 9:-0.21001975 10:-0.022364874 11:-0.43561388 12:1.0553848 13:-0.71625974 14:-0.42313516 15:-0.10530481 16:-0.24008921 
8192 8192 1332.107588507081 0 0 0 0 8192 0 1270.251514601458 0 8192 0 0 0 0 0 0 1:-0.73940783 2:-1.4088932 3:-0.84399553 4:0.28499574 5:0.53633267 6:-1.5276473 7:-1.0124566 8:1.1332467 9:-0.21001975 10:-0.022364874 11:-0.43561388 12:-0.43658878 13:1.4724637 14:1.3952857 15:-0.10530481 16:2.0400956 
8192 8192 8192 8192 8192 8192 8192 8192 0 8192 8192 8192 0 8192 0 0 0 0 1:-0.36941486 2:-0.66522998 3:1.178499 4:-1.1137264 5:0.53633267 6:-0.43139725 7:0.64750952 8:-0.43683506 9:-0.21001975 10:-0.022364874 11:-0.43561388 12:-0.43658878 13:-0.71625974 14:-0.96866141 15:-0.10530481 16:-0.24008921 
8192 0 0 6424.206529182517 8192 1460.02299542099 0 0 0 8192 0 0 0 7785.407959841109 0 0 0 0 1:-0.55441134 2:-0.66522998 3:0.3010933 4:-1.2601043 5:-1.4140485 6:0.66485284 7:0.25482935 8:-0.96650121 9:-0.21001975 10:-0.022364874 11:-0.43561388 12:1.0553848 13:-0.71625974 14:0.75883838 15:-0.10530481 16:1.8120771 
8192 0 0 8192 0 968.4042469929618 0 0 2283.392531094295 0 8192 8192 0 8192 2825.011764372354 8192 0 0 1:0.92556054 2:0.26434903 3:-0.82912425 4:-1.4390106 5:-1.4140485 6:-0.2486889 7:0.25482935 8:1.0008302 9:-0.21001975 10:-0.022364874 11:-0.43561388 12:-0.43658878 13:-0.71625974 14:-0.96866141 15:-0.10530481 16:1.3560401 
8192 8192 0 8192 8192 8192 8192 8192 0 8192 8192 8192 8192 8192 0 0 5744.473823534236 0 1:-0.36941486 2:-0.10748257 3:-0.73989655 4:1.0168852 5:0.89094744 6:-0.065980552 7:0.34407484 8:0.58466394 9:-0.21001975 10:-0.022364874 11:-0.43561388 12:-0.43658878 13:-0.71625974 14:-1.0595825 15:-0.10530481 16:-0.24008921 
8192 0 3676.28346580507 0 8192 8192 8192 8192 0 2679.265333457924 3182.55946812728 0 0 5965.309544043162 8192 0 0 0 1:0.92556054 2:0.26434903 3:0.3010933 4:1.5536042 5:0.53633267 6:-1.5276473 7:-1.0124566 8:-1.4394174 9:-0.21001975 10:-0.022364874 11:-0.43561388 12:-0.43658878 13:-0.71625974 14:0.12239109 15:-0.10530481 16:0.55797547 
8192 8192 0 8192 8192 8192 8192 8192 0 8192 0 8192 5458.572446977793 0 0 0 0 0 1:-0.36941486 2:0.078433229 3:1.178499 4:1.6349253 5:0.89094744 6:-1.5276473 7:0.34407484 8:0.9251636 9:-0.21001975 10:-0.022364874 11:-0.43561388 12:-0.43658878 13:-0.71625974 14:-0.69589829 15:-0.10530481 16:-0.92414464 
8192 1011.041140718269 0 8192 8192 8192 5283.782569620304 0 0 8192 0 8192 0 0 8192 526.1393505782515 5473.836520247881 0 1:-0.73940783 2:-0.85114578 3:0.33083587 4:1.3584337 5:-1.4140485 6:-1.5276473 7:1.647059 8:-0.15308534 9:-0.21001975 10:-0.022364874 11:-0.43561388 12:-0.43658878 13:1.4724637 14:1.3952857 15:-0.10530481 16:-0.24008921 
8192 0 0 8192 8192 8192 0 979.0839544031926 0 8192 0 0 0 0 2454.515983906495 0 0 0 1:-0.55441134 2:-0.85114578 3:-0.88860938 4:-1.0161412 5:0.53633267 6:-0.2486889 7:-1.0124566 8:-0.72058478 9:-0.21001975 10:-0.022364874 11:-0.43561388 12:-0.43658878 13:-0.71625974 14:-0.42313516 15:-0.10530481 16:-0.24008921 
8192 8192 8192 8192 8192 8192 8192 8192 0 8192 8192 8192 8192 0 0 0 0 0 1:-0.73940783 2:-0.85114578 3:-0.33837189 4:-0.46315797 5:0.71364005 6:-1.5276473 7:1.2186807 8:1.2845799 9:-0.21001975 10:-0.022364874 11:-0.43561388 12:-0.43658878 13:1.4724637 14:1.3952857 15:-0.10530481 16:-0.24008921 
8192 8192 0 0 0 0 8192 8192 8192 0 0 0 0 8192 8192 0 0 0 1:0.1855746 2:-0.47931418 3:-0.9629658 4:1.1795273 5:-0.17289686 6:-0.6141056 7:0.57611312 8:-1.4015841 9:-0.21001975 10:-0.022364874 11:-0.43561388 12:-0.43658878 13:-0.71625974 14:-0.96866141 15:-0.10530481 16:-0.24008921 
8192 1762.706827298965 8192 8192 8192 8192 0 0 0 8192 8192 8192 8192 0 3440.026241130043 0 0 0 1:-0.73940783 2:-0.47931418 3:0.85133079 4:-1.1625191 5:-1.0594338 6:-0.065980552 7:1.4328699 8:-0.41791841 9:-0.21001975 10:-0.022364874 11:-0.43561388 12:-0.43658878 13:1.4724637 14:1.3952857 15:-0.10530481 16:-1.0381539 
8192 8192 0 0 8192 0 8192 0 8192 0 0 0 0 0 0 0 0 0 1:-0.73940783 2:-1.0370616 3:-0.39785703 4:1.3584337 5:-0.17289686 6:0.66485284 7:0.98664239 8:-0.96650121 9:-0.21001975 10:-0.022364874 11:-0.43561388 12:1.0553848 13:1.4724637 14:1.3952857 15:-0.10530481 16:-0.69612616 
8192 8192 0 8192 8192 3579.098073064397 8192 8192 8192 8192 8192 8192 8192 8192 0 8192 8161.561950289841 0 1:0.00057811402 2:-0.29339837 3:-1.0075797 4:1.2445842 5:0.71364005 6:0.66485284 7:-1.2801931 8:-0.039585451 9:-0.21001975 10:-0.022364874 11:1.4676691 12:1.0553848 13:-0.71625974 14:-0.69589829 15:-0.10530481 16:-0.69612616 
8192 0 0 2677.579039813216 0 8192 0 0 0 0 0 8192 0 0 0 0 0 0 1:-0.73940783 2:-0.66522998 3:-0.73989655 4:-1.3088969 5:0.71364005 6:0.48214449 7:-0.20924721 8:-1.6664172 9:-0.21001975 10:-0.022364874 11:-0.43561388 12:-0.43658878 13:1.4724637 14:1.3952857 15:-0.10530481 16:1.8120771 
8192 0 8192 8192 8192 0 0 8192 0 0 0 8192 0 0 2833.223777911212 3162.806873600889 0 0 1:0.37057109 2:-0.29339837 3:0.18212303 4:-1.2601043 5:-1.4140485 6:-1.5276473 7:-0.90536206 8:-1.3070009 9:-0.21001975 10:-0.022364874 11:-0.43561388 12:-0.43658878 13:-0.71625974 14:-0.96866141 15:-0.10530481 16:-0.69612616 
8192 0 0 0 0 0 7127.858357290289 0 686.9440399363508 0 0 0 0 8192 0 2724.474983683023 0 0 1:-0.73940783 2:-0.66522998 3:1.5651524 4:-0.54447903 5:-1.5913559 6:0.66485284 7:0.23698025 8:1.0575801 9:-0.21001975 10:-0.022364874 11:-0.43561388 12:1.0553848 13:1.4724637 14:1.3952857 15:-0.10530481 16:-0.24008921 
8192 0 5672.242927898264 8192 8192 8192 8192 0 0 0 2191.663111487244 0 0 0 8192 8192 0 0 1:-0.36941486 2:-1.0370616 3:-0.9629658 4:-1.1950475 5:-1.4140485 6:-1.5276473 7:-0.24494541 8:-0.15308534 9:-0.21001975 10:-0.022364874 11:0.19881376 12:-0.43658878 13:-0.71625974 14:-0.96866141 15:-0.10530481 16:-0.24008921 
8192 8192 0 8192 8192 8192 8192 4248.571788767689 0 8192 8192 8192 0 8192 0 0 0 0 1:0.1855746 2:0.45026483 3:-0.73989655 4:-1.6016527 5:0.53633267 6:0.84756119 7:-1.0124566 8:0.35766416 9:-0.21001975 10:-0.022364874 11:-0.43561388 12:-0.43658878 13:-0.71625974 14:0.12239109 15:-0.10530481 16:-0.24008921 
8192 8192 2873.010171639406 7945.327909359472 0 6866.426465004107 8192 8192 5511.534958719459 8192 0 2238.605600130541 0 4011.582926230649 8192 0 0 0 1:-0.55441134 2:-1.2229774 3:1.0297862 4:-0.34930849 5:0.53633267 6:-1.5276473 7:-1.0124566 8:1.2845799 9:-0.21001975 10:-0.022364874 11:-0.43561388 12:-0.43658878 13:1.4724637 14:-0.33221412 15:-0.10530481 16:1.8120771 
8192 8192 0 3998.4805195589 8192 0 8192 4712.339707745688 0 8192 4446.443409547735 0 0 0 0 7146.277055081681 0 0 1:-0.73940783 2:-0.85114578 3:0.91081593 4:1.5536042 5:0.53633267 6:1.5783946 7:-1.0124566 8:1.0954134 9:-0.21001975 10:-0.022364874 11:-0.43561388 12:-0.43658878 13:1.4724637 14:1.3952857 15:-0.10530481 16:-0.24008921 
8192 8192 4826.645389400534 8192 6505.027062803475 1408.908838814302 8192 8192 2552.92269931279 8192 8192 0 3944.469155256663 8192 8192 0 0 0 1:-0.18441837 2:-0.66522998 3:-0.91835195 4:1.0168852 5:0.53633267 6:0.66485284 7:-1.7085715 8:1.3413299 9:-0.21001975 10:-0.022364874 11:-0.43561388 12:-0.43658878 13:-0.71625974 14:-0.78681933 15:-0.10530481 16:0.55797547 
8192 8192 8192 8192 8192 8192 8192 8192 0 8192 8192 8192 4865.479491491159 8192 8192 1231.769658229743 8192 0 1:-0.55441134 2:-0.47931418 3:0.2118656 4:-1.1137264 5:0.89094744 6:0.66485284 7:1.5756626 8:1.7953294 9:-0.21001975 10:-0.022364874 11:-0.43561388 12:-0.43658878 13:-0.71625974 14:-0.42313516 15:-0.10530481 16:0.55797547 
8192 0 0 2266.391195014796 8192 1546.77254249107 8192 0 0 8192 0 0 8192 1134.514768864879 0 0 0 0 1:-0.73940783 2:-0.47931418 3:-0.76963911 4:0.70786523 5:-1.4140485 6:0.66485284 7:-1.4586841 8:1.3413299 9:-0.21001975 10:-0.022364874 11:-0.43561388 12:1.0553848 13:1.4724637 14:1.3952857 15:-0.10530481 16:-0.24008921 
8192 8192 0 8192 560.4464633424481 1468.512369493296 0 8192 5640.097919758336 8192 5190.199934893076 8192 0 8192 8192 6222.374126848383 8192 0 1:1.48055 2:0.82209644 3:-1.2306489 4:-1.1137264 5:-0.17289686 6:0.48214449 7:1.4685681 8:-0.98541786 9:-0.21001975 10:-0.022364874 11:-0.43561388 12:-0.43658878 13:-0.71625974 14:-0.69589829 15:-0.10530481 16:2.1541048 
8192 0 0 8192 8192 3873.098679932763 335.2065970313247 8192 8192 3549.427884597143 0 0 0 8192 0 0 5914.25146750566 0 1:0.74056406 2:0.078433229 3:-1.0224509 4:-1.2113117 5:1.600177 6:0.66485284 7:0.040640166 8:0.33874751 9:-0.21001975 10:-0.022364874 11:-0.43561388 12:1.0553848 13:-0.71625974 14:0.12239109 15:-0.10530481 16:-1.0381539 
8192 0 0 8192 0 2057.969984522401 8192 0 2641.647946089355 0 0 8192 219.3600476074465 8192 8192 8192 0 0 1:0.1855746 2:-0.10748257 3:-0.91835195 4:1.6349253 5:-1.4140485 6:-0.6141056 7:-0.13785082 8:-1.4015841 9:-0.21001975 10:-0.022364874 11:-0.43561388 12:-0.43658878 13:-0.71625974 14:-0.96866141 15:-0.10530481 16:0.55797547 
8192 0 0 0 0 0 0 0 0 0 0 0 0 0 0 0 0 0 1:-0.73940783 2:-0.10748257 3:-0.35324317 4:-1.3088969 5:0.89094744 6:0.66485284 7:-1.6728733 8:0.16849768 9:-0.21001975 10:-0.022364874 11:-2.3388968 12:1.0553848 13:1.4724637 14:1.3952857 15:-0.10530481 16:0.32995699 
8192 915.2576422933183 0 0 8192 0 8192 0 8192 0 0 0 0 140.3914691926268 0 8192 0 0 1:-0.18441837 2:-0.85114578 3:-0.97783708 4:1.2933768 5:-0.52751163 6:0.66485284 7:0.54041493 8:-0.96650121 9:-0.21001975 10:-0.022364874 11:-0.43561388 12:1.0553848 13:-0.71625974 14:-0.96866141 15:-0.10530481 16:-0.69612616 
8192 8192 0 0 8192 8192 8192 8192 0 8192 8192 0 0 0 0 4333.262773374382 0 0 1:-0.73940783 2:-1.0370616 3:-0.81425297 4:1.1795273 5:0.53633267 6:-0.43139725 7:-1.0124566 8:-0.43683506 9:-0.21001975 10:-0.022364874 11:-0.43561388 12:-0.43658878 13:1.4724637 14:1.3952857 15:-0.10530481 16:-0.24008921 
8192 0 0 6049.3168047974 0 0 8192 0 8192 0 0 0 0 0 0 0 8192 0 1:-0.55441134 2:-0.66522998 3:-0.32350061 4:0.70786523 5:0.53633267 6:0.66485284 7:-1.0124566 8:1.3413299 9:-0.21001975 10:-0.022364874 11:-0.43561388 12:1.0553848 13:-0.71625974 14:-0.42313516 15:-0.10530481 16:1.3560401 
8192 8192 0 8192 8192 8192 8192 8192 0 8192 8192 8192 0 0 0 0 0 0 1:-0.36941486 2:-0.66522998 3:0.34570715 4:-1.1137264 5:0.53633267 6:-0.43139725 7:0.64750952 8:-0.43683506 9:-0.21001975 10:-0.022364874 11:-0.43561388 12:-0.43658878 13:-0.71625974 14:-0.42313516 15:-0.10530481 16:-0.24008921 
8192 0 0 0 0 6292.369553348685 6018.580422167838 0 8192 6257.676890180449 2123.020287886477 8192 6445.496765514668 4332.839530853604 0 8192 0 0 1:0.37057109 2:0.26434903 3:-1.1562925 4:1.53734 5:-2.1232781 6:0.66485284 7:-1.2444949 8:-0.96650121 9:-0.21001975 10:-0.022364874 11:-0.43561388 12:1.0553848 13:-0.71625974 14:-0.96866141 15:-0.10530481 16:2.0400956 
8192 0 0 0 8192 0 8192 3318.038354463044 8192 727.4632854775958 8176.032057714605 0 4274.346252196929 0 8192 0 0 0 1:-0.36941486 2:-0.85114578 3:-0.36811446 4:0.20367468 5:-0.88212639 6:0.66485284 7:1.1294352 8:-0.68275149 9:-0.21001975 10:-0.022364874 11:-0.43561388 12:1.0553848 13:-0.71625974 14:0.94068046 15:-0.10530481 16:-0.69612616 
8192 0 0 0 8192 0 0 0 8192 0 0 0 0 0 0 0 0 0 1:1.110557 2:0.45026483 3:-0.14504521 4:-1.1137264 5:-1.4140485 6:0.66485284 7:0.25482935 8:-1.2691676 9:-0.21001975 10:-0.022364874 11:-0.43561388 12:1.0553848 13:-0.71625974 14:0.12239109 15:-0.10530481 16:-0.24008921 
8192 0 0 0 0 0 0 0 8192 0 0 0 0 0 0 0 0 0 1:-0.73940783 2:-1.0370616 3:1.2379842 4:0.90303576 5:-1.4140485 6:0.66485284 7:-0.13785082 8:1.3413299 9:-0.21001975 10:-0.022364874 11:-0.43561388 12:1.0553848 13:1.4724637 14:1.3952857 15:-0.10530481 16:-0.24008921 
8192 5415.257776900476 0 8192 7898.240735851526 8192 0 8192 0 7751.248926928206 0 0 0 8192 0 0 6314.619520176747 0 1:1.2955535 2:2.123507 3:-0.91835195 4:-1.2438401 5:0.0044105211 6:1.5783946 7:-1.7442697 8:-1.2502509 9:-0.21001975 10:-0.022364874 11:-1.0700415 12:-0.43658878 13:-0.71625974 14:-0.42313516 15:-0.10530481 16:-0.69612616 
8192 8192 0 8192 8192 8192 8192 8192 0 8192 0 0 2218.247931101828 0 0 0 0 0 1:-0.73940783 2:-0.10748257 3:0.40519229 4:1.6511895 5:0.53633267 6:0.66485284 7:-1.0124566 8:-1.2691676 9:-0.21001975 10:-0.022364874 11:-0.43561388 12:1.0553848 13:1.4724637 14:1.3952857 15:-0.10530481 16:-0.24008921 
8192 8192 0 8192 8192 8192 8192 8192 0 8192 8192 8192 2637.062268295361 0 0 0 0 0 1:-0.73940783 2:0.078433229 3:0.33083587 4:1.309641 5:-0.35020424 6:-0.43139725 7:-0.066454425 8:0.54683064 9:-0.21001975 10:-0.022364874 11:-0.43561388 12:-0.43658878 13:1.4724637 14:1.3952857 15:-0.10530481 16:-0.24008921 
8192 8192 0 0 8192 0 8192 0 8192 8192 0 0 8192 3693.968866481052 0 0 0 0 1:-0.36941486 2:-0.10748257 3:1.2231129 4:0.70786523 5:-0.17289686 6:0.66485284 7:-1.083853 8:1.3413299 9:-0.21001975 10:-0.022364874 11:-0.43561388 12:1.0553848 13:-0.71625974 14:-0.42313516 15:-0.10530481 16:-0.69612616 
8192 0 0 8192 0 8192 0 0 0 8192 0 8192 0 3375.816867966445 0 0 0 0 1:-0.73940783 2:-0.29339837 3:0.3010933 4:0.83797892 5:-1.4140485 6:0.29943614 7:0.25482935 8:0.14958103 9:-0.21001975 10:-0.022364874 11:-0.43561388 12:-0.43658878 13:1.4724637 14:1.3952857 15:-0.10530481 16:2.1541048 
8192 0 0 8192 0 0 8192 8192 8192 0 0 8192 0 0 0 8192 0 0 1:0.1855746 2:-0.10748257 3:-0.9629658 4:1.0331494 5:-1.4140485 6:0.66485284 7:-1.3158913 8:-0.039585451 9:-0.21001975 10:-0.022364874 11:-0.43561388 12:1.0553848 13:-0.71625974 14:-0.96866141 15:-0.10530481 16:-0.24008921 
8192 8192 0 8192 8192 8192 8192 8192 7141.693453327577 8192 4021.28505540094 8192 0 0 0 0 964.3843433840181 0 1:-0.36941486 2:-0.29339837 3:1.0000436 4:-1.2601043 5:1.2455622 6:-1.5276473 7:-1.6371751 8:-1.3070009 9:-0.21001975 10:-0.022364874 11:-0.43561388 12:-0.43658878 13:-0.71625974 14:-0.96866141 15:-0.10530481 16:1.0140124 
8192 8192 1759.367805815046 8192 8192 0 8192 8192 0 8192 8192 8192 8192 6962.255438787268 0 8192 263.5561302239626 0 1:-0.73940783 2:-0.85114578 3:-0.97783708 4:0.0085041494 5:0.71364005 6:-2.0757724 7:1.3436244 8:-0.5314183 9:-0.21001975 10:-0.022364874 11:1.4676691 12:-0.43658878 13:1.4724637 14:1.3952857 15:-0.10530481 16:0.78599394 
8192 0 0 0 0 8192 0 0 0 0 8192 0 0 278.8588151965178 0 8192 0 0 1:-0.73940783 2:-1.4088932 3:-1.1860351 4:-1.2601043 5:-1.4140485 6:-0.2486889 7:-0.13785082 8:0.56574729 9:-0.21001975 10:-0.022364874 11:-0.43561388 12:-0.43658878 13:1.4724637 14:1.3952857 15:-0.10530481 16:0.32995699 
8192 8192 0 8192 5820.669880610268 8192 237.3406110619081 3502.865271469988 313.3853634199596 8192 8192 0 0 0 8192 0 0 0 1:-0.92440431 2:-1.2229774 3:-1.6321736 4:-1.1299906 5:0.71364005 6:-1.7103557 7:-0.69117288 8:0.90624695 9:4.7608618 10:-0.022364874 11:0.19881376 12:-0.43658878 13:0.37810197 14:-0.059450996 15:-0.10530481 16:0.32995699 
8192 8192 4877.799603111316 3578.887550716338 8192 8192 0 0 0 8192 0 0 8192 1758.197523344312 0 0 0 0 1:-0.73940783 2:1.0080122 3:1.0446575 4:-1.4878033 5:0.35902529 6:0.48214449 7:-0.35204 8:0.64141388 9:-0.21001975 10:-0.022364874 11:-0.43561388 12:-0.43658878 13:1.4724637 14:1.3952857 15:-0.10530481 16:-1.0381539 
8192 8192 0 0 0 118.9263152947706 8192 8192 0 0 0 8192 0 3827.656858293627 8192 8192 8192 0 1:-0.73940783 2:-1.0370616 3:-1.2306489 4:1.1307347 5:-0.17289686 6:0.48214449 7:0.98664239 8:-0.98541786 9:-0.21001975 10:-0.022364874 11:-0.43561388 12:-1.9285624 13:1.4724637 14:1.3952857 15:-0.10530481 16:1.8120771 
8192 2561.436342684089 0 8192 8192 8192 8192 8192 0 8192 7298.129284090123 8192 0 8192 0 0 0 0 1:-0.55441134 2:-0.47931418 3:1.1636277 4:-1.2926327 5:-1.5913559 6:-0.6141056 7:-0.49483279 8:-1.7610004 9:-0.21001975 10:-0.022364874 11:-0.43561388 12:-0.43658878 13:-0.71625974 14:-0.69589829 15:-0.10530481 16:-0.24008921 
8192 0 0 8192 1446.32708829652 1921.528812019048 8192 0 0 6352.063816538313 8192 0 2684.8166058184 0 1893.143765982336 697.9551426011867 0 0 1:-0.73940783 2:-1.0370616 3:-0.11530264 4:0.39884522 5:-1.4140485 6:-1.5276473 7:1.1115861 8:-0.15308534 9:-0.21001975 10:-0.022364874 11:-0.43561388 12:2.5473585 13:1.4724637 14:1.3952857 15:-0.10530481 16:-0.24008921 
8192 5633.977119125861 0 8192 8192 8192 8192 8192 0 8192 8192 2827.172424689039 2997.819030987558 8192 0 0 8192 0 1:0.55556757 2:-0.10748257 3:0.71748924 4:0.78918628 5:0.71364005 6:0.84756119 7:1.3436244 8:-0.94758456 9:-0.21001975 10:-0.022364874 11:1.4676691 12:-0.43658878 13:-0.71625974 14:0.12239109 15:-0.10530481 16:-0.24008921 
8192 0 0 0 8192 0 8192 2770.116537325952 8192 8192 8192 7138.749612930141 0 0 0 0 0 0 1:-0.55441134 2:-0.85114578 3:0.3010933 4:1.1795273 5:-1.4140485 6:0.66485284 7:0.25482935 8:-0.96650121 9:-0.21001975 10:-0.022364874 11:-0.43561388 12:1.0553848 13:-0.71625974 14:-0.42313516 15:-0.10530481 16:-0.58211692 
8192 5273.459090340003 0 1576.239065248122 0 0 922.4105028414276 8192 0 0 0 8192 0 0 2237.489416764461 0 0 0 1:0.74056406 2:0.078433229 3:-0.73989655 4:0.10608942 5:0.53633267 6:-2.0757724 7:0.64750952 8:0.4144141 9:-0.21001975 10:-0.022364874 11:-0.43561388 12:-0.43658878 13:-0.71625974 14:-0.96866141 15:-0.10530481 16:-0.69612616 
8192 0 0 0 0 0 8192 2691.053533422029 0 0 0 0 0 0 0 0 0 0 1:-0.73940783 2:-0.66522998 3:-1.3198766 4:0.49643048 5:0.89094744 6:0.66485284 7:-1.3694386 8:-0.96650121 9:-0.21001975 10:-0.022364874 11:-0.43561388 12:1.0553848 13:1.4724637 14:1.3952857 15:-0.10530481 16:1.3560401 
8192 0 0 8192 0 0 8192 0 8192 8192 0 0 518.8658805653489 0 0 0 0 0 1:-0.55441134 2:0.26434903 3:-0.76963911 4:1.0819421 5:-1.4140485 6:0.66485284 7:-1.4586841 8:1.3413299 9:-0.21001975 10:-0.022364874 11:-0.43561388 12:1.0553848 13:-0.71625974 14:-0.42313516 15:-0.10530481 16:-0.24008921 
8192 8192 7797.564717781756 8192 8192 8192 8192 8192 0 8192 5030.295615403096 8192 0 8192 0 0 4975.249843065181 11.88391322731636 1:0.37057109 2:0.63618063 3:1.0297862 4:-0.52821482 5:-0.35020424 6:0.48214449 7:-1.7799679 8:-0.98541786 9:-0.21001975 10:-0.022364874 11:-0.43561388 12:-0.43658878 13:-0.71625974 14:-0.69589829 15:-0.10530481 16:-0.24008921 
8192 8192 8192 8192 8192 0 8192 8192 0 8192 0 8192 8192 8192 8192 0 5743.18418023527 0 1:0.74056406 2:0.078433229 3:0.73236052 4:0.78918628 5:-0.35020424 6:0.84756119 7:-0.4234364 8:0.35766416 9:-0.21001975 10:-0.022364874 11:-0.43561388 12:-0.43658878 13:-0.71625974 14:-0.69589829 15:-0.10530481 16:-1.0381539 
8192 8192 770.7163368280172 8192 8192 8192 8192 8192 0 8192 8192 8192 8192 8192 0 5531.744622753003 8192 0 1:-0.18441837 2:-0.47931418 3:0.078024048 4:1.7325105 5:0.71364005 6:0.48214449 7:0.32622574 8:-0.98541786 9:-0.21001975 10:-0.022364874 11:1.4676691 12:-0.43658878 13:-0.71625974 14:-0.78681933 15:-0.10530481 16:-0.46810768 
8192 0 0 0 2953.994296570414 8192 8192 0 0 8192 8192 0 0 590.2063483953908 0 0 8192 0 1:-0.73940783 2:-1.0370616 3:1.0595288 4:0.35005258 5:-1.4140485 6:0.66485284 7:1.2900771 8:1.6818295 9:-0.21001975 10:-0.022364874 11:-0.43561388 12:-0.43658878 13:1.4724637 14:1.3952857 15:-0.10530481 16:-0.69612616 
8192 5385.533734462989 0 8192 0 0 8192 0 8192 8192 0 8192 0 8192 0 4965.566032828538 0 0 1:-0.36941486 2:-0.29339837 3:1.5800237 4:1.2445842 5:0.35902529 6:0.66485284 7:0.62966042 8:-0.24766858 9:-0.21001975 10:-0.022364874 11:-0.43561388 12:1.0553848 13:-0.71625974 14:-0.96866141 15:-0.10530481 16:1.8120771 
8192 6687.08848456095 0 8192 8192 0 8192 7790.063114443054 8192 8192 8192 5380.465885890877 0 5491.552286592721 0 8192 0 0 1:0.55556757 2:0.63618063 3:-0.91835195 4:-1.3088969 5:-0.88212639 6:0.66485284 7:1.1294352 8:-0.039585451 9:-0.21001975 10:-0.022364874 11:-0.43561388 12:1.0553848 13:-0.71625974 14:-0.96866141 15:-0.10530481 16:-0.24008921 
8192 0 0 8192 8192 8192 8192 0 0 8192 3235.267002109594 8192 256.3189736107494 1607.160732496465 2243.875558039672 2272.839191311501 0 0 1:0.37057109 2:0.078433229 3:-0.94809452 4:1.309641 5:-1.0594338 6:-1.5276473 7:0.52256583 8:1.4169965 9:-0.21001975 10:-0.022364874 11:-0.43561388 12:-0.43658878 13:-0.71625974 14:0.75883838 15:-0.10530481 16:-0.24008921 
0 3441.685165552648 0 276.309841597979 0 0 0 5091.942005779298 8192 0 0 0 0 0 1830.903614455693 0 0 0 1:-0.73940783 2:-1.4088932 3:1.3123406 4:1.6349253 5:0.0044105211 6:0.66485284 7:-0.3877382 8:1.6818295 9:-0.21001975 10:-0.022364874 11:-0.43561388 12:1.0553848 13:1.4724637 14:1.3952857 15:-0.10530481 16:1.9260863 
8192 8192 0 8192 8192 8192 8192 8192 0 8192 8192 8192 8192 8192 5845.811705796832 0 0 131.0961926780871 1:-0.55441134 2:-0.66522998 3:0.77697438 4:-0.024024273 5:0.53633267 6:-0.6141056 7:-1.0124566 8:-1.4015841 9:-0.21001975 10:-0.022364874 11:-0.43561388 12:-0.43658878 13:-0.71625974 14:-0.42313516 15:-0.10530481 16:-0.69612616 
8192 1723.147953548601 0 8192 8192 8192 3553.229565065491 8192 0 8192 8192 8192 8192 8192 0 0 0 0 1:-0.73940783 2:0.63618063 3:0.36057844 4:-0.51195061 5:-1.7686633 6:-0.6141056 7:-0.51268189 8:-0.11525204 9:-0.21001975 10:-0.022364874 11:-0.43561388 12:-0.43658878 13:1.4724637 14:1.3952857 15:-0.10530481 16:-0.69612616 
0 0 5546.698542474832 0 0 8192 0 0 0 7291.299470426369 0 8192 1529.770981319931 8192 0 0 0 0 1:-0.73940783 2:-0.85114578 3:-0.51682729 4:1.3259052 5:-1.4140485 6:-0.6141056 7:-1.3158913 8:-1.4015841 9:-0.21001975 10:-0.022364874 11:-0.43561388 12:-0.43658878 13:1.4724637 14:1.3952857 15:-0.10530481 16:1.8120771 
8192 8192 0 8192 8192 0 0 8192 0 8192 8192 8192 0 0 3597.048565876994 0 0 0 1:1.110557 2:0.45026483 3:-0.73989655 4:0.10608942 5:0.53633267 6:-2.0757724 7:0.64750952 8:0.4144141 9:-0.21001975 10:-0.022364874 11:-0.43561388 12:-0.43658878 13:-0.71625974 14:-0.96866141 15:-0.10530481 16:-1.0381539 
8192 8192 0 8192 7314.333094353447 8192 8192 8192 0 8192 1155.023459586471 8192 8192 8192 8192 0 0 0 1:0.1855746 2:-0.10748257 3:-0.72502526 4:-1.2438401 5:0.71364005 6:-1.5276473 7:1.2186807 8:-1.4394174 9:-0.21001975 10:-0.022364874 11:-0.43561388 12:-0.43658878 13:-0.71625974 14:-0.96866141 15:-0.10530481 16:1.5840586 
8192 0 0 8192 5840.011300129694 3060.773790548437 0 0 8192 0 0 0 76.73150132424151 0 1078.39479998798 8192 0 0 1:2.4055324 2:1.9375912 3:-0.10043135 4:1.2608484 5:-1.9459707 6:-0.97952229 7:1.3793226 8:1.3034966 9:-0.21001975 10:-0.022364874 11:-0.43561388 12:1.0553848 13:-0.71625974 14:0.12239109 15:-0.10530481 16:-0.24008921 
8192 4856.250334399488 0 4037.213830760667 8192 8192 0 0 0 0 0 1245.059478820731 0 8192 0 0 0 0 1:0.00057811402 2:-0.47931418 3:-0.38298574 4:-1.5203317 5:-0.35020424 6:-0.6141056 7:-1.7799679 8:-1.4015841 9:-0.21001975 10:-0.022364874 11:-0.43561388 12:-2.6745492 13:-0.71625974 14:-0.42313516 15:-0.10530481 16:0.32995699 
8192 8192 0 8192 8192 0 8192 7476.919870581705 0 8192 8192 0 8192 8192 0 0 4568.157074911277 0 1:-0.73940783 2:0.078433229 3:-0.36811446 4:0.70786523 5:0.71364005 6:0.66485284 7:-0.69117288 8:1.3413299 9:-0.21001975 10:-0.022364874 11:1.4676691 12:1.0553848 13:1.4724637 14:1.3952857 15:-0.10530481 16:-1.0381539 
8192 669.4462826167545 0 8192 8192 1355.498366718095 8192 8192 0 0 8192 8192 0 0 6234.908636705295 0 0 0 1:0.00057811402 2:-0.66522998 3:1.2528554 4:-0.49568639 5:0.89094744 6:-1.5276473 7:0.34407484 8:0.073914438 9:-0.21001975 10:-0.022364874 11:-0.43561388 12:-0.43658878 13:-0.71625974 14:-0.96866141 15:-0.10530481 16:-0.46810768 
8192 0 0 8192 7788.440023511454 8192 0 5015.227158605566 1861.967905135431 839.1905454286091 5611.252969126701 8192 0 8192 0 8192 0 0 1:2.9605219 2:2.3094229 3:-0.9629658 4:1.1795273 5:-0.17289686 6:-0.6141056 7:0.57611312 8:-1.4015841 9:-0.21001975 10:-0.022364874 11:-0.43561388 12:-0.43658878 13:-0.71625974 14:-0.96866141 15:-0.10530481 16:-1.0381539 
8192 8192 1927.064722487405 0 0 0 0 8192 0 0 6427.268600347134 8192 0 8192 8192 0 0 0 1:-0.73940783 2:-1.4088932 3:0.3010933 4:0.78918628 5:-0.35020424 6:-0.97952229 7:-1.7799679 8:-1.4205008 9:-0.21001975 10:-0.022364874 11:-0.43561388 12:-0.43658878 13:1.4724637 14:1.3952857 15:-0.10530481 16:2.0400956 
8192 8192 0 8192 8192 8192 8192 8192 0 8192 8192 8192 3734.527984471869 8192 0 0 0 0 1:-0.36941486 2:0.45026483 3:1.2231129 4:0.28499574 5:-0.17289686 6:-1.5276473 7:-1.083853 8:-0.15308534 9:-0.21001975 10:-0.022364874 11:-0.43561388 12:-0.43658878 13:-0.71625974 14:-0.96866141 15:-0.10530481 16:-0.69612616 
8192 8192 0 8192 8192 8192 8192 8192 0 8192 8192 8192 8192 0 0 0 0 0 1:-0.73940783 2:-0.66522998 3:0.73236052 4:-1.4390106 5:0.53633267 6:-0.2486889 7:-1.0124566 8:1.0008302 9:-0.21001975 10:-0.022364874 11:-0.43561388 12:-0.43658878 13:1.4724637 14:1.3952857 15:-0.10530481 16:1.3560401 
8192 7645.089631334589 2580.660136638186 8192 8192 8192 5889.94321118702 877.5321603975102 0 8192 8192 4468.624202724778 8192 4201.660201828106 0 0 509.664783147732 0 1:-0.73940783 2:1.193928 3:-1.1860351 4:-1.3088969 5:0.89094744 6:1.5783946 7:0.34407484 8:0.37658081 9:-0.21001975 10:-0.022364874 11:-0.43561388 12:-0.43658878 13:1.4724637 14:1.3952857 15:-0.10530481 16:-0.69612616 
8192 1108.234077248826 0 8192 8192 8192 8192 7711.075673072542 0 8192 8192 8192 4632.503430119013 8192 0 0 882.6242898530209 0 1:-0.55441134 2:0.078433229 3:0.31596458 4:-0.36557271 5:-0.17289686 6:0.48214449 7:1.1651334 8:-0.98541786 9:-0.21001975 10:-0.022364874 11:-0.43561388 12:-0.43658878 13:-0.71625974 14:0.84975942 15:-0.10530481 16:2.1541048 
8192 0 0 8192 0 0 0 277.5257659202708 8192 7970.050551236348 0 6896.517667561856 0 8192 0 3637.369626789044 0 0 1:2.7755254 2:2.4953387 3:0.40519229 4:0.2362031 5:-1.4140485 6:0.66485284 7:-1.4586841 8:1.0575801 9:-0.21001975 10:-0.022364874 11:-0.43561388 12:1.0553848 13:-0.71625974 14:-1.0595825 15:-0.10530481 16:-1.0381539 
8192 0 0 8192 0 0 0 0 0 0 0 0 0 0 0 8192 0 0 1:0.37057109 2:-0.29339837 3:-0.14504521 4:-1.1950475 5:-1.4140485 6:-1.5276473 7:0.25482935 8:-0.15308534 9:-0.21001975 10:-0.022364874 11:-0.43561388 12:-0.43658878 13:-0.71625974 14:-0.78681933 15:-0.10530481 16:0.55797547 
8192 0 0 0 8192 0 7885.317174028753 0 8192 0 0 0 0 0 6868.223333860454 441.42266495665 0 0 1:-0.36941486 2:-0.85114578 3:-0.90348067 4:0.93556418 5:-1.4140485 6:0.66485284 7:-0.79826747 8:1.0575801 9:-0.21001975 10:-0.022364874 11:-0.43561388 12:1.0553848 13:-0.71625974 14:-0.96866141 15:-0.10530481 16:-0.69612616 
8192 0 0 8192 0 0 8192 0 8192 0 8192 0 0 0 0 8192 0 0 1:-0.73940783 2:-0.66522998 3:0.34570715 4:-1.2113117 5:-1.4140485 6:0.66485284 7:1.1115861 8:0.33874751 9:-0.21001975 10:-0.022364874 11:-0.43561388 12:1.0553848 13:1.4724637 14:1.3952857 15:-0.10530481 16:-0.24008921 
8192 8192 247.9155662548666 8192 8192 8192 0 0 0 8192 8192 8192 8192 0 0 0 0 0 1:-0.73940783 2:0.26434903 3:1.3420832 4:0.28499574 5:-1.4140485 6:-0.97952229 7:-0.13785082 8:1.3034966 9:-0.21001975 10:-0.022364874 11:-0.43561388 12:-0.43658878 13:1.4724637 14:1.3952857 15:-0.10530481 16:-0.92414464 
8192 0 0 0 0 0 8192 0 0 0 0 0 0 0 0 0 0 0 1:-0.73940783 2:-0.47931418 3:0.71748924 4:0.13861784 5:-1.0594338 6:0.66485284 7:0.27267845 8:1.0575801 9:-0.21001975 10:-0.022364874 11:-0.43561388 12:1.0553848 13:1.4724637 14:1.3952857 15:-0.10530481 16:-0.24008921 
8192 0 0 0 1788.804913702808 0 0 0 8192 0 0 0 0 0 0 6577.141322895553 0 0 1:0.74056406 2:0.078433229 3:-0.9629658 4:-1.1950475 5:-1.4140485 6:0.66485284 7:-0.24494541 8:-0.96650121 9:-0.21001975 10:-0.022364874 11:0.19881376 12:1.0553848 13:-0.71625974 14:0.12239109 15:-0.10530481 16:1.0140124 
8192 0 0 8192 8192 0 8192 0 0 8192 0 8192 0 8192 8192 8192 2001.803658601184 0 1:0.00057811402 2:-0.29339837 3:-0.91835195 4:-0.10534533 5:-1.4140485 6:-0.065980552 7:-0.13785082 8:0.58466394 9:-0.21001975 10:-0.022364874 11:-0.43561388 12:-0.43658878 13:-0.71625974 14:-0.42313516 15:-0.10530481 16:2.0400956 
8192 0 0 0 1113.303969097909 0 0 8192 0 0 0 2652.489688336712 0 5231.98863089783 0 0 2811.533068944741 0 1:2.0355395 2:1.3798438 3:-0.84399553 4:-0.28425165 5:0.53633267 6:-1.7103557 7:-1.0124566 8:-1.8177504 9:-0.21001975 10:-0.022364874 11:-0.43561388 12:-0.43658878 13:-0.71625974 14:-0.96866141 15:-0.10530481 16:-1.0381539 
8192 0 0 8192 8192 8192 8192 0 0 8192 8192 8192 0 8192 0 0 0 0 1:-0.55441134 2:-0.29339837 3:1.2379842 4:-1.0649338 5:-0.52751163 6:0.48214449 7:0.29052755 8:-0.98541786 9:-0.21001975 10:-0.022364874 11:-0.43561388 12:-0.43658878 13:-0.71625974 14:-0.42313516 15:-0.10530481 16:-0.24008921 
8192 0 0 2645.664259953547 5008.733672224829 0 0 8072.064108333771 0 2282.61323900139 8192 0 2078.103144115912 2197.778985507957 0 0 5617.704062602023 0 1:-0.92440431 2:-1.594809 3:-2.6285496 4:0.75665786 5:-1.4140485 6:0.66485284 7:0.25482935 8:0.33874751 9:4.7608618 10:-0.022364874 11:0.19881376 12:1.0553848 13:0.37810197 14:-0.059450996 15:-0.10530481 16:0.55797547 
8192 8192 0 8192 0 8192 8192 8192 2716.718863781331 0 0 8192 0 0 0 8192 0 0 1:0.00057811402 2:-0.29339837 3:-0.99270837 4:0.70786523 5:-0.52751163 6:-1.5276473 7:-1.4229859 8:0.9251636 9:-0.21001975 10:-0.022364874 11:-0.43561388 12:-0.43658878 13:-0.71625974 14:-0.96866141 15:-0.10530481 16:0.32995699 
8192 8192 0 0 8192 8192 8192 8192 0 8192 8192 0 8192 8192 0 3084.596642033191 3681.52955373498 0 1:-0.73940783 2:-0.85114578 3:1.1933703 4:-0.51195061 5:0.89094744 6:0.84756119 7:-1.3694386 8:0.67924718 9:-0.21001975 10:-0.022364874 11:-0.43561388 12:-0.43658878 13:1.4724637 14:1.3952857 15:-0.10530481 16:-0.24008921 
8192 8192 0 8192 8192 8192 8192 8192 0 8192 8192 0 8192 5435.072301352394 0 0 0 0 1:-0.55441134 2:-0.66522998 3:-0.97783708 4:0.2362031 5:0.89094744 6:-0.43139725 7:-1.6728733 8:-0.43683506 9:-0.21001975 10:-0.022364874 11:-0.43561388 12:-0.43658878 13:-0.71625974 14:-0.42313516 15:-0.10530481 16:-0.46810768 
8192 8192 2216.52388885933 0 8192 1825.257746551153 8192 0 0 8192 8192 8192 0 0 0 0 0 0 1:-0.73940783 2:-0.66522998 3:0.95542978 4:1.0331494 5:-0.17289686 6:0.48214449 7:0.57611312 8:-0.98541786 9:-0.21001975 10:-0.022364874 11:-0.43561388 12:-0.43658878 13:1.4724637 14:1.3952857 15:-0.10530481 16:-0.69612616 
8192 8192 0 8192 8192 0 8192 8192 907.999366590147 8192 1766.769127220194 5871.551010927762 0 8192 0 0 8192 0 1:-0.73940783 2:-0.66522998 3:1.3123406 4:0.70786523 5:0.71364005 6:0.66485284 7:-0.20924721 8:1.3413299 9:-0.21001975 10:-0.022364874 11:1.4676691 12:1.0553848 13:1.4724637 14:1.3952857 15:-0.10530481 16:1.6980679 
8192 0 0 8192 0 0 2777.202711940508 1887.448700742259 8192 0 0 0 0 0 0 8192 0 0 1:2.5905289 2:2.3094229 3:1.178499 4:0.72412944 5:-1.0594338 6:0.66485284 7:0.27267845 8:-0.039585451 9:-0.21001975 10:-0.022364874 11:-0.43561388 12:1.0553848 13:-0.71625974 14:-0.96866141 15:-0.10530481 16:0.32995699 
8192 8192 0 8192 8192 0 216.3623503160969 0 0 8192 5234.883310991884 0 0 0 0 0 0 0 1:-0.73940783 2:-0.10748257 3:0.76210309 4:1.1144705 5:-1.0594338 6:0.84756119 7:-0.45913459 8:1.549413 9:-0.21001975 10:-0.022364874 11:-0.43561388 12:-0.43658878 13:1.4724637 14:1.3952857 15:-0.10530481 16:-1.0381539 
8192 8192 0 8192 8192 0 8192 8192 8192 8192 0 0 1393.459732837767 8192 0 0 8192 0 1:0.55556757 2:0.82209644 3:1.5651524 4:0.382581 5:0.0044105211 6:0.66485284 7:-1.0660039 8:-0.96650121 9:-0.21001975 10:-0.022364874 11:-0.43561388 12:1.0553848 13:-0.71625974 14:-0.42313516 15:-0.10530481 16:-0.24008921 
8192 0 0 8192 8192 0 8192 8192 8192 0 0 0 0 0 0 0 0 0 1:0.00057811402 2:-0.47931418 3:-0.84399553 4:-0.77217798 5:0.0044105211 6:0.66485284 7:0.59396222 8:-0.96650121 9:-0.21001975 10:-0.022364874 11:-0.43561388 12:1.0553848 13:-0.71625974 14:-0.42313516 15:-0.10530481 16:-0.24008921 
8192 8192 8192 8192 0 0 8192 0 8192 1510.857418243611 8192 8192 0 8192 8192 0 8192 0 1:-0.18441837 2:-0.85114578 3:0.76210309 4:-0.30051586 5:0.1817179 6:0.48214449 7:0.30837664 8:-0.98541786 9:-0.21001975 10:-0.022364874 11:-0.43561388 12:-0.43658878 13:-0.71625974 14:-0.96866141 15:-0.10530481 16:2.0400956 
8192 5125.696996400339 5605.37616184538 8192 8192 8192 0 8192 3598.019306199477 8192 8030.744911154661 3923.427022533925 0 8192 4874.475382206986 0 1580.480684751768 0 1:2.9605219 2:3.4249177 3:1.5205386 4:0.80545049 5:0.71364005 6:-0.43139725 7:1.8969464 8:-1.7420838 9:-0.21001975 10:-0.022364874 11:1.4676691 12:-0.43658878 13:-0.71625974 14:-0.42313516 15:-0.10530481 16:-1.0381539 
8192 0 0 8192 0 0 8192 0 0 0 0 8192 0 0 7815.234111367839 2236.084028967149 0 0 1:-0.55441134 2:-0.85114578 3:0.3010933 4:1.1307347 5:-1.4140485 6:-1.5276473 7:0.25482935 8:0.9251636 9:-0.21001975 10:-0.022364874 11:-0.43561388 12:-0.43658878 13:-0.71625974 14:-0.42313516 15:-0.10530481 16:1.8120771 
8192 8192 0 8192 8192 0 8192 0 8192 8192 8192 0 0 8192 0 0 0 0 1:0.1855746 2:0.26434903 3:1.0446575 4:-0.54447903 5:-0.52751163 6:0.66485284 7:0.95094419 8:0.33874751 9:-0.21001975 10:-0.022364874 11:-0.43561388 12:1.0553848 13:-0.71625974 14:-0.42313516 15:-0.10530481 16:-0.46810768 
803.753991258337 7.143780703108943 153.4684966288087 243.6234096188596 0 53.1591200059262 0 284.4832270966342 705.887283344118 762.8355350216839 79.52231509637764 134.42527934411 0 504.7627747436134 0 80.31443467258683 32.52527151529194 0 1:1.6655465 2:1.9375912 3:0.82158823 4:-0.54447903 5:0.89094744 6:0.66485284 7:1.2365298 8:1.0575801 9:-0.21001975 10:-0.022364874 11:-0.43561388 12:1.0553848 13:-0.71625974 14:-0.96866141 15:9.5225635 16:-0.46810768 
8192 8192 0 8192 2789.368831679479 0 8192 8192 8192 1022.284353624037 8192 0 0 0 0 0 0 0 1:-0.73940783 2:-1.0370616 3:-0.33837189 4:-1.3088969 5:0.71364005 6:0.66485284 7:1.2186807 8:0.33874751 9:-0.21001975 10:-0.022364874 11:-0.43561388 12:1.0553848 13:1.4724637 14:1.3952857 15:-0.10530481 16:-0.69612616 
8192 6281.721082987491 2408.253753081602 0 8192 0 0 8192 0 0 0 8192 0 0 0 0 0 0 1:1.850543 2:1.193928 3:1.0446575 4:-1.2601043 5:0.53633267 6:-1.5276473 7:-1.0124566 8:-1.3070009 9:-0.21001975 10:-0.022364874 11:-0.43561388 12:-0.43658878 13:-0.71625974 14:-0.96866141 15:-0.10530481 16:-1.0381539 
8192 8192 0 8192 8192 8192 8192 0 0 8192 8192 0 8192 0 0 0 0 0 1:-0.73940783 2:-0.29339837 3:1.4015683 4:-0.10534533 5:0.89094744 6:0.48214449 7:-0.29849271 8:0.64141388 9:-0.21001975 10:-0.022364874 11:-0.43561388 12:-0.43658878 13:1.4724637 14:1.3952857 15:-0.10530481 16:-0.69612616 
8192 0 0 8192 1802.647611464206 1624.45199390988 0 3785.414849547258 8192 0 3370.619579696799 2954.770408311891 0 0 0 8192 0 0 1:-0.18441837 2:-0.47931418 3:1.178499 4:-1.2926327 5:-1.0594338 6:0.66485284 7:0.27267845 8:-1.2691676 9:-0.21001975 10:-0.022364874 11:-0.43561388 12:1.0553848 13:-0.71625974 14:-0.96866141 15:-0.10530481 16:0.90000318 
8192 8192 4404.355583107446 8192 8192 8192 8192 8192 0 8192 8192 8192 1228.192680873753 4740.80833859339 1253.121231853831 0 0 0 1:0.1855746 2:0.45026483 3:0.82158823 4:-0.77217798 5:0.89094744 6:-1.5276473 7:-1.3694386 8:0.24416427 9:-0.21001975 10:-0.022364874 11:-0.43561388 12:-0.43658878 13:-0.71625974 14:-0.69589829 15:-0.10530481 16:-1.0381539 
8192 0 0 0 0 0 8192 8192 8192 0 0 8192 0 0 3184.738250840292 0 0 0 1:-0.73940783 2:-1.4088932 3:1.0297862 4:0.75665786 5:0.53633267 6:0.66485284 7:-1.0124566 8:-0.96650121 9:-0.21001975 10:-0.022364874 11:-0.43561388 12:1.0553848 13:1.4724637 14:1.3952857 15:-0.10530481 16:1.9260863 
8192 0 0 0 8192 8192 6740.968031619457 0 0 0 3449.598146840931 0 5081.194055531686 0 0 8192 0 0 1:-0.73940783 2:-1.0370616 3:-1.1562925 4:-1.1137264 5:-1.4140485 6:-0.43139725 7:0.9330951 8:-0.43683506 9:-0.21001975 10:-0.022364874 11:-0.43561388 12:-0.43658878 13:1.4724637 14:1.3952857 15:-0.10530481 16:-0.24008921 
8192 8192 0 8192 8192 8192 8192 8192 0 8192 8192 8192 0 0 0 0 340.8238620768062 0 1:-0.73940783 2:-0.85114578 3:0.13750918 4:1.1795273 5:0.71364005 6:-0.97952229 7:0.66535862 8:-1.4205008 9:-0.21001975 10:-0.022364874 11:1.4676691 12:-0.43658878 13:1.4724637 14:1.3952857 15:-0.10530481 16:-0.12607997 
8192 8192 0 8192 0 0 8192 8192 8192 8192 0 8192 0 8192 0 0 214.5480490903109 0 1:0.00057811402 2:0.26434903 3:-0.14504521 4:0.93556418 5:0.53633267 6:0.66485284 7:-1.0124566 8:1.0575801 9:-0.21001975 10:-0.022364874 11:-0.43561388 12:1.0553848 13:-0.71625974 14:-0.96866141 15:-0.10530481 16:1.6980679 
8192 0 0 275.6784122243125 0 0 0 7984.607034238435 4148.619292960525 8192 133.6812641184399 0 0 8192 1416.219446530435 0 1826.368918619706 0 1:1.2955535 2:1.0080122 3:-0.84399553 4:-0.30051586 5:0.1817179 6:0.66485284 7:-1.5479296 8:1.0575801 9:-0.21001975 10:-0.022364874 11:-0.43561388 12:1.0553848 13:1.4724637 14:-0.15037204 15:-0.10530481 16:-0.24008921 
8192 8192 0 3712.728349274984 0 0 8192 8192 8192 8192 0 6952.441247409572 0 1901.821493281886 0 0 739.7369863030871 0 1:-0.73940783 2:-0.85114578 3:1.5502811 4:0.75665786 5:-0.35020424 6:0.66485284 7:-1.1017021 8:0.33874751 9:-0.21001975 10:-0.022364874 11:-0.43561388 12:1.0553848 13:1.4724637 14:1.3952857 15:-0.10530481 16:2.0400956 
8192 4512.953377856349 0 8192 8192 8192 8192 8192 0 2050.806184416135 8192 12.54231854741948 8192 0 0 8192 8192 0 1:-0.73940783 2:-0.85114578 3:1.3123406 4:-1.3088969 5:0.71364005 6:0.66485284 7:-0.20924721 8:-0.96650121 9:-0.21001975 10:-0.022364874 11:1.4676691 12:1.0553848 13:1.4724637 14:1.3952857 15:-0.10530481 16:-0.12607997 
8192 8192 3385.413946018547 8192 8192 8192 8192 8192 0 8192 8192 8192 6135.641686055112 8192 8192 0 0 0 1:-0.55441134 2:-0.47931418 3:-0.50195601 4:-0.77217798 5:0.89094744 6:-1.5276473 7:0.34407484 8:0.24416427 9:-0.21001975 10:-0.022364874 11:-0.43561388 12:-0.43658878 13:-0.71625974 14:-0.42313516 15:-0.10530481 16:2.1541048 
8192 2167.251374052735 0 6527.79737855553 8192 0 0 0 135.1947004172776 8192 2277.91942324032 0 0 0 0 0 0 0 1:-0.92440431 2:-1.0370616 3:-2.1675398 4:0.70786523 5:0.89094744 6:0.66485284 7:-0.56622919 8:-0.96650121 9:4.7608618 10:-0.022364874 11:-0.43561388 12:1.0553848 13:0.37810197 14:-0.059450996 15:-0.10530481 16:0.55797547 
8192 8192 0 8192 8192 5205.666446954446 3715.383658817673 0 8192 4039.324447453827 2757.920916059551 6220.230141860204 3050.7337792534 7783.02343048157 1600.708854997299 6912.532312835158 0 0 1:1.110557 2:0.82209644 3:-1.0670648 4:-0.30051586 5:-1.4140485 6:0.84756119 7:1.7720027 8:-0.81516802 9:-0.21001975 10:-0.022364874 11:-2.9733245 12:-0.43658878 13:-0.71625974 14:-0.96866141 15:-0.10530481 16:-1.0381539 
8192 0 0 8192 0 0 3373.252787166548 0 6520.13226297774 0 0 8192 0 8192 8192 0 8192 0 1:-0.73940783 2:-1.4088932 3:-0.36811446 4:-0.41436534 5:-0.88212639 6:-0.43139725 7:1.1294352 8:-0.096335395 9:-0.21001975 10:-0.022364874 11:-0.43561388 12:-0.43658878 13:1.4724637 14:1.3952857 15:-0.10530481 16:2.0400956 
8192 8192 0 8192 0 8192 8192 8192 790.2249993738515 8192 8192 8192 0 8192 0 0 8192 0 1:0.92556054 2:1.5657596 3:-0.7845104 4:-0.51195061 5:0.53633267 6:0.84756119 7:-1.0124566 8:0.67924718 9:-0.21001975 10:-0.022364874 11:-0.43561388 12:-0.43658878 13:-0.71625974 14:-0.96866141 15:-0.10530481 16:0.78599394 
8192 0 2089.014633881969 8192 8192 8192 3976.907780818529 6892.571322241179 8192 8192 8192 8192 0 8192 0 2753.99576919231 7607.860270749549 0 1:0.00057811402 2:-0.66522998 3:0.76210309 4:-1.0974622 5:-1.4140485 6:0.84756119 7:-0.47698369 8:1.22783 9:-0.21001975 10:-0.022364874 11:-0.43561388 12:-0.43658878 13:-0.71625974 14:-0.96866141 15:-0.10530481 16:-0.24008921 
8192 8192 0 8192 8192 8192 8192 8192 0 8192 8192 8192 8192 0 0 0 0 0 1:-0.36941486 2:-0.10748257 3:-1.1414212 4:0.75665786 5:1.600177 6:-1.5276473 7:0.040640166 8:0.75491377 9:-0.21001975 10:-0.022364874 11:-0.43561388 12:-0.43658878 13:-0.71625974 14:-0.42313516 15:-0.10530481 16:-0.24008921 
7111.758333713743 979.2368111919877 0 0 8192 0 8090.497670380265 1205.630552100915 8192 0 0 0 0 0 0 0 2569.448559450113 0 1:-0.73940783 2:-1.0370616 3:-0.91835195 4:1.618661 5:0.89094744 6:0.66485284 7:-1.6728733 8:1.0575801 9:-0.21001975 10:-0.022364874 11:-0.43561388 12:1.0553848 13:1.4724637 14:1.3952857 15:-0.10530481 16:1.3560401 
8192 0 0 0 8192 8192 7242.751067089161 0 0 8192 5948.248571628497 8192 0 0 0 0 8192 0 1:-0.73940783 2:-0.29339837 3:1.2082416 4:-0.26798744 5:-1.5913559 6:0.84756119 7:0.915246 8:-0.020668803 9:-0.21001975 10:-0.022364874 11:-0.43561388 12:-0.43658878 13:1.4724637 14:1.3952857 15:-0.10530481 16:-0.24008921 
8192 8192 0 8192 6786.938606737664 43.49176546543585 0 8192 465.2444032143831 0 3844.262526166637 8192 0 8192 0 0 4534.130705058094 0 1:2.9605219 2:2.3094229 3:1.0446575 4:0.073560994 5:0.35902529 6:-0.43139725 7:-0.35204 8:-1.0800011 9:-0.21001975 10:-0.022364874 11:-0.43561388 12:-0.43658878 13:-0.71625974 14:-0.96866141 15:-0.10530481 16:-0.69612616 
8192 8192 976.2301503084519 8192 0 0 8192 8192 8192 8192 0 8192 0 8192 0 0 0 0 1:2.5905289 2:2.123507 3:0.76210309 4:1.1795273 5:0.1817179 6:0.66485284 7:0.30837664 8:-0.68275149 9:-0.21001975 10:-0.022364874 11:-0.43561388 12:1.0553848 13:-0.71625974 14:-0.96866141 15:-0.10530481 16:-1.0381539 
8192 8192 2206.009641477073 0 8192 8192 8192 8192 0 8192 7109.110765053027 2134.440265839796 6473.454568692187 8192 0 0 0 0 1:-0.73940783 2:-0.29339837 3:0.71748924 4:1.0168852 5:-1.4140485 6:0.66485284 7:-0.79826747 8:-0.96650121 9:-0.21001975 10:-0.022364874 11:-0.43561388 12:-0.43658878 13:1.4724637 14:1.3952857 15:-0.10530481 16:-0.24008921 
8192 8192 2867.647753669595 8192 8192 8192 8192 8192 0 8192 8192 8192 0 8192 0 0 0 0 1:0.37057109 2:1.3798438 3:-0.88860938 4:1.22832 5:0.53633267 6:-0.2486889 7:-1.0124566 8:-1.0610844 9:-0.21001975 10:-0.022364874 11:-0.43561388 12:-0.43658878 13:-0.71625974 14:-0.42313516 15:-0.10530481 16:-1.0381539 
8192 0 0 0 0 0 0 6728.966773160314 8192 0 0 0 0 0 8192 0 8192 0 1:-0.36941486 2:-1.0370616 3:-0.14504521 4:1.2771126 5:0.53633267 6:0.66485284 7:-1.0124566 8:1.3413299 9:-0.21001975 10:-0.022364874 11:-0.43561388 12:1.0553848 13:-0.71625974 14:-0.69589829 15:-0.10530481 16:1.4700494 
8192 6892.159542183489 0 8192 8192 8192 8192 0 0 8192 8192 8192 8192 0 0 8192 0 0 1:-0.36941486 2:0.63618063 3:1.178499 4:-1.3088969 5:-1.4140485 6:-1.5276473 7:0.9330951 8:1.1332467 9:-0.21001975 10:-0.022364874 11:-0.43561388 12:-0.43658878 13:-0.71625974 14:-0.42313516 15:-0.10530481 16:-0.46810768 
8192 0 0 3548.430897930528 1366.761075662752 0 0 4240.974600922167 905.9803697180562 3558.08637697972 6118.522185915725 0 1103.231330154212 0 3005.820380301564 0 1996.976458265774 0 1:-0.92440431 2:-1.594809 3:-1.498332 4:0.93556418 5:-1.4140485 6:0.66485284 7:-1.1909476 8:1.3413299 9:4.7608618 10:-0.022364874 11:-0.43561388 12:1.0553848 13:0.37810197 14:-0.059450996 15:-0.10530481 16:0.55797547 
8192 0 0 358.6206956869503 0 8192 0 0 0 0 0 8192 0 0 0 0 0 0 1:-0.73940783 2:-1.2229774 3:-0.24914419 4:1.309641 5:-1.4140485 6:-1.5276473 7:-0.90536206 8:1.4169965 9:-0.21001975 10:-0.022364874 11:-0.43561388 12:-0.43658878 13:1.4724637 14:1.3952857 15:-0.10530481 16:2.0400956 
8192 8192 0 8192 8192 8192 8192 8192 0 8192 8192 8192 7420.176426070151 0 0 0 0 0 1:0.00057811402 2:-0.29339837 3:-0.39785703 4:-0.46315797 5:-0.17289686 6:-1.5276473 7:0.98664239 8:1.1332467 9:-0.21001975 10:-0.022364874 11:-0.43561388 12:-0.43658878 13:-0.71625974 14:-0.96866141 15:-0.10530481 16:-0.46810768 
8192 0 0 8192 0 0 739.9859490475556 0 8192 0 0 0 0 0 0 0 8192 0 1:-0.73940783 2:-0.66522998 3:-0.91835195 4:1.309641 5:-1.4140485 6:0.66485284 7:-0.13785082 8:1.0575801 9:-0.21001975 10:-0.022364874 11:-0.43561388 12:1.0553848 13:1.4724637 14:1.3952857 15:-0.10530481 16:1.6980679 
8192 0 0 8192 8192 8192 8192 8192 0 8192 8192 8192 0 0 0 0 0 0 1:-0.73940783 2:-0.29339837 3:0.31596458 4:0.90303576 5:-1.5913559 6:-0.065980552 7:0.46901853 8:0.58466394 9:-0.21001975 10:-0.022364874 11:-0.43561388 12:-0.43658878 13:1.4724637 14:1.3952857 15:-0.10530481 16:-0.24008921 
8192 0 0 8192 8192 0 0 0 0 8153.16195411501 8192 0 0 0 0 147.4790710030171 0 0 1:1.2955535 2:0.63618063 3:-0.88860938 4:-1.2438401 5:-0.52751163 6:-1.5276473 7:-1.1195512 8:0.24416427 9:-0.21001975 10:-0.022364874 11:-0.43561388 12:-0.43658878 13:-0.71625974 14:0.12239109 15:-0.10530481 16:-0.69612616 
8192 8192 711.7321887167905 8192 8192 8192 8192 8192 8192 0 8192 8192 4173.553560660052 0 0 8016.064133762504 0 0 1:-0.73940783 2:-0.85114578 3:0.82158823 4:-1.2926327 5:1.600177 6:0.66485284 7:1.3614735 8:0.16849768 9:-0.21001975 10:-0.022364874 11:-0.43561388 12:1.0553848 13:1.4724637 14:1.3952857 15:-0.10530481 16:0.32995699 
8192 8192 0 8192 0 8192 7381.010591068979 8192 0 8192 8192 2108.487086293402 0 4945.793973695479 0 8192 1922.802489408243 0 1:-0.73940783 2:-1.4088932 3:-1.0224509 4:-1.2113117 5:1.600177 6:-0.065980552 7:0.040640166 8:0.58466394 9:-0.21001975 10:-0.022364874 11:-0.43561388 12:-0.43658878 13:1.4724637 14:1.3952857 15:-0.10530481 16:0.55797547 
95.75000345143226 0 0 0 55.45895669332253 0 0 286.2218372256868 27.88337931516392 1138.182516454589 136.1340662426677 332.6716613586015 0 389.4827108288748 22.46100924482512 1.374288245336149 110.3075043365502 0 1:-0.55441134 2:-0.66522998 3:1.2677267 4:1.53734 5:1.600177 6:-0.065980552 7:0.8616987 8:-0.41791841 9:-0.21001975 10:-0.022364874 11:-0.43561388 12:-0.43658878 13:-0.71625974 14:-0.42313516 15:9.5225635 16:0.32995699 
8192 8192 308.3177721544156 8192 8192 690.9957630376952 8192 8192 0 8192 8192 0 0 2421.113678454336 490.7124480689239 100.7562333957437 0 0 1:-0.92440431 2:-0.47931418 3:-2.8813614 4:-1.1299906 5:0.71364005 6:0.66485284 7:1.3436244 8:1.6818295 9:4.7608618 10:-0.022364874 11:1.4676691 12:1.0553848 13:0.37810197 14:-0.059450996 15:-0.10530481 16:0.55797547 
8192 8192 0 0 8192 0 8192 0 0 4822.9024099725 0 0 0 6176.925688450802 0 0 0 0 1:-0.73940783 2:-1.0370616 3:-0.15991649 4:0.17114626 5:-0.35020424 6:0.84756119 7:-0.066454425 8:-0.81516802 9:-0.21001975 10:-0.022364874 11:-0.43561388 12:-0.43658878 13:1.4724637 14:1.3952857 15:-0.10530481 16:-0.69612616 
8192 0 0 0 0 0 0 0 8192 0 0 0 0 8192 0 4436.206774384338 0 0 1:0.00057811402 2:-0.66522998 3:1.0446575 4:0.13861784 5:-1.4140485 6:0.66485284 7:0.48686763 8:-0.96650121 9:-0.21001975 10:-0.022364874 11:-0.43561388 12:1.0553848 13:-0.71625974 14:-0.69589829 15:-0.10530481 16:1.8120771 
8192 8192 625.7392224359933 8192 8192 8192 0 8192 342.4374738263879 8192 8192 8192 0 0 0 8192 0 0 1:-0.18441837 2:-0.47931418 3:-0.85886682 4:-1.2113117 5:-0.52751163 6:-0.065980552 7:-1.4229859 8:0.58466394 9:-0.21001975 10:-0.022364874 11:-0.43561388 12:-0.43658878 13:-0.71625974 14:-0.96866141 15:-0.10530481 16:-0.24008921 
8192 0 0 0 5217.707530802113 8192 7241.276608088925 0 0 0 0 997.9164582448266 0 0 0 8192 2366.19233795502 0 1:-0.73940783 2:-0.85114578 3:0.82158823 4:1.6023968 5:-1.4140485 6:-0.97952229 7:0.094187462 8:-1.4205008 9:-0.21001975 10:-0.022364874 11:-0.43561388 12:-2.6745492 13:1.4724637 14:1.3952857 15:-0.10530481 16:0.32995699 
8192 8192 0 8192 8192 0 8192 8192 8192 8192 8192 0 6232.27343231377 0 0 0 0 0 1:-0.73940783 2:-0.66522998 3:-0.33837189 4:1.5861326 5:0.71364005 6:0.66485284 7:1.2186807 8:-0.039585451 9:-0.21001975 10:-0.022364874 11:-0.43561388 12:1.0553848 13:1.4724637 14:1.3952857 15:-0.10530481 16:-0.8101354 
8192 0 1479.952750883302 8192 0 2394.727415294336 4633.775878634247 0 0 8192 8192 0 1031.05479293439 308.1842919948757 8192 0 0 0 1:-0.92440431 2:-1.594809 3:-2.9259752 4:-1.1950475 5:-1.4140485 6:-1.5276473 7:-0.24494541 8:-0.15308534 9:4.7608618 10:-0.022364874 11:0.19881376 12:-0.43658878 13:0.37810197 14:-0.059450996 15:-0.10530481 16:0.32995699 
8192 8192 0 0 8192 402.2260854766504 8192 8192 8192 961.3708646926327 8192 0 2212.132480059173 0 0 0 0 0 1:-0.73940783 2:-1.2229774 3:1.5651524 4:-0.46315797 5:1.600177 6:0.66485284 7:1.0758879 8:0.33874751 9:-0.21001975 10:-0.022364874 11:-0.43561388 12:1.0553848 13:1.4724637 14:1.3952857 15:-0.10530481 16:-1.0381539 
8192 0 0 0 6187.173418779645 8192 0 0 0 0 0 0 0 0 2689.113056686452 1552.513337371694 0 0 1:-0.73940783 2:-0.66522998 3:0.64313282 4:-0.90229167 5:0.53633267 6:-0.43139725 7:-1.7085715 8:-1.7420838 9:-0.21001975 10:-0.022364874 11:-2.3388968 12:-0.43658878 13:1.4724637 14:1.3952857 15:-0.10530481 16:0.32995699 
8192 0 0 8192 5022.651265882009 0 6247.833185854524 1666.471021276604 5379.908541871269 0 8192 0 0 0 0 0 415.4415143596162 0 1:0.74056406 2:0.26434903 3:1.4759247 4:-1.0161412 5:0.0044105211 6:-1.1622306 7:0.59396222 8:0.26308092 9:-0.21001975 10:-0.022364874 11:-0.43561388 12:4.0393321 13:-0.71625974 14:-0.42313516 15:-0.10530481 16:-0.24008921 
8192 0 0 8192 0 8192 8192 600.9916379102449 0 0 8192 0 0 0 0 0 0 0 1:-0.73940783 2:-1.0370616 3:0.31596458 4:-0.51195061 5:-1.5913559 6:-0.065980552 7:0.46901853 8:0.58466394 9:-0.21001975 10:-0.022364874 11:-0.43561388 12:-0.43658878 13:1.4724637 14:1.3952857 15:-0.10530481 16:-0.24008921 
8192 8192 0 8192 8192 4081.16948663478 8192 0 8192 8192 8192 8192 8192 8192 0 8192 0 0 1:0.1855746 2:0.26434903 3:-1.2306489 4:-1.1462548 5:-0.17289686 6:0.66485284 7:0.98664239 8:1.3413299 9:-0.21001975 10:-0.022364874 11:-0.43561388 12:1.0553848 13:-0.71625974 14:-0.96866141 15:-0.10530481 16:-0.69612616 
8192 8192 0 8192 8192 0 8192 8192 8192 6701.242375764665 7752.402578438508 0 8192 8192 0 0 8192 0 1:-0.55441134 2:0.078433229 3:-0.84399553 4:0.70786523 5:0.53633267 6:0.66485284 7:0.64750952 8:1.3413299 9:-0.21001975 10:-0.022364874 11:-0.43561388 12:1.0553848 13:-0.71625974 14:0.75883838 15:-0.10530481 16:1.0140124 
8192 0 0 0 0 0 8192 8192 8192 0 0 6853.879656783229 0 0 0 0 0 0 1:-0.73940783 2:-1.0370616 3:0.82158823 4:0.74039365 5:0.89094744 6:0.66485284 7:-1.3694386 8:-0.96650121 9:-0.21001975 10:-0.022364874 11:-0.43561388 12:1.0553848 13:1.4724637 14:1.3952857 15:-0.10530481 16:1.6980679 
8192 8192 0 0 8192 0 8192 0 8192 0 0 0 4876.971222226639 0 0 0 0 0 1:-0.55441134 2:-0.29339837 3:1.282598 4:1.309641 5:0.53633267 6:0.66485284 7:-1.0124566 8:-0.039585451 9:-0.21001975 10:-0.022364874 11:-2.9733245 12:1.0553848 13:-0.71625974 14:-0.42313516 15:-0.10530481 16:-0.46810768 
8192 0 0 242.4945242066856 8082.950368282915 8192 4579.937512181265 0 0 0 0 1636.3181267295 0 0 0 0 0 0 1:-0.73940783 2:-1.0370616 3:0.24160817 4:1.309641 5:-1.5913559 6:-1.5276473 7:0.915246 8:1.4169965 9:-0.21001975 10:-0.022364874 11:-0.43561388 12:-0.43658878 13:1.4724637 14:1.3952857 15:-0.10530481 16:-0.24008921 
8192 8192 0 8192 0 0 8192 8192 8192 0 0 0 2353.440284700797 0 0 0 0 0 1:0.00057811402 2:0.078433229 3:0.10776662 4:0.70786523 5:-0.35020424 6:0.66485284 7:-1.7799679 8:1.0575801 9:-0.21001975 10:-0.022364874 11:-0.43561388 12:1.0553848 13:-0.71625974 14:-0.42313516 15:-0.10530481 16:-0.24008921 
8192 0 0 0 0 0 0 2165.02899278761 8192 0 0 0 0 0 7861.553975756784 0 0 0 1:-0.73940783 2:-1.4088932 3:-0.35324317 4:-1.2113117 5:0.53633267 6:0.66485284 7:-1.0124566 8:-1.2691676 9:-0.21001975 10:-0.022364874 11:-0.43561388 12:1.0553848 13:1.4724637 14:1.3952857 15:-0.10530481 16:-0.24008921 
8192 0 0 0 0 0 0 0 8192 0 0 0 0 4487.290916972591 8192 4931.705518944478 0 0 1:-0.73940783 2:-0.85114578 3:1.5354098 4:0.2362031 5:-1.4140485 6:0.66485284 7:1.2900771 8:0.81166371 9:-0.21001975 10:-0.022364874 11:-0.43561388 12:1.0553848 13:1.4724637 14:1.3952857 15:-0.10530481 16:-0.69612616 
8192 0 0 0 0 0 8192 8192 8192 0 0 0 0 0 553.8626318872292 0 0 0 1:-0.73940783 2:-1.0370616 3:0.3010933 4:0.91929997 5:-1.4140485 6:0.66485284 7:-0.79826747 8:-0.039585451 9:-0.21001975 10:-0.022364874 11:-0.43561388 12:1.0553848 13:1.4724637 14:1.3952857 15:-0.10530481 16:-0.24008921 
8192 6987.279771945192 8192 8192 8192 8192 8192 5326.723168670407 0 8192 8192 0 0 8192 0 1082.753664417999 738.8838870233549 0 1:-0.55441134 2:0.078433229 3:1.4015683 4:0.25246732 5:0.89094744 6:1.5783946 7:-0.29849271 8:1.0954134 9:-0.21001975 10:-0.022364874 11:-0.43561388 12:-0.43658878 13:-0.71625974 14:-0.42313516 15:-0.10530481 16:0.32995699 
8192 5890.619183113343 0 7375.557373420136 8192 2064.126711733375 1222.353218563302 0 154.7968709470285 3642.630210178431 8192 0 0 0 0 0 3451.563307210899 0 1:-0.92440431 2:-0.10748257 3:-2.9705891 4:-0.56074324 5:0.71364005 6:0.66485284 7:-1.2801931 8:1.0575801 9:4.7608618 10:-0.022364874 11:0.19881376 12:1.0553848 13:0.37810197 14:-0.059450996 15:-0.10530481 16:0.55797547 
8192 8192 6167.68647560294 8192 8192 8192 8192 8192 5452.77322873466 8192 0 8192 0 8192 8192 8192 2786.602999359279 0 1:0.00057811402 2:-0.47931418 3:-0.53169858 4:-1.1137264 5:0.89094744 6:1.5783946 7:0.34407484 8:-1.2502509 9:-0.21001975 10:-0.022364874 11:-0.43561388 12:-0.43658878 13:-0.71625974 14:-0.78681933 15:-0.10530481 16:0.32995699 
8192 0 0 8192 6683.799201766033 0 8192 8192 0 0 0 8192 0 0 1011.573266854669 0 8192 0 1:0.00057811402 2:-0.66522998 3:1.3123406 4:0.17114626 5:-0.52751163 6:-1.7103557 7:0.29052755 8:-0.49358501 9:-0.21001975 10:-0.022364874 11:-0.43561388 12:-0.43658878 13:-0.71625974 14:-0.96866141 15:-0.10530481 16:-0.24008921 
8192 2246.895310129045 0 8192 8192 8192 8192 8192 0 3493.683137921562 8192 8192 0 8192 0 0 0 0 1:0.74056406 2:0.078433229 3:0.2118656 4:-0.54447903 5:0.35902529 6:-1.1622306 7:0.14773476 8:0.26308092 9:-0.21001975 10:-0.022364874 11:-0.43561388 12:-2.6745492 13:-0.71625974 14:-0.96866141 15:-0.10530481 16:-1.0381539 
8192 0 0 0 0 0 0 0 8192 0 0 8192 0 8192 0 0 0 0 1:0.74056406 2:0.078433229 3:0.3010933 4:-1.1137264 5:-1.4140485 6:0.48214449 7:-0.13785082 8:-0.98541786 9:-0.21001975 10:-0.022364874 11:-0.43561388 12:-0.43658878 13:-0.71625974 14:-0.69589829 15:-0.10530481 16:1.5840586 
8192 0 0 8192 8192 8192 8192 8192 0 8192 0 8192 8192 8192 0 8192 0 0 1:0.1855746 2:0.45026483 3:0.34570715 4:1.000621 5:-1.4140485 6:-0.43139725 7:1.1115861 8:-1.0800011 9:-0.21001975 10:-0.022364874 11:-0.43561388 12:-0.43658878 13:-0.71625974 14:-0.42313516 15:-0.10530481 16:0.32995699 
8192 0 0 8192 0 0 0 0 8192 7427.949610625205 0 8192 0 8192 0 8192 0 0 1:2.9605219 2:2.4953387 3:0.95542978 4:0.72412944 5:-1.4140485 6:0.66485284 7:0.77245321 8:-0.039585451 9:-0.21001975 10:-0.022364874 11:-0.43561388 12:1.0553848 13:-0.71625974 14:-0.96866141 15:-0.10530481 16:-1.0381539 
8192 8192 6542.708696071883 8192 8192 8192 8192 8192 0 8192 2779.62924354755 8192 0 0 0 0 0 0 1:-0.36941486 2:-0.47931418 3:0.25647945 4:-0.30051586 5:0.53633267 6:-1.7103557 7:-1.0124566 8:0.22524762 9:-0.21001975 10:-0.022364874 11:-0.43561388 12:-0.43658878 13:-0.71625974 14:-0.96866141 15:-0.10530481 16:-1.0381539 
8192 0 0 8192 8192 0 0 4606.34644223449 8192 8192 8192 8192 7600.536172913322 8192 8192 8192 6670.994728805236 0 1:0.92556054 2:0.26434903 3:-1.0224509 4:0.78918628 5:-1.5913559 6:0.84756119 7:-1.2087967 8:1.22783 9:-0.21001975 10:-0.022364874 11:-0.43561388 12:-0.43658878 13:-0.71625974 14:-0.96866141 15:-0.10530481 16:-1.0381539 
8192 8192 1678.181935522496 2021.83530823902 8192 3589.448972680905 1841.64858854871 8192 941.9459985325018 8192 0 1114.457377000185 0 5421.840885060928 0 0 0 0 1:-0.92440431 2:-1.594809 3:-2.2567675 4:1.6349253 5:0.71364005 6:0.66485284 7:1.3436244 8:-0.68275149 9:4.7608618 10:-0.022364874 11:1.4676691 12:1.0553848 13:0.37810197 14:-0.059450996 15:-0.10530481 16:0.55797547 
8192 8192 2201.524987480967 8192 8192 8192 0 8192 0 8192 8192 8192 0 8192 0 3134.512771423641 0 0 1:2.5905289 2:2.123507 3:0.76210309 4:-0.49568639 5:0.1817179 6:-0.6141056 7:0.30837664 8:0.9629969 9:-0.21001975 10:-0.022364874 11:-0.43561388 12:-0.43658878 13:-0.71625974 14:-0.96866141 15:-0.10530481 16:-0.69612616 
8192 0 0 8192 8192 8192 8192 0 0 8192 8192 8192 0 8192 0 8192 2397.550977821139 0 1:-0.36941486 2:0.078433229 3:0.3010933 4:0.28499574 5:-1.4140485 6:0.48214449 7:0.25482935 8:0.64141388 9:-0.21001975 10:-0.022364874 11:-0.43561388 12:-0.43658878 13:-0.71625974 14:-0.69589829 15:-0.10530481 16:1.0140124 
8192 8192 0 8192 8192 8192 8192 8192 0 8192 8192 8192 8192 0 0 8192 0 0 1:-0.73940783 2:0.26434903 3:-0.91835195 4:-1.1950475 5:0.53633267 6:-2.2584807 7:-1.7085715 8:0.86841366 9:-0.21001975 10:-0.022364874 11:-0.43561388 12:-0.43658878 13:1.4724637 14:1.3952857 15:-0.10530481 16:-0.69612616 
8192 0 0 8192 8192 8192 8192 8192 8192 8192 8192 8192 0 8192 0 8192 0 0 1:0.74056406 2:0.45026483 3:-0.99270837 4:-0.26798744 5:-1.4140485 6:0.84756119 7:-1.3158913 8:-0.020668803 9:-0.21001975 10:-0.022364874 11:-0.43561388 12:-0.43658878 13:-0.71625974 14:-0.96866141 15:-0.10530481 16:-0.24008921 
8192 0 0 8192 0 0 8192 8192 8192 8192 7072.054870193119 4014.677584211901 1959.076057489683 8192 0 0 7767.619371576186 0 1:2.7755254 2:2.8671703 3:1.5800237 4:0.70786523 5:0.71364005 6:0.66485284 7:-0.20924721 8:1.3413299 9:-0.21001975 10:-0.022364874 11:1.4676691 12:1.0553848 13:-0.71625974 14:-0.78681933 15:-0.10530481 16:-0.24008921 
8192 8192 0 8192 0 0 8192 8192 8192 0 8192 0 0 1686.206549303588 0 0 7384.547125014694 0 1:1.850543 2:1.193928 3:-0.73989655 4:0.18741047 5:0.53633267 6:0.66485284 7:0.64750952 8:-0.24766858 9:-0.21001975 10:-0.022364874 11:-0.43561388 12:1.0553848 13:-0.71625974 14:-0.69589829 15:-0.10530481 16:-0.69612616 
8192 8192 8192 8192 8192 8192 8192 8192 0 8192 8192 8192 8192 8192 0 0 8192 0 1:-0.18441837 2:0.078433229 3:0.65800411 4:0.25246732 5:0.71364005 6:-0.2486889 7:0.32622574 8:1.1899967 9:-0.21001975 10:-0.022364874 11:1.4676691 12:-0.43658878 13:-0.71625974 14:-0.42313516 15:-0.10530481 16:2.1541048 
8192 0 0 0 0 0 0 0 0 0 0 8192 0 0 0 8192 0 0 1:-0.73940783 2:-1.4088932 3:-1.0224509 4:0.78918628 5:-1.5913559 6:-1.5276473 7:-1.2087967 8:-0.15308534 9:-0.21001975 10:-0.022364874 11:-0.43561388 12:-0.43658878 13:1.4724637 14:1.3952857 15:-0.10530481 16:2.0400956 
8192 0 0 8192 1538.169325522309 8192 0 8192 8192 0 3950.641346706584 8192 0 2156.927302077799 8192 597.982571627683 0 0 1:-0.36941486 2:-0.66522998 3:-0.14504521 4:-1.1137264 5:-1.5913559 6:0.66485284 7:-1.8692134 8:-0.039585451 9:-0.21001975 10:-0.022364874 11:-0.43561388 12:1.0553848 13:-0.71625974 14:-0.42313516 15:-0.10530481 16:2.1541048 
8192 0 0 0 0 0 8192 0 8192 0 0 0 0 0 0 0 0 0 1:0.1855746 2:-0.29339837 3:-0.42759959 4:0.74039365 5:0.0044105211 6:0.66485284 7:0.59396222 8:-0.60708489 9:-0.21001975 10:-0.022364874 11:-0.43561388 12:1.0553848 13:-0.71625974 14:0.21331213 15:-0.10530481 16:1.3560401 
8192 8192 0 8192 8192 8192 8192 8192 0 8192 8192 0 8192 0 0 0 0 0 1:-0.73940783 2:-1.0370616 3:-0.72502526 4:1.0168852 5:0.53633267 6:0.48214449 7:-1.0124566 8:0.64141388 9:-0.21001975 10:-0.022364874 11:-0.43561388 12:-0.43658878 13:1.4724637 14:1.3952857 15:-0.10530481 16:-0.24008921 
8192 8192 0 0 8192 8192 3213.554797424585 0 0 5470.148477786527 6888.725742797202 5917.878732749606 0 0 0 1789.251271319974 3931.234974071561 0 1:-0.73940783 2:0.078433229 3:-0.65066885 4:0.62654417 5:0.53633267 6:0.48214449 7:-1.7085715 8:-1.6664172 9:-0.21001975 10:-0.022364874 11:-0.43561388 12:-2.6745492 13:1.4724637 14:1.3952857 15:-0.10530481 16:0.32995699 
8192 8192 0 0 8192 0 8192 8192 8192 0 0 0 1902.284844780342 0 769.2177060138688 8192 8192 0 1:-0.73940783 2:-1.0370616 3:0.89594464 4:-0.54447903 5:1.600177 6:0.66485284 7:-1.6014769 8:0.33874751 9:-0.21001975 10:-0.022364874 11:-0.43561388 12:1.0553848 13:1.4724637 14:1.3952857 15:-0.10530481 16:-0.24008921 
8192 0 0 8192 8192 8192 8192 0 8192 8192 6646.287931394577 8192 0 8192 1445.542335323555 0 0 0 1:0.37057109 2:0.82209644 3:0.33083587 4:0.77292207 5:-1.4140485 6:-1.1622306 7:0.25482935 8:1.4359131 9:-0.21001975 10:-0.022364874 11:-0.43561388 12:-0.43658878 13:-0.71625974 14:-0.42313516 15:-0.10530481 16:-1.0381539 
8192 0 2160.686256303965 288.952482403251 1023.159187247132 3328.407306485956 0 0 0 3501.921724318721 996.8106978438012 6698.330616053173 0 678.2752993144834 3992.139211542808 0 0 0 1:4.9954832 2:4.3544967 3:1.0297862 4:0.75665786 5:0.53633267 6:-1.5276473 7:-1.0124566 8:0.75491377 9:-0.21001975 10:-0.022364874 11:-0.43561388 12:-0.43658878 13:-0.71625974 14:-0.96866141 15:-0.10530481 16:-1.0381539 
8192 8192 0 8192 0 8192 8192 8192 0 8192 8192 8192 0 0 0 0 0 0 1:-0.73940783 2:-1.0370616 3:1.0149149 4:-0.10534533 5:0.0044105211 6:-0.6141056 7:-1.0660039 8:0.30091422 9:-0.21001975 10:-0.022364874 11:-0.43561388 12:-0.43658878 13:1.4724637 14:1.3952857 15:-0.10530481 16:1.0140124 
8192 8192 0 8192 8192 4801.986197260319 8192 8192 8192 8192 0 0 8192 8192 0 0 0 0 1:-0.55441134 2:-0.10748257 3:-0.84399553 4:0.35005258 5:1.4228696 6:0.66485284 7:-0.94106026 8:0.33874751 9:-0.21001975 10:-0.022364874 11:-0.43561388 12:1.0553848 13:-0.71625974 14:-0.69589829 15:-0.10530481 16:-0.24008921 
8192 0 0 0 8192 0 8192 0 0 1812.255578937191 4386.731112556586 0 0 0 1617.147961679147 0 0 0 1:-0.73940783 2:-0.85114578 3:-0.38298574 4:-1.1137264 5:-0.35020424 6:0.66485284 7:-1.7799679 8:0.33874751 9:-0.21001975 10:-0.022364874 11:-0.43561388 12:1.0553848 13:1.4724637 14:1.3952857 15:-0.10530481 16:-0.69612616 
8192 0 0 8192 8192 0 8192 0 0 8192 0 8192 0 0 0 0 0 0 1:-0.55441134 2:-0.66522998 3:1.0149149 4:0.77292207 5:-1.5913559 6:-0.2486889 7:-0.15569992 8:1.0008302 9:-0.21001975 10:-0.022364874 11:-0.43561388 12:-0.43658878 13:-0.71625974 14:-0.69589829 15:-0.10530481 16:-0.58211692 
8192 0 0 8192 8192 8192 1889.403385747905 0 0 0 0 8192 0 8192 5913.078598043615 8192 8192 0 1:-0.18441837 2:-0.85114578 3:0.34570715 4:-1.2113117 5:-1.4140485 6:-0.065980552 7:1.1115861 8:0.58466394 9:-0.21001975 10:-0.022364874 11:-0.43561388 12:-0.43658878 13:-0.71625974 14:-0.96866141 15:-0.10530481 16:-0.24008921 
8192 0 0 8192 8192 8192 8192 3551.460462514831 0 8192 8192 0 8192 0 0 0 0 0 1:-0.73940783 2:-0.47931418 3:-0.82912425 4:-1.2438401 5:-1.4140485 6:-0.2486889 7:0.25482935 8:0.56574729 9:-0.21001975 10:-0.022364874 11:-0.43561388 12:-0.43658878 13:1.4724637 14:1.3952857 15:-0.10530481 16:-0.24008921 
8192 7797.15763519797 0 8192 8192 0 8192 8192 8192 8192 0 8192 0 8192 0 0 0 0 1:0.00057811402 2:-0.29339837 3:0.078024048 4:1.7325105 5:0.71364005 6:0.66485284 7:0.32622574 8:1.0575801 9:-0.21001975 10:-0.022364874 11:1.4676691 12:1.0553848 13:-0.71625974 14:-0.78681933 15:-0.10530481 16:2.1541048 
8192 0 1272.084199916157 8192 0 0 0 8192 8192 0 6845.02183781677 0 0 0 0 0 0 0 1:-0.73940783 2:-1.4088932 3:-0.73989655 4:-0.30051586 5:0.53633267 6:-1.5276473 7:0.64750952 8:-0.15308534 9:-0.21001975 10:-0.022364874 11:-0.43561388 12:2.5473585 13:1.4724637 14:1.3952857 15:-0.10530481 16:2.0400956 
8192 0 0 8192 8192 0 8192 6114.612444808155 8192 8192 8192 8192 8192 8192 0 3139.1110261404 2934.9538808316 0 1:0.74056406 2:0.078433229 3:-1.0373222 4:0.28499574 5:0.71364005 6:0.66485284 7:-0.99460755 8:-0.60708489 9:-0.21001975 10:-0.022364874 11:1.4676691 12:1.0553848 13:-0.71625974 14:0.12239109 15:-0.10530481 16:-1.0381539 
8192 0 0 0 0 0 0 0 8192 0 0 0 0 0 0 0 0 0 1:-0.73940783 2:-1.0370616 3:0.31596458 4:1.1795273 5:-1.5913559 6:0.66485284 7:0.46901853 8:0.81166371 9:-0.21001975 10:-0.022364874 11:-0.43561388 12:1.0553848 13:1.4724637 14:1.3952857 15:-0.10530481 16:-0.24008921 
8192 8192 0 8192 8192 8192 8192 8192 0 8192 8192 8192 8192 0 8192 0 0 0 1:-0.18441837 2:-0.10748257 3:-0.9629658 4:1.2933768 5:0.89094744 6:-1.5276473 7:1.2365298 8:1.4169965 9:-0.21001975 10:-0.022364874 11:-0.43561388 12:-0.43658878 13:-0.71625974 14:-0.96866141 15:-0.10530481 16:-0.92414464 
8192 8192 8192 8192 8192 0 8192 8192 8192 8192 0 8192 0 3914.859834173379 0 0 6272.950976785714 0 1:0.74056406 2:0.63618063 3:-0.84399553 4:0.98435682 5:0.1817179 6:0.66485284 7:-1.5479296 8:-0.96650121 9:-0.21001975 10:-0.022364874 11:-0.43561388 12:1.0553848 13:-0.71625974 14:-0.69589829 15:-0.10530481 16:-0.69612616 
8192 0 0 0 6424.262735681644 0 0 0 0 8192 3641.038236147134 0 288.7704659441511 0 0 0 0 0 1:-0.92440431 2:-1.2229774 3:-2.494708 4:0.30125995 5:-0.88212639 6:0.66485284 7:1.1294352 8:-0.96650121 9:4.7608618 10:-0.022364874 11:-0.43561388 12:1.0553848 13:0.37810197 14:-0.059450996 15:-0.10530481 16:0.55797547 
8192 0 0 8192 8192 8192 0 0 0 0 0 8192 0 0 0 8192 0 0 1:0.37057109 2:-0.29339837 3:1.2677267 4:-1.1950475 5:-1.4140485 6:-1.5276473 7:-0.13785082 8:-0.15308534 9:-0.21001975 10:-0.022364874 11:-0.43561388 12:-0.43658878 13:-0.71625974 14:-0.96866141 15:-0.10530481 16:-0.24008921 
8192 8192 8192 8192 0 8192 8192 8192 0 8192 1764.927308100403 8192 0 0 0 5299.043280460719 0 0 1:-0.73940783 2:-1.0370616 3:1.3123406 4:0.18741047 5:0.0044105211 6:-1.5276473 7:-0.3877382 8:1.6061629 9:-0.21001975 10:-0.022364874 11:-0.43561388 12:-0.43658878 13:1.4724637 14:1.3952857 15:-0.10530481 16:1.8120771 
8192 8192 5390.247930913754 8192 8192 8192 8192 8192 0 8192 8192 0 574.0189047115131 1006.439228084349 0 0 61.9629163563222 0 1:-0.73940783 2:-0.10748257 3:-0.84399553 4:1.22832 5:0.53633267 6:-0.2486889 7:-1.0124566 8:-1.0610844 9:-0.21001975 10:-0.022364874 11:-0.43561388 12:-0.43658878 13:1.4724637 14:1.3952857 15:-0.10530481 16:-1.0381539 
8192 0 0 8192 8192 8192 8192 0 0 8192 8192 8192 8192 8192 0 8192 0 0 1:-0.36941486 2:0.078433229 3:-0.91835195 4:-1.1299906 5:-1.4140485 6:0.29943614 7:-0.13785082 8:-0.38008512 9:-0.21001975 10:-0.022364874 11:-0.43561388 12:-0.43658878 13:-0.71625974 14:-0.69589829 15:-0.10530481 16:2.1541048 
8192 961.5203579692966 0 8192 8192 0 8192 1546.113427695346 0 0 5200.448305158141 0 0 0 0 0 0 0 1:-0.73940783 2:-0.85114578 3:-1.1860351 4:-1.0161412 5:0.89094744 6:-0.2486889 7:0.34407484 8:0.56574729 9:-0.21001975 10:-0.022364874 11:-0.43561388 12:4.0393321 13:1.4724637 14:1.3952857 15:-0.10530481 16:0.32995699 
8192 8192 7901.478992699241 8192 8192 8192 8192 8192 8192 8192 8192 8192 889.5695942135119 8192 8192 8192 8192 0 1:0.55556757 2:0.45026483 3:-0.63579756 4:0.80545049 5:1.600177 6:-0.065980552 7:0.18343295 8:0.58466394 9:-0.21001975 10:-0.022364874 11:-0.43561388 12:-0.43658878 13:-0.71625974 14:-0.96866141 15:-0.10530481 16:0.32995699 
8192 8192 8192 8192 0 0 8192 8192 8192 8044.966374186801 0 8192 0 8192 8192 0 8192 0 1:1.48055 2:0.82209644 3:0.73236052 4:0.78918628 5:0.0044105211 6:0.84756119 7:-1.0660039 8:0.35766416 9:-0.21001975 10:-0.022364874 11:-0.43561388 12:-0.43658878 13:-0.71625974 14:-0.78681933 15:-0.10530481 16:0.32995699 
0 0 0 0 0 0 2969.263990446477 0 8192 0 0 0 0 0 0 0 0 0 1:-0.73940783 2:-1.0370616 3:-0.88860938 4:0.78918628 5:-0.88212639 6:0.66485284 7:-1.440835 8:-0.039585451 9:-0.21001975 10:-0.022364874 11:-0.43561388 12:1.0553848 13:1.4724637 14:1.3952857 15:-0.10530481 16:1.6980679 
8192 0 1013.142536055599 8192 8192 8192 8192 3423.496429536216 0 8192 8192 0 5907.096936458655 0 0 8192 0 0 1:-0.73940783 2:-0.85114578 3:-0.41272831 4:0.90303576 5:-1.4140485 6:-2.2584807 7:1.8433991 8:0.20633097 9:-0.21001975 10:-0.022364874 11:-0.43561388 12:-0.43658878 13:1.4724637 14:1.3952857 15:-0.10530481 16:-0.24008921 
8192 0 0 213.7823416643939 0 8192 8192 7922.111248480833 0 0 0 8192 0 0 0 6480.672895845484 0 0 1:-0.73940783 2:-1.2229774 3:1.1190139 4:1.309641 5:-1.4140485 6:-1.5276473 7:-0.24494541 8:1.4169965 9:-0.21001975 10:-0.022364874 11:-0.43561388 12:-0.43658878 13:1.4724637 14:1.3952857 15:-0.10530481 16:0.55797547 
8192 0 0 0 8192 0 8192 0 8192 0 0 8192 0 0 0 0 5886.428756747114 0 1:-0.55441134 2:-1.0370616 3:1.0000436 4:0.93556418 5:-1.4140485 6:0.66485284 7:1.2900771 8:1.0575801 9:-0.21001975 10:-0.022364874 11:-0.43561388 12:1.0553848 13:-0.71625974 14:-0.96866141 15:-0.10530481 16:-0.58211692 
8192 0 8192 8192 8192 8192 8192 0 0 8192 8192 0 0 8192 0 0 0 0 1:-0.73940783 2:-0.47931418 3:1.178499 4:-1.2113117 5:0.35902529 6:1.5783946 7:-0.35204 8:1.0954134 9:-0.21001975 10:-0.022364874 11:-0.43561388 12:-0.43658878 13:1.4724637 14:1.3952857 15:-0.10530481 16:-0.24008921 
8192 0 0 5601.237087021058 0 0 8192 0 0 8192 0 8192 0 8192 8192 0 0 0 1:-0.55441134 2:-0.66522998 3:0.3010933 4:0.90303576 5:-1.4140485 6:0.48214449 7:0.25482935 8:-0.98541786 9:-0.21001975 10:-0.022364874 11:-0.43561388 12:-0.43658878 13:-0.71625974 14:-0.69589829 15:-0.10530481 16:1.8120771 
8192 2935.089681234105 0 0 0 1939.110659169614 0 0 0 8192 8192 2138.330822873241 0 0 8192 0 4689.299665067238 0 1:-0.73940783 2:-1.0370616 3:1.5056673 4:1.0168852 5:-1.4140485 6:-0.065980552 7:0.094187462 8:0.58466394 9:-0.21001975 10:-0.022364874 11:-0.43561388 12:-0.43658878 13:1.4724637 14:1.3952857 15:-0.10530481 16:-0.24008921 
8192 0 0 2251.990286386406 0 0 8192 0 8192 0 0 0 0 0 0 0 8192 0 1:0.00057811402 2:-0.47931418 3:-1.0373222 4:0.72412944 5:-0.35020424 6:0.66485284 7:-0.066454425 8:1.3413299 9:-0.21001975 10:-0.022364874 11:-0.43561388 12:1.0553848 13:-0.71625974 14:-0.96866141 15:-0.10530481 16:-0.24008921 
8192 8192 0 0 8192 8192 8192 8192 0 8192 0 0 0 0 0 0 0 0 1:-0.73940783 2:-1.0370616 3:-0.56144114 4:-1.1137264 5:0.89094744 6:-0.43139725 7:-0.97675845 8:-0.43683506 9:-0.21001975 10:-0.022364874 11:-0.43561388 12:-0.43658878 13:1.4724637 14:1.3952857 15:-0.10530481 16:-0.24008921 
