svm_type c_svc
kernel_type rbf
gamma 0.0078125
nr_class 19
total_sv 7753
rho 0.98998 0.171631 1.05007 -0.0625678 4.91721 4.34296 -4.28226 -1.6368 -1.07403 4.3429 0.116879 -0.0329022 -2.42611 1.01502 3.93876 2.32976 -1.55038 -1.80178 -0.264168 -1.21026 -1.40157 1.02968 -0.841062 -1.67685 -0.677157 -2.84622 -0.773455 -0.961392 -0.242587 -1.45647 -0.455483 0.753582 -0.952643 -1.36543 -2.00143 0.655485 -1.23736 2.13751 5.2977 -3.04934 -1.34701 -0.6314 0.0858175 -1.52854 0.226578 -1.62368 1.26922 2.88422 0.608487 -1.44415 -2.07992 0.943522 0.108753 0.395974 -2.27764 -0.98946 0.442786 0.588823 -3.5896 -0.77067 -3.58084 0.186976 -2.27108 0.62108 -3.65557 -2.13319 1.95793 3.01241 -2.398 -0.337892 -1.86057 3.47122 -0.235062 0.873383 -0.98185 1.45757 2.83983 1.50766 -2.21962 -1.79557 1.13727 -6.77829 -3.74903 -4.0527 -1.1845 -2.22653 -0.592411 -2.35047 -1.53678 -0.737198 -2.35768 -2.25618 -2.04341 -6.31055 -6.83334 -2.77981 -0.903565 -6.63431 -1.96598 -7.54935 -2.989 -0.726953 -0.762422 -4.34413 -2.13652 3.27136 1.62602 7.00969 3.7082 1.30843 -0.119731 1.85351 3.64709 4.90511 -0.270441 -2.14877 3.29388 1.22473 0.23976 0.564427 0.500968 1.82681 3.21528 3.53395 -0.596396 -1.69376 2.43712 1.34276 1.04167 -1.84156 -1.57299 -0.693201 -1.18654 -3.61011 -1.76009 -1.35664 -3.18122 -2.76321 -0.568297 -0.386588 -1.36213 -3.02338 -1.95142 1.47117 -1.26669 1.75178 3.81176 2.35815 -2.00709 -1.91132 -2.23436 1.64753 2.74041 0.830169 -0.888691 -1.89178 4.72615 2.51582 3.41391 1.19354 -2.54096 4.6892 2.63908 -0.454895 -1.97958 -2.33011 -2.07917 -2.16877 -3.04689 -2.15873 -2.29886
label 4 17 12 13 2 7 5 15 19 14 9 1 3 16 18 10 6 11 8
nr_sv 471 1407 406 78 653 791 374 490 394 434 568 341 469 144 323 146 166 97 1
SV
32 32 0 32 32 0 30.2420788589995 32 32 32 32 32 0 32 0 32 21.06539432257168 0 1:1.2955535 2:1.0080122 3:-0.84399553 4:-0.80470641 5:0.0044105211 6:0.66485284 7:0.59396222 8:1.3413299 9:-0.21001975 10:-0.022364874 11:-0.43561388 12:1.0553848 13:-0.71625974 14:-0.78681933 15:-0.10530481 16:-1.0381539 
32 0 0 32 32 32 0 0 1.876497075533058 32 0 32 0 32 0 19.95887765446803 0 0 1:0.37057109 2:-0.29339837 3:1.3123406 4:-1.2601043 5:-1.4140485 6:-0.2486889 7:-1.1909476 8:0.56574729 9:-0.21001975 10:-0.022364874 11:-0.43561388 12:-0.43658878 13:-0.71625974 14:-0.42313516 15:-0.10530481 16:-0.24008921 
32 32 0 32 32 0 32 32 0 32 32 32 32 32 0 20.95016821634241 32 0 1:-0.73940783 2:-0.85114578 3:0.82158823 4:-1.1137264 5:0.71364005 6:0.66485284 7:-0.99460755 8:-0.96650121 9:-0.21001975 10:-0.022364874 11:1.4676691 12:1.0553848 13:1.4724637 14:1.3952857 15:-0.10530481 16:-0.92414464 
32 32 0 0 32 32 32 32 32 32 0 32 0 32 32 29.31957009379124 0 0 1:-0.55441134 2:-1.2229774 3:-0.97783708 4:1.2933768 5:0.89094744 6:0.48214449 7:-1.6728733 8:-0.98541786 9:-0.21001975 10:-0.022364874 11:-0.43561388 12:-0.43658878 13:-0.71625974 14:-0.42313516 15:-0.10530481 16:1.5840586 
32 0.7887531814071084 8.933288727877155 0 32 0 32 32 32 6.732955208349313 0 0 0 15.62039743731146 8.116934725232392 0 0 0 1:0.37057109 2:-0.29339837 3:-0.65066885 4:0.18741047 5:0.53633267 6:0.66485284 7:-1.7085715 8:-0.96650121 9:-0.21001975 10:-0.022364874 11:-0.43561388 12:1.0553848 13:-0.71625974 14:0.12239109 15:-0.10530481 16:-1.0381539 
32 32 0 0 32 32 32 32 0 32 32 0 0 32 19.29618009736553 0 0 0 1:-0.73940783 2:-0.85114578 3:0.82158823 4:0.70786523 5:-1.4140485 6:0.84756119 7:-1.4586841 8:1.0764968 9:-0.21001975 10:-0.022364874 11:-0.43561388 12:-0.43658878 13:1.4724637 14:1.3952857 15:-0.10530481 16:-0.24008921 
32 32 0 32 32 32 0 32 0 32 32 32 0 25.89451107873337 0 0 0 0 1:2.2205359 2:1.9375912 3:1.178499 4:-0.77217798 5:0.53633267 6:-1.5276473 7:-1.0124566 8:0.24416427 9:-0.21001975 10:-0.022364874 11:-0.43561388 12:-0.43658878 13:-0.71625974 14:-0.96866141 15:-0.10530481 16:-0.24008921 
32 32 4.983201036156377 32 32 0 32 32 32 32 0 32 0 32 0 32 0 0 1:0.92556054 2:0.63618063 3:-1.1562925 4:-0.056552695 5:0.1817179 6:0.66485284 7:-0.70902197 8:-1.2691676 9:-0.21001975 10:-0.022364874 11:-0.43561388 12:1.0553848 13:-0.71625974 14:-0.96866141 15:-0.10530481 16:-1.0381539 
32 23.17970523329449 0 0 32 0 32 11.08590286708045 32 0 0 0 0 0 0 23.11078785610284 0 0 1:-0.73940783 2:-0.47931418 3:0.67287539 4:-1.1299906 5:-0.35020424 6:1.2129779 7:1.7184554 8:-1.5907506 9:-0.21001975 10:-0.022364874 11:-0.43561388 12:2.5473585 13:1.4724637 14:1.3952857 15:-0.10530481 16:-1.0381539 
32 24.63945877683386 32 32 32 32 0 32 32 32 0 32 0 32 32 32 29.36381818390237 0 1:0.37057109 2:-0.10748257 3:0.19699432 4:0.78918628 5:-2.1232781 6:-0.97952229 7:-0.17354902 8:-1.4205008 9:-0.21001975 10:-0.022364874 11:-0.43561388 12:-0.43658878 13:-0.71625974 14:-0.96866141 15:-0.10530481 16:-1.0381539 
32 0 0 0 0 0 0 0 32 0 0 32 0 32 18.80953722343918 32 11.22156781908151 0 1:0.1855746 2:-0.47931418 3:1.386697 4:-0.49568639 5:-2.1232781 6:0.66485284 7:-0.17354902 8:-0.96650121 9:-0.21001975 10:-0.022364874 11:-0.43561388 12:1.0553848 13:-0.71625974 14:-0.42313516 15:-0.10530481 16:1.9260863 
32 32 0 32 32 32 32 32 0 32 32 0 32 32 0 0 0 0 1:-0.73940783 2:2.6812545 3:0.24160817 4:-0.12160954 5:0.89094744 6:0.66485284 7:1.2365298 8:-0.96650121 9:-0.21001975 10:-0.022364874 11:-0.43561388 12:1.0553848 13:1.4724637 14:1.3952857 15:-0.10530481 16:-1.0381539 
32 0 0 0 32 0 32 0 32 0 0 0 0 0 0 32 0 0 1:0.00057811402 2:-0.29339837 3:0.3010933 4:0.75665786 5:-1.4140485 6:0.66485284 7:0.25482935 8:-0.24766858 9:-0.21001975 10:-0.022364874 11:-0.43561388 12:1.0553848 13:-0.71625974 14:-0.42313516 15:-0.10530481 16:-0.24008921 
32 32 0 32 32 0 32 32 0 32 32 32 32 32 0 0 0 0 1:-0.92440431 2:-0.29339837 3:-2.7921337 4:-0.54447903 5:0.71364005 6:0.66485284 7:1.0401897 8:-0.68275149 9:4.7608618 10:-0.022364874 11:1.4676691 12:1.0553848 13:0.37810197 14:-0.059450996 15:-0.10530481 16:0.55797547 
32 0 0 32 32 0 32 0 32 32 32 0 14.53977116687553 0 0 0 0 0 1:-0.55441134 2:-0.66522998 3:-0.73989655 4:1.1795273 5:-0.35020424 6:0.66485284 7:-0.066454425 8:-0.68275149 9:-0.21001975 10:-0.022364874 11:-0.43561388 12:1.0553848 13:-0.71625974 14:0.84975942 15:-0.10530481 16:-0.24008921 
32 32 0 32 32 15.86125509455518 32 32 0 32 0 0 32 32 0 0 0 0 1:-0.73940783 2:0.63618063 3:1.0297862 4:1.2933768 5:0.71364005 6:0.66485284 7:-0.99460755 8:-0.96650121 9:-0.21001975 10:-0.022364874 11:-0.43561388 12:1.0553848 13:1.4724637 14:1.3952857 15:-0.10530481 16:-1.0381539 
32 0 0 20.08471886110808 32 0 0 0 32 0 0 0 0 0 32 0 0 0 1:-0.18441837 2:-0.85114578 3:-0.35324317 4:-1.2113117 5:0.53633267 6:0.66485284 7:-1.0124566 8:-1.2691676 9:-0.21001975 10:-0.022364874 11:-0.43561388 12:1.0553848 13:-0.71625974 14:1.1225225 15:-0.10530481 16:1.9260863 
32 32 0 32 32 32 32 32 0 32 32 32 32 0 0 32 0 0 1:-0.73940783 2:-0.66522998 3:1.4759247 4:-1.1787833 5:0.53633267 6:-0.43139725 7:-1.0124566 8:-0.096335395 9:-0.21001975 10:-0.022364874 11:-0.43561388 12:-0.43658878 13:1.4724637 14:1.3952857 15:-0.10530481 16:-0.69612616 
32 3.559788808206895 0 32 30.31269867522425 5.521365218288539 32 32 32 32 0 32 0 32 0 0 0 0 1:-0.36941486 2:-0.47931418 3:1.2231129 4:0.17114626 5:-0.17289686 6:0.66485284 7:-1.083853 8:-0.96650121 9:-0.21001975 10:-0.022364874 11:-0.43561388 12:1.0553848 13:-0.71625974 14:-0.42313516 15:-0.10530481 16:2.6101418 
32 14.32216212318254 0 32 24.91908094337914 0 32 32 32 0 32 23.65512014469169 0 0 0 0 0 0 1:-0.36941486 2:-0.29339837 3:0.80671694 4:0.2362031 5:-0.88212639 6:-1.1622306 7:-1.440835 8:0.26308092 9:-0.21001975 10:-0.022364874 11:-0.43561388 12:4.0393321 13:-0.71625974 14:-0.96866141 15:-0.10530481 16:-0.46810768 
32 32 0 32 32 32 32 32 0 32 32 0 32 0 0 0 0 0 1:-0.73940783 2:0.26434903 3:0.95542978 4:1.1795273 5:0.89094744 6:0.66485284 7:0.68320772 8:-0.96650121 9:-0.21001975 10:-0.022364874 11:-0.43561388 12:1.0553848 13:1.4724637 14:1.3952857 15:-0.10530481 16:-0.24008921 
32 0 0 0 0 0 7.616421790799557 0 32 16.1047917149885 0 0 0 21.83157292965064 32 0 32 0 1:0.00057811402 2:-0.29339837 3:1.5354098 4:1.2120558 5:-1.4140485 6:0.66485284 7:-0.79826747 8:0.33874751 9:-0.21001975 10:-0.022364874 11:-0.43561388 12:1.0553848 13:-0.71625974 14:0.75883838 15:-0.10530481 16:1.6980679 
32 32 0 32 32 32 32 32 0 32 32 32 0 0 0 0 13.57954999553512 0 1:-0.73940783 2:-0.85114578 3:0.16725175 4:1.309641 5:0.89094744 6:-0.97952229 7:-0.29849271 8:-1.4205008 9:-0.21001975 10:-0.022364874 11:-0.43561388 12:-0.43658878 13:1.4724637 14:1.3952857 15:-0.10530481 16:0.32995699 
32 32 0 32 32 0 32 32 0 32 32 32 0 32 0 0 0 0 1:-0.18441837 2:-0.10748257 3:0.31596458 4:1.2608484 5:0.0044105211 6:-0.2486889 7:0.59396222 8:1.4548297 9:-0.21001975 10:-0.022364874 11:-0.43561388 12:-0.43658878 13:-0.71625974 14:-0.96866141 15:-0.10530481 16:-0.92414464 
32 32 0 32 32 32 32 32 0 32 32 32 32 32 0 0 10.08151395309253 0 1:0.1855746 2:0.82209644 3:-1.2306489 4:0.75665786 5:0.53633267 6:-0.6141056 7:0.64750952 8:-1.4015841 9:-0.21001975 10:-0.022364874 11:-0.43561388 12:-0.43658878 13:-0.71625974 14:-0.42313516 15:-0.10530481 16:-0.24008921 
32 32 0 32 32 32 32 32 0 32 32 0 32 0 0 18.36489933300627 0 0 1:-0.73940783 2:-0.29339837 3:-0.97783708 4:-1.1137264 5:1.4228696 6:0.48214449 7:0.71890591 8:-0.98541786 9:-0.21001975 10:-0.022364874 11:-0.43561388 12:-0.43658878 13:1.4724637 14:1.3952857 15:-0.10530481 16:-0.69612616 
32 32 0 32 32 32 32 32 0 32 32 32 32 32 0 22.42168110339717 0 0 1:-0.55441134 2:1.9375912 3:0.31596458 4:0.70786523 5:-0.17289686 6:-2.2584807 7:1.1651334 8:-0.20983528 9:-0.21001975 10:-0.022364874 11:-0.43561388 12:-0.43658878 13:-0.71625974 14:-0.42313516 15:-0.10530481 16:-0.69612616 
32 0 0 0 0 31.5437365506905 0 0 0 0.5753750083851096 0 16.51178211988928 0 32 13.92517034995416 32 0 0 1:-0.36941486 2:-0.29339837 3:0.3010933 4:-1.1137264 5:-1.4140485 6:0.84756119 7:1.4150208 8:-1.6285839 9:-0.21001975 10:-0.022364874 11:-2.3388968 12:-0.43658878 13:1.4724637 14:-0.33221412 15:-0.10530481 16:-0.24008921 
32 32 32 0 32 32 32 9.58464624972682 0 32 32 0 0 32 0 32 0 0 1:-0.73940783 2:-1.0370616 3:0.91081593 4:-1.1137264 5:1.2455622 6:1.5783946 7:-0.95890935 8:1.0954134 9:-0.21001975 10:-0.022364874 11:-0.43561388 12:-0.43658878 13:1.4724637 14:1.3952857 15:-0.10530481 16:-0.69612616 
32 0 0 0 32 0 32 28.21027997613257 32 32 0 32 0 32 0 32 0 0 1:0.00057811402 2:-0.29339837 3:0.24160817 4:0.75665786 5:-1.4140485 6:0.66485284 7:0.25482935 8:-0.96650121 9:-0.21001975 10:-0.022364874 11:-0.43561388 12:1.0553848 13:-0.71625974 14:-0.69589829 15:-0.10530481 16:-0.24008921 
32 32 0 0 32 32 32 0 0 32 32 32 0 32 0 0 0 0 1:-0.73940783 2:-0.47931418 3:0.71748924 4:0.90303576 5:-1.4140485 6:0.48214449 7:-0.79826747 8:-0.98541786 9:-0.21001975 10:-0.022364874 11:-0.43561388 12:-0.43658878 13:1.4724637 14:1.3952857 15:-0.10530481 16:-0.24008921 
32 32 0 0 0 0 0 0 0 0 0 32 0 0 32 32 0 0 1:-0.73940783 2:-1.4088932 3:-0.91835195 4:1.2933768 5:0.0044105211 6:0.48214449 7:-1.7442697 8:-0.98541786 9:-0.21001975 10:-0.022364874 11:-0.43561388 12:-0.43658878 13:1.4724637 14:1.3952857 15:-0.10530481 16:1.6980679 
32 32 0 32 0 32 0 32 32 0 0 32 0 32 32 22.21795383746581 32 0 1:1.850543 2:1.193928 3:-0.84399553 4:1.000621 5:0.53633267 6:-0.065980552 7:-1.0124566 8:-1.0421678 9:-0.21001975 10:-0.022364874 11:-0.43561388 12:-0.43658878 13:-0.71625974 14:-0.96866141 15:-0.10530481 16:-0.24008921 
32 0 0 0 14.25307535441608 0 32 0 16.16051214942632 0 0 0 0 0 0 0 0 0 1:-0.73940783 2:-0.85114578 3:0.3010933 4:1.4560189 5:-1.4140485 6:0.66485284 7:0.25482935 8:1.3413299 9:-0.21001975 10:-0.022364874 11:-0.43561388 12:1.0553848 13:1.4724637 14:1.3952857 15:-0.10530481 16:-0.69612616 
32 32 0 32 32 32 32 0 0 32 32 0 32 0 0 0 0 0 1:-0.73940783 2:-0.66522998 3:0.65800411 4:-1.1137264 5:0.0044105211 6:0.48214449 7:-1.0660039 8:0.64141388 9:-0.21001975 10:-0.022364874 11:-0.43561388 12:-0.43658878 13:1.4724637 14:1.3952857 15:-0.10530481 16:-0.24008921 
32 0 0 32 32 32 32 32 8.742889407679895 32 32 32 0 32 21.40375300936154 32 0 0 1:-0.36941486 2:-0.85114578 3:-1.0373222 4:-1.1950475 5:-0.35020424 6:0.29943614 7:-0.066454425 8:-0.38008512 9:-0.21001975 10:-0.022364874 11:-0.43561388 12:-0.43658878 13:-0.71625974 14:-0.96866141 15:-0.10530481 16:-0.24008921 
32 32 0 32 32 32 0 32 0 32 32 32 0 32 0 0 0 0 1:0.1855746 2:0.63618063 3:-0.76963911 4:-1.3088969 5:0.0044105211 6:-1.1622306 7:-0.72687107 8:-1.7799171 9:-0.21001975 10:-0.022364874 11:-0.43561388 12:-0.43658878 13:-0.71625974 14:-0.69589829 15:-0.10530481 16:-0.69612616 
32 32 0 32 32 32 32 32 0 32 32 32 32 32 0 0 0 0 1:-0.73940783 2:-0.85114578 3:1.0000436 4:0.93556418 5:-0.35020424 6:-0.97952229 7:-0.4234364 8:-1.4205008 9:-0.21001975 10:-0.022364874 11:2.7365244 12:-0.43658878 13:1.4724637 14:1.3952857 15:-0.10530481 16:-0.69612616 
32 32 0 32 32 32 32 32 0 32 32 32 32 32 0 17.70484225329711 0 0 1:-0.55441134 2:0.26434903 3:0.3010933 4:-0.56074324 5:-1.4140485 6:0.48214449 7:0.25482935 8:-0.98541786 9:-0.21001975 10:-0.022364874 11:-0.43561388 12:-0.43658878 13:-0.71625974 14:-0.69589829 15:-0.10530481 16:1.0140124 
32 0 0 32 32 32 32 0 32 0.03342795062686987 32 32 0 32 32 32 32 0 1:-0.18441837 2:-0.85114578 3:0.34570715 4:-1.2113117 5:-1.4140485 6:-0.065980552 7:1.1115861 8:0.58466394 9:-0.21001975 10:-0.022364874 11:-0.43561388 12:-0.43658878 13:-0.71625974 14:-0.96866141 15:-0.10530481 16:-0.24008921 
32 0 0 32 0 0 32 32 32 32 0 32 0 29.20302476588796 0 32 0 0 1:0.92556054 2:1.0080122 3:-0.026074937 4:0.74039365 5:-1.4140485 6:0.66485284 7:-0.79826747 8:0.66033053 9:-0.21001975 10:-0.022364874 11:-0.43561388 12:1.0553848 13:-0.71625974 14:-0.96866141 15:-0.10530481 16:1.5840586 
32 0 0 32 32 0 32 0 0 0 32 0 32 0 0 0 0 0 1:-0.73940783 2:-0.66522998 3:-0.91835195 4:-1.2926327 5:0.0044105211 6:0.66485284 7:-0.3877382 8:0.16849768 9:-0.21001975 10:-0.022364874 11:-0.43561388 12:1.0553848 13:1.4724637 14:1.3952857 15:-0.10530481 16:-0.58211692 
32 32 0 32 32 32 32 23.29141911872943 0 32 32 0 32 0 0 0 0 0 1:-0.73940783 2:-0.10748257 3:1.178499 4:-1.4878033 5:0.53633267 6:-0.43139725 7:-1.0124566 8:-0.43683506 9:-0.21001975 10:-0.022364874 11:-0.43561388 12:-0.43658878 13:1.4724637 14:1.3952857 15:-0.10530481 16:-0.92414464 
32 32 0 32 32 32 32 32 0 32 32 32 0 0 0 5.870966718520882 0 0 1:-0.73940783 2:-0.85114578 3:-0.75476783 4:1.3584337 5:0.53633267 6:-2.0757724 7:-1.0124566 8:1.3791632 9:-0.21001975 10:-0.022364874 11:-0.43561388 12:-0.43658878 13:1.4724637 14:1.3952857 15:-0.10530481 16:-0.12607997 
32 0 0 32 0 0 32 0 32 0 0 0 0 32 32 0 32 0 1:-0.36941486 2:-1.0370616 3:0.76210309 4:0.073560994 5:0.1817179 6:0.66485284 7:0.30837664 8:1.7953294 9:-0.21001975 10:-0.022364874 11:-0.43561388 12:1.0553848 13:-0.71625974 14:0.12239109 15:-0.10530481 16:1.6980679 
32 32 0 32 0 32 0 32 0 32 11.30103747957956 32 0 32 0 0 6.457500733009835 0 1:0.1855746 2:0.63618063 3:-0.97783708 4:-1.0649338 5:0.53633267 6:0.48214449 7:-1.0124566 8:-0.98541786 9:-0.21001975 10:-0.022364874 11:-0.43561388 12:-0.43658878 13:1.4724637 14:-0.69589829 15:-0.10530481 16:1.3560401 
32 32 0 32 32 32 32 32 0 32 32 32 32 32 0 0 32 0 1:-0.18441837 2:0.26434903 3:1.1933703 4:0.90303576 5:0.71364005 6:0.48214449 7:-0.99460755 8:0.64141388 9:-0.21001975 10:-0.022364874 11:1.4676691 12:-0.43658878 13:-0.71625974 14:-0.42313516 15:-0.10530481 16:-0.12607997 
32 32 0 32 32 32 32 0 0 32 32 0 32 32 0 0 0 1.264664925272171 1:-0.73940783 2:0.26434903 3:1.2379842 4:-0.56074324 5:-0.35020424 6:0.48214449 7:-0.4234364 8:-0.98541786 9:-0.21001975 10:-0.022364874 11:-0.43561388 12:-0.43658878 13:1.4724637 14:1.3952857 15:-0.10530481 16:-1.0381539 
32 32 0 32 32 32 32 32 0 32 32 32 0 0 0 32 12.75079030538129 0 1:-0.73940783 2:-0.85114578 3:0.65800411 4:0.80545049 5:0.0044105211 6:-1.5276473 7:-1.0660039 8:-1.515084 9:-0.21001975 10:-0.022364874 11:-0.43561388 12:-0.43658878 13:1.4724637 14:1.3952857 15:-0.10530481 16:1.0140124 
32 32 0 32 32 32 32 32 0 32 32 0 32 0 0 0 15.43217652569381 0 1:-0.73940783 2:-0.85114578 3:-1.3198766 4:-0.30051586 5:0.0044105211 6:-0.43139725 7:0.59396222 8:-0.096335395 9:-0.21001975 10:-0.022364874 11:-0.43561388 12:-0.43658878 13:1.4724637 14:1.3952857 15:-0.10530481 16:0.55797547 
32 13.30628661659058 0 32 32 0 8.325919128228769 16.59003073262946 0 32 32 0 32 0 0 0 0 0 1:-0.92440431 2:-0.47931418 3:-2.3608665 4:-1.3088969 5:-0.88212639 6:0.66485284 7:1.1294352 8:-0.039585451 9:4.7608618 10:-0.022364874 11:0.19881376 12:1.0553848 13:0.37810197 14:-0.059450996 15:-0.10530481 16:0.55797547 
32 0 0 0 0 0 0 0 32 32 28.82915019924035 0 20.3854127613806 0 0 32 0 0 1:-0.73940783 2:-0.47931418 3:1.5354098 4:-1.0324054 5:-1.4140485 6:0.66485284 7:1.2900771 8:-0.039585451 9:-0.21001975 10:-0.022364874 11:-0.43561388 12:1.0553848 13:1.4724637 14:1.3952857 15:-0.10530481 16:0.32995699 
32 0 0 32 32 0 32 0 15.93138940281299 32 0 32 0 32 32 32 0 0 1:0.92556054 2:0.45026483 3:0.34570715 4:1.000621 5:-1.4140485 6:-0.43139725 7:1.1115861 8:-0.096335395 9:-0.21001975 10:-0.022364874 11:-0.43561388 12:-0.43658878 13:-0.71625974 14:0.21331213 15:-0.10530481 16:0.32995699 
32 32 0 31.11202053933124 32 0 32 32 0 32 32 0 32 6.001950346142467 0 0 0 0 1:-0.73940783 2:-0.10748257 3:1.3123406 4:-0.99987694 5:0.0044105211 6:0.66485284 7:-0.3877382 8:1.0575801 9:-0.21001975 10:-0.022364874 11:-0.43561388 12:1.0553848 13:1.4724637 14:1.3952857 15:-0.10530481 16:-0.24008921 
32 0 0 27.84530201990774 32 32 0 0 0 32 32 0 0 0 0 32 0 0 1:-0.73940783 2:-0.85114578 3:-0.15991649 4:-1.1137264 5:-1.4140485 6:-0.43139725 7:-1.4586841 8:-0.43683506 9:-0.21001975 10:-0.022364874 11:-0.43561388 12:-0.43658878 13:1.4724637 14:1.3952857 15:-0.10530481 16:-0.69612616 
32 32 32 32 32 32 32 32 0 32 32 32 0 32 0 0 0 0 1:-0.55441134 2:-0.66522998 3:0.76210309 4:-0.28425165 5:-1.0594338 6:-1.7103557 7:-0.45913459 8:-1.8177504 9:-0.21001975 10:-0.022364874 11:-0.43561388 12:-0.43658878 13:-0.71625974 14:-0.69589829 15:-0.10530481 16:-0.24008921 
32 0 0 0 0 0 32 0 13.99392267632873 32 0 32 0 32 32 2.881099274847092 7.542880870893781 0 1:-0.73940783 2:-0.85114578 3:-0.97783708 4:-0.10534533 5:-0.52751163 6:1.3956862 7:0.54041493 8:-0.90975126 9:-0.21001975 10:-0.022364874 11:-0.43561388 12:-0.43658878 13:1.4724637 14:1.3952857 15:-0.10530481 16:2.1541048 
32 32 0 0 32 32 32 32 0 32 32 0 16.70008802566717 0 0 0 0 0 1:-0.73940783 2:-0.85114578 3:0.82158823 4:-1.0161412 5:-0.17289686 6:-0.065980552 7:-1.7621188 8:0.58466394 9:-0.21001975 10:-0.022364874 11:-0.43561388 12:-0.43658878 13:1.4724637 14:1.3952857 15:-0.10530481 16:-0.24008921 
32 0 0 0 0 0 0 32 32 0 0 0 0 17.05893076425439 32 0 32 0 1:0.37057109 2:-0.29339837 3:-0.65066885 4:0.18741047 5:0.53633267 6:0.66485284 7:-1.7085715 8:-0.96650121 9:-0.21001975 10:-0.022364874 11:-0.43561388 12:1.0553848 13:-0.71625974 14:0.12239109 15:-0.10530481 16:1.3560401 
32 32 0.8018941385654433 32 32 0 32 32 0 32 32 32 0 32 32 0 16.04188823412982 0 1:-0.55441134 2:-0.85114578 3:1.2379842 4:1.1144705 5:0.53633267 6:0.84756119 7:-0.3341909 8:1.549413 9:-0.21001975 10:-0.022364874 11:-0.43561388 12:-0.43658878 13:-0.71625974 14:-0.42313516 15:-0.10530481 16:-0.24008921 
32 32 0 32 0 0 32 0 32 8.380366819617841 0 0 0 0 0 0 0 0 1:-0.36941486 2:0.26434903 3:0.43493485 4:0.74039365 5:-0.35020424 6:0.66485284 7:-1.1017021 8:-0.60708489 9:-0.21001975 10:-0.022364874 11:-2.3388968 12:1.0553848 13:-0.71625974 14:-0.69589829 15:-0.10530481 16:1.8120771 
32 32 32 32 32 32 32 32 32 32 32 32 32 32 0 20.09917765010932 32 0 1:-0.18441837 2:-0.29339837 3:-1.1116786 4:-1.2113117 5:0.71364005 6:0.66485284 7:-0.99460755 8:1.0575801 9:-0.21001975 10:-0.022364874 11:1.4676691 12:1.0553848 13:-0.71625974 14:-0.42313516 15:-0.10530481 16:-0.24008921 
32 0 0 0 32 0 32 0 0 29.04450767219669 20.03329172438478 0 0 0 0 0 0 0 1:-0.73940783 2:-0.85114578 3:-0.36811446 4:0.74039365 5:-1.5913559 6:0.66485284 7:-0.15569992 8:0.33874751 9:-0.21001975 10:-0.022364874 11:-0.43561388 12:1.0553848 13:1.4724637 14:1.3952857 15:-0.10530481 16:-1.0381539 
32 32 24.31796259621111 32 0 0 0 32 32 32 0 32 0 32 32 0 0 0 1:1.2955535 2:0.63618063 3:1.3123406 4:1.618661 5:-0.17289686 6:-0.43139725 7:-1.7621188 8:-1.0800011 9:-0.21001975 10:-0.022364874 11:-0.43561388 12:-0.43658878 13:-0.71625974 14:-0.96866141 15:-0.10530481 16:1.6980679 
32 0 0 0 0 32 0 0 0 0 0 32 0 1.392084304193696 0 0 0 0 1:-0.73940783 2:-0.85114578 3:-0.85886682 4:-1.3088969 5:-0.52751163 6:0.48214449 7:-1.4229859 8:-1.6664172 9:-0.21001975 10:-0.022364874 11:-0.43561388 12:-0.43658878 13:1.4724637 14:1.3952857 15:-0.10530481 16:1.8120771 
32 0 0 0 32 32 0 0 0 3.333334945096848 0 0 0 32 0 32 0 0 1:-0.73940783 2:-0.85114578 3:-0.85886682 4:-1.0161412 5:-0.52751163 6:1.5783946 7:-1.4229859 8:-1.5529173 9:-0.21001975 10:-0.022364874 11:-0.43561388 12:-0.43658878 13:1.4724637 14:1.3952857 15:-0.10530481 16:-0.24008921 
32 0 0 32 32 0 32 0 32 32 0 0 0 0 4.065816142541334 0 0 0 1:-0.55441134 2:-0.85114578 3:0.77697438 4:-1.2601043 5:-1.0594338 6:0.66485284 7:1.4328699 8:-0.96650121 9:-0.21001975 10:-0.022364874 11:-0.43561388 12:1.0553848 13:-0.71625974 14:0.84975942 15:-0.10530481 16:-0.24008921 
32 32 11.54716594982413 32 32 32 32 32 32 32 32 32 32 32 0 0 32 0 1:-0.18441837 2:0.26434903 3:1.1933703 4:-0.57700745 5:1.600177 6:0.66485284 7:0.040640166 8:1.0575801 9:-0.21001975 10:-0.022364874 11:-0.43561388 12:1.0553848 13:-0.71625974 14:-0.42313516 15:-0.10530481 16:-0.69612616 
32 32 0 32 0 0 32 32 32 32 6.137718595851429 0 0 21.84092859570425 0 32 0 0 1:-0.55441134 2:-0.29339837 3:-0.75476783 4:1.0331494 5:-0.88212639 6:0.66485284 7:1.1294352 8:-0.24766858 9:-0.21001975 10:-0.022364874 11:-0.43561388 12:1.0553848 13:1.4724637 14:-0.69589829 15:-0.10530481 16:-0.24008921 
32 32 0 32 32 32 30.8842557062993 0 0 32 0 32 0 32 0 22.82100268207291 0 0 1:0.55556757 2:1.7516754 3:0.33083587 4:0.39884522 5:0.0044105211 6:0.66485284 7:-0.3877382 8:1.5304963 9:-0.21001975 10:-0.022364874 11:-2.3388968 12:-0.43658878 13:-0.71625974 14:-0.96866141 15:-0.10530481 16:-0.92414464 
32 32 32 32 32 32 32 0 0 32 32 32 0 32 0 32 0 0 1:0.00057811402 2:0.45026483 3:1.1338852 4:-1.1625191 5:-1.0594338 6:0.66485284 7:0.27267845 8:1.5304963 9:-0.21001975 10:-0.022364874 11:-0.43561388 12:-0.43658878 13:-0.71625974 14:-0.96866141 15:-0.10530481 16:-0.24008921 
32 32 18.93112122488251 32 32 32 32 32 0 32 32 0 32 15.64746784711136 0 0 0 0 1:-0.73940783 2:-0.10748257 3:-0.73989655 4:1.1144705 5:-1.0594338 6:0.84756119 7:0.52256583 8:1.549413 9:-0.21001975 10:-0.022364874 11:-0.43561388 12:-0.43658878 13:1.4724637 14:1.3952857 15:-0.10530481 16:-1.0381539 
32 32 0 32 32 32 32 32 0 32 32 0 32 0 0 0 0 0 1:-0.73940783 2:-0.10748257 3:-0.84399553 4:0.95182839 5:-1.4140485 6:0.29943614 7:1.1115861 8:1.492663 9:-0.21001975 10:-0.022364874 11:-0.43561388 12:-0.43658878 13:1.4724637 14:1.3952857 15:-0.10530481 16:-1.0381539 
32 0 0 0 32 0 32 0 0 32 2.85931482592747 0 32 0 0 0 0 0 1:-0.73940783 2:-0.10748257 3:-0.27888676 4:-0.44689376 5:-1.4140485 6:0.66485284 7:0.094187462 8:-0.96650121 9:-0.21001975 10:-0.022364874 11:-0.43561388 12:1.0553848 13:1.4724637 14:1.3952857 15:-0.10530481 16:-0.69612616 
32 32 0 32 32 32 32 32 0 32 32 32 0 32 32 0 0 0 1:-0.55441134 2:-0.66522998 3:1.2974693 4:0.91929997 5:1.600177 6:-1.1622306 7:0.73675501 8:0.26308092 9:-0.21001975 10:-0.022364874 11:-0.43561388 12:-0.43658878 13:-0.71625974 14:-0.42313516 15:-0.10530481 16:1.3560401 
32 32 0 0 32 0 32 32 32 0 0 19.75295864956466 0 32 0 0 32 0 1:0.37057109 2:0.078433229 3:0.95542978 4:-0.99987694 5:1.0682548 6:0.66485284 7:-1.6550242 8:1.0575801 9:-0.21001975 10:-0.022364874 11:-0.43561388 12:1.0553848 13:-0.71625974 14:-0.96866141 15:-0.10530481 16:-0.46810768 
32 32 0 32 32 32 32 32 0 32 32 32 32 32 0 32 2.775212108218891 0 1:-0.55441134 2:0.82209644 3:-1.2306489 4:0.17114626 5:-0.17289686 6:0.84756119 7:0.98664239 8:-0.58816825 9:-0.21001975 10:-0.022364874 11:-0.43561388 12:-0.43658878 13:-0.71625974 14:-0.69589829 15:-0.10530481 16:-1.0381539 
32 0 0 32 32 32 0 0 0 32 32 32 18.33251557355485 32 5.338286499263193 32 0 0 1:1.48055 2:1.7516754 3:1.2082416 4:-1.2601043 5:-1.5913559 6:-1.5276473 7:0.915246 8:-1.3070009 9:-0.21001975 10:-0.022364874 11:-0.43561388 12:-0.43658878 13:-0.71625974 14:-0.69589829 15:-0.10530481 16:1.8120771 
32 0 0 32 32 0 0 32 0 0 0 32 0 0 0 32 0 0 1:1.2955535 2:0.63618063 3:0.18212303 4:-1.2601043 5:-1.4140485 6:-1.5276473 7:-0.90536206 8:-1.3070009 9:-0.21001975 10:-0.022364874 11:-0.43561388 12:-0.43658878 13:-0.71625974 14:-0.96866141 15:-0.10530481 16:-0.24008921 
32 0 0 32 0 32 32 32 0 32 32 32 32 32 0 0 9.107744681857886 0 1:-0.73940783 2:-0.47931418 3:0.82158823 4:-1.1137264 5:-1.4140485 6:-0.065980552 7:0.094187462 8:0.58466394 9:-0.21001975 10:-0.022364874 11:-0.43561388 12:-0.43658878 13:1.4724637 14:1.3952857 15:-0.10530481 16:2.1541048 
32 32 0 32 32 32 32 14.07541412328603 0 32 0 32 0 0 32 0 6.76322326415406 0 1:-0.18441837 2:-0.29339837 3:-0.11530264 4:1.5048116 5:0.0044105211 6:-1.5276473 7:1.0044915 8:1.6061629 9:-0.21001975 10:-0.022364874 11:-0.43561388 12:-0.43658878 13:-0.71625974 14:0.21331213 15:-0.10530481 16:1.0140124 
32 32 0 32 32 32 32 32 0 32 32 0 32 3.590130527470404 0 0 0 0 1:-0.73940783 2:0.45026483 3:1.178499 4:-0.52821482 5:1.600177 6:0.66485284 7:1.0758879 8:-0.24766858 9:-0.21001975 10:-0.022364874 11:-0.43561388 12:1.0553848 13:1.4724637 14:1.3952857 15:-0.10530481 16:-1.0381539 
32 0 0 5.632246515024953 0 0 32 32 32 0 0 32 0 0 0 0 0 0 1:-0.73940783 2:-0.85114578 3:0.2118656 4:-1.1137264 5:1.2455622 6:0.66485284 7:-1.6371751 8:-0.96650121 9:-0.21001975 10:-0.022364874 11:-0.43561388 12:1.0553848 13:1.4724637 14:1.3952857 15:-0.10530481 16:1.6980679 
32 0 0 32 0 0 32 32 32 32 8.153453710016139 32 32 0 0 0 0 0 1:-0.73940783 2:-0.10748257 3:-0.39785703 4:-1.2113117 5:-0.17289686 6:0.66485284 7:0.98664239 8:-0.68275149 9:-0.21001975 10:-0.022364874 11:-0.43561388 12:1.0553848 13:1.4724637 14:1.3952857 15:-0.10530481 16:1.8120771 
32 0 0 32 32 0 32 0.1532006942530622 32 2.53147897268946 20.01809787545219 0 0 0 0 32 0 0 1:-0.55441134 2:-1.0370616 3:-0.36811446 4:0.20367468 5:-0.88212639 6:0.66485284 7:1.1294352 8:-0.68275149 9:-0.21001975 10:-0.022364874 11:-0.43561388 12:1.0553848 13:-0.71625974 14:-0.96866141 15:-0.10530481 16:-0.69612616 
32 0 0 32 32 0 32 0 32 2.351506753403384 32 0 10.12556519882197 0 0 0 0 0 1:-0.73940783 2:-1.0370616 3:-0.97783708 4:-1.1625191 5:-0.52751163 6:0.66485284 7:0.54041493 8:1.0575801 9:-0.21001975 10:-0.022364874 11:-0.43561388 12:1.0553848 13:1.4724637 14:1.3952857 15:-0.10530481 16:-1.0381539 
32 32 32 32 32 32 32 32 32 32 32 32 0 32 32 0 32 0 1:-0.36941486 2:-0.66522998 3:1.0000436 4:0.17114626 5:0.53633267 6:0.84756119 7:0.64750952 8:1.22783 9:-0.21001975 10:-0.022364874 11:-0.43561388 12:-0.43658878 13:-0.71625974 14:-0.96866141 15:-0.10530481 16:-0.24008921 
32 0 0 0 32 32 0 32 0 32 32 32 0 6.750182900606704 21.32772126448404 0 0 0 1:1.48055 2:0.82209644 3:0.063152765 4:-1.2438401 5:1.2455622 6:-1.5276473 7:-1.6371751 8:0.24416427 9:-0.21001975 10:-0.022364874 11:-0.43561388 12:-0.43658878 13:-0.71625974 14:0.12239109 15:-0.10530481 16:-1.0381539 
32 32 32 32 32 32 32 32 0 32 29.30611605939374 32 0 32 32 0 4.468282785267458 0 1:-0.55441134 2:-0.29339837 3:0.77697438 4:-0.23545902 5:1.600177 6:0.48214449 7:-1.6014769 8:0.64141388 9:-0.21001975 10:-0.022364874 11:-0.43561388 12:-0.43658878 13:-0.71625974 14:-0.69589829 15:-0.10530481 16:1.0140124 
32 0 0 32 0 32 0 7.332356865778628 32 32 32 32 0 32 14.03682272244016 11.72253642902824 14.84891748705627 0 1:-0.73940783 2:-1.4088932 3:-0.82912425 4:-1.4390106 5:-1.4140485 6:-0.2486889 7:0.25482935 8:1.0008302 9:-0.21001975 10:-0.022364874 11:-0.43561388 12:-0.43658878 13:1.4724637 14:1.3952857 15:-0.10530481 16:2.0400956 
32 32 32 32 32 32 32 32 32 32 22.28952472058621 32 0 0 32 32 32 0 1:-0.73940783 2:-1.4088932 3:-0.39785703 4:1.6511895 5:1.600177 6:0.29943614 7:1.0758879 8:0.62249723 9:-0.21001975 10:-0.022364874 11:-0.43561388 12:-0.43658878 13:1.4724637 14:1.3952857 15:-0.10530481 16:1.5840586 
32 0 0 0 0 0 32 0 32 0 0 0 0 0 0 0 0 0 1:-0.73940783 2:-1.0370616 3:-0.73989655 4:-0.52821482 5:0.0044105211 6:0.66485284 7:-0.3877382 8:-0.96650121 9:-0.21001975 10:-0.022364874 11:-0.43561388 12:1.0553848 13:1.4724637 14:1.3952857 15:-0.10530481 16:-0.24008921 
32 32 14.16468949961659 32 32 32 32 32 0 32 32 32 32 0 0 0 0 0 1:-0.73940783 2:-0.85114578 3:1.3123406 4:0.2362031 5:0.89094744 6:-0.6141056 7:0.34407484 8:1.17108 9:-0.21001975 10:-0.022364874 11:-0.43561388 12:-0.43658878 13:1.4724637 14:1.3952857 15:-0.10530481 16:-0.69612616 
32 0 0 32 19.76864021909836 32 14.03710239052797 5.570236447816212 32 32 0 32 0 32 32 32 0 0 1:0.37057109 2:-0.10748257 3:1.3123406 4:-1.0974622 5:-1.4140485 6:-0.065980552 7:-1.1909476 8:1.6629129 9:-0.21001975 10:-0.022364874 11:-0.43561388 12:-0.43658878 13:-0.71625974 14:-0.96866141 15:-0.10530481 16:1.6980679 
32 32 0 32 32 28.36456499751754 32 32 32 32 32 32 32 0 0 0 12.69502704681007 0 1:-0.73940783 2:-0.29339837 3:0.76210309 4:1.6349253 5:0.71364005 6:0.66485284 7:0.66535862 8:-0.96650121 9:-0.21001975 10:-0.022364874 11:1.4676691 12:1.0553848 13:1.4724637 14:1.3952857 15:-0.10530481 16:1.0140124 
32 0 0 0 0 0 0 0 32 0 0 0 0 0 0 0 0 0 1:1.2955535 2:0.63618063 3:-0.65066885 4:-0.98361273 5:0.53633267 6:-0.2486889 7:-1.7085715 8:1.4548297 9:-0.21001975 10:-0.022364874 11:-0.43561388 12:2.5473585 13:-0.71625974 14:-0.96866141 15:-0.10530481 16:-0.69612616 
32 0 0 32 32 32 32 32 32 32 32 0 32 5.935524780221048 0 32 0 0 1:-0.55441134 2:0.26434903 3:-0.88860938 4:-0.60953587 5:-1.4140485 6:0.66485284 7:-0.79826747 8:-0.96650121 9:-0.21001975 10:-0.022364874 11:-0.43561388 12:1.0553848 13:-0.71625974 14:-0.42313516 15:-0.10530481 16:-0.24008921 
32 32 0.7000826045536024 32 0 32 29.356472397111 32 0 32 3.41775465315556 32 0 0 0 0 0 0 1:-0.73940783 2:-1.4088932 3:-0.84399553 4:0.28499574 5:0.53633267 6:-1.5276473 7:-1.0124566 8:1.1332467 9:-0.21001975 10:-0.022364874 11:-0.43561388 12:-0.43658878 13:1.4724637 14:1.3952857 15:-0.10530481 16:2.0400956 
32 32 32 32 32 32 32 32 0 32 32 32 0 32 0 0 0 0 1:-0.36941486 2:-0.66522998 3:1.178499 4:-1.1137264 5:0.53633267 6:-0.43139725 7:0.64750952 8:-0.43683506 9:-0.21001975 10:-0.022364874 11:-0.43561388 12:-0.43658878 13:-0.71625974 14:-0.96866141 15:-0.10530481 16:-0.24008921 
32 0 0 32 32 32 0 0 32 0 0 0 0 15.84484763303724 0 0 0 0 1:-0.55441134 2:-0.66522998 3:0.3010933 4:-1.2601043 5:-1.4140485 6:0.66485284 7:0.25482935 8:-0.96650121 9:-0.21001975 10:-0.022364874 11:-0.43561388 12:1.0553848 13:-0.71625974 14:0.75883838 15:-0.10530481 16:1.8120771 
32 0 0 32 2.559185489845382 32 0 0 32 32 32 32 0 32 32 32 0 0 1:0.92556054 2:0.26434903 3:-0.82912425 4:-1.4390106 5:-1.4140485 6:-0.2486889 7:0.25482935 8:1.0008302 9:-0.21001975 10:-0.022364874 11:-0.43561388 12:-0.43658878 13:-0.71625974 14:-0.96866141 15:-0.10530481 16:1.3560401 
32 32 3.954138570089692 32 32 32 32 32 0 32 32 32 32 32 0 0 0 0 1:-0.36941486 2:-0.10748257 3:-0.73989655 4:1.0168852 5:0.89094744 6:-0.065980552 7:0.34407484 8:0.58466394 9:-0.21001975 10:-0.022364874 11:-0.43561388 12:-0.43658878 13:-0.71625974 14:-1.0595825 15:-0.10530481 16:-0.24008921 
32 32 14.20978707931469 32 32 32 32 32 0 32 0 32 0 32 32 0 0 0 1:0.92556054 2:0.26434903 3:0.3010933 4:1.5536042 5:0.53633267 6:-1.5276473 7:-1.0124566 8:-1.4394174 9:-0.21001975 10:-0.022364874 11:-0.43561388 12:-0.43658878 13:-0.71625974 14:0.12239109 15:-0.10530481 16:0.55797547 
32 32 0 32 32 32 32 32 0 32 32 32 29.461210489272 0 0 0 0 0 1:-0.36941486 2:0.078433229 3:1.178499 4:1.6349253 5:0.89094744 6:-1.5276473 7:0.34407484 8:0.9251636 9:-0.21001975 10:-0.022364874 11:-0.43561388 12:-0.43658878 13:-0.71625974 14:-0.69589829 15:-0.10530481 16:-0.92414464 
32 0 0.4005574690568828 32 32 32 32 0 0 32 10.90736978186362 32 0 0 32 6.073250966659457 31.21449109623784 0 1:-0.73940783 2:-0.85114578 3:0.33083587 4:1.3584337 5:-1.4140485 6:-1.5276473 7:1.647059 8:-0.15308534 9:-0.21001975 10:-0.022364874 11:-0.43561388 12:-0.43658878 13:1.4724637 14:1.3952857 15:-0.10530481 16:-0.24008921 
32 32 0 32 32 32 32 32 0 32 10.61400302436594 0 0 32 17.95147014619324 0 0 0 1:-0.55441134 2:-0.85114578 3:-0.88860938 4:-1.0161412 5:0.53633267 6:-0.2486889 7:-1.0124566 8:-0.72058478 9:-0.21001975 10:-0.022364874 11:-0.43561388 12:-0.43658878 13:-0.71625974 14:-0.42313516 15:-0.10530481 16:-0.24008921 
32 32 32 32 32 32 32 32 0 32 32 32 32 0 0 0 0 0 1:-0.73940783 2:-0.85114578 3:-0.33837189 4:-0.46315797 5:0.71364005 6:-1.5276473 7:1.2186807 8:1.2845799 9:-0.21001975 10:-0.022364874 11:-0.43561388 12:-0.43658878 13:1.4724637 14:1.3952857 15:-0.10530481 16:-0.24008921 
32 32 0 32 32 0 32 32 32 0 0 32 0 32 32 32 0 0 1:0.1855746 2:-0.47931418 3:-0.9629658 4:1.1795273 5:-0.17289686 6:-0.6141056 7:0.57611312 8:-1.4015841 9:-0.21001975 10:-0.022364874 11:-0.43561388 12:-0.43658878 13:-0.71625974 14:-0.96866141 15:-0.10530481 16:-0.24008921 
32 10.70343207893304 18.61288176687089 32 32 32 0 0 0 32 32 32 32 0 0 0 0 0 1:-0.73940783 2:-0.47931418 3:0.85133079 4:-1.1625191 5:-1.0594338 6:-0.065980552 7:1.4328699 8:-0.41791841 9:-0.21001975 10:-0.022364874 11:-0.43561388 12:-0.43658878 13:1.4724637 14:1.3952857 15:-0.10530481 16:-1.0381539 
32 32 0 0 32 0 32 24.8083665457115 32 4.348602334976889 0 0 0 0 0 0 0 0 1:-0.73940783 2:-1.0370616 3:-0.39785703 4:1.3584337 5:-0.17289686 6:0.66485284 7:0.98664239 8:-0.96650121 9:-0.21001975 10:-0.022364874 11:-0.43561388 12:1.0553848 13:1.4724637 14:1.3952857 15:-0.10530481 16:-0.69612616 
32 32 1.185466953659268 32 32 32 32 32 32 32 32 32 32 32 0 28.71449499597564 32 0 1:0.00057811402 2:-0.29339837 3:-1.0075797 4:1.2445842 5:0.71364005 6:0.66485284 7:-1.2801931 8:-0.039585451 9:-0.21001975 10:-0.022364874 11:1.4676691 12:1.0553848 13:-0.71625974 14:-0.69589829 15:-0.10530481 16:-0.69612616 
32 0 0 32 0 32 0 32 0 2.301028975810635 0 32 0 1.525420345372371 3.561483792099373 0 0 0 1:-0.73940783 2:-0.66522998 3:-0.73989655 4:-1.3088969 5:0.71364005 6:0.48214449 7:-0.20924721 8:-1.6664172 9:-0.21001975 10:-0.022364874 11:-0.43561388 12:-0.43658878 13:1.4724637 14:1.3952857 15:-0.10530481 16:1.8120771 
32 0 32 32 32 32 0 32 0 0 0 32 0 0 0 32 0 0 1:0.37057109 2:-0.29339837 3:0.18212303 4:-1.2601043 5:-1.4140485 6:-1.5276473 7:-0.90536206 8:-1.3070009 9:-0.21001975 10:-0.022364874 11:-0.43561388 12:-0.43658878 13:-0.71625974 14:-0.96866141 15:-0.10530481 16:-0.69612616 
32 0 0 0 0 0 0 0 0 0 0 0 0 0 0 10.83335303130945 14.55523619328255 0 1:-0.73940783 2:-0.66522998 3:1.5651524 4:-0.54447903 5:-1.5913559 6:0.66485284 7:0.23698025 8:1.0575801 9:-0.21001975 10:-0.022364874 11:-0.43561388 12:1.0553848 13:1.4724637 14:1.3952857 15:-0.10530481 16:-0.24008921 
32 0 0 32 32 32 32 0 30.39566301068071 0 32 32 0 0 25.20933500003936 32 0 0 1:-0.36941486 2:-1.0370616 3:-0.9629658 4:-1.1950475 5:-1.4140485 6:-1.5276473 7:-0.24494541 8:-0.15308534 9:-0.21001975 10:-0.022364874 11:0.19881376 12:-0.43658878 13:-0.71625974 14:-0.96866141 15:-0.10530481 16:-0.24008921 
32 32 0 32 32 32 32 32 0 32 32 32 32 32 0 0 0 0 1:0.1855746 2:0.45026483 3:-0.73989655 4:-1.6016527 5:0.53633267 6:0.84756119 7:-1.0124566 8:0.35766416 9:-0.21001975 10:-0.022364874 11:-0.43561388 12:-0.43658878 13:-0.71625974 14:0.12239109 15:-0.10530481 16:-0.24008921 
32 32 10.81373148624 32 0 32 32 32 16.34083313308221 32 16.17685763469639 32 0 0 25.97638592950165 25.12656538567586 0 0 1:-0.55441134 2:-1.2229774 3:1.0297862 4:-0.34930849 5:0.53633267 6:-1.5276473 7:-1.0124566 8:1.2845799 9:-0.21001975 10:-0.022364874 11:-0.43561388 12:-0.43658878 13:1.4724637 14:-0.33221412 15:-0.10530481 16:1.8120771 
32 32 32 0 32 17.41039088568064 32 20.09688491475614 0 32 0 0 0 0 0 0 0 0 1:-0.73940783 2:-0.85114578 3:0.91081593 4:1.5536042 5:0.53633267 6:1.5783946 7:-1.0124566 8:1.0954134 9:-0.21001975 10:-0.022364874 11:-0.43561388 12:-0.43658878 13:1.4724637 14:1.3952857 15:-0.10530481 16:-0.24008921 
32 32 32 32 32 32 32 32 32 32 32 32 0 32 32 22.67601940513511 0 0 1:-0.18441837 2:-0.66522998 3:-0.91835195 4:1.0168852 5:0.53633267 6:0.66485284 7:-1.7085715 8:1.3413299 9:-0.21001975 10:-0.022364874 11:-0.43561388 12:-0.43658878 13:-0.71625974 14:-0.78681933 15:-0.10530481 16:0.55797547 
32 32 32 32 32 32 32 32 5.277371735125511 32 32 32 32 32 32 0 32 0 1:-0.55441134 2:-0.47931418 3:0.2118656 4:-1.1137264 5:0.89094744 6:0.66485284 7:1.5756626 8:1.7953294 9:-0.21001975 10:-0.022364874 11:-0.43561388 12:-0.43658878 13:-0.71625974 14:-0.42313516 15:-0.10530481 16:0.55797547 
32 0 0 0 32 0 32 0 0 32 32 0 12.74495889044492 0 0 0 0 0 1:-0.73940783 2:-0.47931418 3:-0.76963911 4:0.70786523 5:-1.4140485 6:0.66485284 7:-1.4586841 8:1.3413299 9:-0.21001975 10:-0.022364874 11:-0.43561388 12:1.0553848 13:1.4724637 14:1.3952857 15:-0.10530481 16:-0.24008921 
32 32 0 32 32 32 0 32 32 32 32 32 11.26422771189959 32 32 32 32 0 1:1.48055 2:0.82209644 3:-1.2306489 4:-1.1137264 5:-0.17289686 6:0.48214449 7:1.4685681 8:-0.98541786 9:-0.21001975 10:-0.022364874 11:-0.43561388 12:-0.43658878 13:-0.71625974 14:-0.69589829 15:-0.10530481 16:2.1541048 
32 9.44746913286335 0 32 32 32 32 32 32 8.520080814682027 1.941236582590177 0 0 32 9.690604078796941 0 32 0 1:0.74056406 2:0.078433229 3:-1.0224509 4:-1.2113117 5:1.600177 6:0.66485284 7:0.040640166 8:0.33874751 9:-0.21001975 10:-0.022364874 11:-0.43561388 12:1.0553848 13:-0.71625974 14:0.12239109 15:-0.10530481 16:-1.0381539 
32 0 0 32 0 32 32 32 0.1718685863984452 32 0 32 0 32 32 32 0 0 1:0.1855746 2:-0.10748257 3:-0.91835195 4:1.6349253 5:-1.4140485 6:-0.6141056 7:-0.13785082 8:-1.4015841 9:-0.21001975 10:-0.022364874 11:-0.43561388 12:-0.43658878 13:-0.71625974 14:-0.96866141 15:-0.10530481 16:0.55797547 
32 0 0 0 0 30.85933634699585 0 0 28.77224585869137 0 0 0 0 0 0 0 0 0 1:-0.73940783 2:-0.10748257 3:-0.35324317 4:-1.3088969 5:0.89094744 6:0.66485284 7:-1.6728733 8:0.16849768 9:-0.21001975 10:-0.022364874 11:-2.3388968 12:1.0553848 13:1.4724637 14:1.3952857 15:-0.10530481 16:0.32995699 
32 32 0 32 32 0 32 32 32 26.53940238509762 0 32 0 9.047469594475844 0 32 0 0 1:-0.18441837 2:-0.85114578 3:-0.97783708 4:1.2933768 5:-0.52751163 6:0.66485284 7:0.54041493 8:-0.96650121 9:-0.21001975 10:-0.022364874 11:-0.43561388 12:1.0553848 13:-0.71625974 14:-0.96866141 15:-0.10530481 16:-0.69612616 
32 32 0 0 32 32 32 32 0 32 32 0 0 0 0 12.02958777654332 0 0 1:-0.73940783 2:-1.0370616 3:-0.81425297 4:1.1795273 5:0.53633267 6:-0.43139725 7:-1.0124566 8:-0.43683506 9:-0.21001975 10:-0.022364874 11:-0.43561388 12:-0.43658878 13:1.4724637 14:1.3952857 15:-0.10530481 16:-0.24008921 
32 13.87872573671891 0 32 0 0 32 32 32 0 0 0 0 0.0466758217242112 7.796377666539533 0 32 0 1:-0.55441134 2:-0.66522998 3:-0.32350061 4:0.70786523 5:0.53633267 6:0.66485284 7:-1.0124566 8:1.3413299 9:-0.21001975 10:-0.022364874 11:-0.43561388 12:1.0553848 13:-0.71625974 14:-0.42313516 15:-0.10530481 16:1.3560401 
32 32 0 32 32 32 32 32 0 32 32 32 32 32 0 0 0 0 1:-0.36941486 2:-0.66522998 3:0.34570715 4:-1.1137264 5:0.53633267 6:-0.43139725 7:0.64750952 8:-0.43683506 9:-0.21001975 10:-0.022364874 11:-0.43561388 12:-0.43658878 13:-0.71625974 14:-0.42313516 15:-0.10530481 16:-0.24008921 
32 0 6.911670900637374 0 0 0 23.21449307453133 5.931059792847145 32 30.34862652004949 5.640375243458831 32 26.96790934830037 32 24.64723341851171 32 0 0 1:0.37057109 2:0.26434903 3:-1.1562925 4:1.53734 5:-2.1232781 6:0.66485284 7:-1.2444949 8:-0.96650121 9:-0.21001975 10:-0.022364874 11:-0.43561388 12:1.0553848 13:-0.71625974 14:-0.96866141 15:-0.10530481 16:2.0400956 
32 0 0 32 32 0 32 0 32 0 1.901242501313507 0 0 0 32 0 10.40414026440449 0 1:-0.36941486 2:-0.85114578 3:-0.36811446 4:0.20367468 5:-0.88212639 6:0.66485284 7:1.1294352 8:-0.68275149 9:-0.21001975 10:-0.022364874 11:-0.43561388 12:1.0553848 13:-0.71625974 14:0.94068046 15:-0.10530481 16:-0.69612616 
32 0 0 32 32 0 0 0 32 0 0 0 0 5.399601866080819 0 32 0 0 1:1.110557 2:0.45026483 3:-0.14504521 4:-1.1137264 5:-1.4140485 6:0.66485284 7:0.25482935 8:-1.2691676 9:-0.21001975 10:-0.022364874 11:-0.43561388 12:1.0553848 13:-0.71625974 14:0.12239109 15:-0.10530481 16:-0.24008921 
32 0 0 0 0 0 0 0 32 0 0 0 0 0 0 0 8.677592633117543 0 1:-0.73940783 2:-1.0370616 3:1.2379842 4:0.90303576 5:-1.4140485 6:0.66485284 7:-0.13785082 8:1.3413299 9:-0.21001975 10:-0.022364874 11:-0.43561388 12:1.0553848 13:1.4724637 14:1.3952857 15:-0.10530481 16:-0.24008921 
32 32 1.251837878622928 32 32 32 0 32 0 32 0 32 0 32 0 0 20.10195079335632 0 1:1.2955535 2:2.123507 3:-0.91835195 4:-1.2438401 5:0.0044105211 6:1.5783946 7:-1.7442697 8:-1.2502509 9:-0.21001975 10:-0.022364874 11:-1.0700415 12:-0.43658878 13:-0.71625974 14:-0.42313516 15:-0.10530481 16:-0.69612616 
32 32 0 0 32 0 32 32 0 32 0 0 17.12957284096401 0 0 0 0 0 1:-0.73940783 2:-0.10748257 3:0.40519229 4:1.6511895 5:0.53633267 6:0.66485284 7:-1.0124566 8:-1.2691676 9:-0.21001975 10:-0.022364874 11:-0.43561388 12:1.0553848 13:1.4724637 14:1.3952857 15:-0.10530481 16:-0.24008921 
32 32 0 32 32 32 32 32 0 32 32 32 32 0 0 0 0 0 1:-0.73940783 2:0.078433229 3:0.33083587 4:1.309641 5:-0.35020424 6:-0.43139725 7:-0.066454425 8:0.54683064 9:-0.21001975 10:-0.022364874 11:-0.43561388 12:-0.43658878 13:1.4724637 14:1.3952857 15:-0.10530481 16:-0.24008921 
32 32 0 20.28533939238242 32 0 32 32 32 32 0 0 31.95820743948635 32 0 0 0 0.2258175780611385 1:-0.36941486 2:-0.10748257 3:1.2231129 4:0.70786523 5:-0.17289686 6:0.66485284 7:-1.083853 8:1.3413299 9:-0.21001975 10:-0.022364874 11:-0.43561388 12:1.0553848 13:-0.71625974 14:-0.42313516 15:-0.10530481 16:-0.69612616 
32 0 0 32 0 30.09195330986857 0 32 0 32 0 32 0 32 0 0 0 0 1:-0.73940783 2:-0.29339837 3:0.3010933 4:0.83797892 5:-1.4140485 6:0.29943614 7:0.25482935 8:0.14958103 9:-0.21001975 10:-0.022364874 11:-0.43561388 12:-0.43658878 13:1.4724637 14:1.3952857 15:-0.10530481 16:2.1541048 
32 0 0 32 0 0 32 32 32 0 0 32 0 0 0 32 0 0 1:0.1855746 2:-0.10748257 3:-0.9629658 4:1.0331494 5:-1.4140485 6:0.66485284 7:-1.3158913 8:-0.039585451 9:-0.21001975 10:-0.022364874 11:-0.43561388 12:1.0553848 13:-0.71625974 14:-0.96866141 15:-0.10530481 16:-0.24008921 
32 32 0 32 32 32 32 32 7.276429819054781 32 32 32 0 0 10.20190895950794 0 14.80365435979767 0 1:-0.36941486 2:-0.29339837 3:1.0000436 4:-1.2601043 5:1.2455622 6:-1.5276473 7:-1.6371751 8:-1.3070009 9:-0.21001975 10:-0.022364874 11:-0.43561388 12:-0.43658878 13:-0.71625974 14:-0.96866141 15:-0.10530481 16:1.0140124 
32 32 16.61337007460001 32 32 31.08916012882891 32 32 0 32 32 32 32 6.653241187963261 0 27.62095010487055 0 0 1:-0.73940783 2:-0.85114578 3:-0.97783708 4:0.0085041494 5:0.71364005 6:-2.0757724 7:1.3436244 8:-0.5314183 9:-0.21001975 10:-0.022364874 11:1.4676691 12:-0.43658878 13:1.4724637 14:1.3952857 15:-0.10530481 16:0.78599394 
32 0 0 32 0 32 20.85957137309737 0 0 0 32 0 0 0 0 32 0 0 1:-0.73940783 2:-1.4088932 3:-1.1860351 4:-1.2601043 5:-1.4140485 6:-0.2486889 7:-0.13785082 8:0.56574729 9:-0.21001975 10:-0.022364874 11:-0.43561388 12:-0.43658878 13:1.4724637 14:1.3952857 15:-0.10530481 16:0.32995699 
32 32 4.926593783761566 32 32 32 32 32 0 32 32 19.78051152517298 15.79106572684631 0 32 0 0 0 1:-0.92440431 2:-1.2229774 3:-1.6321736 4:-1.1299906 5:0.71364005 6:-1.7103557 7:-0.69117288 8:0.90624695 9:4.7608618 10:-0.022364874 11:0.19881376 12:-0.43658878 13:0.37810197 14:-0.059450996 15:-0.10530481 16:0.32995699 
32 32 8.784224636893558 32 32 32 32 0 0 32 32 32 32 32 0 0 0 0 1:-0.73940783 2:1.0080122 3:1.0446575 4:-1.4878033 5:0.35902529 6:0.48214449 7:-0.35204 8:0.64141388 9:-0.21001975 10:-0.022364874 11:-0.43561388 12:-0.43658878 13:1.4724637 14:1.3952857 15:-0.10530481 16:-1.0381539 
32 0 25.71502322395884 32 0 32 32 32 0 32 0 32 0 32 32 32 32 0 1:-0.73940783 2:-1.0370616 3:-1.2306489 4:1.1307347 5:-0.17289686 6:0.48214449 7:0.98664239 8:-0.98541786 9:-0.21001975 10:-0.022364874 11:-0.43561388 12:-1.9285624 13:1.4724637 14:1.3952857 15:-0.10530481 16:1.8120771 
32 0 22.09837736799542 32 32 32 32 32 0 32 32 32 0 32 0 0 0 0 1:-0.55441134 2:-0.47931418 3:1.1636277 4:-1.2926327 5:-1.5913559 6:-0.6141056 7:-0.49483279 8:-1.7610004 9:-0.21001975 10:-0.022364874 11:-0.43561388 12:-0.43658878 13:-0.71625974 14:-0.69589829 15:-0.10530481 16:-0.24008921 
32 0 3.184961684100495 32 15.22532685418389 10.35486980326047 32 0 15.20453303818447 26.54726168865911 32 0 17.50200584526714 0 0 31.23738034389126 0 0 1:-0.73940783 2:-1.0370616 3:-0.11530264 4:0.39884522 5:-1.4140485 6:-1.5276473 7:1.1115861 8:-0.15308534 9:-0.21001975 10:-0.022364874 11:-0.43561388 12:2.5473585 13:1.4724637 14:1.3952857 15:-0.10530481 16:-0.24008921 
32 32 32 32 32 32 32 32 6.571499167925055 32 32 32 32 32 32 0 32 0 1:0.55556757 2:-0.10748257 3:0.71748924 4:0.78918628 5:0.71364005 6:0.84756119 7:1.3436244 8:-0.94758456 9:-0.21001975 10:-0.022364874 11:1.4676691 12:-0.43658878 13:-0.71625974 14:0.12239109 15:-0.10530481 16:-0.24008921 
32 0 0 0 32 0 32 0 32 32 32 32 0 32 0 32 0 0 1:-0.55441134 2:-0.85114578 3:0.3010933 4:1.1795273 5:-1.4140485 6:0.66485284 7:0.25482935 8:-0.96650121 9:-0.21001975 10:-0.022364874 11:-0.43561388 12:1.0553848 13:-0.71625974 14:-0.42313516 15:-0.10530481 16:-0.58211692 
32 32 0 32 32 32 32 32 0 32 32 32 0 0 32 0 0 0 1:0.74056406 2:0.078433229 3:-0.73989655 4:0.10608942 5:0.53633267 6:-2.0757724 7:0.64750952 8:0.4144141 9:-0.21001975 10:-0.022364874 11:-0.43561388 12:-0.43658878 13:-0.71625974 14:-0.96866141 15:-0.10530481 16:-0.69612616 
32 0 0 0 0 0 32 24.96074243424799 32 0 0 0 0 0 0 0 0 0 1:-0.73940783 2:-0.66522998 3:-1.3198766 4:0.49643048 5:0.89094744 6:0.66485284 7:-1.3694386 8:-0.96650121 9:-0.21001975 10:-0.022364874 11:-0.43561388 12:1.0553848 13:1.4724637 14:1.3952857 15:-0.10530481 16:1.3560401 
32 0 0 32 32 16.14844374828454 32 0 32 32 32 0 32 0 0 4.185106664364328 0 0 1:-0.55441134 2:0.26434903 3:-0.76963911 4:1.0819421 5:-1.4140485 6:0.66485284 7:-1.4586841 8:1.3413299 9:-0.21001975 10:-0.022364874 11:-0.43561388 12:1.0553848 13:-0.71625974 14:-0.42313516 15:-0.10530481 16:-0.24008921 
32 32 32 32 32 32 32 32 0 32 0 32 0 32 0 0 0 0.860732145709688 1:0.37057109 2:0.63618063 3:1.0297862 4:-0.52821482 5:-0.35020424 6:0.48214449 7:-1.7799679 8:-0.98541786 9:-0.21001975 10:-0.022364874 11:-0.43561388 12:-0.43658878 13:-0.71625974 14:-0.69589829 15:-0.10530481 16:-0.24008921 
32 32 32 32 32 0 32 32 32 32 0 32 0 32 32 32 0 0 1:0.74056406 2:0.078433229 3:0.73236052 4:0.78918628 5:-0.35020424 6:0.84756119 7:-0.4234364 8:0.35766416 9:-0.21001975 10:-0.022364874 11:-0.43561388 12:-0.43658878 13:-0.71625974 14:-0.69589829 15:-0.10530481 16:-1.0381539 
32 32 32 32 32 32 32 32 0 32 32 32 32 32 0 32 32 0 1:-0.18441837 2:-0.47931418 3:0.078024048 4:1.7325105 5:0.71364005 6:0.48214449 7:0.32622574 8:-0.98541786 9:-0.21001975 10:-0.022364874 11:1.4676691 12:-0.43658878 13:-0.71625974 14:-0.78681933 15:-0.10530481 16:-0.46810768 
32 0 9.906830123635753 1.795144725750973 32 32 32 0 0 32 32 0 0 0 32 0 32 0 1:-0.73940783 2:-1.0370616 3:1.0595288 4:0.35005258 5:-1.4140485 6:0.66485284 7:1.2900771 8:1.6818295 9:-0.21001975 10:-0.022364874 11:-0.43561388 12:-0.43658878 13:1.4724637 14:1.3952857 15:-0.10530481 16:-0.69612616 
32 32 0 32 0 0 32 32 32 32 0 32 0 32 0 0 0 0 1:-0.36941486 2:-0.29339837 3:1.5800237 4:1.2445842 5:0.35902529 6:0.66485284 7:0.62966042 8:-0.24766858 9:-0.21001975 10:-0.022364874 11:-0.43561388 12:1.0553848 13:-0.71625974 14:-0.96866141 15:-0.10530481 16:1.8120771 
32 29.94150538759728 0 32 32 0 32 32 32 32 32 32 0 32 0 32 0 0 1:0.55556757 2:0.63618063 3:-0.91835195 4:-1.3088969 5:-0.88212639 6:0.66485284 7:1.1294352 8:-0.039585451 9:-0.21001975 10:-0.022364874 11:-0.43561388 12:1.0553848 13:-0.71625974 14:-0.96866141 15:-0.10530481 16:-0.24008921 
32 0 0 32 32 32 32 0 0 32 32 31.18995874048818 0 0 6.850485980154057 0 7.113796820886725 0 1:0.37057109 2:0.078433229 3:-0.94809452 4:1.309641 5:-1.0594338 6:-1.5276473 7:0.52256583 8:1.4169965 9:-0.21001975 10:-0.022364874 11:-0.43561388 12:-0.43658878 13:-0.71625974 14:0.75883838 15:-0.10530481 16:-0.24008921 
32 0 0 0 0 0 0 11.10275133702447 32 0 0 6.96290122910839 0 0 28.72927824114706 0 0 0 1:-0.73940783 2:-1.4088932 3:1.3123406 4:1.6349253 5:0.0044105211 6:0.66485284 7:-0.3877382 8:1.6818295 9:-0.21001975 10:-0.022364874 11:-0.43561388 12:1.0553848 13:1.4724637 14:1.3952857 15:-0.10530481 16:1.9260863 
32 32 0 32 32 32 32 32 0 32 32 32 32 32 0 0 10.52462192616952 6.626808616890702 1:-0.55441134 2:-0.66522998 3:0.77697438 4:-0.024024273 5:0.53633267 6:-0.6141056 7:-1.0124566 8:-1.4015841 9:-0.21001975 10:-0.022364874 11:-0.43561388 12:-0.43658878 13:-0.71625974 14:-0.42313516 15:-0.10530481 16:-0.69612616 
32 32 0 32 32 32 4.027117669866871 32 0 32 32 32 32 32 0 0 0 0 1:-0.73940783 2:0.63618063 3:0.36057844 4:-0.51195061 5:-1.7686633 6:-0.6141056 7:-0.51268189 8:-0.11525204 9:-0.21001975 10:-0.022364874 11:-0.43561388 12:-0.43658878 13:1.4724637 14:1.3952857 15:-0.10530481 16:-0.69612616 
32 0 32 0 0 32 0 0 0 5.277011576212326 0 32 0 32 0 0 0 0 1:-0.73940783 2:-0.85114578 3:-0.51682729 4:1.3259052 5:-1.4140485 6:-0.6141056 7:-1.3158913 8:-1.4015841 9:-0.21001975 10:-0.022364874 11:-0.43561388 12:-0.43658878 13:1.4724637 14:1.3952857 15:-0.10530481 16:1.8120771 
32 32 0 32 32 32 22.73264540620715 32 0 32 32 32 0 0 0 32 0 0 1:1.110557 2:0.45026483 3:-0.73989655 4:0.10608942 5:0.53633267 6:-2.0757724 7:0.64750952 8:0.4144141 9:-0.21001975 10:-0.022364874 11:-0.43561388 12:-0.43658878 13:-0.71625974 14:-0.96866141 15:-0.10530481 16:-1.0381539 
32 32 0 32 32 21.44119270622834 32 32 0 32 32 32 32 32 32 0 0 0 1:0.1855746 2:-0.10748257 3:-0.72502526 4:-1.2438401 5:0.71364005 6:-1.5276473 7:1.2186807 8:-1.4394174 9:-0.21001975 10:-0.022364874 11:-0.43561388 12:-0.43658878 13:-0.71625974 14:-0.96866141 15:-0.10530481 16:1.5840586 
32 0 0 32 22.29057601299346 20.05677574567276 0 0 32 4.614059486753956 0 0.8601284949787125 0 9.161365483607517 32 32 0 0 1:2.4055324 2:1.9375912 3:-0.10043135 4:1.2608484 5:-1.9459707 6:-0.97952229 7:1.3793226 8:1.3034966 9:-0.21001975 10:-0.022364874 11:-0.43561388 12:1.0553848 13:-0.71625974 14:0.12239109 15:-0.10530481 16:-0.24008921 
32 32 0 32 32 32 7.44145032154409 0 0 2.901748382759389 0 32 0 32 24.58129957993257 0 0 0 1:0.00057811402 2:-0.47931418 3:-0.38298574 4:-1.5203317 5:-0.35020424 6:-0.6141056 7:-1.7799679 8:-1.4015841 9:-0.21001975 10:-0.022364874 11:-0.43561388 12:-2.6745492 13:-0.71625974 14:-0.42313516 15:-0.10530481 16:0.32995699 
32 32 0 32 32 0 32 32 0 32 32 0 32 32 0 0 32 0 1:-0.73940783 2:0.078433229 3:-0.36811446 4:0.70786523 5:0.71364005 6:0.66485284 7:-0.69117288 8:1.3413299 9:-0.21001975 10:-0.022364874 11:1.4676691 12:1.0553848 13:1.4724637 14:1.3952857 15:-0.10530481 16:-1.0381539 
32 32 19.69006299056143 32 32 32 32 32 0 32 32 32 0 0 32 0 0 0 1:0.00057811402 2:-0.66522998 3:1.2528554 4:-0.49568639 5:0.89094744 6:-1.5276473 7:0.34407484 8:0.073914438 9:-0.21001975 10:-0.022364874 11:-0.43561388 12:-0.43658878 13:-0.71625974 14:-0.96866141 15:-0.10530481 16:-0.46810768 
32 18.23890686622933 31.95786310857345 32 32 32 0 32 25.44548641867551 32 32 32 0 32 5.982855923585575 32 3.111573168949069 0 1:2.9605219 2:2.3094229 3:-0.9629658 4:1.1795273 5:-0.17289686 6:-0.6141056 7:0.57611312 8:-1.4015841 9:-0.21001975 10:-0.022364874 11:-0.43561388 12:-0.43658878 13:-0.71625974 14:-0.96866141 15:-0.10530481 16:-1.0381539 
32 32 19.93896974805093 0 0 0.915090431586437 0 22.97931119672543 0 0 22.38809829387295 32 0 3.204599302103295 32 9.69637711620703 0 0 1:-0.73940783 2:-1.4088932 3:0.3010933 4:0.78918628 5:-0.35020424 6:-0.97952229 7:-1.7799679 8:-1.4205008 9:-0.21001975 10:-0.022364874 11:-0.43561388 12:-0.43658878 13:1.4724637 14:1.3952857 15:-0.10530481 16:2.0400956 
32 32 0 32 32 32 32 32 0 32 32 32 31.58570038800971 1.114069442884466 0 0 0 0 1:-0.36941486 2:0.45026483 3:1.2231129 4:0.28499574 5:-0.17289686 6:-1.5276473 7:-1.083853 8:-0.15308534 9:-0.21001975 10:-0.022364874 11:-0.43561388 12:-0.43658878 13:-0.71625974 14:-0.96866141 15:-0.10530481 16:-0.69612616 
32 32 0 32 32 32 32 32 0 32 32 32 32 24.92862095136744 0 3.719581405502211 0 0 1:-0.73940783 2:-0.66522998 3:0.73236052 4:-1.4390106 5:0.53633267 6:-0.2486889 7:-1.0124566 8:1.0008302 9:-0.21001975 10:-0.022364874 11:-0.43561388 12:-0.43658878 13:1.4724637 14:1.3952857 15:-0.10530481 16:1.3560401 
32 32 32 32 32 32 32 32 0 32 32 32 32 32 0 15.83235638127247 0 0 1:-0.73940783 2:1.193928 3:-1.1860351 4:-1.3088969 5:0.89094744 6:1.5783946 7:0.34407484 8:0.37658081 9:-0.21001975 10:-0.022364874 11:-0.43561388 12:-0.43658878 13:1.4724637 14:1.3952857 15:-0.10530481 16:-0.69612616 
32 32 0 32 32 32 32 12.03272068916249 0 32 32 32 32 32 32 0 32 0 1:-0.55441134 2:0.078433229 3:0.31596458 4:-0.36557271 5:-0.17289686 6:0.48214449 7:1.1651334 8:-0.98541786 9:-0.21001975 10:-0.022364874 11:-0.43561388 12:-0.43658878 13:-0.71625974 14:0.84975942 15:-0.10530481 16:2.1541048 
32 0 0 32 0 0 0 2.060809746466669 32 32 0 32 0 32 0 32 0 0 1:2.7755254 2:2.4953387 3:0.40519229 4:0.2362031 5:-1.4140485 6:0.66485284 7:-1.4586841 8:1.0575801 9:-0.21001975 10:-0.022364874 11:-0.43561388 12:1.0553848 13:-0.71625974 14:-1.0595825 15:-0.10530481 16:-1.0381539 
32 0 0 32 32 32 13.78839523999833 0 0 0 0 32 0 0 0 32 0 0 1:0.37057109 2:-0.29339837 3:-0.14504521 4:-1.1950475 5:-1.4140485 6:-1.5276473 7:0.25482935 8:-0.15308534 9:-0.21001975 10:-0.022364874 11:-0.43561388 12:-0.43658878 13:-0.71625974 14:-0.78681933 15:-0.10530481 16:0.55797547 
32 0 0 18.41214032406761 32 0 32 0 32 0 8.330626685054963 0 0 0 0 32 11.33397511415984 0 1:-0.36941486 2:-0.85114578 3:-0.90348067 4:0.93556418 5:-1.4140485 6:0.66485284 7:-0.79826747 8:1.0575801 9:-0.21001975 10:-0.022364874 11:-0.43561388 12:1.0553848 13:-0.71625974 14:-0.96866141 15:-0.10530481 16:-0.69612616 
32 0 0 29.796609047157 0 0 17.4769525907172 0 32 0 32 0 0 0 0 26.7067069342624 0 0 1:-0.73940783 2:-0.66522998 3:0.34570715 4:-1.2113117 5:-1.4140485 6:0.66485284 7:1.1115861 8:0.33874751 9:-0.21001975 10:-0.022364874 11:-0.43561388 12:1.0553848 13:1.4724637 14:1.3952857 15:-0.10530481 16:-0.24008921 
32 32 0 32 32 32 32 0 0 32 32 32 32 0 0 25.51354714510954 0 0 1:-0.73940783 2:0.26434903 3:1.3420832 4:0.28499574 5:-1.4140485 6:-0.97952229 7:-0.13785082 8:1.3034966 9:-0.21001975 10:-0.022364874 11:-0.43561388 12:-0.43658878 13:1.4724637 14:1.3952857 15:-0.10530481 16:-0.92414464 
32 0 0 0 0 0 32 0 0 0 0 0 0 0 0 0 0 0 1:-0.73940783 2:-0.47931418 3:0.71748924 4:0.13861784 5:-1.0594338 6:0.66485284 7:0.27267845 8:1.0575801 9:-0.21001975 10:-0.022364874 11:-0.43561388 12:1.0553848 13:1.4724637 14:1.3952857 15:-0.10530481 16:-0.24008921 
32 0 0 32 32 0 0 0 32 0 10.60953654343791 0 0 32 0 16.47700001066823 6.997707698494895 0 1:0.74056406 2:0.078433229 3:-0.9629658 4:-1.1950475 5:-1.4140485 6:0.66485284 7:-0.24494541 8:-0.96650121 9:-0.21001975 10:-0.022364874 11:0.19881376 12:1.0553848 13:-0.71625974 14:0.12239109 15:-0.10530481 16:1.0140124 
32 0 0 32 0 7.687993242648753 32 0 0 32 32 32 0 32 32 32 6.111675053445956 0 1:0.00057811402 2:-0.29339837 3:-0.91835195 4:-0.10534533 5:-1.4140485 6:-0.065980552 7:-0.13785082 8:0.58466394 9:-0.21001975 10:-0.022364874 11:-0.43561388 12:-0.43658878 13:-0.71625974 14:-0.42313516 15:-0.10530481 16:2.0400956 
32 4.600175597853364 0 32 32 10.91025178833383 0 32 7.285972733277769 32 0 32 0 32 0 0 0 0 1:2.0355395 2:1.3798438 3:-0.84399553 4:-0.28425165 5:0.53633267 6:-1.7103557 7:-1.0124566 8:-1.8177504 9:-0.21001975 10:-0.022364874 11:-0.43561388 12:-0.43658878 13:-0.71625974 14:-0.96866141 15:-0.10530481 16:-1.0381539 
32 32 0 32 32 32 32 13.26029176467452 0 32 32 32 32 32 0 0 0 0 1:-0.55441134 2:-0.29339837 3:1.2379842 4:-1.0649338 5:-0.52751163 6:0.48214449 7:0.29052755 8:-0.98541786 9:-0.21001975 10:-0.022364874 11:-0.43561388 12:-0.43658878 13:-0.71625974 14:-0.42313516 15:-0.10530481 16:-0.24008921 
32 0 0 32 32 0 32 19.6232315157608 0 32 32 0 0 0 32 0 21.39587046693885 0 1:-0.92440431 2:-1.594809 3:-2.6285496 4:0.75665786 5:-1.4140485 6:0.66485284 7:0.25482935 8:0.33874751 9:4.7608618 10:-0.022364874 11:0.19881376 12:1.0553848 13:0.37810197 14:-0.059450996 15:-0.10530481 16:0.55797547 
32 32 0 32 0 32 32 32 15.98322438362843 32 0 32 0 0 0 32 0 0 1:0.00057811402 2:-0.29339837 3:-0.99270837 4:0.70786523 5:-0.52751163 6:-1.5276473 7:-1.4229859 8:0.9251636 9:-0.21001975 10:-0.022364874 11:-0.43561388 12:-0.43658878 13:-0.71625974 14:-0.96866141 15:-0.10530481 16:0.32995699 
32 32 0 0 32 32 32 32 0 32 32 0 32 32 0 0 0 0 1:-0.73940783 2:-0.85114578 3:1.1933703 4:-0.51195061 5:0.89094744 6:0.84756119 7:-1.3694386 8:0.67924718 9:-0.21001975 10:-0.022364874 11:-0.43561388 12:-0.43658878 13:1.4724637 14:1.3952857 15:-0.10530481 16:-0.24008921 
32 32 0 32 32 32 32 32 0 32 32 29.62195874028152 32 32 0 0 0 0 1:-0.55441134 2:-0.66522998 3:-0.97783708 4:0.2362031 5:0.89094744 6:-0.43139725 7:-1.6728733 8:-0.43683506 9:-0.21001975 10:-0.022364874 11:-0.43561388 12:-0.43658878 13:-0.71625974 14:-0.42313516 15:-0.10530481 16:-0.46810768 
32 32 0 0 32 32 32 29.76272677140724 0 32 32 0 0 26.56233713656072 0 0 0 0 1:-0.73940783 2:-0.66522998 3:0.95542978 4:1.0331494 5:-0.17289686 6:0.48214449 7:0.57611312 8:-0.98541786 9:-0.21001975 10:-0.022364874 11:-0.43561388 12:-0.43658878 13:1.4724637 14:1.3952857 15:-0.10530481 16:-0.69612616 
32 32 0 32 32 0 32 32 31.84401258258276 32 26.30671687799319 32 0 32 0 0 32 0 1:-0.73940783 2:-0.66522998 3:1.3123406 4:0.70786523 5:0.71364005 6:0.66485284 7:-0.20924721 8:1.3413299 9:-0.21001975 10:-0.022364874 11:1.4676691 12:1.0553848 13:1.4724637 14:1.3952857 15:-0.10530481 16:1.6980679 
32 0 0 32 0 0 0 32 32 8.12496405969098 0 32 0 32 0 32 0 0 1:2.5905289 2:2.3094229 3:1.178499 4:0.72412944 5:-1.0594338 6:0.66485284 7:0.27267845 8:-0.039585451 9:-0.21001975 10:-0.022364874 11:-0.43561388 12:1.0553848 13:-0.71625974 14:-0.96866141 15:-0.10530481 16:0.32995699 
32 32 0 32 32 32 32 0 0 32 32 0 0.6926815086521531 32 0 0 0 0 1:-0.73940783 2:-0.10748257 3:0.76210309 4:1.1144705 5:-1.0594338 6:0.84756119 7:-0.45913459 8:1.549413 9:-0.21001975 10:-0.022364874 11:-0.43561388 12:-0.43658878 13:1.4724637 14:1.3952857 15:-0.10530481 16:-1.0381539 
32 32 0 32 32 0 32 32 32 32 0 32 0.8590138953794557 32 0 0 32 0 1:0.55556757 2:0.82209644 3:1.5651524 4:0.382581 5:0.0044105211 6:0.66485284 7:-1.0660039 8:-0.96650121 9:-0.21001975 10:-0.022364874 11:-0.43561388 12:1.0553848 13:-0.71625974 14:-0.42313516 15:-0.10530481 16:-0.24008921 
32 0 0 32 32 0 32 32 32 0 0 0 0 0 0 0 0 0 1:0.00057811402 2:-0.47931418 3:-0.84399553 4:-0.77217798 5:0.0044105211 6:0.66485284 7:0.59396222 8:-0.96650121 9:-0.21001975 10:-0.022364874 11:-0.43561388 12:1.0553848 13:-0.71625974 14:-0.42313516 15:-0.10530481 16:-0.24008921 
32 32 0 32 0 32 32 32 32 32 0 32 0 32 32 0 20.71717905349724 0 1:-0.18441837 2:-0.85114578 3:0.76210309 4:-0.30051586 5:0.1817179 6:0.48214449 7:0.30837664 8:-0.98541786 9:-0.21001975 10:-0.022364874 11:-0.43561388 12:-0.43658878 13:-0.71625974 14:-0.96866141 15:-0.10530481 16:2.0400956 
32 32 28.22843434776841 32 32 32 15.34907089112001 32 14.82346458692715 32 32 32 8.731988349545682 32 32 0 13.50686379635708 0 1:2.9605219 2:3.4249177 3:1.5205386 4:0.80545049 5:0.71364005 6:-0.43139725 7:1.8969464 8:-1.7420838 9:-0.21001975 10:-0.022364874 11:1.4676691 12:-0.43658878 13:-0.71625974 14:-0.42313516 15:-0.10530481 16:-1.0381539 
32 0 0 32 0 0 32 0 0 0 0 32 0 0 32 0 0 0 1:-0.55441134 2:-0.85114578 3:0.3010933 4:1.1307347 5:-1.4140485 6:-1.5276473 7:0.25482935 8:0.9251636 9:-0.21001975 10:-0.022364874 11:-0.43561388 12:-0.43658878 13:-0.71625974 14:-0.42313516 15:-0.10530481 16:1.8120771 
32 32 0 32 32 0 32 32 32 32 32 0 9.814919953127427 32 0 13.15779972339531 0 0 1:0.1855746 2:0.26434903 3:1.0446575 4:-0.54447903 5:-0.52751163 6:0.66485284 7:0.95094419 8:0.33874751 9:-0.21001975 10:-0.022364874 11:-0.43561388 12:1.0553848 13:-0.71625974 14:-0.42313516 15:-0.10530481 16:-0.46810768 
32 1.560543647122227 9.441549160885595 20.72497280223139 0.536005848885604 4.538957322256266 0 20.89875269193847 32 32 5.52124153763238 5.526167479893983 0 25.85287109650155 0.1302439606803944 7.764371173973779 3.030479700889226 0 1:1.6655465 2:1.9375912 3:0.82158823 4:-0.54447903 5:0.89094744 6:0.66485284 7:1.2365298 8:1.0575801 9:-0.21001975 10:-0.022364874 11:-0.43561388 12:1.0553848 13:-0.71625974 14:-0.96866141 15:9.5225635 16:-0.46810768 
32 32 0 32 32 0 32 32 32 0 32 0 32 0 0 0 0 0 1:-0.73940783 2:-1.0370616 3:-0.33837189 4:-1.3088969 5:0.71364005 6:0.66485284 7:1.2186807 8:0.33874751 9:-0.21001975 10:-0.022364874 11:-0.43561388 12:1.0553848 13:1.4724637 14:1.3952857 15:-0.10530481 16:-0.69612616 
32 32 0 32 32 0 0 32 32 32 0 32 0 32 3.637650138499672 0 0 0 1:1.850543 2:1.193928 3:1.0446575 4:-1.2601043 5:0.53633267 6:-1.5276473 7:-1.0124566 8:-1.3070009 9:-0.21001975 10:-0.022364874 11:-0.43561388 12:-0.43658878 13:-0.71625974 14:-0.96866141 15:-0.10530481 16:-1.0381539 
32 32 0 32 32 32 32 32 0 32 32 0 32 19.72479335609827 0 0 0 0 1:-0.73940783 2:-0.29339837 3:1.4015683 4:-0.10534533 5:0.89094744 6:0.48214449 7:-0.29849271 8:0.64141388 9:-0.21001975 10:-0.022364874 11:-0.43561388 12:-0.43658878 13:1.4724637 14:1.3952857 15:-0.10530481 16:-0.69612616 
32 0 0 0 29.0479417378134 0 31.48580229915792 0 32 0 0 32 0 0 0 32 0 0 1:-0.18441837 2:-0.47931418 3:1.178499 4:-1.2926327 5:-1.0594338 6:0.66485284 7:0.27267845 8:-1.2691676 9:-0.21001975 10:-0.022364874 11:-0.43561388 12:1.0553848 13:-0.71625974 14:-0.96866141 15:-0.10530481 16:0.90000318 
32 32 0 32 32 32 32 32 0 32 32 32 16.14755268253914 0 0 0 0 0 1:0.1855746 2:0.45026483 3:0.82158823 4:-0.77217798 5:0.89094744 6:-1.5276473 7:-1.3694386 8:0.24416427 9:-0.21001975 10:-0.022364874 11:-0.43561388 12:-0.43658878 13:-0.71625974 14:-0.69589829 15:-0.10530481 16:-1.0381539 
32 1.368834039803727 0 0 0 0 32 32 32 0 0 32 0 0 9.582631185948125 0 0 0 1:-0.73940783 2:-1.4088932 3:1.0297862 4:0.75665786 5:0.53633267 6:0.66485284 7:-1.0124566 8:-0.96650121 9:-0.21001975 10:-0.022364874 11:-0.43561388 12:1.0553848 13:1.4724637 14:1.3952857 15:-0.10530481 16:1.9260863 
32 0 0 32 32 32 26.19664995984747 0 0 32 32 0 32 0 0 32 0 0 1:-0.73940783 2:-1.0370616 3:-1.1562925 4:-1.1137264 5:-1.4140485 6:-0.43139725 7:0.9330951 8:-0.43683506 9:-0.21001975 10:-0.022364874 11:-0.43561388 12:-0.43658878 13:1.4724637 14:1.3952857 15:-0.10530481 16:-0.24008921 
32 32 0 32 32 32 32 32 0 32 32 32 32 13.76222170640272 0 0 0 0 1:-0.73940783 2:-0.85114578 3:0.13750918 4:1.1795273 5:0.71364005 6:-0.97952229 7:0.66535862 8:-1.4205008 9:-0.21001975 10:-0.022364874 11:1.4676691 12:-0.43658878 13:1.4724637 14:1.3952857 15:-0.10530481 16:-0.12607997 
32 32 0 32 0 0 32 32 32 32 0 32 0 32 0 0 0 0 1:0.00057811402 2:0.26434903 3:-0.14504521 4:0.93556418 5:0.53633267 6:0.66485284 7:-1.0124566 8:1.0575801 9:-0.21001975 10:-0.022364874 11:-0.43561388 12:1.0553848 13:-0.71625974 14:-0.96866141 15:-0.10530481 16:1.6980679 
32 0 0 0 0 0 0 32 32 32 0 0 0 32 0 0 0 0 1:1.2955535 2:1.0080122 3:-0.84399553 4:-0.30051586 5:0.1817179 6:0.66485284 7:-1.5479296 8:1.0575801 9:-0.21001975 10:-0.022364874 11:-0.43561388 12:1.0553848 13:1.4724637 14:-0.15037204 15:-0.10530481 16:-0.24008921 
32 32 0 31.28903092741355 0 0 32 32 32 16.94200846364079 0 32 0 0 0 0 12.81272377306865 0 1:-0.73940783 2:-0.85114578 3:1.5502811 4:0.75665786 5:-0.35020424 6:0.66485284 7:-1.1017021 8:0.33874751 9:-0.21001975 10:-0.022364874 11:-0.43561388 12:1.0553848 13:1.4724637 14:1.3952857 15:-0.10530481 16:2.0400956 
32 32 0 32 32 0.3775949450561824 32 32 0 32 32 32 32 0 0 32 32 0 1:-0.73940783 2:-0.85114578 3:1.3123406 4:-1.3088969 5:0.71364005 6:0.66485284 7:-0.20924721 8:-0.96650121 9:-0.21001975 10:-0.022364874 11:1.4676691 12:1.0553848 13:1.4724637 14:1.3952857 15:-0.10530481 16:-0.12607997 
32 32 0 32 32 32 32 32 0 32 32 32 32 32 32 0 0 0 1:-0.55441134 2:-0.47931418 3:-0.50195601 4:-0.77217798 5:0.89094744 6:-1.5276473 7:0.34407484 8:0.24416427 9:-0.21001975 10:-0.022364874 11:-0.43561388 12:-0.43658878 13:-0.71625974 14:-0.42313516 15:-0.10530481 16:2.1541048 
32 32 0 32 32 0 0 32 0 32 32 0 0 0 0 0 0 0 1:-0.92440431 2:-1.0370616 3:-2.1675398 4:0.70786523 5:0.89094744 6:0.66485284 7:-0.56622919 8:-0.96650121 9:4.7608618 10:-0.022364874 11:-0.43561388 12:1.0553848 13:0.37810197 14:-0.059450996 15:-0.10530481 16:0.55797547 
32 32 0 32 32 32 0 0 32 14.17313019460628 0 28.76668625338624 0 32 32 32 0 0 1:1.110557 2:0.82209644 3:-1.0670648 4:-0.30051586 5:-1.4140485 6:0.84756119 7:1.7720027 8:-0.81516802 9:-0.21001975 10:-0.022364874 11:-2.9733245 12:-0.43658878 13:-0.71625974 14:-0.96866141 15:-0.10530481 16:-1.0381539 
32 0 0 32 0 0 32 32 32 0 0 32 0 32 32 0 32 0 1:-0.73940783 2:-1.4088932 3:-0.36811446 4:-0.41436534 5:-0.88212639 6:-0.43139725 7:1.1294352 8:-0.096335395 9:-0.21001975 10:-0.022364874 11:-0.43561388 12:-0.43658878 13:1.4724637 14:1.3952857 15:-0.10530481 16:2.0400956 
32 32 18.35756261455193 32 32 32 32 32 0 32 32 32 0 32 0 0 32 0 1:0.92556054 2:1.5657596 3:-0.7845104 4:-0.51195061 5:0.53633267 6:0.84756119 7:-1.0124566 8:0.67924718 9:-0.21001975 10:-0.022364874 11:-0.43561388 12:-0.43658878 13:-0.71625974 14:-0.96866141 15:-0.10530481 16:0.78599394 
32 0 32 32 32 32 32 0 32 32 32 32 0 32 32 32 32 0 1:0.00057811402 2:-0.66522998 3:0.76210309 4:-1.0974622 5:-1.4140485 6:0.84756119 7:-0.47698369 8:1.22783 9:-0.21001975 10:-0.022364874 11:-0.43561388 12:-0.43658878 13:-0.71625974 14:-0.96866141 15:-0.10530481 16:-0.24008921 
32 32 0 32 32 32 32 32 0 32 32 32 32 0 0 0 0 0 1:-0.36941486 2:-0.10748257 3:-1.1414212 4:0.75665786 5:1.600177 6:-1.5276473 7:0.040640166 8:0.75491377 9:-0.21001975 10:-0.022364874 11:-0.43561388 12:-0.43658878 13:-0.71625974 14:-0.42313516 15:-0.10530481 16:-0.24008921 
32 32 0 0 32 0 32 0 32 0 0 0 0 0 0 0 5.320084410303046 0 1:-0.73940783 2:-1.0370616 3:-0.91835195 4:1.618661 5:0.89094744 6:0.66485284 7:-1.6728733 8:1.0575801 9:-0.21001975 10:-0.022364874 11:-0.43561388 12:1.0553848 13:1.4724637 14:1.3952857 15:-0.10530481 16:1.3560401 
32 0 0 0 32 32 32 0 0 32 32 32 0 32 0 32 28.46943531737953 0 1:-0.73940783 2:-0.29339837 3:1.2082416 4:-0.26798744 5:-1.5913559 6:0.84756119 7:0.915246 8:-0.020668803 9:-0.21001975 10:-0.022364874 11:-0.43561388 12:-0.43658878 13:1.4724637 14:1.3952857 15:-0.10530481 16:-0.24008921 
32 32 0 32 22.07316031998438 0 0 32 32 0 0 32 0 32 32 0 31.13381542032111 0 1:2.9605219 2:2.3094229 3:1.0446575 4:0.073560994 5:0.35902529 6:-0.43139725 7:-0.35204 8:-1.0800011 9:-0.21001975 10:-0.022364874 11:-0.43561388 12:-0.43658878 13:-0.71625974 14:-0.96866141 15:-0.10530481 16:-0.69612616 
32 32 14.60199354903057 32 0 0 7.689846855586472 32 32 32 0 32 0 32 0 32 0 0 1:2.5905289 2:2.123507 3:0.76210309 4:1.1795273 5:0.1817179 6:0.66485284 7:0.30837664 8:-0.68275149 9:-0.21001975 10:-0.022364874 11:-0.43561388 12:1.0553848 13:-0.71625974 14:-0.96866141 15:-0.10530481 16:-1.0381539 
32 32 2.154876220580182 0 32 32 32 24.98266703814993 0 32 22.46579902233594 32 18.27911894899133 32 0 0 0 0 1:-0.73940783 2:-0.29339837 3:0.71748924 4:1.0168852 5:-1.4140485 6:0.66485284 7:-0.79826747 8:-0.96650121 9:-0.21001975 10:-0.022364874 11:-0.43561388 12:-0.43658878 13:1.4724637 14:1.3952857 15:-0.10530481 16:-0.24008921 
32 32 0 32 32 32 32 32 0 32 32 32 7.219759328109334 32 0 0 0 0 1:0.37057109 2:1.3798438 3:-0.88860938 4:1.22832 5:0.53633267 6:-0.2486889 7:-1.0124566 8:-1.0610844 9:-0.21001975 10:-0.022364874 11:-0.43561388 12:-0.43658878 13:-0.71625974 14:-0.42313516 15:-0.10530481 16:-1.0381539 
32 0 0 0 0 0 32 18.13898415436454 32 0 0 0 0 0 32 0 32 0 1:-0.36941486 2:-1.0370616 3:-0.14504521 4:1.2771126 5:0.53633267 6:0.66485284 7:-1.0124566 8:1.3413299 9:-0.21001975 10:-0.022364874 11:-0.43561388 12:1.0553848 13:-0.71625974 14:-0.69589829 15:-0.10530481 16:1.4700494 
32 5.32986622588267 0 32 32 32 32 0 0 32 32 32 32 0 0 32 0 0 1:-0.36941486 2:0.63618063 3:1.178499 4:-1.3088969 5:-1.4140485 6:-1.5276473 7:0.9330951 8:1.1332467 9:-0.21001975 10:-0.022364874 11:-0.43561388 12:-0.43658878 13:-0.71625974 14:-0.42313516 15:-0.10530481 16:-0.46810768 
32 0 0 32 0 0 0.8642853070769713 0 16.73532715926692 0.1838541361174036 32 0 0 0 32 0 9.58180263085471 0 1:-0.92440431 2:-1.594809 3:-1.498332 4:0.93556418 5:-1.4140485 6:0.66485284 7:-1.1909476 8:1.3413299 9:4.7608618 10:-0.022364874 11:-0.43561388 12:1.0553848 13:0.37810197 14:-0.059450996 15:-0.10530481 16:0.55797547 
32 15.6126779514854 0 32 0 32 0 31.97130516854205 0 6.969972494279966 0 32 0 0 0 0 0 0 1:-0.73940783 2:-1.2229774 3:-0.24914419 4:1.309641 5:-1.4140485 6:-1.5276473 7:-0.90536206 8:1.4169965 9:-0.21001975 10:-0.022364874 11:-0.43561388 12:-0.43658878 13:1.4724637 14:1.3952857 15:-0.10530481 16:2.0400956 
32 32 0 32 32 32 32 32 0 32 32 32 18.53880492642196 0 0 0 0 0 1:0.00057811402 2:-0.29339837 3:-0.39785703 4:-0.46315797 5:-0.17289686 6:-1.5276473 7:0.98664239 8:1.1332467 9:-0.21001975 10:-0.022364874 11:-0.43561388 12:-0.43658878 13:-0.71625974 14:-0.96866141 15:-0.10530481 16:-0.46810768 
32 0 0 32 0 0 0 0 32 0 0 0 0 0 0 0 32 0 1:-0.73940783 2:-0.66522998 3:-0.91835195 4:1.309641 5:-1.4140485 6:0.66485284 7:-0.13785082 8:1.0575801 9:-0.21001975 10:-0.022364874 11:-0.43561388 12:1.0553848 13:1.4724637 14:1.3952857 15:-0.10530481 16:1.6980679 
32 0 0 32 32 32 32 19.98777749890457 0 32 32 32 0 0 0 0 0 0 1:-0.73940783 2:-0.29339837 3:0.31596458 4:0.90303576 5:-1.5913559 6:-0.065980552 7:0.46901853 8:0.58466394 9:-0.21001975 10:-0.022364874 11:-0.43561388 12:-0.43658878 13:1.4724637 14:1.3952857 15:-0.10530481 16:-0.24008921 
32 0 0 32 32 32 0 0 0 32 32 15.91196579767103 0 0 0 32 0 0 1:1.2955535 2:0.63618063 3:-0.88860938 4:-1.2438401 5:-0.52751163 6:-1.5276473 7:-1.1195512 8:0.24416427 9:-0.21001975 10:-0.022364874 11:-0.43561388 12:-0.43658878 13:-0.71625974 14:0.12239109 15:-0.10530481 16:-0.69612616 
32 32 19.24828390144764 32 32 32 32 32 32 32 32 0 32 0 0 32 19.7615527988869 0 1:-0.73940783 2:-0.85114578 3:0.82158823 4:-1.2926327 5:1.600177 6:0.66485284 7:1.3614735 8:0.16849768 9:-0.21001975 10:-0.022364874 11:-0.43561388 12:1.0553848 13:1.4724637 14:1.3952857 15:-0.10530481 16:0.32995699 
32 32 17.02960372106586 32 32 32 32 32 0 32 32 32 16.00986096184038 0 32 32 20.86785906686608 0 1:-0.73940783 2:-1.4088932 3:-1.0224509 4:-1.2113117 5:1.600177 6:-0.065980552 7:0.040640166 8:0.58466394 9:-0.21001975 10:-0.022364874 11:-0.43561388 12:-0.43658878 13:1.4724637 14:1.3952857 15:-0.10530481 16:0.55797547 
17.45260592862239 0.1296460462586854 9.569082160561267 6.746819793265513 14.0935520471951 1.69088904221924 0 32 8.244354189082397 32 14.07398544371652 26.4342071306092 0 32 2.902161652921826 0 6.598539841647707 0 1:-0.55441134 2:-0.66522998 3:1.2677267 4:1.53734 5:1.600177 6:-0.065980552 7:0.8616987 8:-0.41791841 9:-0.21001975 10:-0.022364874 11:-0.43561388 12:-0.43658878 13:-0.71625974 14:-0.42313516 15:9.5225635 16:0.32995699 
32 32 16.53023586295612 32 32 23.71682705014276 32 32 0 32 32 16.75306510098213 30.20813300189471 32 0 3.175983105061399 0 0 1:-0.92440431 2:-0.47931418 3:-2.8813614 4:-1.1299906 5:0.71364005 6:0.66485284 7:1.3436244 8:1.6818295 9:4.7608618 10:-0.022364874 11:1.4676691 12:1.0553848 13:0.37810197 14:-0.059450996 15:-0.10530481 16:0.55797547 
32 32 0 0 32 32 32 0 0 32 0 0 0 0 0 0 0 0 1:-0.73940783 2:-1.0370616 3:-0.15991649 4:0.17114626 5:-0.35020424 6:0.84756119 7:-0.066454425 8:-0.81516802 9:-0.21001975 10:-0.022364874 11:-0.43561388 12:-0.43658878 13:1.4724637 14:1.3952857 15:-0.10530481 16:-0.69612616 
32 0 0 0 0 0 0 0 32 0 0 32 0 32 5.65260959786465 32 0 0 1:0.00057811402 2:-0.66522998 3:1.0446575 4:0.13861784 5:-1.4140485 6:0.66485284 7:0.48686763 8:-0.96650121 9:-0.21001975 10:-0.022364874 11:-0.43561388 12:1.0553848 13:-0.71625974 14:-0.69589829 15:-0.10530481 16:1.8120771 
32 12.54484125804623 0 32 32 32 0 19.26582426503855 0 32 32 32 0 32 0 32 0 0 1:-0.18441837 2:-0.47931418 3:-0.85886682 4:-1.2113117 5:-0.52751163 6:-0.065980552 7:-1.4229859 8:0.58466394 9:-0.21001975 10:-0.022364874 11:-0.43561388 12:-0.43658878 13:-0.71625974 14:-0.96866141 15:-0.10530481 16:-0.24008921 
32 32 0 0 32 32 25.02033381646315 0 0 32 4.314742950642081 32 0 0 23.60349499961199 32 2.307675701092689 0 1:-0.73940783 2:-0.85114578 3:0.82158823 4:1.6023968 5:-1.4140485 6:-0.97952229 7:0.094187462 8:-1.4205008 9:-0.21001975 10:-0.022364874 11:-0.43561388 12:-2.6745492 13:1.4724637 14:1.3952857 15:-0.10530481 16:0.32995699 
32 32 0 32 32 0 32 32 32 32 27.01629254587909 0 0 0 0 0 0 0 1:-0.73940783 2:-0.66522998 3:-0.33837189 4:1.5861326 5:0.71364005 6:0.66485284 7:1.2186807 8:-0.039585451 9:-0.21001975 10:-0.022364874 11:-0.43561388 12:1.0553848 13:1.4724637 14:1.3952857 15:-0.10530481 16:-0.8101354 
32 0 22.46445399869286 32 32 32 0.9319453159810397 0 0 32 32 0 21.8635204300869 3.907839854782319 32 0 0 0 1:-0.92440431 2:-1.594809 3:-2.9259752 4:-1.1950475 5:-1.4140485 6:-1.5276473 7:-0.24494541 8:-0.15308534 9:4.7608618 10:-0.022364874 11:0.19881376 12:-0.43658878 13:0.37810197 14:-0.059450996 15:-0.10530481 16:0.32995699 
32 32 0 8.440801152362713 32 0 32 32 32 32 32 0 21.40553342753547 0 17.98078322249512 0 0 0 1:-0.73940783 2:-1.2229774 3:1.5651524 4:-0.46315797 5:1.600177 6:0.66485284 7:1.0758879 8:0.33874751 9:-0.21001975 10:-0.022364874 11:-0.43561388 12:1.0553848 13:1.4724637 14:1.3952857 15:-0.10530481 16:-1.0381539 
32 32 0 0 32 32 0 0 0 0 0 0 0 0 32 32 0.3565581104233862 0 1:-0.73940783 2:-0.66522998 3:0.64313282 4:-0.90229167 5:0.53633267 6:-0.43139725 7:-1.7085715 8:-1.7420838 9:-0.21001975 10:-0.022364874 11:-2.3388968 12:-0.43658878 13:1.4724637 14:1.3952857 15:-0.10530481 16:0.32995699 
32 0 0 32 21.66230376260947 0 32 4.307659921045231 32 0 32 0 0 0 0 1.244351511533197 9.538808970119646 0 1:0.74056406 2:0.26434903 3:1.4759247 4:-1.0161412 5:0.0044105211 6:-1.1622306 7:0.59396222 8:0.26308092 9:-0.21001975 10:-0.022364874 11:-0.43561388 12:4.0393321 13:-0.71625974 14:-0.42313516 15:-0.10530481 16:-0.24008921 
32 0 0 32 32 32 32 0 0 32 32 0 0 0 0 0 0 0 1:-0.73940783 2:-1.0370616 3:0.31596458 4:-0.51195061 5:-1.5913559 6:-0.065980552 7:0.46901853 8:0.58466394 9:-0.21001975 10:-0.022364874 11:-0.43561388 12:-0.43658878 13:1.4724637 14:1.3952857 15:-0.10530481 16:-0.24008921 
32 32 0 32 32 32 32 32 32 32 32 32 32 32 0 32 0 0 1:0.1855746 2:0.26434903 3:-1.2306489 4:-1.1462548 5:-0.17289686 6:0.66485284 7:0.98664239 8:1.3413299 9:-0.21001975 10:-0.022364874 11:-0.43561388 12:1.0553848 13:-0.71625974 14:-0.96866141 15:-0.10530481 16:-0.69612616 
32 32 0 32 32 0 32 32 32 32 32 0 32 32 0 0 32 0 1:-0.55441134 2:0.078433229 3:-0.84399553 4:0.70786523 5:0.53633267 6:0.66485284 7:0.64750952 8:1.3413299 9:-0.21001975 10:-0.022364874 11:-0.43561388 12:1.0553848 13:-0.71625974 14:0.75883838 15:-0.10530481 16:1.0140124 
32 32 0 0 21.70382725044133 0 32 32 32 0 0 32 0 0 0 0 0 0 1:-0.73940783 2:-1.0370616 3:0.82158823 4:0.74039365 5:0.89094744 6:0.66485284 7:-1.3694386 8:-0.96650121 9:-0.21001975 10:-0.022364874 11:-0.43561388 12:1.0553848 13:1.4724637 14:1.3952857 15:-0.10530481 16:1.6980679 
32 32 0 0 32 0 32 0 32 0.3301134294045066 0 0 0 0 0 0 0 0 1:-0.55441134 2:-0.29339837 3:1.282598 4:1.309641 5:0.53633267 6:0.66485284 7:-1.0124566 8:-0.039585451 9:-0.21001975 10:-0.022364874 11:-2.9733245 12:1.0553848 13:-0.71625974 14:-0.42313516 15:-0.10530481 16:-0.46810768 
32 0 0 32 32 32 32 0 0 32 32 32 0 0 0 0 0 0 1:-0.73940783 2:-1.0370616 3:0.24160817 4:1.309641 5:-1.5913559 6:-1.5276473 7:0.915246 8:1.4169965 9:-0.21001975 10:-0.022364874 11:-0.43561388 12:-0.43658878 13:1.4724637 14:1.3952857 15:-0.10530481 16:-0.24008921 
32 32 0 32 32 0 32 32 32 32 0 0 0 0 0 0 4.949123428713495 0 1:0.00057811402 2:0.078433229 3:0.10776662 4:0.70786523 5:-0.35020424 6:0.66485284 7:-1.7799679 8:1.0575801 9:-0.21001975 10:-0.022364874 11:-0.43561388 12:1.0553848 13:-0.71625974 14:-0.42313516 15:-0.10530481 16:-0.24008921 
32 0 0 0 0 0 32 0 32 0 0 0 0 0 26.48144350470745 32 0 0 1:-0.73940783 2:-1.4088932 3:-0.35324317 4:-1.2113117 5:0.53633267 6:0.66485284 7:-1.0124566 8:-1.2691676 9:-0.21001975 10:-0.022364874 11:-0.43561388 12:1.0553848 13:1.4724637 14:1.3952857 15:-0.10530481 16:-0.24008921 
32 0 0 0 0 0 0 0 32 0 0 0 0 0 4.388100558122702 11.8004513161586 0 0 1:-0.73940783 2:-0.85114578 3:1.5354098 4:0.2362031 5:-1.4140485 6:0.66485284 7:1.2900771 8:0.81166371 9:-0.21001975 10:-0.022364874 11:-0.43561388 12:1.0553848 13:1.4724637 14:1.3952857 15:-0.10530481 16:-0.69612616 
32 0 0 0 0 0 32 0 19.53491010078626 0 0 0 0 0 0 0 0 0 1:-0.73940783 2:-1.0370616 3:0.3010933 4:0.91929997 5:-1.4140485 6:0.66485284 7:-0.79826747 8:-0.039585451 9:-0.21001975 10:-0.022364874 11:-0.43561388 12:1.0553848 13:1.4724637 14:1.3952857 15:-0.10530481 16:-0.24008921 
32 32 32 32 32 32 32 32 0 32 32 32 32 32 10.28047233335485 0 32 0 1:-0.55441134 2:0.078433229 3:1.4015683 4:0.25246732 5:0.89094744 6:1.5783946 7:-0.29849271 8:1.0954134 9:-0.21001975 10:-0.022364874 11:-0.43561388 12:-0.43658878 13:-0.71625974 14:-0.42313516 15:-0.10530481 16:0.32995699 
32 32 0 32 32 28.817728068413 21.64979795275855 0 0 32 32 0 25.58819059243809 0 0 0 20.22346983636042 0 1:-0.92440431 2:-0.10748257 3:-2.9705891 4:-0.56074324 5:0.71364005 6:0.66485284 7:-1.2801931 8:1.0575801 9:4.7608618 10:-0.022364874 11:0.19881376 12:1.0553848 13:0.37810197 14:-0.059450996 15:-0.10530481 16:0.55797547 
32 32 16.83445756737758 32 32 32 32 32 32 32 11.82823089634535 32 0 32 32 32 7.933081255333366 0 1:0.00057811402 2:-0.47931418 3:-0.53169858 4:-1.1137264 5:0.89094744 6:1.5783946 7:0.34407484 8:-1.2502509 9:-0.21001975 10:-0.022364874 11:-0.43561388 12:-0.43658878 13:-0.71625974 14:-0.78681933 15:-0.10530481 16:0.32995699 
32 22.06955810131396 0 32 32 0 32 32 0 32 0 32 0 0 32 0 20.78785917983411 0 1:0.00057811402 2:-0.66522998 3:1.3123406 4:0.17114626 5:-0.52751163 6:-1.7103557 7:0.29052755 8:-0.49358501 9:-0.21001975 10:-0.022364874 11:-0.43561388 12:-0.43658878 13:-0.71625974 14:-0.96866141 15:-0.10530481 16:-0.24008921 
32 32 21.2851545371417 32 32 32 32 32 0 32 32 32 20.28595884781573 32 4.031032581339139 27.08571244209981 0 0 1:0.74056406 2:0.078433229 3:0.2118656 4:-0.54447903 5:0.35902529 6:-1.1622306 7:0.14773476 8:0.26308092 9:-0.21001975 10:-0.022364874 11:-0.43561388 12:-2.6745492 13:-0.71625974 14:-0.96866141 15:-0.10530481 16:-1.0381539 
32 0 0 32 0 32 0 0 32 0 0 32 0 32 32 0 0.9458657716437306 0 1:0.74056406 2:0.078433229 3:0.3010933 4:-1.1137264 5:-1.4140485 6:0.48214449 7:-0.13785082 8:-0.98541786 9:-0.21001975 10:-0.022364874 11:-0.43561388 12:-0.43658878 13:-0.71625974 14:-0.69589829 15:-0.10530481 16:1.5840586 
32 0 0 32 32 32 32 0 0 32 24.83380054810956 32 26.03282453913468 32 32 32 0 0 1:0.1855746 2:0.45026483 3:0.34570715 4:1.000621 5:-1.4140485 6:-0.43139725 7:1.1115861 8:-1.0800011 9:-0.21001975 10:-0.022364874 11:-0.43561388 12:-0.43658878 13:-0.71625974 14:-0.42313516 15:-0.10530481 16:0.32995699 
32 0 0 32 0 0 0 0 32 32 0 32 0 32 0 32 0 0 1:2.9605219 2:2.4953387 3:0.95542978 4:0.72412944 5:-1.4140485 6:0.66485284 7:0.77245321 8:-0.039585451 9:-0.21001975 10:-0.022364874 11:-0.43561388 12:1.0553848 13:-0.71625974 14:-0.96866141 15:-0.10530481 16:-1.0381539 
32 32 11.47290567583921 32 32 32 32 32 0 32 32 32 0 0 0 0 0 0 1:-0.36941486 2:-0.47931418 3:0.25647945 4:-0.30051586 5:0.53633267 6:-1.7103557 7:-1.0124566 8:0.22524762 9:-0.21001975 10:-0.022364874 11:-0.43561388 12:-0.43658878 13:-0.71625974 14:-0.96866141 15:-0.10530481 16:-1.0381539 
32 0 23.84773644294437 32 32 0 0 0.5739655156498843 32 32 32 32 12.95044597486987 32 32 32 2.634473398028705 0 1:0.92556054 2:0.26434903 3:-1.0224509 4:0.78918628 5:-1.5913559 6:0.84756119 7:-1.2087967 8:1.22783 9:-0.21001975 10:-0.022364874 11:-0.43561388 12:-0.43658878 13:-0.71625974 14:-0.96866141 15:-0.10530481 16:-1.0381539 
32 32 23.41252225240755 32 32 0 32 32 18.22707346223034 32 14.39192570028702 32 0 23.70065527762348 9.354595834895244 0 12.90865018901747 0 1:-0.92440431 2:-1.594809 3:-2.2567675 4:1.6349253 5:0.71364005 6:0.66485284 7:1.3436244 8:-0.68275149 9:4.7608618 10:-0.022364874 11:1.4676691 12:1.0553848 13:0.37810197 14:-0.059450996 15:-0.10530481 16:0.55797547 
32 32 18.18753404351492 32 22.51358103827036 32 0 32 0 32 32 32 0 32 18.97595504871667 32 0 0 1:2.5905289 2:2.123507 3:0.76210309 4:-0.49568639 5:0.1817179 6:-0.6141056 7:0.30837664 8:0.9629969 9:-0.21001975 10:-0.022364874 11:-0.43561388 12:-0.43658878 13:-0.71625974 14:-0.96866141 15:-0.10530481 16:-0.69612616 
32 0 0 32 32 32 32 0 0 32 32 32 0 32 0 32 1.071839627575894 0 1:-0.36941486 2:0.078433229 3:0.3010933 4:0.28499574 5:-1.4140485 6:0.48214449 7:0.25482935 8:0.64141388 9:-0.21001975 10:-0.022364874 11:-0.43561388 12:-0.43658878 13:-0.71625974 14:-0.69589829 15:-0.10530481 16:1.0140124 
32 32 0 32 32 32 32 32 0 32 32 11.42804155137011 32 0 0 32 0 0 1:-0.73940783 2:0.26434903 3:-0.91835195 4:-1.1950475 5:0.53633267 6:-2.2584807 7:-1.7085715 8:0.86841366 9:-0.21001975 10:-0.022364874 11:-0.43561388 12:-0.43658878 13:1.4724637 14:1.3952857 15:-0.10530481 16:-0.69612616 
32 0 0 32 32 32 32 32 32 32 32 32 0 32 0 32 6.129494068570676 0 1:0.74056406 2:0.45026483 3:-0.99270837 4:-0.26798744 5:-1.4140485 6:0.84756119 7:-1.3158913 8:-0.020668803 9:-0.21001975 10:-0.022364874 11:-0.43561388 12:-0.43658878 13:-0.71625974 14:-0.96866141 15:-0.10530481 16:-0.24008921 
32 32 15.79014665529851 32 24.3208012148893 5.12068825867281 32 32 32 32 32 32 8.113017758367851 32 0 0 32 0 1:2.7755254 2:2.8671703 3:1.5800237 4:0.70786523 5:0.71364005 6:0.66485284 7:-0.20924721 8:1.3413299 9:-0.21001975 10:-0.022364874 11:1.4676691 12:1.0553848 13:-0.71625974 14:-0.78681933 15:-0.10530481 16:-0.24008921 
32 32 0 32 0 0 32 32 32 0 32 32 0 32 0 11.30847574952342 32 0 1:1.850543 2:1.193928 3:-0.73989655 4:0.18741047 5:0.53633267 6:0.66485284 7:0.64750952 8:-0.24766858 9:-0.21001975 10:-0.022364874 11:-0.43561388 12:1.0553848 13:-0.71625974 14:-0.69589829 15:-0.10530481 16:-0.69612616 
32 32 32 32 32 32 32 32 0 32 32 32 32 32 3.117772954243522 0 32 0 1:-0.18441837 2:0.078433229 3:0.65800411 4:0.25246732 5:0.71364005 6:-0.2486889 7:0.32622574 8:1.1899967 9:-0.21001975 10:-0.022364874 11:1.4676691 12:-0.43658878 13:-0.71625974 14:-0.42313516 15:-0.10530481 16:2.1541048 
32 0 0 0 0 32 0 0 0 0 0 32 0 0 0 32 0 0 1:-0.73940783 2:-1.4088932 3:-1.0224509 4:0.78918628 5:-1.5913559 6:-1.5276473 7:-1.2087967 8:-0.15308534 9:-0.21001975 10:-0.022364874 11:-0.43561388 12:-0.43658878 13:1.4724637 14:1.3952857 15:-0.10530481 16:2.0400956 
32 0 0 32 0 32 0 0 32 0 1.998010675489263 32 0 22.94114529763791 19.73460540047235 0 0 0 1:-0.36941486 2:-0.66522998 3:-0.14504521 4:-1.1137264 5:-1.5913559 6:0.66485284 7:-1.8692134 8:-0.039585451 9:-0.21001975 10:-0.022364874 11:-0.43561388 12:1.0553848 13:-0.71625974 14:-0.42313516 15:-0.10530481 16:2.1541048 
32 0 0 32 0 0 32 7.150504581157493 32 0 0 0 0 32 32 0 1.926750466168191 0 1:0.1855746 2:-0.29339837 3:-0.42759959 4:0.74039365 5:0.0044105211 6:0.66485284 7:0.59396222 8:-0.60708489 9:-0.21001975 10:-0.022364874 11:-0.43561388 12:1.0553848 13:-0.71625974 14:0.21331213 15:-0.10530481 16:1.3560401 
32 32 0 32 32 32 32 32 0 32 32 0 0 0 0 0 0 0 1:-0.73940783 2:-1.0370616 3:-0.72502526 4:1.0168852 5:0.53633267 6:0.48214449 7:-1.0124566 8:0.64141388 9:-0.21001975 10:-0.022364874 11:-0.43561388 12:-0.43658878 13:1.4724637 14:1.3952857 15:-0.10530481 16:-0.24008921 
32 32 0 32 32 32 32 5.544324961596525 0 32 32 32 24.36524027877765 19.25515585552566 0 5.354783776441252 27.05099616048008 0 1:-0.73940783 2:0.078433229 3:-0.65066885 4:0.62654417 5:0.53633267 6:0.48214449 7:-1.7085715 8:-1.6664172 9:-0.21001975 10:-0.022364874 11:-0.43561388 12:-2.6745492 13:1.4724637 14:1.3952857 15:-0.10530481 16:0.32995699 
32 32 0 0 32 19.11928570329207 32 32 16.395321512192 0 0 0 0 0 0 0.6389462962527902 32 0 1:-0.73940783 2:-1.0370616 3:0.89594464 4:-0.54447903 5:1.600177 6:0.66485284 7:-1.6014769 8:0.33874751 9:-0.21001975 10:-0.022364874 11:-0.43561388 12:1.0553848 13:1.4724637 14:1.3952857 15:-0.10530481 16:-0.24008921 
32 0 0 32 32 32 32 0 0 32 32 32 0 32 0 32 0 0 1:0.37057109 2:0.82209644 3:0.33083587 4:0.77292207 5:-1.4140485 6:-1.1622306 7:0.25482935 8:1.4359131 9:-0.21001975 10:-0.022364874 11:-0.43561388 12:-0.43658878 13:-0.71625974 14:-0.42313516 15:-0.10530481 16:-1.0381539 
32 0 9.998317767405979 32 0 32 0 27.16052070174026 2.594630206525205 32 12.94359033547894 32 0 32 21.40286672839573 0 0 0 1:4.9954832 2:4.3544967 3:1.0297862 4:0.75665786 5:0.53633267 6:-1.5276473 7:-1.0124566 8:0.75491377 9:-0.21001975 10:-0.022364874 11:-0.43561388 12:-0.43658878 13:-0.71625974 14:-0.96866141 15:-0.10530481 16:-1.0381539 
32 32 0 32 25.50205492700912 32 32 32 0 32 32 32 0 0 0 0 20.55346206643183 0 1:-0.73940783 2:-1.0370616 3:1.0149149 4:-0.10534533 5:0.0044105211 6:-0.6141056 7:-1.0660039 8:0.30091422 9:-0.21001975 10:-0.022364874 11:-0.43561388 12:-0.43658878 13:1.4724637 14:1.3952857 15:-0.10530481 16:1.0140124 
32 32 0 32 32 32 32 32 32 32 9.469537230202231 0 32 12.67417722131648 0 0 0 0 1:-0.55441134 2:-0.10748257 3:-0.84399553 4:0.35005258 5:1.4228696 6:0.66485284 7:-0.94106026 8:0.33874751 9:-0.21001975 10:-0.022364874 11:-0.43561388 12:1.0553848 13:-0.71625974 14:-0.69589829 15:-0.10530481 16:-0.24008921 
32 0 0 0 32 32 32 0 0 0 7.458970187549307 0 0 0 0 0 0 0 1:-0.73940783 2:-0.85114578 3:-0.38298574 4:-1.1137264 5:-0.35020424 6:0.66485284 7:-1.7799679 8:0.33874751 9:-0.21001975 10:-0.022364874 11:-0.43561388 12:1.0553848 13:1.4724637 14:1.3952857 15:-0.10530481 16:-0.69612616 
32 0 0 32 32 0 32 0 0 32 1.296527174817181 32 0 32 0 0 0 0 1:-0.55441134 2:-0.66522998 3:1.0149149 4:0.77292207 5:-1.5913559 6:-0.2486889 7:-0.15569992 8:1.0008302 9:-0.21001975 10:-0.022364874 11:-0.43561388 12:-0.43658878 13:-0.71625974 14:-0.69589829 15:-0.10530481 16:-0.58211692 
32 0 0 32 32 32 32 0 32 9.491519975593061 32 32 0 32 32 32 32 0 1:-0.18441837 2:-0.85114578 3:0.34570715 4:-1.2113117 5:-1.4140485 6:-0.065980552 7:1.1115861 8:0.58466394 9:-0.21001975 10:-0.022364874 11:-0.43561388 12:-0.43658878 13:-0.71625974 14:-0.96866141 15:-0.10530481 16:-0.24008921 
32 0 0 32 32 32 32 0 0 32 32 0 32 0 0 0 0 0 1:-0.73940783 2:-0.47931418 3:-0.82912425 4:-1.2438401 5:-1.4140485 6:-0.2486889 7:0.25482935 8:0.56574729 9:-0.21001975 10:-0.022364874 11:-0.43561388 12:-0.43658878 13:1.4724637 14:1.3952857 15:-0.10530481 16:-0.24008921 
32 32 11.00143974948092 32 32 0 32 32 32 32 32 32 0 32 0 0 32 0 1:0.00057811402 2:-0.29339837 3:0.078024048 4:1.7325105 5:0.71364005 6:0.66485284 7:0.32622574 8:1.0575801 9:-0.21001975 10:-0.022364874 11:1.4676691 12:1.0553848 13:-0.71625974 14:-0.78681933 15:-0.10530481 16:2.1541048 
32 0 0 32 0 0 27.76298194689109 32 32 32 32 10.78684596444704 0 0 0 0 0 0 1:-0.73940783 2:-1.4088932 3:-0.73989655 4:-0.30051586 5:0.53633267 6:-1.5276473 7:0.64750952 8:-0.15308534 9:-0.21001975 10:-0.022364874 11:-0.43561388 12:2.5473585 13:1.4724637 14:1.3952857 15:-0.10530481 16:2.0400956 
32 32 0 32 32 0 32 32 32 32 32 32 32 32 0 0 32 0 1:0.74056406 2:0.078433229 3:-1.0373222 4:0.28499574 5:0.71364005 6:0.66485284 7:-0.99460755 8:-0.60708489 9:-0.21001975 10:-0.022364874 11:1.4676691 12:1.0553848 13:-0.71625974 14:0.12239109 15:-0.10530481 16:-1.0381539 
32 0 0 0 0 0 0 0 32 0 0 0 0 0 0 0 0 0 1:-0.73940783 2:-1.0370616 3:0.31596458 4:1.1795273 5:-1.5913559 6:0.66485284 7:0.46901853 8:0.81166371 9:-0.21001975 10:-0.022364874 11:-0.43561388 12:1.0553848 13:1.4724637 14:1.3952857 15:-0.10530481 16:-0.24008921 
32 32 32 32 32 32 32 32 0 32 32 32 32 0 32 0 0 0 1:-0.18441837 2:-0.10748257 3:-0.9629658 4:1.2933768 5:0.89094744 6:-1.5276473 7:1.2365298 8:1.4169965 9:-0.21001975 10:-0.022364874 11:-0.43561388 12:-0.43658878 13:-0.71625974 14:-0.96866141 15:-0.10530481 16:-0.92414464 
32 32 32 32 32 0 32 32 32 32 0 32 0 32 0 4.195828595881126 0 0 1:0.74056406 2:0.63618063 3:-0.84399553 4:0.98435682 5:0.1817179 6:0.66485284 7:-1.5479296 8:-0.96650121 9:-0.21001975 10:-0.022364874 11:-0.43561388 12:1.0553848 13:-0.71625974 14:-0.69589829 15:-0.10530481 16:-0.69612616 
32 0 0 0 21.67000434804841 0 0 0 0 32 32 0 0 0 21.84971393297926 0 0 0 1:-0.92440431 2:-1.2229774 3:-2.494708 4:0.30125995 5:-0.88212639 6:0.66485284 7:1.1294352 8:-0.96650121 9:4.7608618 10:-0.022364874 11:-0.43561388 12:1.0553848 13:0.37810197 14:-0.059450996 15:-0.10530481 16:0.55797547 
32 0 0 32 32 32 0 0 0 0 0 32 0 0 0 32 0 0 1:0.37057109 2:-0.29339837 3:1.2677267 4:-1.1950475 5:-1.4140485 6:-1.5276473 7:-0.13785082 8:-0.15308534 9:-0.21001975 10:-0.022364874 11:-0.43561388 12:-0.43658878 13:-0.71625974 14:-0.96866141 15:-0.10530481 16:-0.24008921 
32 32 8.289528131527909 32 10.63066215649727 32 32 32 0 32 32 32 0 0 0 32 0 0 1:-0.73940783 2:-1.0370616 3:1.3123406 4:0.18741047 5:0.0044105211 6:-1.5276473 7:-0.3877382 8:1.6061629 9:-0.21001975 10:-0.022364874 11:-0.43561388 12:-0.43658878 13:1.4724637 14:1.3952857 15:-0.10530481 16:1.8120771 
32 32 22.54081874345383 32 32 32 32 32 0 32 32 0 32 17.0453782437126 0 2.349572278951966 6.68694686433792 0 1:-0.73940783 2:-0.10748257 3:-0.84399553 4:1.22832 5:0.53633267 6:-0.2486889 7:-1.0124566 8:-1.0610844 9:-0.21001975 10:-0.022364874 11:-0.43561388 12:-0.43658878 13:1.4724637 14:1.3952857 15:-0.10530481 16:-1.0381539 
32 0 0 32 32 32 32 0 0 32 32 32 32 32 0 32 0 0 1:-0.36941486 2:0.078433229 3:-0.91835195 4:-1.1299906 5:-1.4140485 6:0.29943614 7:-0.13785082 8:-0.38008512 9:-0.21001975 10:-0.022364874 11:-0.43561388 12:-0.43658878 13:-0.71625974 14:-0.69589829 15:-0.10530481 16:2.1541048 
32 2.923375155075822 0 32 32 0 32 32 5.707234883925096 0 32 0 0 0 0 0 0 0 1:-0.73940783 2:-0.85114578 3:-1.1860351 4:-1.0161412 5:0.89094744 6:-0.2486889 7:0.34407484 8:0.56574729 9:-0.21001975 10:-0.022364874 11:-0.43561388 12:4.0393321 13:1.4724637 14:1.3952857 15:-0.10530481 16:0.32995699 
32 32 32 32 32 32 32 32 13.61542640285592 32 32 32 0.4065256869437375 32 32 0 28.29431991111668 0 1:0.55556757 2:0.45026483 3:-0.63579756 4:0.80545049 5:1.600177 6:-0.065980552 7:0.18343295 8:0.58466394 9:-0.21001975 10:-0.022364874 11:-0.43561388 12:-0.43658878 13:-0.71625974 14:-0.96866141 15:-0.10530481 16:0.32995699 
32 32 32 32 0 0 32 32 32 32 0 32 0 32 32 0 32 0 1:1.48055 2:0.82209644 3:0.73236052 4:0.78918628 5:0.0044105211 6:0.84756119 7:-1.0660039 8:0.35766416 9:-0.21001975 10:-0.022364874 11:-0.43561388 12:-0.43658878 13:-0.71625974 14:-0.78681933 15:-0.10530481 16:0.32995699 
32 0 0 0 0 0 0 0 32 0 0 0 0 0 0 0 0 0 1:-0.73940783 2:-1.0370616 3:-0.88860938 4:0.78918628 5:-0.88212639 6:0.66485284 7:-1.440835 8:-0.039585451 9:-0.21001975 10:-0.022364874 11:-0.43561388 12:1.0553848 13:1.4724637 14:1.3952857 15:-0.10530481 16:1.6980679 
32 0 10.6311651162178 32 32 32 32 31.16409224537521 0 32 32 15.43476442336065 27.89132954794852 0 2.750315058350679 32 0 0 1:-0.73940783 2:-0.85114578 3:-0.41272831 4:0.90303576 5:-1.4140485 6:-2.2584807 7:1.8433991 8:0.20633097 9:-0.21001975 10:-0.022364874 11:-0.43561388 12:-0.43658878 13:1.4724637 14:1.3952857 15:-0.10530481 16:-0.24008921 
32 32 0 21.26671059433309 0 32 0 9.039956183087478 0 32 0 32 0 0 0 0 0 0 1:-0.73940783 2:-1.2229774 3:1.1190139 4:1.309641 5:-1.4140485 6:-1.5276473 7:-0.24494541 8:1.4169965 9:-0.21001975 10:-0.022364874 11:-0.43561388 12:-0.43658878 13:1.4724637 14:1.3952857 15:-0.10530481 16:0.55797547 
32 0 0 0 32 0 32 0 32 0 0 32 0 0 0 32 32 0 1:-0.55441134 2:-1.0370616 3:1.0000436 4:0.93556418 5:-1.4140485 6:0.66485284 7:1.2900771 8:1.0575801 9:-0.21001975 10:-0.022364874 11:-0.43561388 12:1.0553848 13:-0.71625974 14:-0.96866141 15:-0.10530481 16:-0.58211692 
32 32 32 32 32 32 32 10.81228099185887 0 32 32 0 0 32 0 0 0.6396039590720397 0 1:-0.73940783 2:-0.47931418 3:1.178499 4:-1.2113117 5:0.35902529 6:1.5783946 7:-0.35204 8:1.0954134 9:-0.21001975 10:-0.022364874 11:-0.43561388 12:-0.43658878 13:1.4724637 14:1.3952857 15:-0.10530481 16:-0.24008921 
32 0 0 5.858100057603099 0 5.828345754514994 32 0 0 32 0 32 0 32 32 32 0 0 1:-0.55441134 2:-0.66522998 3:0.3010933 4:0.90303576 5:-1.4140485 6:0.48214449 7:0.25482935 8:-0.98541786 9:-0.21001975 10:-0.022364874 11:-0.43561388 12:-0.43658878 13:-0.71625974 14:-0.69589829 15:-0.10530481 16:1.8120771 
32 32 0 0 32 32 32 0 0 32 0 32 0 0 0 0 7.141944998471023 0 1:-0.73940783 2:-1.0370616 3:1.5056673 4:1.0168852 5:-1.4140485 6:-0.065980552 7:0.094187462 8:0.58466394 9:-0.21001975 10:-0.022364874 11:-0.43561388 12:-0.43658878 13:1.4724637 14:1.3952857 15:-0.10530481 16:-0.24008921 
32 0 0 32 0 0 32 0 32 0 0 0 0 0 0 32 32 0 1:0.00057811402 2:-0.47931418 3:-1.0373222 4:0.72412944 5:-0.35020424 6:0.66485284 7:-0.066454425 8:1.3413299 9:-0.21001975 10:-0.022364874 11:-0.43561388 12:1.0553848 13:-0.71625974 14:-0.96866141 15:-0.10530481 16:-0.24008921 
32 32 0 32 32 32 32 32 0 32 32 0 32 0 0 32 0 0 1:-0.73940783 2:-1.0370616 3:-0.56144114 4:-1.1137264 5:0.89094744 6:-0.43139725 7:-0.97675845 8:-0.43683506 9:-0.21001975 10:-0.022364874 11:-0.43561388 12:-0.43658878 13:1.4724637 14:1.3952857 15:-0.10530481 16:-0.24008921 
32 32 0 32 32 32 32 32 0 32 32 32 32 32 0 32 32 0 1:-0.73940783 2:-0.47931418 3:-0.91835195 4:-1.1137264 5:0.71364005 6:0.66485284 7:-0.99460755 8:1.0575801 9:-0.21001975 10:-0.022364874 11:1.4676691 12:1.0553848 13:1.4724637 14:1.3952857 15:-0.10530481 16:1.6980679 
32 4.641286840202984 0 32 1.135733631125237 13.64304959414915 32 32 32 32 0 32 0 32 32 0 0 0 1:1.110557 2:0.45026483 3:1.2528554 4:1.000621 5:0.0044105211 6:-0.065980552 7:0.59396222 8:-1.0421678 9:-0.21001975 10:-0.022364874 11:-0.43561388 12:-0.43658878 13:-0.71625974 14:0.12239109 15:-0.10530481 16:2.0400956 
32 32 18.52633289997762 32 32 11.62041372253497 32 32 0 32 32 0 32 8.82682043568939 32 0 0.5606005118982622 0 1:-0.92440431 2:-1.0370616 3:-1.498332 4:1.2771126 5:0.89094744 6:1.5783946 7:0.34407484 8:0.84949701 9:4.7608618 10:-0.022364874 11:-0.43561388 12:-0.43658878 13:0.37810197 14:-0.059450996 15:-0.10530481 16:0.32995699 
32 0 0 32 0 0 0 32 32 0 0 0 0 32 5.05791963213526 0 32 0 1:2.7755254 2:2.4953387 3:0.31596458 4:-0.33304428 5:-1.4140485 6:0.66485284 7:-0.79826747 8:1.0575801 9:-0.21001975 10:-0.022364874 11:-0.43561388 12:1.0553848 13:-0.71625974 14:-0.69589829 15:-0.10530481 16:1.6980679 
32 0 0 32 0 0 32 26.82498993183762 32 0 9.776242014945334 0 0 0 0 0 21.177752900515 0 1:0.00057811402 2:-0.66522998 3:-0.73989655 4:-0.30051586 5:0.53633267 6:-1.5276473 7:0.64750952 8:-0.15308534 9:-0.21001975 10:-0.022364874 11:-0.43561388 12:2.5473585 13:-0.71625974 14:0.12239109 15:-0.10530481 16:1.0140124 
32 32 32 32 32 32 32 32 0 32 32 32 0 32 0 0 0 0 1:0.37057109 2:1.193928 3:1.2231129 4:-0.57700745 5:-0.17289686 6:1.5783946 7:-1.083853 8:1.3602465 9:-0.21001975 10:-0.022364874 11:-0.43561388 12:-0.43658878 13:-0.71625974 14:-0.42313516 15:-0.10530481 16:-0.12607997 
32 0 0 32 32 32 32 0.2120989802083767 0 32 32 0 32 0 0 6.147050901941665 0 0 1:-0.73940783 2:-0.85114578 3:-0.011203653 4:-0.30051586 5:-1.4140485 6:-1.5276473 7:0.9330951 8:0.9251636 9:-0.21001975 10:-0.022364874 11:-0.43561388 12:-0.43658878 13:1.4724637 14:1.3952857 15:-0.10530481 16:-0.69612616 
32 0 0 32 32 32 32 32 0 32 32 32 0 0 0 0 0 0 1:-0.73940783 2:0.078433229 3:0.33083587 4:1.1957916 5:-1.4140485 6:0.29943614 7:0.25482935 8:1.492663 9:-0.21001975 10:-0.022364874 11:-0.43561388 12:-0.43658878 13:1.4724637 14:1.3952857 15:-0.10530481 16:0.32995699 
32 0 0 0 32 32 0 0 0 32 0 0 0 32 32 32 0 0 1:-0.73940783 2:-0.85114578 3:0.31596458 4:1.1795273 5:-1.5913559 6:0.29943614 7:0.46901853 8:-1.0043345 9:-0.21001975 10:-0.022364874 11:-0.43561388 12:-0.43658878 13:1.4724637 14:1.3952857 15:-0.10530481 16:-0.24008921 
32 0 0 32 32 32 0 32 0 0 0 32 0 0 0 32 0 0 1:0.74056406 2:0.078433229 3:-0.14504521 4:-1.2438401 5:-0.35020424 6:-1.5276473 7:-1.1017021 8:0.24416427 9:-0.21001975 10:-0.022364874 11:-0.43561388 12:-0.43658878 13:-0.71625974 14:-0.96866141 15:-0.10530481 16:-0.46810768 
32 24.44089193172456 0 32 32 32 32 32 0 32 0 32 32 32 0 32 0 0 1:-0.36941486 2:-0.66522998 3:-0.97783708 4:-1.1137264 5:-0.52751163 6:0.48214449 7:0.54041493 8:-0.98541786 9:-0.21001975 10:-0.022364874 11:-0.43561388 12:-0.43658878 13:-0.71625974 14:-0.96866141 15:-0.10530481 16:-1.0381539 
32 0.672111938532856 6.378911304702537 16.22885482709193 2.011820278506918 13.79805092210861 0 21.169524257854 8.379746982343509 32 26.00680966151533 14.97352687215498 0 32 0.6817888931678713 8.495145140715318 0.664999517572501 0 1:-0.55441134 2:-0.29339837 3:0.40519229 4:-0.28425165 5:0.53633267 6:-1.5276473 7:-1.0124566 8:0.24416427 9:-0.21001975 10:-0.022364874 11:-0.43561388 12:-0.43658878 13:-0.71625974 14:-0.42313516 15:9.5225635 16:2.6101418 
32 0 32 0 32 32 32 0 0 32 32 32 0 0 8.966083755773965 18.65368613376154 0 0 1:-0.73940783 2:-0.85114578 3:0.3010933 4:1.0168852 5:-1.4140485 6:-0.97952229 7:0.25482935 8:-1.4205008 9:-0.21001975 10:-0.022364874 11:-0.43561388 12:-0.43658878 13:1.4724637 14:1.3952857 15:-0.10530481 16:0.32995699 
32 32 27.97215740228792 32 32 32 32 32 32 32 32 32 32 32 0 32 0 0 1:-0.18441837 2:-0.47931418 3:-0.73989655 4:0.70786523 5:-1.4140485 6:-1.1622306 7:-0.13785082 8:0.26308092 9:-0.21001975 10:-0.022364874 11:2.1020967 12:-0.43658878 13:-0.71625974 14:-0.96866141 15:-0.10530481 16:-0.24008921 
32 0 0 32 32 32 32 0 18.98049077020768 32 0 32 0 0 32 32 0 5.7316202191654 1:-0.36941486 2:-1.0370616 3:1.386697 4:-0.49568639 5:-2.1232781 6:-1.5276473 7:-0.17354902 8:0.073914438 9:-0.21001975 10:-0.022364874 11:-0.43561388 12:-0.43658878 13:-0.71625974 14:-0.96866141 15:-0.10530481 16:-0.69612616 
32 32 0 32 32 32 32 32 0 32 32 32 32 32 0 0 0 0 1:-0.73940783 2:-0.29339837 3:1.2231129 4:-1.4390106 5:-0.17289686 6:-0.2486889 7:-1.083853 8:1.0008302 9:-0.21001975 10:-0.022364874 11:-0.43561388 12:-0.43658878 13:1.4724637 14:1.3952857 15:-0.10530481 16:2.1541048 
32 32 0 31.74575271697615 32 32 0 32 13.0490549086688 32 26.40040579243868 32 0 0 32 0 0 0 1:1.2955535 2:0.63618063 3:0.063152765 4:-1.2438401 5:1.2455622 6:-1.5276473 7:-1.6371751 8:0.24416427 9:-0.21001975 10:-0.022364874 11:-0.43561388 12:-0.43658878 13:-0.71625974 14:0.12239109 15:-0.10530481 16:-0.24008921 
32 32 0 32 32 0 32 32 0 32 32 9.10368100112782 32 28.75786802534073 0 0 15.01503632572228 0 1:-0.73940783 2:-0.85114578 3:0.27135073 4:0.18741047 5:0.71364005 6:0.66485284 7:-0.69117288 8:-0.96650121 9:-0.21001975 10:-0.022364874 11:1.4676691 12:1.0553848 13:1.4724637 14:1.3952857 15:-0.10530481 16:-1.0381539 
32 32 0 32 28.55958237176236 32 32 32 14.20208189036184 15.21950070075383 8.868999325528769 32 0 32 32 0 0 0 1:-0.36941486 2:-1.0370616 3:0.82158823 4:-1.2601043 5:0.53633267 6:-1.5276473 7:0.64750952 8:-1.3070009 9:-0.21001975 10:-0.022364874 11:-0.43561388 12:-0.43658878 13:-0.71625974 14:-0.96866141 15:-0.10530481 16:1.6980679 
32 32 0 32 32 14.81085965983103 32 32 32 32 32 32 32 32 0 0 0 0 1:0.1855746 2:0.45026483 3:1.2974693 4:0.91929997 5:1.600177 6:0.66485284 7:0.73675501 8:-0.68275149 9:-0.21001975 10:-0.022364874 11:-0.43561388 12:1.0553848 13:-0.71625974 14:-0.69589829 15:-0.10530481 16:-0.24008921 
32 32 32 32 32 32 0 18.71870817919709 0 32 0 32 0 0 0 0 0 0 1:0.74056406 2:0.26434903 3:1.5800237 4:-0.59327166 5:0.53633267 6:-1.5276473 7:-1.0124566 8:1.7574961 9:-0.21001975 10:-0.022364874 11:-0.43561388 12:-0.43658878 13:-0.71625974 14:-0.96866141 15:-0.10530481 16:-0.69612616 
32 32 0 32 32 32 31.0798491601084 32 0 32 0 32 0 0 0 0 0 0 1:0.00057811402 2:-0.10748257 3:-0.84399553 4:1.5048116 5:0.53633267 6:-1.5276473 7:-1.0124566 8:1.6061629 9:-0.21001975 10:-0.022364874 11:-0.43561388 12:-0.43658878 13:-0.71625974 14:-0.96866141 15:-0.10530481 16:-1.0381539 
32 0 0 32 32 0 32 32 32 0 32 0 0 24.78023885465818 0 0 0 0 1:0.00057811402 2:-0.47931418 3:-0.84399553 4:-0.80470641 5:0.0044105211 6:0.66485284 7:0.59396222 8:0.33874751 9:-0.21001975 10:-0.022364874 11:-0.43561388 12:1.0553848 13:-0.71625974 14:-0.69589829 15:-0.10530481 16:-0.8101354 
32 32 0 32 32 32 32 32 32 32 32 0 0 32 0 0 0 0 1:-0.18441837 2:0.26434903 3:-0.84399553 4:-0.80470641 5:0.1817179 6:0.66485284 7:-1.5479296 8:1.3413299 9:-0.21001975 10:-0.022364874 11:-0.43561388 12:1.0553848 13:-0.71625974 14:-0.96866141 15:-0.10530481 16:-0.24008921 
